9.634265e-05,-0.0005636765,4.914881e-06,-0.0005816566,-0.001144844,5.6520334e-05,-0.00012110869,1.4251729e-05,0.00048423512,-5.195912e-05,0.0006067936,0.009184714,1.1993215e-05,3.6375146e-05,0.0018431372,0.0008041466
9.080117e-05,-0.00055342936,5.179542e-06,-0.0006185901,-0.001145095,3.73021e-05,-0.0001279122,1.4613197e-05,0.00049824384,-5.094433e-05,0.0006138174,0.0094829975,1.2783908e-05,3.79511e-05,0.0018223232,0.0007549727
8.948812e-05,-0.00053889235,4.9768596e-06,-0.0006034273,-0.0011403974,4.04732e-05,-0.0001234667,1.410125e-05,0.0004898876,-5.068976e-05,0.0006048323,0.009258281,1.2353561e-05,3.718001e-05,0.0017928992,0.00077224243
9.2142196e-05,-0.00052924297,4.327302e-06,-0.0005367288,-0.0011366508,6.3452295e-05,-0.000107299595,1.26639525e-05,0.00046087525,-5.05574e-05,0.0005826543,0.008461911,1.0617252e-05,3.4125835e-05,0.0017666105,0.0008483086
9.159789e-05,-0.0005397919,4.4149624e-06,-0.0005446662,-0.0011888237,6.2561e-05,-0.00011156282,1.3039381e-05,0.00045828897,-5.0728893e-05,0.000577305,0.0086688455,1.11248355e-05,3.3897915e-05,0.0017873372,0.00085027685
9.0117326e-05,-0.00054263294,4.0214663e-06,-0.00051361206,-0.0012090956,6.6081506e-05,-9.930736e-05,1.179168e-05,0.00045049877,-4.9010192e-05,0.000581573,0.008013881,9.755481e-06,3.291593e-05,0.0017494991,0.0008469079
9.089629e-05,-0.0005400823,4.002703e-06,-0.0005082364,-0.001187595,6.734878e-05,-9.809103e-05,1.1726438e-05,0.00045012374,-4.875301e-05,0.00058202096,0.007962062,9.606641e-06,3.2775e-05,0.0017624202,0.0008479319
8.960019e-05,-0.00054794626,4.6741206e-06,-0.0005735074,-0.0011736113,4.9270635e-05,-0.000116237745,1.3421856e-05,0.00047537114,-4.9743405e-05,0.0005937159,0.0088891955,1.1568381e-05,3.54721e-05,0.0018054269,0.00079097506
9.1900845e-05,-0.00054648047,4.341526e-06,-0.0005416883,-0.0011574255,6.018989e-05,-0.0001059529,1.2537137e-05,0.00046807117,-4.987666e-05,0.0005974822,0.0083783595,1.040029e-05,3.470011e-05,0.0017696418,0.00081530015
9.0403904e-05,-0.0005415831,4.7885837e-06,-0.00058135146,-0.0011591143,4.8800364e-05,-0.00011977686,1.3795299e-05,0.0004773497,-5.051731e-05,0.0005930209,0.009080047,1.1974969e-05,3.579421e-05,0.0018079958,0.0007987374
8.640594e-05,-0.00054578437,5.0884432e-06,-0.0006209691,-0.0011912372,3.1548137e-05,-0.00012857672,1.4391333e-05,0.0004904758,-5.0291183e-05,0.0006000793,0.009470476,1.29801565e-05,3.7333295e-05,0.0017940272,0.00075494946
8.813508e-05,-0.00053231727,4.0963696e-06,-0.00052725855,-0.0011880068,5.964806e-05,-0.00010087142,1.184195e-05,0.00045754065,-4.8883747e-05,0.000587829,0.008081405,9.927928e-06,3.3741668e-05,0.0017242312,0.00082506315
8.47073e-05,-0.0005324953,4.852351e-06,-0.00059840217,-0.0012077157,3.6055444e-05,-0.00012418134,1.38832265e-05,0.0004755616,-4.9400845e-05,0.00058268313,0.009251099,1.2590067e-05,3.5746754e-05,0.001791292,0.00077885535
8.3438215e-05,-0.0005383283,4.4340663e-06,-0.00057093427,-0.001236642,4.2338263e-05,-0.00011122097,1.2586325e-05,0.0004703088,-4.8392387e-05,0.0005914027,0.008571803,1.1108383e-05,3.516827e-05,0.0017290587,0.00077448913
8.10271e-05,-0.0005291135,4.489783e-06,-0.00057818927,-0.0012621594,3.6444297e-05,-0.0001137289,1.2703346e-05,0.00046906812,-4.7711423e-05,0.00058767415,0.008691271,1.1455666e-05,3.506705e-05,0.0017314221,0.00076745346
8.210603e-05,-0.0005198152,4.1181265e-06,-0.0005400167,-0.0011993571,4.739696e-05,-0.00010222028,1.1687063e-05,0.00045875352,-4.6960573e-05,0.00057983253,0.008110337,1.0145775e-05,3.381494e-05,0.0017142269,0.0007904259
8.620185e-05,-0.00053248624,4.203289e-06,-0.00053860847,-0.0012338653,5.579191e-05,-0.00010584869,1.2220084e-05,0.00045494622,-4.876046e-05,0.0005786609,0.008329318,1.0547231e-05,3.3548557e-05,0.0017391527,0.0008258793
8.9190784e-05,-0.00052670913,3.6216409e-06,-0.00047487428,-0.0011869943,7.203231e-05,-8.8146124e-05,1.0665103e-05,0.0004356146,-4.7630725e-05,0.00057067914,0.0074130776,8.56909e-06,3.1289866e-05,0.0017186909,0.00087481027
8.9844194e-05,-0.0005454288,4.358446e-06,-0.0005424392,-0.0012162992,5.942008e-05,-0.00010935201,1.276099e-05,0.00045844138,-4.9493778e-05,0.0005812974,0.008540454,1.0873374e-05,3.37497e-05,0.0017915487,0.0008308001
8.900086e-05,-0.00054566516,4.1913195e-06,-0.0005331382,-0.001187055,5.8144124e-05,-0.000102385144,1.2054404e-05,0.00046260023,-4.8542595e-05,0.00059274974,0.008166717,1.0044246e-05,3.4059132e-05,0.0017583333,0.00080687564
9.244766e-05,-0.00054181134,4.240359e-06,-0.00052813767,-0.0011534848,6.4230975e-05,-0.00010358027,1.234072e-05,0.00046118308,-4.9635677e-05,0.00059061777,0.008266035,1.0161105e-05,3.3933928e-05,0.0017787714,0.0008328244
9.096511e-05,-0.00054580363,4.9339997e-06,-0.00059307367,-0.0011461211,4.597806e-05,-0.0001233155,1.4168127e-05,0.00048294675,-5.0809955e-05,0.00059535797,0.009258521,1.2337671e-05,3.6353016e-05,0.0018234599,0.0007887353
9.011888e-05,-0.00054936897,4.707717e-06,-0.0005798972,-0.0011833479,4.922271e-05,-0.00011714566,1.3512032e-05,0.00047890452,-5.0593542e-05,0.0006006751,0.008932634,1.1661829e-05,3.6019508e-05,0.001779827,0.00079199893
8.8025576e-05,-0.0005347721,4.486864e-06,-0.0005609482,-0.0011759717,5.0964885e-05,-0.000111754096,1.2895439e-05,0.0004690498,-4.9419104e-05,0.0005893916,0.008653049,1.112386e-05,3.4936194e-05,0.0017679391,0.0008029046
9.262341e-05,-0.00053203054,3.9666284e-06,-0.0005017955,-0.0011436307,7.13349e-05,-9.71072e-05,1.1696205e-05,0.00044834745,-4.955944e-05,0.00057705375,0.007925598,9.494601e-06,3.267744e-05,0.0017534423,0.0008694277
9.689335e-05,-0.00054405787,3.944558e-06,-0.0004894464,-0.0011653133,8.092775e-05,-9.708628e-05,1.18907265e-05,0.00044184068,-5.0644085e-05,0.0005736375,0.007955736,9.4835905e-06,3.199315e-05,0.0017840879,0.0009063807
9.6058866e-05,-0.00055194565,4.062631e-06,-0.00050275016,-0.0011629097,7.556652e-05,-9.925044e-05,1.208317e-05,0.00045005252,-5.0156228e-05,0.00058202015,0.008060143,9.678274e-06,3.270793e-05,0.001797436,0.00087268895
9.031194e-05,-0.0005630675,5.0596886e-06,-0.0006078506,-0.001197485,4.0730378e-05,-0.00012651102,1.4442434e-05,0.0004889312,-5.0607643e-05,0.00060626573,0.009397842,1.2665697e-05,3.693939e-05,0.0018324046,0.0007654483
8.5869564e-05,-0.0005476786,5.074483e-06,-0.00062334817,-0.0011662225,2.80603e-05,-0.00012485105,1.4050207e-05,0.00050018023,-4.9280112e-05,0.0006164382,0.009288674,1.2483053e-05,3.8158192e-05,0.0017861038,0.00072452164
8.617222e-05,-0.0005300076,5.0641847e-06,-0.00061809545,-0.0011506282,3.1093536e-05,-0.00012668504,1.4218654e-05,0.00049240806,-5.0059254e-05,0.0006024506,0.009393686,1.2772057e-05,3.7532147e-05,0.0017812927,0.0007552312
9.1408685e-05,-0.0005208012,4.084432e-06,-0.0005155499,-0.001133893,6.7757945e-05,-0.000101166566,1.2022394e-05,0.00045119476,-5.005683e-05,0.00057418103,0.008135775,9.975269e-06,3.314955e-05,0.0017418278,0.0008686208
8.8868146e-05,-0.0005417055,4.6465548e-06,-0.00057100994,-0.0012384099,5.286465e-05,-0.00011989225,1.3681593e-05,0.00046258012,-5.0739116e-05,0.00057591463,0.009063914,1.2113994e-05,3.4475263e-05,0.001793957,0.00083062844
8.519358e-05,-0.00053558353,3.900803e-06,-0.0005140796,-0.0012402214,5.8507307e-05,-9.599286e-05,1.1240316e-05,0.00045024263,-4.7315254e-05,0.0005833068,0.0077964994,9.4294455e-06,3.287406e-05,0.0017116164,0.0008178126
8.742158e-05,-0.0005319965,3.9713113e-06,-0.0005122492,-0.0012119004,6.184826e-05,-9.780374e-05,1.1534923e-05,0.00044932452,-4.781001e-05,0.0005804588,0.007922614,9.622009e-06,3.2734202e-05,0.0017425534,0.0008333421
8.868233e-05,-0.00053873076,4.3998407e-06,-0.00054991205,-0.0011632493,5.392986e-05,-0.00010878569,1.2659659e-05,0.00046627093,-4.89318e-05,0.0005863265,0.008505817,1.0771138e-05,3.4479697e-05,0.0017828614,0.00080503564
8.88934e-05,-0.00055144227,4.7594644e-06,-0.00058623037,-0.0012056511,4.587241e-05,-0.00011923183,1.3647865e-05,0.0004789174,-5.0270388e-05,0.00059910875,0.009026308,1.19164e-05,3.6016943e-05,0.0017872982,0.00078465644
8.504758e-05,-0.00053712295,4.688327e-06,-0.00058765017,-0.0011905209,3.8657196e-05,-0.000116959236,1.323797e-05,0.00047956646,-4.883214e-05,0.0005964796,0.00888889,1.1702377e-05,3.6047226e-05,0.0017656867,0.0007640883
7.919562e-05,-0.00053927454,5.655977e-06,-0.0006883338,-0.0012431131,-3.96156e-06,-0.00014618936,1.5566387e-05,0.0005084211,-4.9388196e-05,0.00060393906,0.010250528,1.509302e-05,3.9487517e-05,0.0017879546,0.0006925724
7.739094e-05,-0.0005206409,4.5545357e-06,-0.00059892365,-0.001245216,2.4765277e-05,-0.000114898125,1.2597244e-05,0.00047913883,-4.7166002e-05,0.0005947485,0.008706604,1.1585843e-05,3.6257596e-05,0.0016877921,0.00073026854
7.821411e-05,-0.00050977286,4.3616596e-06,-0.0005712045,-0.0012560794,3.473586e-05,-0.00011176338,1.2353548e-05,0.0004616754,-4.713395e-05,0.0005743999,0.008574335,1.13270735e-05,3.4420933e-05,0.0017014646,0.0007767705
7.9925085e-05,-0.0005139405,3.9405522e-06,-0.00052725285,-0.0012612764,4.936485e-05,-9.947086e-05,1.1300594e-05,0.00044708504,-4.656175e-05,0.0005687369,0.0079474645,9.9339095e-06,3.2750653e-05,0.0016851962,0.00081117253
8.407929e-05,-0.00051825197,3.485731e-06,-0.00047165155,-0.001278901,6.738823e-05,-8.598557e-05,1.0224842e-05,0.0004282743,-4.6305253e-05,0.00056659675,0.0072585484,8.429584e-06,3.0658135e-05,0.0016762102,0.0008708043
8.459763e-05,-0.0005235748,3.7702e-06,-0.0004956168,-0.0012397724,6.1657425e-05,-9.2917355e-05,1.0945278e-05,0.00043989185,-4.636431e-05,0.0005702917,0.007648262,9.148829e-06,3.166768e-05,0.001728979,0.0008408663
8.9133115e-05,-0.0005406516,3.8862177e-06,-0.0005018219,-0.0012036654,6.570068e-05,-9.46117e-05,1.1307953e-05,0.00044849038,-4.785378e-05,0.00058344443,0.0077591264,9.230921e-06,3.25474e-05,0.0017447232,0.00083725055
9.1997084e-05,-0.0005445395,4.2075017e-06,-0.0005252951,-0.0011639129,6.416667e-05,-0.000102764534,1.2245092e-05,0.00045953624,-4.923985e-05,0.0005891893,0.008218151,1.0074201e-05,3.3703767e-05,0.0017841734,0.0008302547
9.722092e-05,-0.0005451671,4.148594e-06,-0.0005092438,-0.0011059481,7.369082e-05,-9.985201e-05,1.2206098e-05,0.00045826705,-5.0445604e-05,0.0005894834,0.008108617,9.696192e-06,3.3515815e-05,0.0017956201,0.00085984526
0.000102074184,-0.0005531773,4.270946e-06,-0.0005099153,-0.0011077232,8.1367645e-05,-0.00010366079,1.2805708e-05,0.00045750343,-5.227319e-05,0.0005888081,0.008346077,1.0092463e-05,3.3506847e-05,0.0018261974,0.0008911744
9.916919e-05,-0.0005597707,4.6648993e-06,-0.000551687,-0.0011235813,6.8361594e-05,-0.000114575196,1.3754594e-05,0.00047245822,-5.225323e-05,0.0005965616,0.00888107,1.1276474e-05,3.509298e-05,0.0018461819,0.000842874
9.8347366e-05,-0.0005583001,4.4795706e-06,-0.00053943304,-0.0011242543,6.889466e-05,-0.00010846819,1.3112022e-05,0.00047131407,-5.1571515e-05,0.00060238177,0.008561888,1.0595612e-05,3.493827e-05,0.0018148054,0.000837396
9.829422e-05,-0.0005493881,4.5408497e-06,-0.00054234493,-0.0011039751,6.827564e-05,-0.00011040521,1.3308165e-05,0.0004710758,-5.1644536e-05,0.0005974254,0.008671111,1.0826644e-05,3.4922516e-05,0.001826125,0.0008427028
0.00010162833,-0.00054925785,4.323492e-06,-0.0005161542,-0.0010877515,7.8624835e-05,-0.00010442555,1.2864565e-05,0.0004619619,-5.2222553e-05,0.0005915744,0.008385839,1.0162113e-05,3.3966095e-05,0.001820996,0.0008798103
9.873113e-05,-0.00055980234,4.8566358e-06,-0.0005694686,-0.0011383947,6.444275e-05,-0.00012074591,1.4327418e-05,0.00047658992,-5.2869815e-05,0.00059737696,0.00918796,1.1978022e-05,3.5649264e-05,0.0018526309,0.00083814556
9.7248005e-05,-0.000552465,4.283095e-06,-0.0005239097,-0.0011218857,7.0782895e-05,-0.00010335218,1.2548032e-05,0.0004647984,-5.0920782e-05,0.0005970845,0.008287207,1.0059303e-05,3.4250796e-05,0.0017947651,0.0008457103
9.635618e-05,-0.0005513248,4.7172466e-06,-0.00056185556,-0.0011331062,6.217433e-05,-0.00011655573,1.3804324e-05,0.0004743092,-5.1764273e-05,0.0005962583,0.008965173,1.1538502e-05,3.536568e-05,0.0018328985,0.00083017995
9.563739e-05,-0.00054936734,4.5452125e-06,-0.00055020524,-0.0011203233,6.3247724e-05,-0.00011109015,1.3230584e-05,0.00047254533,-5.1206964e-05,0.0005967021,0.008678585,1.0923797e-05,3.5145797e-05,0.001808061,0.00082761084
9.347284e-05,-0.0005526605,4.861638e-06,-0.0005829209,-0.0011651817,5.335532e-05,-0.00012142305,1.4110003e-05,0.00047969905,-5.164378e-05,0.0005990987,0.009180223,1.2111364e-05,3.6065216e-05,0.001819295,0.0008084073
8.764396e-05,-0.0005450025,4.964216e-06,-0.0006063071,-0.0011727085,3.724668e-05,-0.00012421087,1.4063865e-05,0.00048763823,-5.010983e-05,0.0006006961,0.00927086,1.2463709e-05,3.692443e-05,0.0017964928,0.0007633634
8.961519e-05,-0.00053591037,4.3029613e-06,-0.00054269325,-0.0011682231,5.7801873e-05,-0.00010613124,1.2428381e-05,0.000464617,-4.9621463e-05,0.0005909616,0.008371733,1.0478835e-05,3.4469118e-05,0.0017496373,0.000819074
8.734411e-05,-0.0005355481,4.738503e-06,-0.0005832442,-0.0011902951,4.4774675e-05,-0.00012027051,1.36597155e-05,0.0004726128,-4.995958e-05,0.00058442255,0.009077455,1.2109421e-05,3.5409626e-05,0.0017907543,0.00079749885
8.577032e-05,-0.0005398743,4.443449e-06,-0.0005648324,-0.0012180468,4.7464862e-05,-0.000111371126,1.2725639e-05,0.0004684252,-4.8999747e-05,0.00058937486,0.008602664,1.1106585e-05,3.4940113e-05,0.0017470644,0.000791356
8.6392414e-05,-0.0005312046,4.083194e-06,-0.00052730687,-0.0012164611,5.7610257e-05,-0.000101378995,1.1813116e-05,0.0004540548,-4.8217094e-05,0.0005822437,0.008098329,1.002508e-05,3.335352e-05,0.0017313397,0.0008229022
9.028684e-05,-0.0005286554,3.8584553e-06,-0.00049483223,-0.0011606687,6.9452675e-05,-9.441585e-05,1.1333538e-05,0.00044410303,-4.8416772e-05,0.00057320617,0.0077654147,9.229366e-06,3.216825e-05,0.0017468401,0.0008632662
9.120173e-05,-0.0005500034,4.480995e-06,-0.0005522947,-0.0012061105,5.9107635e-05,-0.00011254723,1.3128853e-05,0.00046329445,-5.0308867e-05,0.0005851877,0.008710614,1.1199151e-05,3.4308214e-05,0.0017978839,0.000828755
8.468378e-05,-0.0005497661,4.8303023e-06,-0.000602364,-0.0012281047,3.403087e-05,-0.000121096695,1.3607683e-05,0.00048420316,-4.889405e-05,0.00060139055,0.0090842685,1.2152921e-05,3.6525522e-05,0.0017791331,0.0007492559
8.790601e-05,-0.0005308257,4.050286e-06,-0.0005228747,-0.0011597194,5.8459445e-05,-9.815867e-05,1.1589001e-05,0.00046008537,-4.8104288e-05,0.0005921144,0.007939907,9.595841e-06,3.384249e-05,0.0017272616,0.00081000285
8.7622575e-05,-0.00053551974,5.0444914e-06,-0.0006084083,-0.001172337,3.7272486e-05,-0.00012860773,1.4467975e-05,0.00048199945,-5.051793e-05,0.0005875529,0.009495547,1.3028406e-05,3.6420875e-05,0.0018157838,0.0007820718
8.304202e-05,-0.00054522854,5.026791e-06,-0.00062641205,-0.0012377119,2.5413661e-05,-0.00012799863,1.4125886e-05,0.00048950425,-4.9589624e-05,0.0005996733,0.009404151,1.2972948e-05,3.7345395e-05,0.0017629066,0.00074063626
7.640832e-05,-0.0005303486,5.012271e-06,-0.0006410333,-0.0012948659,9.127218e-06,-0.00012873398,1.3809064e-05,0.0004903505,-4.7601592e-05,0.0005989315,0.009389038,1.31800925e-05,3.752121e-05,0.00172608,0.0007062718
7.579431e-05,-0.00050758134,4.302015e-06,-0.0005745599,-0.0012309516,2.8526758e-05,-0.00010813877,1.1904376e-05,0.00046862813,-4.585404e-05,0.00058289553,0.008362079,1.0876484e-05,3.5015375e-05,0.0016798105,0.00074108323
8.036832e-05,-0.0005154713,4.1797794e-06,-0.00054959644,-0.0012646613,4.486797e-05,-0.00010673897,1.1994383e-05,0.00045392461,-4.749253e-05,0.0005720134,0.008330091,1.0747775e-05,3.3591554e-05,0.0016985942,0.0008036698
9.083423e-05,-0.0005065162,2.8133309e-06,-0.00038735694,-0.0011832652,8.6954766e-05,-6.628342e-05,8.539531e-06,0.0003992916,-4.607141e-05,0.00054911367,0.0061779283,6.2728363e-06,2.7579656e-05,0.001645406,0.0009785293
9.8328455e-05,-0.0005364554,3.4067184e-06,-0.00042852265,-0.0011998189,9.430155e-05,-8.301497e-05,1.0569968e-05,0.00041355818,-4.9111033e-05,0.00055248395,0.007212213,8.028364e-06,2.893145e-05,0.001784477,0.0009851987
9.5029856e-05,-0.00056305877,4.030412e-06,-0.0005011827,-0.0011958914,7.329108e-05,-9.759983e-05,1.1898013e-05,0.00045108952,-4.910264e-05,0.00058770715,0.00796077,9.480116e-06,3.261808e-05,0.0018076013,0.00085249497
8.993541e-05,-0.0005698635,5.1561383e-06,-0.0006192222,-0.0011924362,3.5020083e-05,-0.00012642356,1.444665e-05,0.0005000073,-4.991229e-05,0.00062341825,0.009392166,1.2581425e-05,3.795939e-05,0.0018346617,0.00073171506
9.815445e-05,-0.0005310428,4.1294443e-06,-0.0005070969,-0.0010188149,6.939284e-05,-9.470091e-05,1.1777165e-05,0.00047250287,-4.9485232e-05,0.00061059603,0.007859117,9.044167e-06,3.4731318e-05,0.0017742793,0.00082281313
0.0001084216,-0.00053290604,4.899414e-06,-0.0005468435,-0.001036169,8.345969e-05,-0.00012115139,1.4876775e-05,0.0004703304,-5.56336e-05,0.00058611867,0.009317942,1.1998011e-05,3.5068482e-05,0.0018933249,0.0009171375
0.000102698075,-0.000562981,4.807481e-06,-0.0005579288,-0.0011253805,7.4063355e-05,-0.00011982394,1.4418473e-05,0.00047207327,-5.432808e-05,0.0005921337,0.00916741,1.185686e-05,3.5272566e-05,0.0018568804,0.00087129296
9.232639e-05,-0.0005653605,4.9159894e-06,-0.00059269904,-0.0012143562,4.9358405e-05,-0.00012313123,1.4208448e-05,0.00048276296,-5.1410996e-05,0.00060601404,0.009243656,1.2295531e-05,3.6396385e-05,0.0018169561,0.0007909274
8.7912085e-05,-0.0005376292,4.519961e-06,-0.00056547177,-0.001140416,4.724802e-05,-0.000110110115,1.2760652e-05,0.00047805795,-4.8687198e-05,0.00060045515,0.008569749,1.0868935e-05,3.5678542e-05,0.001771634,0.0007735638
9.5402196e-05,-0.00053551164,4.3026116e-06,-0.0005272882,-0.0011156073,6.89659e-05,-0.000105290266,1.2641627e-05,0.00046142502,-5.0971234e-05,0.0005874901,0.008385412,1.0340703e-05,3.4056444e-05,0.0017840988,0.0008580494
9.621906e-05,-0.00054356497,4.4135268e-06,-0.0005340904,-0.00114174,7.052859e-05,-0.00010998297,1.3130972e-05,0.0004590725,-5.1640105e-05,0.00058033835,0.008628183,1.0878041e-05,3.386745e-05,0.0018115038,0.0008689919
9.303214e-05,-0.0005544721,4.451757e-06,-0.00054755074,-0.0011916896,6.243347e-05,-0.00011082417,1.3053905e-05,0.00046472598,-5.0735624e-05,0.00059005985,0.00863409,1.0966749e-05,3.4434535e-05,0.0017954555,0.0008326247
9.243575e-05,-0.0005442981,4.0747823e-06,-0.0005136451,-0.001165547,6.7415334e-05,-9.907658e-05,1.1895094e-05,0.00045582253,-4.9268467e-05,0.0005891293,0.0080235535,9.669422e-06,3.334745e-05,0.001765677,0.0008407284
9.4013136e-05,-0.0005445838,4.428196e-06,-0.0005405515,-0.0011347913,6.369422e-05,-0.000108769076,1.2927856e-05,0.0004656388,-5.039908e-05,0.00058935245,0.008549771,1.0712576e-05,3.438961e-05,0.0018077337,0.0008334123
9.533383e-05,-0.00055195193,4.5352826e-06,-0.00054993446,-0.0011404899,6.360631e-05,-0.00011149843,1.324929e-05,0.00047046514,-5.1235435e-05,0.00059522345,0.008693966,1.0985667e-05,3.4960518e-05,0.001808181,0.00083098054
8.967501e-05,-0.000553871,5.146856e-06,-0.0006170405,-0.0011861722,3.7600796e-05,-0.00012962669,1.4687215e-05,0.00049060804,-5.105848e-05,0.00060364685,0.009550417,1.30492335e-05,3.726677e-05,0.001822159,0.0007679331
8.559028e-05,-0.00054068334,4.85291e-06,-0.0006032675,-0.0011792225,3.485658e-05,-0.00012075631,1.362417e-05,0.00048770025,-4.9352504e-05,0.0006034738,0.009080838,1.20909235e-05,3.6941365e-05,0.0017691616,0.0007519092
8.876468e-05,-0.00052786764,4.266224e-06,-0.0005394978,-0.0011626774,5.7672984e-05,-0.00010568307,1.2342394e-05,0.00046141364,-4.940204e-05,0.0005852493,0.008347442,1.0461968e-05,3.4164772e-05,0.0017456455,0.0008256646
8.9426256e-05,-0.00053268834,4.3973146e-06,-0.0005472294,-0.0011799322,5.814454e-05,-0.0001109285,1.2873535e-05,0.00045924197,-4.9971837e-05,0.0005760638,0.008622917,1.107205e-05,3.3975397e-05,0.001777392,0.00083682104
8.385925e-05,-0.0005478103,4.8508914e-06,-0.0006056069,-0.0012676247,3.3450204e-05,-0.00012413082,1.38170335e-05,0.00047882277,-4.9375736e-05,0.0005923028,0.009224025,1.2569622e-05,3.6145906e-05,0.0017724739,0.00076368416
8.363227e-05,-0.0005258508,3.834203e-06,-0.00051184214,-0.0012201072,5.5953995e-05,-9.3576506e-05,1.0936443e-05,0.00045125067,-4.665783e-05,0.0005861258,0.007655224,9.163766e-06,3.2973207e-05,0.0016908249,0.00080513826
8.6390995e-05,-0.00052707375,4.3442687e-06,-0.000547855,-0.0011856573,5.2195974e-05,-0.000108846005,1.2540079e-05,0.00046033776,-4.8534814e-05,0.00057807984,0.00849746,1.0857202e-05,3.397798e-05,0.0017682165,0.00081331946
9.404274e-05,-0.00053595204,3.6860026e-06,-0.00047304598,-0.0011510797,7.835319e-05,-8.912062e-05,1.0966519e-05,0.00043851457,-4.9207578e-05,0.00057460624,0.007498615,8.615866e-06,3.159838e-05,0.0017362827,0.00089353055
9.506026e-05,-0.0005494335,4.203173e-06,-0.00051652384,-0.0011945183,7.327796e-05,-0.000104698935,1.2563834e-05,0.00045026813,-5.0609317e-05,0.0005786225,0.008341295,1.0324029e-05,3.2875734e-05,0.0018049064,0.0008757216
9.317725e-05,-0.000550092,4.160603e-06,-0.00051951257,-0.0011515619,6.65351e-05,-0.00010089604,1.2118589e-05,0.00045956095,-4.9331946e-05,0.00059004704,0.008124098,9.838679e-06,3.3638975e-05,0.0017860273,0.00083212246
9.3815484e-05,-0.00055702095,4.6937494e-06,-0.0005676211,-0.001165795,5.679558e-05,-0.00011569955,1.3590491e-05,0.00047697613,-5.0924555e-05,0.0006025207,0.0088939965,1.14459845e-05,3.563038e-05,0.0018162553,0.0008063469
9.142325e-05,-0.0005446901,4.808486e-06,-0.00058271416,-0.0011230657,4.8113256e-05,-0.000117886164,1.3688993e-05,0.0004848771,-5.03246e-05,0.0006030289,0.008994951,1.1688185e-05,3.644363e-05,0.001808583,0.0007820193
9.727925e-05,-0.0005410475,4.2689476e-06,-0.0005215747,-0.0011145327,7.2432835e-05,-0.00010383506,1.258653e-05,0.00046132368,-5.1387262e-05,0.00059112854,0.0083205355,1.0152998e-05,3.40254e-05,0.0017843401,0.0008653758
9.690349e-05,-0.00054382434,4.45323e-06,-0.0005355544,-0.0011330676,7.078748e-05,-0.000110747584,1.3246977e-05,0.00046045557,-5.175059e-05,0.0005816386,0.008675201,1.0949507e-05,3.3976365e-05,0.0018210381,0.0008683642
9.384163e-05,-0.00055612595,4.548479e-06,-0.00055470184,-0.001176403,6.147947e-05,-0.000113050526,1.3313761e-05,0.00046877042,-5.1087827e-05,0.0005924986,0.008754435,1.1188931e-05,3.484442e-05,0.0018054014,0.00082784786
8.810693e-05,-0.0005518644,4.8084944e-06,-0.0005918005,-0.0012054533,4.245044e-05,-0.00012011546,1.3701889e-05,0.0004818189,-4.9847524e-05,0.0006017348,0.00906607,1.2007327e-05,3.6262736e-05,0.0017931246,0.00077185425
8.174426e-05,-0.00054110633,5.3608987e-06,-0.00065650203,-0.0012006615,1.1216824e-05,-0.00013530243,1.4763905e-05,0.00050423003,-4.903587e-05,0.0006083587,0.009762282,1.37618e-05,3.878866e-05,0.0017886661,0.00070532603
7.2058385e-05,-0.0005380385,6.6676657e-06,-0.0007982838,-0.0012933674,-6.342519e-05,-0.0001752671,1.7620974e-05,0.0005432481,-4.900287e-05,0.00061989273,0.011498178,1.8554574e-05,4.3668868e-05,0.0017798713,0.0006087486
6.169081e-05,-0.00050835824,6.2986e-06,-0.00080689444,-0.0013719072,-8.7399916e-05,-0.00016694058,1.6081298e-05,0.00054074364,-4.5633555e-05,0.0006137728,0.0110099865,1.7849652e-05,4.3669144e-05,0.0016691852,0.0005613931
6.1728286e-05,-0.00046837315,4.3597224e-06,-0.0006231979,-0.0013572247,-9.465791e-06,-0.00011365685,1.1557243e-05,0.00047384624,-4.294508e-05,0.0005772656,0.008496729,1.1772403e-05,3.6103986e-05,0.0015562124,0.00066206715
6.995916e-05,-0.00045976203,3.193947e-06,-0.0004703431,-0.0013345026,4.9287024e-05,-8.0969265e-05,9.097778e-06,0.0004155965,-4.263265e-05,0.0005424983,0.00687993,8.108553e-06,2.9649736e-05,0.0015498144,0.00083919265
5.8815356e-05,-0.0004934698,5.4467696e-06,-0.0007143967,-0.0016227349,-6.178945e-05,-0.00014623112,1.42521385e-05,0.00049662293,-4.259098e-05,0.0005828062,0.010147303,1.584191e-05,3.8319093e-05,0.0016576854,0.0006188529
4.9872066e-05,-0.0004420694,3.5432045e-06,-0.0005716572,-0.0015951388,-1.5873322e-05,-8.533078e-05,8.5979555e-06,0.00046962558,-3.5280656e-05,0.00060863665,0.0069597424,8.70173e-06,3.4861616e-05,0.0014260862,0.0005715657
5.127186e-05,-0.0004436128,4.5524594e-06,-0.0006603964,-0.0015167604,-5.123609e-05,-0.00011638847,1.126697e-05,0.0004896114,-3.7865495e-05,0.0005876233,0.008624987,1.2340563e-05,3.7273647e-05,0.0015383268,0.00057095086
6.188688e-05,-0.0004487413,3.2883543e-06,-0.0005068298,-0.0012998963,2.5034557e-05,-8.141986e-05,8.770241e-06,0.00043760042,-3.9723698e-05,0.00056037,0.006809565,8.115176e-06,3.171833e-05,0.0015050552,0.00071689655
7.60799e-05,-0.00047781895,3.066811e-06,-0.0004404204,-0.0013968669,6.511729e-05,-7.6986624e-05,9.017719e-06,0.00040480486,-4.3862485e-05,0.0005451488,0.00672276,7.655947e-06,2.8488275e-05,0.001579597,0.000908951
7.4098476e-05,-0.0004742857,2.9463065e-06,-0.00042460315,-0.001347003,5.9428305e-05,-7.027686e-05,8.3719e-06,0.0004087264,-4.0881343e-05,0.0005528714,0.0063490616,6.8834247e-06,2.8224407e-05,0.0016075127,0.0008690763
7.459129e-05,-0.00051302195,3.76164e-06,-0.00051546464,-0.0014087529,4.099548e-05,-9.242289e-05,1.0475513e-05,0.00044569647,-4.3134547e-05,0.0005847176,0.007570001,9.230851e-06,3.2194013e-05,0.001668093,0.00077447674
7.874763e-05,-0.00050751114,3.4418292e-06,-0.0004785954,-0.0012254375,5.312064e-05,-8.132856e-05,9.588753e-06,0.0004420144,-4.309309e-05,0.0005846197,0.006962174,7.864579e-06,3.163373e-05,0.0016613138,0.0007811698
9.1349284e-05,-0.0005310586,4.2791303e-06,-0.0005308689,-0.001121824,6.146083e-05,-0.00010454066,1.2395652e-05,0.00046176388,-4.9151295e-05,0.0005847917,0.008319011,1.02830945e-05,3.3933553e-05,0.0017890878,0.00082819053
9.530363e-05,-0.0005492218,4.6841155e-06,-0.0005624709,-0.0011348967,6.126906e-05,-0.00011635304,1.37126035e-05,0.00047289784,-5.1796753e-05,0.00059163506,0.008941684,1.15372895e-05,3.5306188e-05,0.0018184234,0.0008315625
8.879829e-05,-0.0005564863,5.101035e-06,-0.000616612,-0.001218856,3.7317655e-05,-0.00012931794,1.4592316e-05,0.00048818244,-5.1054027e-05,0.00060291466,0.009521419,1.3044975e-05,3.7095215e-05,0.001808789,0.00076951046
8.6212494e-05,-0.0005325891,4.298685e-06,-0.0005501069,-0.0011695308,4.9951585e-05,-0.00010538943,1.22010215e-05,0.00046871693,-4.8266487e-05,0.00059386925,0.0083058,1.0401333e-05,3.4807443e-05,0.001738897,0.00078689406
9.413453e-05,-0.00052842614,3.90618e-06,-0.0004917083,-0.0011336537,7.556827e-05,-9.547045e-05,1.1606754e-05,0.00044431584,-4.983698e-05,0.0005744466,0.00785561,9.321083e-06,3.2263662e-05,0.0017566399,0.0008894523
9.723179e-05,-0.0005440159,4.0848886e-06,-0.0005009197,-0.0011493254,7.933844e-05,-0.000101094105,1.2305742e-05,0.00044577286,-5.1039977e-05,0.0005721287,0.008172074,9.914708e-06,3.240187e-05,0.0018022546,0.0009006839
9.370222e-05,-0.00056051667,4.4092835e-06,-0.0005418161,-0.0012058447,6.463788e-05,-0.000109514,1.296741e-05,0.00046279954,-5.0599232e-05,0.00059094466,0.00856972,1.0811246e-05,3.4164666e-05,0.0018038449,0.00083551323
9.026633e-05,-0.00054935634,4.3827604e-06,-0.0005476584,-0.0011730443,5.5841014e-05,-0.00010688438,1.2563365e-05,0.0004700836,-4.9050213e-05,0.00059920957,0.00841448,1.0504531e-05,3.4810266e-05,0.0017808202,0.00079630734
8.783487e-05,-0.00054669543,5.27078e-06,-0.00063135097,-0.0011559513,2.8833929e-05,-0.000131583,1.47913715e-05,0.00049894035,-5.0323935e-05,0.00060809765,0.009640549,1.3253972e-05,3.8074904e-05,0.0018226387,0.0007422122
8.6429936e-05,-0.000539801,5.1173038e-06,-0.0006249171,-0.0011668553,2.9905257e-05,-0.00012808974,1.435492e-05,0.00049550546,-5.03333e-05,0.00060654443,0.009452691,1.2903116e-05,3.7884343e-05,0.0017812237,0.0007477653
8.6432025e-05,-0.00052686373,4.5341003e-06,-0.0005698231,-0.0011836466,4.7249072e-05,-0.00011410698,1.3017669e-05,0.00046957057,-4.9633465e-05,0.0005866758,0.008759396,1.1431473e-05,3.5161378e-05,0.0017484276,0.0008020968
9.471387e-05,-0.00051924767,3.3708536e-06,-0.0004382448,-0.0011361492,8.604775e-05,-8.1325954e-05,1.0209078e-05,0.00042159183,-4.888247e-05,0.0005588589,0.0070805093,7.827019e-06,2.992607e-05,0.0017127752,0.000948955
9.3436865e-05,-0.0005505697,4.398668e-06,-0.0005358066,-0.0012280993,6.852257e-05,-0.000112143825,1.3200528e-05,0.00045146482,-5.089356e-05,0.00057148805,0.008710188,1.1200404e-05,3.309682e-05,0.0018230485,0.0008712636
8.545562e-05,-0.00055394083,4.4017406e-06,-0.000562032,-0.0012484918,4.622663e-05,-0.00010870787,1.248661e-05,0.00047122917,-4.798237e-05,0.00059947424,0.008460845,1.0766346e-05,3.5000663e-05,0.0017583173,0.00076966063
8.7207816e-05,-0.00053650094,4.1868393e-06,-0.00053653965,-0.0011791611,5.381102e-05,-0.00010153146,1.1896346e-05,0.00046567066,-4.782408e-05,0.00059816625,0.008114481,9.95594e-06,3.436736e-05,0.0017445699,0.00078933436
9.2414426e-05,-0.00052923925,4.5173574e-06,-0.0005506363,-0.0010925384,5.8111935e-05,-0.00011070079,1.3044811e-05,0.00047048874,-5.0106264e-05,0.0005873335,0.008649712,1.0938356e-05,3.4914643e-05,0.0018023844,0.000821244
9.635954e-05,-0.0005502247,4.6328355e-06,-0.00055638206,-0.001156109,6.571656e-05,-0.00011594618,1.3709022e-05,0.00046831672,-5.2463798e-05,0.0005893063,0.0089269085,1.1517207e-05,3.4942303e-05,0.0018103422,0.0008518774
9.282335e-05,-0.00054580753,4.2351116e-06,-0.00052744057,-0.0011794082,6.6550405e-05,-0.00010469,1.2448912e-05,0.00045752543,-5.0186696e-05,0.00058587827,0.008320871,1.0307856e-05,3.365866e-05,0.0017772208,0.0008475705
8.1908845e-05,-0.00055349554,5.7767493e-06,-0.0006895189,-0.0012471126,-2.6104186e-07,-0.00014922065,1.6030346e-05,0.000509499,-4.99637e-05,0.0006061055,0.010411528,1.5373469e-05,3.9462255e-05,0.0018290012,0.00069861027
5.4653352e-05,-0.000563783,1.1713016e-05,-0.0012618399,-0.0015217693,-0.00038937054,-0.0003244515,2.7686285e-05,0.00067468424,-4.7990925e-05,0.0006666788,0.017143223,3.7160567e-05,6.0179293e-05,0.00183201,0.00039394232
4.81167e-05,-0.00045143723,5.1552647e-06,-0.0007785318,-0.0014058723,-8.950779e-05,-0.00013100833,1.2092428e-05,0.0005422781,-3.9130206e-05,0.0006330674,0.009105588,1.370433e-05,4.3955133e-05,0.0014611236,0.00046407164
4.7198704e-05,-0.00041898317,6.5823515e-06,-0.0008614173,-0.0014799557,-0.00017340553,-0.00018768034,1.6406624e-05,0.00052796386,-4.1847026e-05,0.0005592177,0.011826996,2.1324575e-05,4.294689e-05,0.0015620979,0.00051509554
4.3066106e-05,-0.00041995023,4.7014605e-06,-0.0007232092,-0.0017065156,-9.2663126e-05,-0.00012793859,1.1478237e-05,0.0004922058,-3.787622e-05,0.0005702866,0.009028073,1.4036875e-05,3.8675014e-05,0.0013910466,0.0005239339
3.2458745e-05,-0.00035702376,4.002831e-06,-0.00066621153,-0.0020929547,-9.548563e-05,-9.714898e-05,8.642005e-06,0.0004971109,-3.0048139e-05,0.00061455683,0.0076169693,1.0855043e-05,3.797588e-05,0.0012414524,0.0004563993
2.5091122e-05,-0.00028603617,2.6647108e-06,-0.0005249812,-0.0018619498,-5.3854652e-05,-5.5334658e-05,5.050321e-06,0.00047813743,-2.139508e-05,0.00061813515,0.0051616114,5.8860305e-06,3.4091023e-05,0.0011372662,0.00038853314
3.2127253e-05,-0.00032858446,2.9680905e-06,-0.0005433177,-0.0018409715,-4.5816927e-05,-6.770767e-05,6.324792e-06,0.00046236935,-2.6987838e-05,0.0005996741,0.005934152,7.2179237e-06,3.351222e-05,0.0012060391,0.00048064473
3.7983402e-05,-0.00032422532,2.1326114e-06,-0.00040932943,-0.001633239,3.7087232e-06,-4.6107667e-05,4.811414e-06,0.00041116122,-2.6793346e-05,0.0005766456,0.004626495,4.6389027e-06,2.7870847e-05,0.0012091793,0.00060234364
4.3641106e-05,-0.00036445257,2.7762608e-06,-0.00046666848,-0.0016907576,-2.9616685e-06,-6.281079e-05,6.5278327e-06,0.0004307066,-3.018966e-05,0.0005802788,0.005790295,6.511163e-06,2.995941e-05,0.0013388963,0.0006405463
4.4866447e-05,-0.00037288835,2.5048826e-06,-0.00043733174,-0.0016192487,7.3328847e-06,-5.455656e-05,5.84413e-06,0.00042699112,-2.9369867e-05,0.000592842,0.005242291,5.4692514e-06,2.9408247e-05,0.0013276563,0.00062658277
5.4231077e-05,-0.00041436698,2.8689406e-06,-0.0004607952,-0.0015130907,1.8818382e-05,-6.645085e-05,7.2370854e-06,0.00042744365,-3.417917e-05,0.00057902647,0.0060047437,6.658137e-06,2.9894583e-05,0.0014472232,0.0006929246
6.744544e-05,-0.00045760712,2.9778641e-06,-0.00044784643,-0.001319938,4.4427004e-05,-7.0845665e-05,8.126751e-06,0.0004201088,-3.913399e-05,0.0005608403,0.006307382,6.9423113e-06,2.9409099e-05,0.0015566138,0.00078594056
7.995225e-05,-0.0005076236,3.5089756e-06,-0.0004795898,-0.0013009632,5.939653e-05,-8.679007e-05,1.0139361e-05,0.00042956756,-4.486847e-05,0.00056404865,0.007285045,8.5707425e-06,3.0706433e-05,0.0016708145,0.0008461057
8.1149534e-05,-0.00052279566,3.8339963e-06,-0.0005111005,-0.0012752115,5.2954994e-05,-9.470606e-05,1.0954711e-05,0.0004455407,-4.558934e-05,0.00057604763,0.0077150227,9.367687e-06,3.2278436e-05,0.0017087052,0.0008084414
7.800396e-05,-0.000539395,4.882386e-06,-0.00062178884,-0.0012911552,1.6753953e-05,-0.00012373144,1.3484772e-05,0.00048645196,-4.6963494e-05,0.0005991459,0.009164851,1.2563409e-05,3.680481e-05,0.0017545694,0.0007122559
7.622603e-05,-0.000526979,4.8220963e-06,-0.00062539964,-0.0012367662,1.2742064e-05,-0.00012046576,1.3078608e-05,0.00049293257,-4.6446752e-05,0.00060532166,0.008984135,1.2166986e-05,3.7539055e-05,0.0017166844,0.0006916596
7.93218e-05,-0.00051477115,4.6567866e-06,-0.00059843017,-0.0012081183,2.7285954e-05,-0.00011793374,1.2996147e-05,0.00047784855,-4.776164e-05,0.000588167,0.008893747,1.1933823e-05,3.6086232e-05,0.0017189872,0.0007483308
7.744657e-05,-0.00052002515,4.960439e-06,-0.0006296531,-0.0012660209,1.5134856e-05,-0.00012938194,1.3907651e-05,0.00048093108,-4.8298014e-05,0.00058106554,0.009435644,1.3312515e-05,3.661691e-05,0.0017337877,0.00073795783
6.3621934e-05,-0.0005302432,6.4809683e-06,-0.0008096489,-0.001470276,-8.8790584e-05,-0.00017523405,1.6921731e-05,0.0005341626,-4.6460475e-05,0.00060753844,0.011404736,1.8886572e-05,4.28915e-05,0.00171715,0.00057929585
5.3974072e-05,-0.00048206563,5.154655e-06,-0.0007327266,-0.0014875608,-6.81109e-05,-0.00013382801,1.2791402e-05,0.0005167513,-4.0840754e-05,0.00060956524,0.009404182,1.4141587e-05,4.0754476e-05,0.0015536641,0.0005405488
5.71172e-05,-0.0004495073,4.0578516e-06,-0.00060241245,-0.0013961014,-1.2365908e-05,-0.00010462361,1.054164e-05,0.0004663656,-4.0299226e-05,0.0005729163,0.008014476,1.0833013e-05,3.510798e-05,0.0015180127,0.00064369873
6.3319414e-05,-0.00045788195,3.682279e-06,-0.00053854764,-0.0014010554,1.9778634e-05,-9.531316e-05,1.00806255e-05,0.00043889432,-4.167624e-05,0.00055210636,0.0076114293,9.788864e-06,3.212035e-05,0.0015493092,0.00074542506
6.364416e-05,-0.00046263332,3.3226681e-06,-0.00049613765,-0.0015137633,3.0508936e-05,-8.28306e-05,9.049335e-06,0.000428868,-4.013349e-05,0.0005656225,0.006973585,8.403421e-06,3.0756644e-05,0.0015256125,0.0007668573
6.0088994e-05,-0.0004490254,3.2388132e-06,-0.00049072114,-0.0014959453,2.2427284e-05,-7.768092e-05,8.479476e-06,0.0004351671,-3.742137e-05,0.00057738053,0.006683997,7.829835e-06,3.094369e-05,0.0015214166,0.0007200025
6.763537e-05,-0.00046754265,3.0917959e-06,-0.00046204403,-0.0013527914,4.168359e-05,-7.363302e-05,8.396153e-06,0.0004269585,-3.9462324e-05,0.0005713431,0.00646585,7.228378e-06,3.0140243e-05,0.0015614158,0.00076743524
7.6888195e-05,-0.0005052471,3.814995e-06,-0.0005172198,-0.0012813832,4.5009263e-05,-9.4779934e-05,1.0759055e-05,0.000445237,-4.441941e-05,0.00057118264,0.0076941554,9.4428715e-06,3.2289878e-05,0.0016840295,0.0007902592
8.464942e-05,-0.00052255543,3.652589e-06,-0.00048825893,-0.00121749,6.2858046e-05,-8.913351e-05,1.0562127e-05,0.00043994086,-4.6395675e-05,0.0005740539,0.0074305474,8.705237e-06,3.1730124e-05,0.0016977333,0.00083795784
8.870644e-05,-0.0005365361,4.043503e-06,-0.00051578804,-0.0012173072,6.370267e-05,-0.00010035924,1.1838498e-05,0.00044907432,-4.8471924e-05,0.00057785254,0.008066887,9.904267e-06,3.2742802e-05,0.0017577928,0.0008438818
8.993122e-05,-0.0005408117,4.0993805e-06,-0.00052009494,-0.0011736541,6.275022e-05,-0.00010028458,1.1897613e-05,0.00045612277,-4.858327e-05,0.00058471056,0.008069093,9.830623e-06,3.33639e-05,0.0017649361,0.00082814426
9.252813e-05,-0.00054877345,4.355642e-06,-0.00053922663,-0.0011731971,6.24803e-05,-0.00010724115,1.2695042e-05,0.00046399515,-5.0045914e-05,0.0005919155,0.0084516145,1.0562403e-05,3.4270714e-05,0.0017882524,0.0008278759
9.3573035e-05,-0.00054356194,4.3086766e-06,-0.0005319229,-0.0011331522,6.463217e-05,-0.00010508382,1.2544248e-05,0.00046387143,-5.001858e-05,0.0005906153,0.008353472,1.0303214e-05,3.41864e-05,0.0017904512,0.0008328439
9.379795e-05,-0.00055110373,4.739749e-06,-0.0005707431,-0.0011537453,5.6746692e-05,-0.000117848824,1.3786446e-05,0.00047573657,-5.1344916e-05,0.0005957463,0.009004912,1.1710624e-05,3.5584915e-05,0.0018180152,0.00081597426
8.319924e-05,-0.0005555027,5.8980722e-06,-0.00069899304,-0.0012266606,-9.989739e-07,-0.000151474,1.6317403e-05,0.0005160872,-5.0655097e-05,0.0006133831,0.010527332,1.558038e-05,4.0220453e-05,0.0018282572,0.0006952564
7.543239e-05,-0.0005341406,5.4824695e-06,-0.0006903104,-0.0012550175,-1.0164705e-05,-0.00013940541,1.4722378e-05,0.0005142829,-4.7920836e-05,0.0006161974,0.009888997,1.431311e-05,4.013013e-05,0.0017330712,0.0006602282
7.021345e-05,-0.00050945696,5.5674077e-06,-0.0007069164,-0.0012815439,-2.7660335e-05,-0.00014548186,1.4895607e-05,0.000509507,-4.6993704e-05,0.0005979697,0.010139506,1.52176135e-05,3.985541e-05,0.0017103112,0.0006516607
7.287669e-05,-0.0004921033,4.093342e-06,-0.0005633092,-0.0012691944,2.9236198e-05,-0.000104758095,1.14024e-05,0.0004575,-4.5570625e-05,0.0005711095,0.008152777,1.060075e-05,3.411903e-05,0.0016256946,0.0007563544
8.054875e-05,-0.0004932771,3.2658274e-06,-0.00045473102,-0.0012936086,6.789482e-05,-8.174406e-05,9.645107e-06,0.0004148629,-4.5497887e-05,0.0005490553,0.0070042526,8.069118e-06,2.9470675e-05,0.0016283861,0.0008999939
7.804165e-05,-0.00050907244,3.7442169e-06,-0.00050426566,-0.0013436646,5.1479492e-05,-9.4211086e-05,1.076815e-05,0.00043534898,-4.484405e-05,0.0005620731,0.0076856064,9.441733e-06,3.130665e-05,0.0016914308,0.0008294892
7.637036e-05,-0.00051716616,3.675362e-06,-0.0005081075,-0.0013497175,4.5998986e-05,-8.991093e-05,1.0287063e-05,0.00044517094,-4.3782937e-05,0.00058468117,0.007421075,8.886899e-06,3.2218923e-05,0.0016574622,0.00077860255
7.893351e-05,-0.0005160485,3.9413926e-06,-0.00052777305,-0.0012448017,4.406856e-05,-9.638526e-05,1.1017104e-05,0.0004556933,-4.4837314e-05,0.00058527646,0.0077873413,9.527381e-06,3.328046e-05,0.001701896,0.0007679311
8.586689e-05,-0.00052889,4.4001013e-06,-0.0005569491,-0.0011559684,4.75149e-05,-0.0001085539,1.2495591e-05,0.00046941458,-4.81889e-05,0.00058779394,0.008475025,1.076818e-05,3.4841494e-05,0.0017605245,0.00078598846
9.2148985e-05,-0.0005394415,4.245771e-06,-0.0005304097,-0.0011704966,6.523466e-05,-0.00010524254,1.24613125e-05,0.00045808003,-5.031932e-05,0.0005844706,0.008346087,1.0384855e-05,3.3796827e-05,0.0017647501,0.00084830925
8.944181e-05,-0.00054136215,4.4786198e-06,-0.00055557484,-0.0011939349,5.5396136e-05,-0.000112503425,1.3034892e-05,0.00046422455,-4.9855364e-05,0.00058358023,0.008699157,1.1216066e-05,3.4428816e-05,0.0017863619,0.0008202721
8.762627e-05,-0.00054400665,4.409095e-06,-0.0005564073,-0.0012053513,5.1743238e-05,-0.00010966091,1.2671484e-05,0.0004674001,-4.909122e-05,0.00059105176,0.008532738,1.0883542e-05,3.4724104e-05,0.0017625362,0.00079862616
9.004364e-05,-0.00053571817,4.0314244e-06,-0.00051439635,-0.001174789,6.4575244e-05,-9.8639786e-05,1.1732781e-05,0.0004535892,-4.877991e-05,0.000584831,0.007983695,9.664015e-06,3.3190132e-05,0.0017473617,0.0008382644
8.919054e-05,-0.0005418607,4.700139e-06,-0.00057558116,-0.0011750523,4.89277e-05,-0.00011806938,1.3563819e-05,0.00047297523,-5.0013623e-05,0.000587684,0.008981148,1.1811786e-05,3.5319485e-05,0.0018041381,0.0008002254
8.7288194e-05,-0.0005479764,4.6913183e-06,-0.0005846302,-0.0012057438,4.3766864e-05,-0.00011729324,1.3376007e-05,0.00047847902,-4.971181e-05,0.0005982746,0.008914639,1.1713359e-05,3.5971312e-05,0.0017715963,0.0007769781
8.6868764e-05,-0.0005335988,4.3144173e-06,-0.0005487583,-0.0011900876,5.227489e-05,-0.00010688635,1.2370103e-05,0.00046488008,-4.8712787e-05,0.0005896262,0.008390154,1.0594365e-05,3.4475175e-05,0.0017469374,0.00080222986
9.0803645e-05,-0.0005294937,4.075013e-06,-0.0005149255,-0.001148288,6.606861e-05,-0.000100341626,1.1931938e-05,0.00045214247,-4.9236474e-05,0.000577162,0.0080859,9.864779e-06,3.3075612e-05,0.0017586305,0.0008522917
9.4886534e-05,-0.00054405653,4.0620507e-06,-0.0005055823,-0.0011735723,7.498549e-05,-0.00010046379,1.212831e-05,0.0004476618,-5.0485043e-05,0.00057690754,0.008117169,9.858011e-06,3.263556e-05,0.0017790039,0.0008831338
9.3557246e-05,-0.00054898916,4.1272465e-06,-0.0005145683,-0.0011818222,7.009522e-05,-0.00010152513,1.2184752e-05,0.0004529089,-4.9819588e-05,0.00058328663,0.008160711,9.953346e-06,3.307441e-05,0.001785747,0.00085628853
9.385615e-05,-0.0005503731,4.2167276e-06,-0.00052319816,-0.0011579358,6.7136745e-05,-0.000102691796,1.2323972e-05,0.0004601822,-4.9785453e-05,0.0005912398,0.008225123,1.0039019e-05,3.3760694e-05,0.0017901848,0.00083700335
9.754968e-05,-0.0005485201,4.201204e-06,-0.0005135801,-0.0011144978,7.331792e-05,-0.00010125698,1.23624695e-05,0.00045998843,-5.06234e-05,0.0005921652,0.008184417,9.842969e-06,3.369724e-05,0.0018013995,0.00085681427
9.904569e-05,-0.000553512,4.6116743e-06,-0.00054676784,-0.0011102807,6.900934e-05,-0.000112881826,1.358428e-05,0.0004712248,-5.2102823e-05,0.0005954733,0.008799857,1.1097656e-05,3.4964534e-05,0.0018388613,0.0008468997
9.888292e-05,-0.00055613066,4.535086e-06,-0.0005424037,-0.0011187729,6.959057e-05,-0.00011048786,1.33334215e-05,0.00047091517,-5.2005504e-05,0.0005987616,0.008671953,1.0827388e-05,3.4945362e-05,0.001822373,0.00084534555
9.5408686e-05,-0.00055442634,4.8453644e-06,-0.00057657104,-0.0011393672,5.6910885e-05,-0.00011985815,1.40753045e-05,0.00048042845,-5.1788582e-05,0.0006010582,0.009120505,1.1894044e-05,3.6034107e-05,0.0018321477,0.0008126045
9.3266564e-05,-0.0005482849,4.7027415e-06,-0.0005700638,-0.0011352533,5.5101547e-05,-0.0001156508,1.3553531e-05,0.00047895437,-5.0966242e-05,0.0006005233,0.008891934,1.1444375e-05,3.5880217e-05,0.0018043568,0.000804813
9.7155884e-05,-0.00054068415,4.124644e-06,-0.0005077854,-0.0011199815,7.525932e-05,-0.00010014379,1.2215481e-05,0.00045513405,-5.093901e-05,0.000586735,0.008124486,9.761738e-06,3.3339307e-05,0.0017805657,0.0008758242
0.000101896454,-0.0005429852,3.924309e-06,-0.0004766585,-0.0011024154,8.816764e-05,-9.5026466e-05,1.192127e-05,0.00044184687,-5.156217e-05,0.00057416694,0.007889929,9.202023e-06,3.1888947e-05,0.0018059373,0.00093003496
0.00011117286,-0.0005555906,3.4172206e-06,-0.0004121306,-0.0010818593,0.000106073014,-7.967862e-05,1.0722697e-05,0.0004219931,-5.214349e-05,0.0005698816,0.007102855,7.5050048e-06,2.968033e-05,0.0018031859,0.0010126896
0.00011888201,-0.00056814944,3.4741079e-06,-0.00040235248,-0.0010512228,0.00011428073,-7.9829035e-05,1.1061842e-05,0.00042244064,-5.3350028e-05,0.0005734231,0.0071643847,7.4601085e-06,2.953625e-05,0.0018587757,0.0010347854
0.00011969523,-0.00058720284,4.3181135e-06,-0.0004790004,-0.001028707,0.00010366276,-0.000100167206,1.3297624e-05,0.00046056174,-5.4943677e-05,0.00060428027,0.008279458,9.486653e-06,3.3289012e-05,0.0019285289,0.0009308072
0.0001154,-0.00059284136,5.3866675e-06,-0.00058183644,-0.0010257481,7.533948e-05,-0.00012483344,1.5702257e-05,0.0005099581,-5.5526838e-05,0.00064800895,0.0095286295,1.2032044e-05,3.8499027e-05,0.0019485049,0.00081173773
0.00011117345,-0.0005647886,5.8096903e-06,-0.0006241481,-0.0009889939,5.7543723e-05,-0.00013361163,1.6410637e-05,0.0005306854,-5.4972283e-05,0.0006604638,0.009966759,1.3006767e-05,4.084932e-05,0.0019297339,0.000773445
0.00011016572,-0.0005397159,5.7907546e-06,-0.00062174286,-0.0009904397,6.084236e-05,-0.0001379524,1.6724585e-05,0.0005167931,-5.6354205e-05,0.0006338036,0.010171442,1.36331855e-05,3.985327e-05,0.0019178195,0.00082125375
0.00010514873,-0.0005413793,5.371856e-06,-0.0005983331,-0.0010603153,6.572146e-05,-0.00013343098,1.591471e-05,0.00049146457,-5.5984878e-05,0.00060388003,0.009886744,1.3326929e-05,3.746689e-05,0.0018822043,0.00085726695
9.8273464e-05,-0.0005500511,4.7850226e-06,-0.00056526344,-0.0011359701,6.5877124e-05,-0.00011956609,1.4166656e-05,0.00047333524,-5.323697e-05,0.00059295667,0.009128928,1.1889524e-05,3.5475532e-05,0.0018265853,0.0008527718
8.260265e-05,-0.00055774866,6.092112e-06,-0.00071565754,-0.0012563432,-8.296176e-06,-0.00015893254,1.6935073e-05,0.0005169471,-5.110735e-05,0.0006097095,0.010858866,1.6484886e-05,4.044045e-05,0.0018389865,0.00069377606
7.572904e-05,-0.000529744,4.8830266e-06,-0.00063688227,-0.0012527396,9.4602965e-06,-0.00012238133,1.3203314e-05,0.0004971806,-4.688118e-05,0.00061076804,0.009061133,1.2377562e-05,3.8142272e-05,0.0016976945,0.00068355515
7.66492e-05,-0.000506357,4.633051e-06,-0.000601586,-0.0012331763,2.2120852e-05,-0.00011842054,1.2886634e-05,0.00047525542,-4.7092963e-05,0.00058334804,0.008898806,1.2059049e-05,3.588351e-05,0.0017036741,0.0007420265
8.2407365e-05,-0.00050568464,3.81429e-06,-0.00050881447,-0.0012063025,5.7780802e-05,-9.59074e-05,1.1074121e-05,0.00044069707,-4.7237267e-05,0.0005614115,0.007780207,9.525957e-06,3.213151e-05,0.0016819518,0.0008441283
8.237173e-05,-0.00052845525,4.1395806e-06,-0.00053889287,-0.0013301244,5.1746603e-05,-0.0001064281,1.2077976e-05,0.00044716115,-4.787714e-05,0.0005697779,0.008334735,1.0732832e-05,3.284635e-05,0.0017204176,0.00082919677
8.007344e-05,-0.0005132272,3.4623547e-06,-0.00047785765,-0.0012742645,5.820653e-05,-8.406409e-05,9.884318e-06,0.00043440613,-4.4453063e-05,0.00057353947,0.007123,8.212116e-06,3.1093903e-05,0.0016617936,0.00082294224
8.436235e-05,-0.00052805897,3.9648344e-06,-0.0005169869,-0.0012419587,5.636085e-05,-9.805325e-05,1.1421801e-05,0.00044905217,-4.6820598e-05,0.00057867594,0.007915795,9.690859e-06,3.2679578e-05,0.001734518,0.0008176102
8.393067e-05,-0.00053962454,4.6364107e-06,-0.00058397785,-0.0012036399,3.7529313e-05,-0.00011561271,1.3062561e-05,0.00047742808,-4.8070768e-05,0.0005933972,0.008811577,1.1562102e-05,3.5711917e-05,0.001772538,0.000757965
8.847833e-05,-0.00053833605,4.2110746e-06,-0.0005375016,-0.0011824494,5.690271e-05,-0.00010323172,1.2097546e-05,0.0004636991,-4.8887872e-05,0.0005937367,0.008207746,1.0154589e-05,3.4308458e-05,0.0017397559,0.00080881326
8.7686276e-05,-0.0005336153,4.6757095e-06,-0.00057639345,-0.0011722647,4.643864e-05,-0.000117658885,1.3442826e-05,0.00047234196,-4.966489e-05,0.0005857612,0.008953462,1.17975915e-05,3.5300018e-05,0.0017907771,0.00079724693
8.632537e-05,-0.00054282986,4.7174503e-06,-0.00058830436,-0.0012067829,4.1770607e-05,-0.00011892553,1.3470068e-05,0.00047715302,-4.9724847e-05,0.00059270585,0.008989938,1.1930659e-05,3.590248e-05,0.0017689845,0.0007791516
5.4907807e-05,-0.0005713912,1.291588e-05,-0.0013316274,-0.0015892634,-0.0004660614,-0.00037017092,3.1024625e-05,0.000679201,-4.9431877e-05,0.000655821,0.018715989,4.3168246e-05,6.104545e-05,0.0018843402,0.00039136515
4.03174e-05,-0.00045956523,6.6390553e-06,-0.0009732881,-0.0015515354,-0.00019777144,-0.0001719755,1.4569172e-05,0.0006063075,-3.7691214e-05,0.00065948075,0.010849698,1.8663904e-05,5.180055e-05,0.0014638335,0.0003595471
3.9398037e-05,-0.00039856913,6.4606083e-06,-0.00090435636,-0.0015784357,-0.00020877848,-0.00018153868,1.5154703e-05,0.0005465481,-3.8512444e-05,0.00057773193,0.011410372,2.0700938e-05,4.5245768e-05,0.0014516091,0.00043954203
3.8416892e-05,-0.00038236083,4.6995765e-06,-0.0007360716,-0.0016672948,-0.00011528147,-0.00012947914,1.1220461e-05,0.00049133046,-3.604766e-05,0.00055231905,0.00905902,1.4423645e-05,3.8664188e-05,0.0013495751,0.0004963624
4.022875e-05,-0.00032187658,1.8325597e-06,-0.00036701598,-0.0018076906,1.9744086e-05,-4.024366e-05,4.3670966e-06,0.00038235428,-2.896494e-05,0.000573653,0.004242094,4.043497e-06,2.571234e-05,0.0011041131,0.00069924525
3.0930056e-05,-0.00026189056,1.722003e-06,-0.00033699485,-0.0017363583,6.9227104e-07,-3.0686664e-05,3.3834037e-06,0.00040879237,-1.9185245e-05,0.0006036222,0.0036539927,3.1148602e-06,2.5821424e-05,0.0011459476,0.000576403
3.5155805e-05,-0.00030804027,1.8074905e-06,-0.0003576612,-0.0016830062,5.4115394e-06,-3.3313325e-05,3.694057e-06,0.00041738045,-2.1458827e-05,0.00062212616,0.0037858204,3.2528412e-06,2.7238933e-05,0.0011809838,0.00054063066
5.052486e-05,-0.0003780726,2.273906e-06,-0.0003906647,-0.0015261176,2.501221e-05,-4.8385577e-05,5.510008e-06,0.00040937553,-3.0086903e-05,0.0005885353,0.0048860316,4.724832e-06,2.7492313e-05,0.001368441,0.0006913393
6.712936e-05,-0.00046016838,3.3004205e-06,-0.00047958829,-0.001287875,3.5670208e-05,-7.901744e-05,8.897585e-06,0.00043401687,-3.9247443e-05,0.0005626099,0.0067897174,7.828627e-06,3.067394e-05,0.0016078273,0.00075470726
8.3461215e-05,-0.00052445463,3.6632127e-06,-0.00049288926,-0.001270954,6.169003e-05,-9.050676e-05,1.0628968e-05,0.00043821198,-4.654022e-05,0.00057367166,0.007493423,8.894598e-06,3.1683492e-05,0.0016835005,0.0008407321
8.635165e-05,-0.00052310794,3.6285014e-06,-0.0004791992,-0.0012274669,6.7487024e-05,-8.874502e-05,1.0613052e-05,0.00043487144,-4.6630295e-05,0.00057028554,0.007431843,8.676088e-06,3.1175186e-05,0.0017177266,0.0008604637
8.846865e-05,-0.0005407464,4.2066085e-06,-0.0005317529,-0.0011936357,5.8456357e-05,-0.00010392645,1.2183504e-05,0.00045785602,-4.839029e-05,0.0005827398,0.008250848,1.0258039e-05,3.3557415e-05,0.0017752098,0.00081882684
9.018543e-05,-0.00054998195,4.3779814e-06,-0.0005480237,-0.0011896724,5.6699235e-05,-0.000107655935,1.2619297e-05,0.00046782213,-4.9400864e-05,0.00059625396,0.008450314,1.0611853e-05,3.4668603e-05,0.0017748321,0.000805075
9.2032875e-05,-0.0005393913,4.2785477e-06,-0.00053253106,-0.0011375877,6.214337e-05,-0.000104240535,1.2388988e-05,0.00046397297,-4.9516468e-05,0.00059133896,0.008299252,1.0225674e-05,3.420257e-05,0.001779008,0.00082482275
9.321175e-05,-0.00054579874,4.7520125e-06,-0.00057221536,-0.0011419139,5.5449793e-05,-0.00011833845,1.3803702e-05,0.00047566998,-5.123098e-05,0.000592741,0.009028578,1.1778172e-05,3.5590365e-05,0.0018175102,0.0008154923
9.413333e-05,-0.0005467859,4.3046807e-06,-0.0005324159,-0.0011548159,6.651635e-05,-0.0001057172,1.2613365e-05,0.00046250122,-5.068944e-05,0.0005909321,0.008384596,1.0384781e-05,3.417332e-05,0.0017786359,0.0008434911
9.134907e-05,-0.00054560305,4.6183063e-06,-0.0005642827,-0.0011745521,5.533349e-05,-0.000115470175,1.3425958e-05,0.00047018053,-5.0502706e-05,0.0005897601,0.008866118,1.1499715e-05,3.5022134e-05,0.0018036838,0.0008160624
9.0903886e-05,-0.00054403656,4.3689633e-06,-0.00054507767,-0.0011622133,5.8589714e-05,-0.00010752055,1.2636598e-05,0.00046660722,-4.976204e-05,0.0005916677,0.008452495,1.06001435e-05,3.4576202e-05,0.0017740047,0.0008161961
8.950281e-05,-0.00054567313,4.698144e-06,-0.00057702063,-0.001190419,4.9261645e-05,-0.00011777918,1.3546242e-05,0.00047458586,-5.0262406e-05,0.0005936045,0.008965154,1.1768548e-05,3.553904e-05,0.001793181,0.0007983277
6.999923e-05,-0.00055752246,8.03069e-06,-0.000910705,-0.0013390473,-0.00012806647,-0.00021545259,2.0868405e-05,0.0005750855,-4.9726987e-05,0.00062926975,0.013178141,2.3312658e-05,4.73765e-05,0.0018503829,0.00055528997
6.192031e-05,-0.00050850044,5.5186524e-06,-0.0007477583,-0.0013502764,-5.4260578e-05,-0.0001408322,1.392336e-05,0.0005326295,-4.4199118e-05,0.00062904856,0.009788724,1.4649266e-05,4.2509862e-05,0.0016128722,0.00056064205
6.3176085e-05,-0.0004627379,4.723242e-06,-0.00064612663,-0.0013067622,-1.7733111e-05,-0.00012430322,1.2583681e-05,0.00048022586,-4.383585e-05,0.000572175,0.009072042,1.3022979e-05,3.678079e-05,0.0016059318,0.0006680189
6.82683e-05,-0.00047050815,3.8735975e-06,-0.00054741726,-0.0013335033,2.7098715e-05,-0.00010153212,1.0860117e-05,0.00044127213,-4.415656e-05,0.0005478526,0.007963753,1.0416509e-05,3.2542594e-05,0.0015893654,0.00077373156
5.5310968e-05,-0.00049442257,5.7593984e-06,-0.0007622718,-0.0017324509,-9.009543e-05,-0.00015619955,1.4783668e-05,0.00051041576,-4.2469463e-05,0.0005952996,0.010559542,1.7135088e-05,4.0179282e-05,0.0016145608,0.00057825114
4.273983e-05,-0.0004204678,3.9815277e-06,-0.00064229715,-0.0016563239,-5.6351484e-05,-9.692636e-05,9.169966e-06,0.0004947445,-3.3330794e-05,0.00061221886,0.007534905,1.0171157e-05,3.7575093e-05,0.0014023932,0.0004956869
3.865017e-05,-0.00043810648,6.860944e-06,-0.00093979266,-0.0017613766,-0.00022904479,-0.00018464703,1.5483509e-05,0.0005737796,-3.6575482e-05,0.0006117442,0.011632809,2.1003652e-05,4.749633e-05,0.0015100697,0.00040179028
3.6569352e-05,-0.00040222143,4.847157e-06,-0.0007807882,-0.0016504794,-0.00012797007,-0.0001266301,1.0889764e-05,0.0005274964,-3.408593e-05,0.00059928565,0.008842142,1.3771626e-05,4.2256186e-05,0.0013567817,0.00041944283
4.2975178e-05,-0.00037950516,3.2888693e-06,-0.0005607492,-0.0016811241,-2.519347e-05,-8.447074e-05,8.086042e-06,0.00044264205,-3.4587127e-05,0.00056409894,0.0068468167,8.932542e-06,3.273498e-05,0.0013024275,0.0005978892
3.7794918e-05,-0.00036367524,3.7012169e-06,-0.0005975475,-0.0017854577,-6.0206454e-05,-9.026575e-05,8.437094e-06,0.0004696445,-3.0973224e-05,0.00057557743,0.0072957,9.851355e-06,3.4566612e-05,0.001341053,0.0005374734
3.8918202e-05,-0.00031546212,1.5851119e-06,-0.00033076212,-0.0016646317,1.9623592e-05,-3.1402542e-05,3.5565033e-06,0.00038483672,-2.5202524e-05,0.000594097,0.0035922776,3.0073058e-06,2.5122683e-05,0.0011191455,0.0006277607
4.8574722e-05,-0.00033254825,1.7877746e-06,-0.00031694135,-0.001523367,3.2301123e-05,-3.5567562e-05,4.303397e-06,0.00037816048,-2.7293881e-05,0.00056863134,0.0040572984,3.4490406e-06,2.4004767e-05,0.0013078331,0.0007838663
6.1247505e-05,-0.00042804074,2.6701023e-06,-0.00041298248,-0.0014184815,3.786652e-05,-5.9849375e-05,6.960726e-06,0.00041310227,-3.4714703e-05,0.0005679232,0.0056833867,5.868797e-06,2.80336e-05,0.0015153082,0.0007743164
6.404262e-05,-0.00050446537,4.4748467e-06,-0.00061358337,-0.0015308472,-7.4190934e-06,-0.00011191464,1.1713152e-05,0.00048024597,-4.127178e-05,0.0006055898,0.008518468,1.15517505e-05,3.596016e-05,0.0016434644,0.0006529359
6.0131977e-05,-0.00048961455,4.7884623e-06,-0.0006656734,-0.0013387585,-3.2023738e-05,-0.00011827271,1.1989701e-05,0.0005077647,-4.0329516e-05,0.0006113113,0.008755095,1.2143481e-05,3.8935137e-05,0.0016291281,0.00057583686
6.775203e-05,-0.00049462647,5.28944e-06,-0.00069041504,-0.0012562961,-2.5512541e-05,-0.00013637588,1.3951513e-05,0.00050685374,-4.5582052e-05,0.0005977987,0.009689155,1.4183057e-05,3.9491926e-05,0.0016728621,0.00064155966
7.4642456e-05,-0.0004836218,3.9845477e-06,-0.00054520037,-0.0012485653,3.7984923e-05,-0.000102767415,1.1304146e-05,0.00044755609,-4.6191723e-05,0.00055923255,0.0080736,1.04116925e-05,3.3151617e-05,0.0016282866,0.00079543446
7.466474e-05,-0.00050211116,4.046649e-06,-0.0005463297,-0.0013861884,3.80632e-05,-0.00010579484,1.1612029e-05,0.00044297494,-4.5929515e-05,0.00055887806,0.0082513355,1.0825992e-05,3.2572912e-05,0.0016604743,0.0008053009
7.0773065e-05,-0.00048820654,3.334806e-06,-0.00048334216,-0.0013965268,4.4026623e-05,-8.1726605e-05,9.264545e-06,0.00043068998,-4.176153e-05,0.0005707373,0.006941379,8.1119015e-06,3.078436e-05,0.001588187,0.0007894253
7.382412e-05,-0.00049276475,3.4140223e-06,-0.0004823801,-0.0013442154,4.7916856e-05,-8.321627e-05,9.552996e-06,0.00043254974,-4.2369236e-05,0.00057189394,0.0070520355,8.226706e-06,3.0869436e-05,0.0016303055,0.0007977135
7.949113e-05,-0.0005125811,3.7784314e-06,-0.00050900044,-0.0012377824,4.9933056e-05,-9.251949e-05,1.0674073e-05,0.00044673012,-4.476329e-05,0.00057511183,0.007586874,9.124064e-06,3.2330627e-05,0.0016972411,0.000793998
8.701022e-05,-0.0005353789,4.047034e-06,-0.0005222104,-0.0012124489,5.909016e-05,-9.9859324e-05,1.1705664e-05,0.00045363657,-4.8018668e-05,0.000583183,0.008022486,9.8371065e-06,3.321727e-05,0.0017390008,0.0008222578
8.8249886e-05,-0.0005376829,4.279976e-06,-0.00054031145,-0.0011863017,5.62713e-05,-0.00010598851,1.2362135e-05,0.0004612603,-4.8745667e-05,0.0005852263,0.008356415,1.04862875e-05,3.400235e-05,0.001767629,0.0008140842
8.911063e-05,-0.0005435828,4.474264e-06,-0.00055801816,-0.0011828799,5.320316e-05,-0.000111108515,1.2891344e-05,0.000468996,-4.9535494e-05,0.00059117336,0.008622896,1.1024383e-05,3.4868062e-05,0.0017772954,0.0008037435
8.892066e-05,-0.0005418471,4.473203e-06,-0.0005586109,-0.0011831999,5.28212e-05,-0.0001110895,1.2878214e-05,0.0004692276,-4.9549202e-05,0.00059187534,0.008621221,1.102681e-05,3.4916673e-05,0.0017725677,0.0008034158
9.453251e-05,-0.0005334565,3.791701e-06,-0.00048135393,-0.0011316866,7.681975e-05,-9.147565e-05,1.1232423e-05,0.00044327762,-4.9389593e-05,0.0005782585,0.007637124,8.857245e-06,3.2060052e-05,0.0017488019,0.000885136
0.00010591057,-0.0005403939,3.419029e-06,-0.00042024054,-0.0010920841,0.00010072729,-8.090139e-05,1.0641082e-05,0.00042057608,-5.11313e-05,0.00056288403,0.0071417578,7.691531e-06,2.962869e-05,0.0017849548,0.0010002499
0.00010708577,-0.0005678438,4.124125e-06,-0.00048417697,-0.0011193374,9.409634e-05,-0.00010027245,1.2700165e-05,0.00044549428,-5.2905347e-05,0.00057891756,0.008194381,9.705087e-06,3.213539e-05,0.0018676191,0.00093556504
0.00010547721,-0.0005769157,4.1835556e-06,-0.0004978054,-0.0011122748,8.494036e-05,-9.885723e-05,1.2497081e-05,0.00046071212,-5.198615e-05,0.00060393556,0.008103511,9.469729e-06,3.356033e-05,0.0018404523,0.0008747192
9.232506e-05,-0.00057578593,6.5675936e-06,-0.00072733057,-0.0011397687,1.5040968e-06,-0.00016375502,1.813438e-05,0.0005398855,-5.276296e-05,0.00063973066,0.011181614,1.6674485e-05,4.2405223e-05,0.001928459,0.0006873792
8.6205604e-05,-0.0005467389,6.189037e-06,-0.0007214249,-0.0011090004,-4.9318796e-06,-0.0001502465,1.6487384e-05,0.0005467683,-5.079002e-05,0.0006498541,0.010528619,1.5206316e-05,4.3340395e-05,0.0018188113,0.00065898115
6.644476e-05,-0.0005303045,1.0357241e-05,-0.0010925718,-0.0013106128,-0.0002494299,-0.00028454303,2.6124595e-05,0.00062593515,-5.1859723e-05,0.0006433742,0.0158794,3.1920055e-05,5.413499e-05,0.0018715373,0.0004983792
4.2291365e-05,-0.0004968715,1.1821396e-05,-0.0013604052,-0.0016040598,-0.0004967784,-0.00033895802,2.662221e-05,0.0006892924,-4.462124e-05,0.0006471406,0.017408827,3.9988652e-05,6.327502e-05,0.0016566487,0.00033427222
1.7579267e-05,-0.00045239838,2.4485704e-05,-0.0028902867,-0.002650374,-0.0020874308,-0.0009656485,4.8842332e-05,0.0010110352,-3.7841477e-05,0.0006753598,0.03380637,0.00013396934,0.00011108734,0.0014984368,0.00011460868
7.961425e-06,-0.00023804947,9.00625e-06,-0.002027691,-0.0030233194,-0.00081416377,-0.00031798994,1.550759e-05,0.0008791762,-1.9839517e-05,0.00066232163,0.014618217,3.8960115e-05,9.181408e-05,0.0010915879,6.30453e-05
6.37115e-06,-0.0001486115,5.288396e-06,-0.0013087301,-0.0033408336,-0.00042755425,-0.00015111842,8.1926e-06,0.0007089183,-1.4923756e-05,0.0006103037,0.009008741,1.8724424e-05,6.626125e-05,0.0009096708,7.908153e-05
3.1743489e-06,-7.022383e-05,1.7815754e-06,-0.00063705706,-0.0033330505,-9.8717275e-05,-3.0213985e-05,1.9212703e-06,0.0006116103,-5.696555e-06,0.000654458,0.003174017,3.7375378e-06,4.6450717e-05,0.00067381846,3.667327e-05
1.9748336e-06,-3.3008513e-05,4.4451767e-07,-0.00025039894,-0.0029965518,-1.3668427e-05,-4.158107e-06,3.343698e-07,0.00048805022,-6.734724e-08,0.00072753895,0.00082052953,4.7714326e-07,2.9356506e-05,0.00054730516,-0.000120341574
1.6150871e-06,-2.2028313e-05,1.2664246e-07,-8.042531e-05,-0.0022105568,-1.2619513e-06,-5.1815357e-07,6.1093864e-08,0.00042524395,8.668559e-06,0.0006729949,0.00021699235,4.9701455e-08,1.7282471e-05,0.0006257265,-0.00045801944
2.1670746e-06,-3.121338e-05,1.6600536e-07,-8.26161e-05,-0.0021249417,-1.4161809e-06,-6.5468055e-07,8.319895e-08,0.00044452286,1.149033e-05,0.0006895064,0.00027497957,6.4403245e-08,1.7654052e-05,0.00067684386,-0.00038659683
3.0291217e-06,-4.5535664e-05,2.0982006e-07,-0.00010331851,-0.0020633696,-1.8069367e-06,-1.0211504e-06,1.2399693e-07,0.0004439921,1.01551705e-05,0.0007269209,0.0003529299,9.349149e-08,1.9487106e-05,0.00070874,-0.0003852276
6.6345415e-06,-8.326295e-05,3.7685066e-07,-0.00014581284,-0.001905031,-2.5326501e-06,-2.8060215e-06,3.3222764e-07,0.0004196884,4.9205096e-06,0.00073040085,0.00070038036,2.5382099e-07,2.0706788e-05,0.0007500975,-0.00015030778
2.181474e-05,-0.00021493566,1.3726348e-06,-0.00031443866,-0.0017526707,-7.872766e-06,-2.1474709e-05,2.2860334e-06,0.00042354633,-1.2691887e-05,0.0006366436,0.0028044186,2.1291962e-06,2.6150645e-05,0.0010337821,0.00038780595
3.9122315e-05,-0.00035525163,2.8101083e-06,-0.00048958836,-0.0017020858,-1.7271224e-05,-6.237177e-05,6.278906e-06,0.0004465582,-2.8194881e-05,0.0005950002,0.005704852,6.46097e-06,3.142621e-05,0.0013028283,0.00056114595
4.4193024e-05,-0.00038718135,3.048371e-06,-0.0005113861,-0.0016477357,-1.24091775e-05,-7.061291e-05,7.1577706e-06,0.000448385,-3.133371e-05,0.0005920377,0.0061836257,7.2730018e-06,3.2061427e-05,0.0013622908,0.0005886467
4.8671223e-05,-0.00041768287,3.599039e-06,-0.0005642887,-0.0015680521,-2.0411722e-05,-8.7727974e-05,8.779733e-06,0.00046122854,-3.4626984e-05,0.0005836045,0.0071477313,9.120399e-06,3.3765024e-05,0.0014528442,0.00059928565
5.6642803e-05,-0.00043931304,3.267182e-06,-0.000512476,-0.0014604308,1.3219103e-05,-8.0117854e-05,8.463817e-06,0.00043964208,-3.7388574e-05,0.000572339,0.0067393635,8.09713e-06,3.174451e-05,0.0014745578,0.0006828353
6.5516884e-05,-0.0004562641,3.1409886e-06,-0.00047141736,-0.001403071,3.8760976e-05,-7.720149e-05,8.613343e-06,0.00042209847,-3.990164e-05,0.00055879337,0.006659758,7.71408e-06,2.9930774e-05,0.0015383129,0.000784607
7.5275944e-05,-0.00047340547,2.7862852e-06,-0.00040939703,-0.001318033,6.4067885e-05,-6.621683e-05,7.9909205e-06,0.00040279125,-4.1288582e-05,0.00055142853,0.0060927207,6.413187e-06,2.7779599e-05,0.001578419,0.0008843587
8.372299e-05,-0.0005059915,3.107622e-06,-0.00042616756,-0.0012964853,7.317522e-05,-7.454379e-05,9.148303e-06,0.00041161757,-4.4177727e-05,0.00055868144,0.0066412836,7.2299617e-06,2.8638273e-05,0.0016726101,0.00090745575
7.89954e-05,-0.0005397541,4.6539076e-06,-0.00059248914,-0.0013052974,2.6348196e-05,-0.0001170142,1.2962748e-05,0.00047573252,-4.6143086e-05,0.0005926705,0.008854277,1.1821756e-05,3.5402514e-05,0.0017735253,0.00073359685
7.961471e-05,-0.00053888734,4.5442043e-06,-0.0005929963,-0.0012243255,2.7347482e-05,-0.000110675064,1.2381056e-05,0.00048808765,-4.629042e-05,0.000614341,0.008515096,1.0978951e-05,3.678645e-05,0.001719821,0.0007036469
8.4645675e-05,-0.00051851163,4.718406e-06,-0.00058856676,-0.0011346661,3.6464033e-05,-0.00011668283,1.32113755e-05,0.00048246776,-4.8568345e-05,0.0005960047,0.008892804,1.1679238e-05,3.6326277e-05,0.0017617899,0.00076236366
8.880686e-05,-0.000523983,4.757415e-06,-0.0005819408,-0.0011475853,4.80709e-05,-0.000121093384,1.3797839e-05,0.00047186282,-5.0965078e-05,0.00057878654,0.009134728,1.220778e-05,3.5491903e-05,0.0017814549,0.0008162574
8.724379e-05,-0.00053966045,4.370859e-06,-0.0005537531,-0.0012584694,5.502252e-05,-0.00011154897,1.2794271e-05,0.00045833728,-4.996731e-05,0.00058013044,0.008623434,1.1187538e-05,3.406314e-05,0.0017441572,0.00082957826
8.302477e-05,-0.0005251441,3.9581732e-06,-0.000521318,-0.0012463047,5.411023e-05,-9.846294e-05,1.1378392e-05,0.00044936466,-4.6857454e-05,0.00057683134,0.007921111,9.75497e-06,3.2817832e-05,0.0017144798,0.0008141328
8.043708e-05,-0.00053573085,4.6880286e-06,-0.00059687067,-0.0012664659,2.9308745e-05,-0.00011905097,1.3177156e-05,0.000476038,-4.761314e-05,0.0005896742,0.008953885,1.2039495e-05,3.5729438e-05,0.0017543557,0.0007482514
7.053562e-05,-0.00053974,6.0431953e-06,-0.00074978225,-0.0013370621,-4.513202e-05,-0.00015747889,1.5987007e-05,0.0005270507,-4.7142956e-05,0.00061460154,0.010685244,1.6512988e-05,4.163102e-05,0.001755797,0.0006166329
3.6303292e-05,-0.0005567934,2.1118878e-05,-0.002050898,-0.0018723436,-0.001175051,-0.0006521379,4.482372e-05,0.0008550767,-4.5777186e-05,0.00068973255,0.026930341,8.251532e-05,8.577421e-05,0.0018301128,0.00022633372
2.3517761e-05,-0.00038007207,8.052031e-06,-0.0013078243,-0.0018731118,-0.00040633258,-0.00022130867,1.5525206e-05,0.00069748744,-3.1455915e-05,0.000674741,0.0122993365,2.5180252e-05,6.499102e-05,0.0013016246,0.00020335539
2.1497766e-05,-0.0003086368,7.9910615e-06,-0.0011910256,-0.0019975894,-0.00047209454,-0.00023957586,1.643016e-05,0.0006148807,-3.1463307e-05,0.00056654465,0.013416562,2.9631718e-05,5.4583936e-05,0.0012375899,0.00026291359
1.9563788e-05,-0.00025861364,3.591685e-06,-0.00071784796,-0.0021301738,-0.00014693107,-9.22132e-05,7.0829974e-06,0.00049739936,-2.5204497e-05,0.00056487904,0.0070015574,1.0648232e-05,3.9072343e-05,0.0010058838,0.00032730462
1.4707258e-05,-0.00014589904,8.387839e-07,-0.00025089082,-0.0020912716,-2.8778227e-06,-1.27374715e-05,1.3337805e-06,0.00036967616,-1.3379573e-05,0.000631701,0.0019596769,1.3307098e-06,2.2274231e-05,0.00065833016,0.0003666023
1.0110937e-05,-9.0373265e-05,3.103665e-07,-0.00011283069,-0.0016830664,1.7807644e-06,-2.4660455e-06,3.4164626e-07,0.00034630066,8.86995e-07,0.0006671745,0.0006790089,2.1284811e-07,1.6206413e-05,0.0006929728,1.0185606e-06
1.4943014e-05,-0.00013663582,5.094556e-07,-0.00015261615,-0.00170444,2.7906235e-06,-4.797505e-06,6.445433e-07,0.00037422669,-1.3397655e-06,0.00068961066,0.0010620281,4.1947553e-07,1.9188199e-05,0.00083030807,0.00013543438
2.8291865e-05,-0.00022824094,9.5147516e-07,-0.00022005339,-0.0015940779,1.057694e-05,-1.2671581e-05,1.6447334e-06,0.00038329567,-1.1036393e-05,0.00065906584,0.002031839,1.1299583e-06,2.1947402e-05,0.0010550708,0.00041805045
6.350254e-05,-0.00042294431,2.527607e-06,-0.00039114634,-0.0013388623,4.2877244e-05,-5.492223e-05,6.582097e-06,0.00041029425,-3.4140983e-05,0.0005738016,0.005381501,5.273348e-06,2.7516064e-05,0.0015350555,0.0007672415
8.8612294e-05,-0.00053133524,3.916499e-06,-0.00050284376,-0.001146125,6.2760446e-05,-9.41659e-05,1.1266845e-05,0.00045225455,-4.70878e-05,0.0005822284,0.007742515,9.161026e-06,3.2750635e-05,0.0017606174,0.0008215291
9.741328e-05,-0.0005548201,4.4072667e-06,-0.0005337037,-0.0011357479,6.974388e-05,-0.00010741565,1.2957595e-05,0.00046617564,-5.130784e-05,0.000596163,0.008500746,1.0515445e-05,3.4434925e-05,0.0018111959,0.00084615155
9.227644e-05,-0.00055425894,5.1288152e-06,-0.0006080865,-0.0011486721,4.3316788e-05,-0.00012787948,1.468357e-05,0.0004906791,-5.1381412e-05,0.00060427503,0.009491709,1.2800949e-05,3.715233e-05,0.0018401145,0.00077768794
9.231131e-05,-0.00054606586,4.578237e-06,-0.00056292117,-0.0011397363,5.5352368e-05,-0.00011192438,1.3139526e-05,0.0004775626,-5.0543724e-05,0.00060287415,0.008692414,1.10363535e-05,3.574566e-05,0.0017804499,0.00080199825
9.386196e-05,-0.0005364095,4.4107132e-06,-0.00053958787,-0.001135259,6.4706874e-05,-0.0001090657,1.2934223e-05,0.00046331453,-5.0842922e-05,0.00058627425,0.008568221,1.0780855e-05,3.4291847e-05,0.0017916654,0.00084723963
9.6594296e-05,-0.00054102845,4.112213e-06,-0.0005065314,-0.0011304513,7.609012e-05,-0.00010093335,1.2260115e-05,0.0004509775,-5.0921997e-05,0.00057810295,0.008159295,9.875856e-06,3.294147e-05,0.0017879863,0.0008846139
9.332321e-05,-0.0005573004,4.6406285e-06,-0.0005626945,-0.0012025613,5.9680147e-05,-0.00011671568,1.36386925e-05,0.00046825103,-5.1252107e-05,0.00059013546,0.0089356825,1.1626072e-05,3.4846074e-05,0.0018164923,0.0008288652
9.308354e-05,-0.0005432474,3.901518e-06,-0.0004966738,-0.0011483758,7.074784e-05,-9.36011e-05,1.138757e-05,0.00045200298,-4.886872e-05,0.000589198,0.0077339737,9.054506e-06,3.2873035e-05,0.0017524946,0.0008471911
9.275344e-05,-0.000549867,4.874965e-06,-0.00058276823,-0.0011573185,5.1784395e-05,-0.0001218793,1.4130442e-05,0.00047860673,-5.1098836e-05,0.0005950158,0.009201363,1.2171084e-05,3.586076e-05,0.001835005,0.0008042386
9.081612e-05,-0.0005494797,4.7609788e-06,-0.00058228965,-0.0011485905,4.8274116e-05,-0.00011728464,1.3580473e-05,0.0004832824,-5.0423576e-05,0.0006030269,0.008949469,1.1633513e-05,3.63564e-05,0.0017940569,0.0007825625
9.382818e-05,-0.0005400743,4.249609e-06,-0.0005272652,-0.0011499429,6.70924e-05,-0.00010414535,1.2448229e-05,0.00046055476,-5.049189e-05,0.0005905598,0.008306386,1.0227118e-05,3.3981705e-05,0.0017703499,0.0008485065
9.768208e-05,-0.00053413626,3.949892e-06,-0.00048724076,-0.001103888,8.060121e-05,-9.60097e-05,1.1831671e-05,0.00044466084,-5.054841e-05,0.0005731513,0.007913366,9.338611e-06,3.2201184e-05,0.0017884157,0.00090350036
0.00010373691,-0.00055558514,3.8827425e-06,-0.0004707152,-0.0011330267,9.219832e-05,-9.413693e-05,1.1904016e-05,0.00043922468,-5.206954e-05,0.0005760467,0.007846185,9.0941085e-06,3.1631855e-05,0.0018086986,0.0009425425
0.000104876235,-0.00055965444,3.779959e-06,-0.00045832194,-0.0011166136,9.3179195e-05,-8.988582e-05,1.1539971e-05,0.00043860474,-5.133564e-05,0.0005808677,0.0076229144,8.595227e-06,3.137055e-05,0.0018167727,0.00093490473
0.00011401532,-0.00056154636,3.5289017e-06,-0.0004176465,-0.0010405637,0.00010484917,-8.0466605e-05,1.0941765e-05,0.00043185434,-5.216175e-05,0.0005831517,0.0071686683,7.5155863e-06,3.0456533e-05,0.0018293505,0.0009814942
0.00012292314,-0.0005736142,4.042539e-06,-0.0004478685,-0.0010011868,0.00011115606,-9.263772e-05,1.262746e-05,0.00044908622,-5.5226425e-05,0.00059561117,0.007911349,8.711343e-06,3.2143238e-05,0.0019108164,0.0009805977
0.00013039619,-0.0005824492,4.123522e-06,-0.00044427995,-0.0009665272,0.00011507117,-9.1768816e-05,1.2852825e-05,0.00045836958,-5.65025e-05,0.0006127496,0.007917679,8.523988e-06,3.2937212e-05,0.0019219118,0.0009776582
0.00013042068,-0.0005850525,4.8842485e-06,-0.00050815975,-0.0009642341,0.00010664903,-0.00011050263,1.4919222e-05,0.0004862713,-5.7904388e-05,0.0006339163,0.008919317,1.0438996e-05,3.584232e-05,0.0019757086,0.00091958535
0.00012463365,-0.00058012886,5.6096237e-06,-0.0005796987,-0.00095971226,8.486582e-05,-0.0001275821,1.6479013e-05,0.00051774527,-5.7683494e-05,0.0006557379,0.009753523,1.2228094e-05,3.927072e-05,0.0019808866,0.0008389051
0.000115417926,-0.0005706146,6.381046e-06,-0.00066008786,-0.0009975282,5.5177552e-05,-0.0001493689,1.821364e-05,0.00054158684,-5.753694e-05,0.0006656726,0.010744867,1.46931725e-05,4.224253e-05,0.0019726765,0.0007807984
0.00011002478,-0.0005450095,5.4352017e-06,-0.0005952502,-0.0009965252,6.6827655e-05,-0.00012795371,1.5711881e-05,0.00050929777,-5.5577944e-05,0.00063399266,0.009677882,1.2526863e-05,3.8938335e-05,0.0018916911,0.0008286153
0.00010731344,-0.0005394466,5.1330285e-06,-0.000572311,-0.0010450569,7.476032e-05,-0.00012629281,1.5335636e-05,0.00048350662,-5.580863e-05,0.0006004186,0.009560711,1.252405e-05,3.6494617e-05,0.0018841063,0.0008818665
0.00010193006,-0.00055287906,4.7270946e-06,-0.0005515606,-0.0011111349,7.397731e-05,-0.00011731736,1.4138609e-05,0.0004702488,-5.3907046e-05,0.000591082,0.009045636,1.15999355e-05,3.5077355e-05,0.001844559,0.00087497575
9.4726594e-05,-0.00055867166,4.7310773e-06,-0.00056909595,-0.0011793654,5.9373222e-05,-0.00011814661,1.3852893e-05,0.00047401697,-5.1787472e-05,0.0005967094,0.009020136,1.1742842e-05,3.5447094e-05,0.0018190178,0.000823745
9.086729e-05,-0.00054551364,4.445478e-06,-0.0005519914,-0.0011579845,5.6206554e-05,-0.00010903103,1.2791075e-05,0.0004707136,-4.967007e-05,0.00059607433,0.008532125,1.07493925e-05,3.496013e-05,0.0017817864,0.0008049134
8.7153494e-05,-0.000547456,5.256256e-06,-0.0006320247,-0.0011865053,2.8732218e-05,-0.00013296456,1.4857778e-05,0.0004947323,-5.057715e-05,0.00060292473,0.0096951,1.345872e-05,3.77542e-05,0.0018158843,0.00075036724
8.399815e-05,-0.00053755695,4.8802344e-06,-0.0006102302,-0.0011937693,3.0878604e-05,-0.00012229946,1.36694425e-05,0.00048804883,-4.92376e-05,0.0006017381,0.009141545,1.2297987e-05,3.7072918e-05,0.0017572035,0.0007464396
9.010824e-05,-0.00052034843,3.774313e-06,-0.00048941886,-0.0011566111,7.0701084e-05,-9.227413e-05,1.1098145e-05,0.00044213573,-4.873206e-05,0.0005745601,0.00764683,9.009723e-06,3.2110027e-05,0.001713462,0.00087408576
9.0630325e-05,-0.00053487194,4.3913446e-06,-0.0005414987,-0.0011887804,6.212942e-05,-0.00011159625,1.3001175e-05,0.00045445198,-5.0231578e-05,0.0005696466,0.008668184,1.1161484e-05,3.345438e-05,0.0017981693,0.00085423945
8.39379e-05,-0.0005538861,4.76786e-06,-0.00059931556,-0.0012806052,3.525068e-05,-0.000121125006,1.3547904e-05,0.00047847853,-4.9044684e-05,0.0005962816,0.009072073,1.2208842e-05,3.603549e-05,0.0017677218,0.00075994537
8.0857455e-05,-0.0005294051,4.1961407e-06,-0.00055356364,-0.0012441177,4.1507417e-05,-0.000103445906,1.1748305e-05,0.00046655012,-4.652032e-05,0.0005955238,0.008156947,1.025564e-05,3.4611527e-05,0.0017061449,0.0007589791
7.798477e-05,-0.0005265832,5.354053e-06,-0.0006614533,-0.0012156436,2.3850434e-06,-0.000137095,1.4693191e-05,0.00049986574,-4.8041537e-05,0.00059601385,0.009824271,1.40810125e-05,3.8386715e-05,0.0017790312,0.00069884
8.325523e-05,-0.00052259443,4.138136e-06,-0.0005445969,-0.0012025466,4.9011276e-05,-0.0001028148,1.1772529e-05,0.0004616662,-4.8047023e-05,0.0005866022,0.00813593,1.0188939e-05,3.4309385e-05,0.0016890178,0.00079452916
9.284749e-05,-0.0005127476,3.2850094e-06,-0.00043148999,-0.0011711738,8.6085805e-05,-7.990281e-05,9.9917215e-06,0.00041496454,-4.826924e-05,0.0005535224,0.0069926027,7.724133e-06,2.9301284e-05,0.0017022595,0.00096087094
7.770376e-05,-0.0005562721,6.4428873e-06,-0.00074951747,-0.0013351516,-3.5016103e-05,-0.0001737734,1.7907048e-05,0.00051578676,-5.0074686e-05,0.0005927473,0.011474515,1.8391329e-05,4.0353585e-05,0.0018679112,0.0006726543
4.9484264e-05,-0.00056095625,1.049285e-05,-0.0012154182,-0.0016843976,-0.00035740485,-0.00028766316,2.425073e-05,0.0006639946,-4.4857585e-05,0.0006745044,0.01572511,3.279193e-05,5.8856003e-05,0.0017354453,0.00037508577
3.907805e-05,-0.00043636197,6.291736e-06,-0.00093063747,-0.0015389586,-0.00018680104,-0.00016263817,1.3796427e-05,0.00058989326,-3.640854e-05,0.00064477604,0.010479735,1.7711764e-05,4.9664384e-05,0.0014507759,0.0003700443
4.151664e-05,-0.00038735953,6.045536e-06,-0.000847471,-0.0014481372,-0.00017320096,-0.00016957139,1.447914e-05,0.00052777136,-3.8901708e-05,0.00055714406,0.010932574,1.9168014e-05,4.2951433e-05,0.001466163,0.00047696175
4.350491e-05,-0.00039849122,4.238563e-06,-0.00066660886,-0.0017380785,-6.7539055e-05,-0.000117032185,1.06490725e-05,0.00046506707,-3.800636e-05,0.00055128004,0.00852192,1.2882621e-05,3.58789e-05,0.0013479893,0.00057630544
3.746893e-05,-0.00031262843,1.9398706e-06,-0.0003805159,-0.0018040987,9.801563e-06,-4.1131e-05,4.395031e-06,0.00039704127,-2.6847356e-05,0.00058385305,0.0043324884,4.1785156e-06,2.6627109e-05,0.0011303553,0.000648516
3.218911e-05,-0.00027388963,1.6902623e-06,-0.00033640576,-0.001707633,3.7240698e-06,-3.0424355e-05,3.374381e-06,0.00040711818,-1.9872641e-05,0.0006071014,0.0036038647,3.0355618e-06,2.5888361e-05,0.0011468857,0.000568677
3.7402922e-05,-0.00034000262,2.5061454e-06,-0.00044682185,-0.0017222281,-1.07187025e-05,-5.1049396e-05,5.3216913e-06,0.00044563913,-2.496083e-05,0.0006166891,0.0050354833,5.203107e-06,3.0552357e-05,0.0012808862,0.00054221414
4.553739e-05,-0.00040128338,3.2668354e-06,-0.0005340839,-0.0016035301,-1.7311362e-05,-7.544786e-05,7.637704e-06,0.0004612268,-3.170146e-05,0.00060199056,0.006463112,7.740688e-06,3.3290027e-05,0.001408794,0.0005667429
5.8436002e-05,-0.00044259304,3.3854199e-06,-0.00052040326,-0.0013635145,1.318465e-05,-8.26169e-05,8.768513e-06,0.000445921,-3.781691e-05,0.00057196093,0.0068854946,8.303162e-06,3.229338e-05,0.0015130393,0.00067569193
7.138018e-05,-0.00048231098,3.659834e-06,-0.0005161661,-0.001327619,3.8989776e-05,-9.298781e-05,1.0287167e-05,0.00043687693,-4.3568474e-05,0.00055789255,0.0075495397,9.374096e-06,3.1730888e-05,0.00161379,0.0007909951
7.657494e-05,-0.00049388333,3.2351832e-06,-0.0004593323,-0.0013422718,5.924689e-05,-7.977111e-05,9.31501e-06,0.0004194813,-4.3595453e-05,0.00055845256,0.0068703867,7.864108e-06,2.973556e-05,0.0016140324,0.00085555704
7.9778954e-05,-0.00050072256,3.194749e-06,-0.0004451112,-0.00131645,6.461697e-05,-7.721877e-05,9.238401e-06,0.00041825694,-4.353172e-05,0.0005627223,0.0067611635,7.5407474e-06,2.9375879e-05,0.0016499918,0.00086817157
7.769929e-05,-0.0005282909,4.3850578e-06,-0.0005705976,-0.0013047389,3.1095886e-05,-0.00010992907,1.22292895e-05,0.0004667583,-4.543534e-05,0.0005862559,0.008488842,1.1071227e-05,3.4484325e-05,0.0017421253,0.0007463244
8.12675e-05,-0.0005318234,4.1237004e-06,-0.00054682663,-0.0012213865,4.285661e-05,-0.00010026013,1.1476874e-05,0.00046804867,-4.613443e-05,0.0005995152,0.007990525,9.86333e-06,3.464612e-05,0.0017037636,0.00075121183
8.689924e-05,-0.00052478595,4.4113667e-06,-0.0005545324,-0.0011534947,5.0032755e-05,-0.00010918057,1.2606737e-05,0.00046751532,-4.8658156e-05,0.00058692024,0.008522029,1.0851062e-05,3.4702047e-05,0.001763266,0.00079974195
9.7069664e-05,-0.0005289403,3.763433e-06,-0.00047252764,-0.001105347,8.2665516e-05,-9.115026e-05,1.1302968e-05,0.00043860762,-5.031677e-05,0.0005696254,0.00764259,8.828385e-06,3.1649983e-05,0.0017559726,0.00091794145
0.00010029505,-0.00055301486,4.0335726e-06,-0.00049017323,-0.0011783083,8.6826156e-05,-0.00010016349,1.2349729e-05,0.0004405032,-5.190018e-05,0.000572012,0.008142665,9.8111095e-06,3.1894484e-05,0.0018120708,0.0009297373
9.591168e-05,-0.0005555151,4.0286886e-06,-0.00050034904,-0.0011635197,7.4943644e-05,-9.768152e-05,1.1928605e-05,0.000451053,-4.9757014e-05,0.0005854006,0.007973429,9.488458e-06,3.2729982e-05,0.0017967551,0.00086353795
9.575908e-05,-0.0005609936,4.4959365e-06,-0.00054535153,-0.0011537625,6.4045715e-05,-0.00010934429,1.3080451e-05,0.0004714588,-5.062724e-05,0.0006024925,0.008583822,1.0711803e-05,3.4903827e-05,0.0018191679,0.00081878493
8.8941604e-05,-0.00055609824,5.7341035e-06,-0.00066863,-0.0011414376,1.7653501e-05,-0.00014271338,1.5921636e-05,0.0005159728,-5.1058236e-05,0.0006205452,0.010183891,1.4429146e-05,3.9863495e-05,0.0018567068,0.0007154138
8.6940614e-05,-0.00054232153,5.398943e-06,-0.00065000047,-0.0011511231,2.218686e-05,-0.0001340402,1.4958563e-05,0.0005092375,-5.076777e-05,0.0006197318,0.009750377,1.351671e-05,3.9355215e-05,0.0017897567,0.00072600466
8.6139175e-05,-0.0005204442,4.786821e-06,-0.0005922376,-0.0011597051,4.0113773e-05,-0.00012093108,1.3651918e-05,0.0004780547,-5.0084556e-05,0.00058888126,0.009108847,1.2197048e-05,3.611878e-05,0.0017602146,0.000789208
9.334038e-05,-0.0005177275,3.591371e-06,-0.00046308385,-0.0011435704,8.1611695e-05,-8.8193476e-05,1.0827986e-05,0.00042888327,-4.9498663e-05,0.0005594532,0.0074523147,8.58774e-06,3.0801963e-05,0.0017187635,0.000931261
8.859024e-05,-0.0005484664,4.6494793e-06,-0.00057027326,-0.0012771373,5.2852643e-05,-0.00012052575,1.3736794e-05,0.00046030572,-5.043415e-05,0.00057474984,0.009091422,1.2200706e-05,3.4174467e-05,0.0018077476,0.0008309679
8.010225e-05,-0.0005395655,4.25474e-06,-0.0005612783,-0.0012812568,3.8444316e-05,-0.00010526764,1.1885428e-05,0.00046863008,-4.630781e-05,0.0005967562,0.008242042,1.0461696e-05,3.4780922e-05,0.0017136382,0.00074880116
8.775619e-05,-0.00052084425,3.5523544e-06,-0.00047246533,-0.0011710171,6.832014e-05,-8.482281e-05,1.0286246e-05,0.00043941897,-4.6663e-05,0.0005813416,0.0072182366,8.182026e-06,3.1598862e-05,0.0016974123,0.0008476302
0.0001016946,-0.00052546797,3.5786131e-06,-0.00044126753,-0.0010585696,9.241741e-05,-8.520106e-05,1.0925529e-05,0.00042839974,-5.0263166e-05,0.0005607629,0.007362548,8.166763e-06,3.039245e-05,0.0017900018,0.0009611994
0.00010470636,-0.0005728346,4.533529e-06,-0.00052772195,-0.0011565096,8.467557e-05,-0.00011304545,1.385219e-05,0.00045835946,-5.3984528e-05,0.00058477995,0.008833273,1.1120994e-05,3.3703156e-05,0.0018713064,0.00090441003
9.341458e-05,-0.0005711621,4.738306e-06,-0.0005745301,-0.0011929716,5.400721e-05,-0.00011631412,1.3635561e-05,0.00048127797,-5.0591643e-05,0.0006100284,0.008910601,1.1478082e-05,3.5996396e-05,0.0018217852,0.00078646117
8.613888e-05,-0.00055224006,5.516228e-06,-0.0006589425,-0.0011576529,1.6204043e-05,-0.00013607604,1.5141631e-05,0.000514173,-4.9711813e-05,0.0006241322,0.009845154,1.3706772e-05,3.962417e-05,0.0018246551,0.0007013977
8.587538e-05,-0.00053115364,5.4835405e-06,-0.00065695855,-0.0011241293,1.7350829e-05,-0.00013618624,1.5109683e-05,0.0005114005,-5.0438568e-05,0.00061579846,0.009857529,1.3780728e-05,3.957954e-05,0.0017952077,0.0007205227
8.566008e-05,-0.0005220284,5.0626786e-06,-0.00061847334,-0.0011760484,3.239549e-05,-0.00012985902,1.4442183e-05,0.0004843816,-5.0915874e-05,0.0005891581,0.009539824,1.32272735e-05,3.6966103e-05,0.0017682739,0.00077968574
8.668432e-05,-0.00051881035,3.9710276e-06,-0.0005153945,-0.0012031284,6.288401e-05,-9.998503e-05,1.16657075e-05,0.00044478118,-4.8881968e-05,0.0005676129,0.008028726,9.928664e-06,3.2585296e-05,0.001711883,0.00085922546
8.467082e-05,-0.0005307652,4.147193e-06,-0.0005342005,-0.0012779117,5.5602995e-05,-0.00010564646,1.2125952e-05,0.00044860938,-4.826985e-05,0.00057064794,0.008311354,1.0588108e-05,3.2905264e-05,0.0017390719,0.00083481293
8.537842e-05,-0.0005248017,3.490445e-06,-0.00047041473,-0.0012375519,6.7275214e-05,-8.455309e-05,1.0153481e-05,0.00043335633,-4.610603e-05,0.00057372055,0.007184098,8.209413e-06,3.101017e-05,0.0016887616,0.00085381087
8.65655e-05,-0.00053771905,4.2540464e-06,-0.00053934054,-0.0012283317,5.4387125e-05,-0.000106043844,1.2293417e-05,0.00045771382,-4.8055863e-05,0.00058242027,0.008349219,1.0535114e-05,3.360425e-05,0.0017714243,0.0008116211
8.547503e-05,-0.00054424733,4.635708e-06,-0.0005821186,-0.0011894514,4.0173018e-05,-0.000114684284,1.3057986e-05,0.00047983436,-4.8444992e-05,0.00059875427,0.008774074,1.1414518e-05,3.5939498e-05,0.0017734363,0.0007584893
8.9874964e-05,-0.0005384367,4.2884735e-06,-0.0005407602,-0.0011672938,5.7921785e-05,-0.000105081235,1.2349702e-05,0.00046570384,-4.9373066e-05,0.00059474155,0.008319946,1.0343957e-05,3.451021e-05,0.0017534177,0.00081341475
9.23273e-05,-0.00053140946,4.308054e-06,-0.00053216587,-0.0011296503,6.416005e-05,-0.000106514235,1.2613142e-05,0.00045930053,-5.0073973e-05,0.00057988963,0.008425642,1.0521188e-05,3.3826145e-05,0.0017868682,0.0008467282
9.030439e-05,-0.00055243704,4.8927013e-06,-0.0005928636,-0.0012042411,4.7211553e-05,-0.00012432641,1.419551e-05,0.0004776107,-5.1227373e-05,0.00059159915,0.009290341,1.2503887e-05,3.596188e-05,0.0018097436,0.0007999464
8.477666e-05,-0.0005435682,4.547171e-06,-0.0005775427,-0.0012312161,4.1896084e-05,-0.000113583126,1.2893327e-05,0.00047473554,-4.867181e-05,0.000597402,0.008706445,1.13373e-05,3.5568988e-05,0.0017496089,0.00076949364
8.570466e-05,-0.0005270495,4.213276e-06,-0.0005408811,-0.0011786646,5.2070904e-05,-0.000103964245,1.2038616e-05,0.00046203734,-4.802039e-05,0.00058609294,0.008232723,1.0285145e-05,3.4126228e-05,0.0017384508,0.00080110267
9.214022e-05,-0.00053073495,4.010155e-06,-0.0005060418,-0.0011495503,7.028273e-05,-9.875615e-05,1.1835227e-05,0.00044835822,-4.9579874e-05,0.0005749823,0.008011561,9.690957e-06,3.2702883e-05,0.001758386,0.00086911616
9.06484e-05,-0.0005489889,4.5715105e-06,-0.00056156993,-0.001212199,5.6433546e-05,-0.000115670446,1.33935155e-05,0.0004650377,-5.05327e-05,0.0005839637,0.008864283,1.1563301e-05,3.4556026e-05,0.0018000446,0.0008255058
8.9386034e-05,-0.0005422807,4.002235e-06,-0.0005146133,-0.0011941924,6.3370186e-05,-9.761876e-05,1.1601894e-05,0.0004545222,-4.84435e-05,0.0005883327,0.0079173,9.541179e-06,3.3251137e-05,0.0017413003,0.0008275114
9.194367e-05,-0.0005392894,4.1852572e-06,-0.00052262255,-0.001159904,6.529578e-05,-0.000102705984,1.2230807e-05,0.00045685598,-4.9397055e-05,0.0005847626,0.008217896,1.0090168e-05,3.348273e-05,0.0017804969,0.0008409088
9.703627e-05,-0.0005436946,4.066465e-06,-0.0005016784,-0.0011151405,7.5901895e-05,-9.838886e-05,1.2043104e-05,0.00045300456,-5.0440838e-05,0.0005835817,0.008027981,9.561084e-06,3.3015553e-05,0.0017899526,0.00087363366
9.456436e-05,-0.0005607096,4.9496693e-06,-0.000587179,-0.0011780416,5.42553e-05,-0.00012440103,1.4455188e-05,0.00047966454,-5.2025483e-05,0.0005976956,0.009330793,1.2432033e-05,3.603547e-05,0.0018426132,0.00081130286
9.045803e-05,-0.0005491632,4.54435e-06,-0.0005637656,-0.0011564915,5.219361e-05,-0.000111046094,1.2966942e-05,0.0004773325,-4.96905e-05,0.0006028092,0.008629081,1.09463035e-05,3.564895e-05,0.0017801388,0.0007873475
9.741337e-05,-0.000535857,3.93986e-06,-0.0004894007,-0.0011073407,7.830344e-05,-9.460628e-05,1.1682078e-05,0.00044948523,-5.035604e-05,0.0005848942,0.007834232,9.1591355e-06,3.2681033e-05,0.0017693288,0.00088667194
0.0001072837,-0.0005393984,3.6542774e-06,-0.00043968525,-0.0010610863,9.971583e-05,-8.68937e-05,1.1324611e-05,0.0004298312,-5.2055908e-05,0.00056599616,0.007491737,8.307094e-06,3.0575182e-05,0.0018108673,0.0009865104
0.00010986142,-0.00057164486,4.117506e-06,-0.000479665,-0.0011172519,9.851053e-05,-9.989859e-05,1.2776903e-05,0.00044502647,-5.3851672e-05,0.0005810026,0.0081942035,9.648449e-06,3.2139786e-05,0.001866509,0.0009529991
9.71814e-05,-0.0005820632,5.200208e-06,-0.00060456217,-0.0011667215,5.1140312e-05,-0.00012840351,1.5020858e-05,0.00049357314,-5.2233525e-05,0.00061571994,0.0095391795,1.2741643e-05,3.72539e-05,0.0018813749,0.0007803471
9.537974e-05,-0.0005566105,4.7133e-06,-0.0005694706,-0.0010928921,5.4020915e-05,-0.00011111729,1.3268757e-05,0.00049304165,-5.0252103e-05,0.00062638207,0.008683726,1.0809248e-05,3.7039037e-05,0.0018051486,0.0007683646
9.806497e-05,-0.0005345393,5.2431674e-06,-0.0006014011,-0.0010545149,5.1690546e-05,-0.00012806074,1.5055678e-05,0.0004960124,-5.281541e-05,0.00060931937,0.009582559,1.2752525e-05,3.7663252e-05,0.0018598674,0.00080500473
8.453318e-05,-0.000552518,7.395522e-06,-0.0008133757,-0.0011976315,-4.6938414e-05,-0.00019576779,2.035936e-05,0.0005493862,-5.406856e-05,0.0006196229,0.012504095,2.0697267e-05,4.440129e-05,0.0018957315,0.0006628664
7.0996924e-05,-0.00053516176,5.971617e-06,-0.00075211475,-0.0013286817,-4.0809566e-05,-0.00015522714,1.5780584e-05,0.0005302743,-4.8201484e-05,0.0006238525,0.010563564,1.6226679e-05,4.2295003e-05,0.0017066228,0.0006194496
6.499501e-05,-0.00048685187,5.0451695e-06,-0.00067523913,-0.0013145683,-2.485475e-05,-0.00013167429,1.3346133e-05,0.0004955702,-4.461156e-05,0.00058824924,0.009434929,1.37548495e-05,3.8353362e-05,0.0016411972,0.0006455061
6.647108e-05,-0.00048223755,4.4579465e-06,-0.0006133058,-0.0013393401,1.8104774e-06,-0.00011728681,1.2159446e-05,0.0004680082,-4.4544933e-05,0.0005670582,0.008741409,1.2165077e-05,3.5408113e-05,0.0016159123,0.00070512295
5.3148975e-05,-0.00050170557,6.8101167e-06,-0.000870392,-0.0016765933,-0.00015231284,-0.00018892599,1.7142092e-05,0.0005423012,-4.3484633e-05,0.0006006141,0.011926291,2.1050595e-05,4.4124623e-05,0.0016424301,0.0005198734
4.166684e-05,-0.00043291505,4.6998803e-06,-0.0007352536,-0.0016847473,-9.545293e-05,-0.00011981331,1.0834077e-05,0.0005187286,-3.5210076e-05,0.00061429647,0.008626077,1.2842457e-05,4.0867137e-05,0.001412855,0.00046154988
4.4718756e-05,-0.0004054777,3.8838234e-06,-0.0006223199,-0.0015773927,-4.5844237e-05,-9.916758e-05,9.393261e-06,0.00047238395,-3.532739e-05,0.0005789073,0.0076432046,1.0484941e-05,3.567146e-05,0.0013988802,0.0005528446
4.951051e-05,-0.0004136805,3.6492718e-06,-0.0005721563,-0.0015275684,-1.9258256e-05,-9.3507784e-05,9.221747e-06,0.00045125166,-3.662136e-05,0.00055813557,0.007422421,9.820509e-06,3.3282216e-05,0.0014385555,0.00063171214
5.6846176e-05,-0.0004042081,2.2870613e-06,-0.00038961013,-0.001547488,4.105122e-05,-5.293902e-05,6.065272e-06,0.00039103994,-3.509155e-05,0.00055842777,0.0051685,5.2013797e-06,2.6645206e-05,0.0013536116,0.0008052819
5.8615744e-05,-0.00039711592,2.325645e-06,-0.00037359176,-0.0014910471,4.1599993e-05,-5.1255458e-05,6.070283e-06,0.00039322686,-3.3385986e-05,0.0005608886,0.005154095,5.035745e-06,2.6124058e-05,0.0014407848,0.0008234923
6.037788e-05,-0.00045690182,3.4528605e-06,-0.00050725014,-0.0014919762,1.602542e-05,-8.1650665e-05,8.905377e-06,0.00044655488,-3.6936104e-05,0.00058576785,0.0069387145,8.255972e-06,3.178739e-05,0.0015678606,0.00069854606
6.2847605e-05,-0.000493395,4.1882663e-06,-0.0005952886,-0.0014346783,-2.1812384e-06,-0.00010313183,1.0836409e-05,0.0004781972,-4.0365758e-05,0.0006043639,0.008024251,1.04848295e-05,3.5714005e-05,0.0016078694,0.0006382829
6.703052e-05,-0.00049286557,4.6051528e-06,-0.00062578364,-0.0012611977,-4.6111595e-06,-0.000115011535,1.2079679e-05,0.000489707,-4.2948413e-05,0.00059538306,0.008648724,1.1716072e-05,3.7138914e-05,0.0016577522,0.0006495034
7.777808e-05,-0.0004991149,4.2790807e-06,-0.0005663607,-0.0012081172,3.5379053e-05,-0.00010889848,1.2056403e-05,0.00046195323,-4.7079564e-05,0.0005728079,0.0084204525,1.09926095e-05,3.4498218e-05,0.0016775866,0.00077661546
8.2982326e-05,-0.000511104,3.784818e-06,-0.0005035987,-0.0012730805,6.172933e-05,-9.651746e-05,1.1154046e-05,0.00043409842,-4.764263e-05,0.00055817055,0.0078203585,9.643341e-06,3.154299e-05,0.0016836624,0.00086775265
8.310501e-05,-0.0005138619,3.4133645e-06,-0.00046369858,-0.0012905429,6.763491e-05,-8.419178e-05,1.0022119e-05,0.0004237497,-4.566338e-05,0.0005607033,0.0071618026,8.265004e-06,3.0126295e-05,0.0016768764,0.00087906426
8.6792796e-05,-0.0005214625,3.2893713e-06,-0.00044310399,-0.0012534236,7.402125e-05,-7.902453e-05,9.692911e-06,0.00042163313,-4.561642e-05,0.0005669942,0.0068988977,7.636705e-06,2.9705277e-05,0.0016949748,0.00089018536
8.9401976e-05,-0.0005405748,3.989829e-06,-0.0005074808,-0.0011983663,6.448233e-05,-9.732991e-05,1.1608126e-05,0.00045006096,-4.769427e-05,0.00058169453,0.007915125,9.528962e-06,3.2601994e-05,0.0017755413,0.00083343714
9.494446e-05,-0.0005518433,4.180785e-06,-0.00051844784,-0.0011308364,6.792499e-05,-0.00010021736,1.2143732e-05,0.00046317876,-4.9594597e-05,0.0005973723,0.0081040105,9.723405e-06,3.3957986e-05,0.0017898468,0.0008288772
9.933098e-05,-0.0005508005,4.507036e-06,-0.0005370255,-0.0010968,7.036217e-05,-0.00010896576,1.3222757e-05,0.00047061167,-5.1668663e-05,0.00059898564,0.0086059375,1.0651099e-05,3.482086e-05,0.0018298369,0.00084595615
0.00010246178,-0.00055050483,4.4517633e-06,-0.00052567525,-0.0010762189,7.731413e-05,-0.00010742619,1.3211861e-05,0.00046695003,-5.2576404e-05,0.0005948587,0.008550628,1.04673245e-05,3.4465065e-05,0.0018348995,0.0008724723
9.808518e-05,-0.0005627059,5.143765e-06,-0.00059639907,-0.001141748,5.6326135e-05,-0.00012851374,1.5050363e-05,0.00048680234,-5.329796e-05,0.000603889,0.009565848,1.2826119e-05,3.67825e-05,0.0018638627,0.0008158188
9.2598486e-05,-0.0005525278,4.7427257e-06,-0.0005767189,-0.0011450613,5.2129843e-05,-0.00011630095,1.3583415e-05,0.00048279014,-5.0786024e-05,0.0006060101,0.008915492,1.1501506e-05,3.627178e-05,0.0017999664,0.0007909114
8.671731e-05,-0.00054637046,5.4638494e-06,-0.0006512652,-0.0011843009,2.1674283e-05,-0.00013857917,1.5357144e-05,0.00050184707,-5.088986e-05,0.00060720666,0.009963839,1.4091555e-05,3.8579594e-05,0.0018204128,0.000738053
8.368532e-05,-0.0005322524,4.8641054e-06,-0.0006092065,-0.001181803,3.0696272e-05,-0.00012194343,1.3616702e-05,0.00048741378,-4.9210335e-05,0.00059940404,0.009123631,1.2269129e-05,3.7032896e-05,0.0017517108,0.0007484605
8.582514e-05,-0.0005238424,4.297759e-06,-0.00054893724,-0.0012032762,5.2499374e-05,-0.000108300585,1.2428577e-05,0.00045957483,-4.9101633e-05,0.0005800224,0.008456287,1.0820727e-05,3.4116656e-05,0.0017308755,0.0008196787
8.761019e-05,-0.00052367453,3.9211263e-06,-0.00050658,-0.0011964478,6.515934e-05,-9.786871e-05,1.1526546e-05,0.00044314997,-4.8421272e-05,0.00056752044,0.007928083,9.671542e-06,3.2243766e-05,0.0017325354,0.00086069515
9.0064816e-05,-0.0005378655,3.823066e-06,-0.0004927169,-0.001231563,7.147936e-05,-9.4731025e-05,1.1343006e-05,0.00043926438,-4.8646958e-05,0.0005723463,0.0077745845,9.299617e-06,3.176734e-05,0.0017405794,0.0008758493
8.673e-05,-0.00054184225,4.2230668e-06,-0.00053753686,-0.0012320596,5.4981232e-05,-0.000104909355,1.2190448e-05,0.0004581774,-4.8041307e-05,0.0005845935,0.008287026,1.0394922e-05,3.36371e-05,0.0017660651,0.0008094891
7.886125e-05,-0.000551474,5.6229183e-06,-0.00068711705,-0.00126216,-4.815203e-06,-0.0001434184,1.5327501e-05,0.0005120246,-4.8467613e-05,0.0006129392,0.010114478,1.4716425e-05,3.9649934e-05,0.0017986683,0.0006744571
7.6636126e-05,-0.0005275809,5.002897e-06,-0.0006437377,-0.0012206943,7.868804e-06,-0.00012470521,1.3484491e-05,0.00050203566,-4.7083162e-05,0.0006135316,0.00919388,1.2611932e-05,3.8603703e-05,0.0017138927,0.0006807323
7.492846e-05,-0.0005106183,5.4278084e-06,-0.00067764474,-0.0012347293,-7.871127e-06,-0.00014133684,1.4845156e-05,0.0005002778,-4.815973e-05,0.000591596,0.009998124,1.4682239e-05,3.8759088e-05,0.0017397106,0.0006934856
7.379311e-05,-0.000508273,4.6724954e-06,-0.00061647577,-0.0012868665,1.4240815e-05,-0.00012158241,1.2971734e-05,0.00047545662,-4.706091e-05,0.00057902094,0.009011156,1.248117e-05,3.612793e-05,0.0016745495,0.00072897
7.257683e-05,-0.00050293957,4.0952395e-06,-0.0005614898,-0.0013708962,2.947799e-05,-0.000105688836,1.1488145e-05,0.00045329137,-4.527874e-05,0.00057253503,0.008211291,1.0760806e-05,3.3638327e-05,0.0016378432,0.0007626152
6.3580024e-05,-0.0005000765,4.951997e-06,-0.0006640674,-0.0014387636,-2.5772637e-05,-0.00012946715,1.31120905e-05,0.0004887614,-4.3247543e-05,0.00058545015,0.009342097,1.3586838e-05,3.733737e-05,0.0016603101,0.00064528256
5.967819e-05,-0.0004898952,4.537393e-06,-0.000646977,-0.0014640385,-2.3317743e-05,-0.000116144874,1.1707134e-05,0.0004881091,-4.1441e-05,0.00059826963,0.008621326,1.2038198e-05,3.7317765e-05,0.0015760529,0.00061457686
6.418929e-05,-0.00046540803,3.5965008e-06,-0.0005320876,-0.0013500829,2.1808302e-05,-8.990384e-05,9.658567e-06,0.00044672168,-4.0964645e-05,0.00057183346,0.0073104813,9.050706e-06,3.2705724e-05,0.0015503068,0.0007153577
5.408874e-05,-0.00050468143,7.634625e-06,-0.0009277641,-0.0015603044,-0.00018956361,-0.000212945,1.9125804e-05,0.00056051294,-4.4244138e-05,0.00059690734,0.0129474215,2.3885907e-05,4.608449e-05,0.0017162918,0.00050223764
4.316622e-05,-0.00046312204,5.597077e-06,-0.0008331927,-0.0017030505,-0.00013477393,-0.00014718281,1.2999249e-05,0.0005472493,-3.792304e-05,0.0006271901,0.009880165,1.598207e-05,4.463779e-05,0.0014533895,0.00043898018
4.3816555e-05,-0.00040076388,3.8732364e-06,-0.00062814506,-0.0015770559,-4.877514e-05,-9.920762e-05,9.322167e-06,0.00047373565,-3.5210105e-05,0.0005806687,0.0076156952,1.04867895e-05,3.594145e-05,0.0013808181,0.00054187555
4.9090897e-05,-0.00040852925,3.747083e-06,-0.0005824017,-0.0014983112,-2.4461746e-05,-9.7099284e-05,9.485508e-06,0.00045236168,-3.6805523e-05,0.0005505577,0.0076092696,1.0260372e-05,3.3463642e-05,0.00144581,0.00062989665
4.8476883e-05,-0.000413694,3.3567608e-06,-0.00053936767,-0.0017531395,-1.0194674e-05,-8.291188e-05,8.361534e-06,0.00044452166,-3.5411176e-05,0.00058099965,0.0069030435,8.7082935e-06,3.2411386e-05,0.0013786601,0.0006450404
4.36746e-05,-0.0003555591,2.279461e-06,-0.00040983604,-0.0016253458,1.1624975e-05,-4.8880232e-05,5.2999567e-06,0.00041520828,-2.8475019e-05,0.00058859127,0.0048755407,4.87712e-06,2.8173228e-05,0.00128869,0.00064173277
5.1624353e-05,-0.00040509296,2.9799617e-06,-0.0004757887,-0.0015306219,9.567361e-06,-6.911215e-05,7.3827077e-06,0.00043338802,-3.331043e-05,0.0005766395,0.0061668837,7.012021e-06,3.0372095e-05,0.0014484735,0.0006722689
6.699578e-05,-0.0004481411,2.5589445e-06,-0.0004025713,-0.0013531469,5.1600695e-05,-5.9164988e-05,7.0061633e-06,0.0004034273,-3.7933205e-05,0.000561412,0.0055999253,5.6905874e-06,2.7696717e-05,0.0014949437,0.0008156076
7.697806e-05,-0.000495012,3.5189287e-06,-0.00048133577,-0.001327714,5.3878684e-05,-8.70784e-05,1.0067297e-05,0.00042844025,-4.3563177e-05,0.0005606255,0.0073034302,8.667621e-06,3.0460744e-05,0.0016756346,0.00083559763
7.97635e-05,-0.0005222585,3.7800303e-06,-0.0005102551,-0.0012682802,5.0181337e-05,-9.243485e-05,1.0678456e-05,0.00044785868,-4.4850614e-05,0.000579721,0.007578854,9.10319e-06,3.2437e-05,0.0016951503,0.0007906182
8.886862e-05,-0.00053045177,3.543391e-06,-0.00046896265,-0.0012094956,7.1403854e-05,-8.5120235e-05,1.0363046e-05,0.00043607558,-4.6998044e-05,0.00058026746,0.00724115,8.221849e-06,3.1266456e-05,0.0017080114,0.00086111674
8.6377084e-05,-0.000541413,5.084345e-06,-0.0006134052,-0.0011703756,3.2051987e-05,-0.0001283323,1.4404861e-05,0.00048654637,-4.9413353e-05,0.0005916237,0.009471283,1.2959818e-05,3.667304e-05,0.0018331491,0.0007568168
8.53312e-05,-0.0005544291,5.133447e-06,-0.0006329933,-0.0012111715,2.6188602e-05,-0.00012839821,1.4314431e-05,0.00049914914,-5.001736e-05,0.00061438815,0.009442355,1.2916598e-05,3.8259765e-05,0.0017739095,0.00072857726
8.139827e-05,-0.00052788854,4.873031e-06,-0.000613866,-0.0012143471,2.5531668e-05,-0.0001229639,1.3588673e-05,0.00048621406,-4.8506798e-05,0.0005988981,0.009160413,1.2439016e-05,3.6929592e-05,0.0017463525,0.0007394967
7.830892e-05,-0.00051994174,5.134636e-06,-0.00064300164,-0.0012124584,1.0840819e-05,-0.0001321735,1.42358485e-05,0.000491019,-4.8408587e-05,0.00058827916,0.009584387,1.35556165e-05,3.758467e-05,0.001751864,0.0007214804
7.8350335e-05,-0.0005235077,4.4900653e-06,-0.00058882474,-0.0012941399,3.0921994e-05,-0.00011539347,1.2674164e-05,0.00046903436,-4.7858874e-05,0.00058482174,0.0087392405,1.1704487e-05,3.5322362e-05,0.001690067,0.0007609373
6.9502945e-05,-0.0005144787,5.113324e-06,-0.0006643528,-0.0013665375,-1.30913695e-05,-0.00013419641,1.387053e-05,0.00049007277,-4.5754965e-05,0.0005870177,0.009603974,1.399496e-05,3.7585552e-05,0.0017032837,0.0006754542
6.4754844e-05,-0.00050308043,4.716394e-06,-0.00064841827,-0.0013857068,-1.4264459e-05,-0.00012140242,1.2454416e-05,0.00048900145,-4.355254e-05,0.00059430726,0.008922281,1.2541075e-05,3.7435966e-05,0.0016269931,0.0006442973
6.442842e-05,-0.00048762024,4.394353e-06,-0.00061445305,-0.0013915128,-3.0770393e-06,-0.00011334853,1.17314285e-05,0.0004736201,-4.3027805e-05,0.00058337883,0.0085297525,1.1691313e-05,3.580382e-05,0.001604602,0.00067278004
6.957789e-05,-0.00047616678,3.515463e-06,-0.0005083337,-0.0013067009,3.742581e-05,-8.8031666e-05,9.743565e-06,0.00043716584,-4.2564905e-05,0.00056175987,0.0072555887,8.800463e-06,3.1698823e-05,0.0015843683,0.00077236956
6.935542e-05,-0.0005034112,4.4785565e-06,-0.0006012124,-0.001428509,9.631338e-06,-0.00011725396,1.2379476e-05,0.0004640973,-4.4642384e-05,0.000572659,0.008794238,1.2157232e-05,3.4723107e-05,0.0016668907,0.0007263239
6.136709e-05,-0.00049282575,4.417978e-06,-0.00062411156,-0.0014699985,-1.3465754e-05,-0.00011235218,1.1514449e-05,0.00048048008,-4.132433e-05,0.0005938256,0.008471951,1.1611841e-05,3.6292866e-05,0.001598157,0.0006385279
6.010098e-05,-0.00048062016,4.376951e-06,-0.00062491634,-0.0014368882,-1.5850648e-05,-0.00011133606,1.1337848e-05,0.0004805599,-4.0973948e-05,0.0005924952,0.008400707,1.1502458e-05,3.6379246e-05,0.0015810619,0.0006297949
6.7635025e-05,-0.0004702171,3.5373612e-06,-0.00051645713,-0.0012856082,3.1459454e-05,-8.792137e-05,9.64428e-06,0.000442623,-4.181264e-05,0.0005661724,0.007229657,8.777002e-06,3.2213433e-05,0.0015736001,0.0007443969
7.2808674e-05,-0.0005009393,4.241181e-06,-0.00056986755,-0.0013649331,2.6761674e-05,-0.00011066067,1.196305e-05,0.00045327464,-4.5470955e-05,0.00056418893,0.008484146,1.1360304e-05,3.3598753e-05,0.001669409,0.0007689044
6.1135695e-05,-0.0005080333,5.252839e-06,-0.00070286205,-0.0015150484,-4.600318e-05,-0.00013791633,1.3675842e-05,0.0005019713,-4.30071e-05,0.0005968611,0.00972107,1.4605619e-05,3.8866896e-05,0.0016506875,0.00061009766
5.4249333e-05,-0.00047728597,4.715227e-06,-0.0006830089,-0.0015194033,-4.8267844e-05,-0.00012038393,1.1741611e-05,0.000501668,-3.9657858e-05,0.00060740317,0.008786698,1.2611075e-05,3.8805996e-05,0.0015447267,0.0005607423
3.341877e-05,-0.0004959969,1.5091067e-05,-0.0016429031,-0.0019120737,-0.0008121176,-0.00045085847,3.215544e-05,0.0007542213,-4.0792143e-05,0.00064773683,0.021106282,5.601627e-05,7.1428534e-05,0.001687524,0.00025677413
2.0185056e-05,-0.0003900083,1.034033e-05,-0.0015707372,-0.002170202,-0.00062308327,-0.00030367155,1.9685403e-05,0.00075549114,-3.1534797e-05,0.0006707494,0.015392689,3.6584603e-05,7.298907e-05,0.0013033852,0.0001747396
1.5277677e-05,-0.0002919635,8.177669e-06,-0.0013691024,-0.0024260452,-0.0005496719,-0.00024396197,1.5282223e-05,0.00068243366,-2.6990332e-05,0.0006114793,0.013259142,3.032639e-05,6.337052e-05,0.001131895,0.00017603062
1.2836244e-05,-0.00021310759,3.826255e-06,-0.00082843663,-0.002357871,-0.00020590537,-9.531578e-05,6.60558e-06,0.0005532162,-2.0230047e-05,0.0005873578,0.0070154676,1.1265542e-05,4.5068176e-05,0.0009330124,0.00020883456
1.1522878e-05,-0.00012198794,7.4199914e-07,-0.00025192316,-0.0021008418,-6.2634745e-06,-1.1345224e-05,1.1153853e-06,0.000367605,-1.2078204e-05,0.0006215192,0.001745579,1.1868556e-06,2.2250853e-05,0.000599002,0.00027185964
