-1.4689219e-05,-2.4207013e-05,4.468735e-05,-0.00015281468,-0.00010491019,1.2192608e-05,9.184967e-08,-1.3444745e-05,0.00013416892,4.036467e-05,-1.5502083e-06,-0.00019539177,-4.020915e-06,0.000102162354,-2.1105408e-05,-4.3080676e-05
-1.4781878e-05,-3.039286e-05,4.2997046e-05,-0.00014214282,-0.000104222054,9.029307e-06,2.5033257e-06,-1.00042835e-05,0.00012368965,4.184008e-05,-8.735198e-07,-0.00019797843,1.1151975e-05,0.00010119955,-2.665858e-05,-4.2733962e-05
-1.4879556e-05,-3.1121013e-05,4.3140895e-05,-0.00014227538,-0.00010427134,9.116597e-06,2.565677e-06,-9.957989e-06,0.00012371733,4.179545e-05,-9.3665915e-07,-0.00019809484,9.848678e-06,0.00010123246,-2.7448634e-05,-4.2774547e-05
-1.4899772e-05,-2.4892091e-05,4.5290457e-05,-0.00015484082,-0.00010513011,1.289608e-05,-1.5394531e-07,-1.3895731e-05,0.00013592988,4.0015355e-05,-1.8057034e-06,-0.00019525089,-9.431915e-06,0.00010239009,-2.2038723e-05,-4.3228607e-05
-1.4800144e-05,-2.4193328e-05,4.5160847e-05,-0.00015480311,-0.000105081745,1.2847982e-05,-2.371437e-07,-1.3971624e-05,0.00013598504,4.0041607e-05,-1.7617316e-06,-0.0001951282,-8.255441e-06,0.00010236553,-2.131979e-05,-4.3187603e-05
-1.4790517e-05,-2.1710728e-05,4.592253e-05,-0.00015937466,-0.00010539124,1.419807e-05,-1.2476635e-06,-1.542569e-05,0.00014045923,3.9400144e-05,-2.0566954e-06,-0.00019406389,-1.5052564e-05,0.000102781225,-1.9123432e-05,-4.334932e-05
-1.4752747e-05,-2.0457883e-05,4.6188772e-05,-0.00016121918,-0.00010549936,1.4730312e-05,-1.6883133e-06,-1.6043738e-05,0.00014229807,3.914499e-05,-2.1588055e-06,-0.00019359247,-1.7419397e-05,0.000102941216,-1.7980123e-05,-4.340075e-05
-1.4727244e-05,-2.632715e-05,4.415256e-05,-0.00014937704,-0.000104688595,1.1185481e-05,8.788333e-07,-1.232665e-05,0.00013077815,4.0834835e-05,-1.3471481e-06,-0.00019624527,7.746247e-07,0.000101854144,-2.304119e-05,-4.296991e-05
-1.4822803e-05,-2.4216703e-05,4.519241e-05,-0.00015482973,-0.000105103274,1.2851313e-05,-2.2261425e-07,-1.3960462e-05,0.0001359973,4.004721e-05,-1.75638e-06,-0.00019512423,-8.5600805e-06,0.00010237437,-2.130321e-05,-4.32027e-05
-1.4786182e-05,-2.7598488e-05,4.3963682e-05,-0.00014783017,-0.00010460611,1.0750516e-05,1.2714473e-06,-1.1786595e-05,0.00012920942,4.1035008e-05,-1.274837e-06,-0.00019669037,2.4584645e-06,0.00010172397,-2.4245039e-05,-4.2935655e-05
-1.4831316e-05,-3.276299e-05,4.2430096e-05,-0.00013841994,-0.00010398311,7.934646e-06,3.3572683e-06,-8.792667e-06,0.000120019446,4.2337862e-05,-6.5605224e-07,-0.00019893154,1.628372e-05,0.00010086436,-2.8864715e-05,-4.2616266e-05
-1.4924684e-05,-2.5666117e-05,4.5119785e-05,-0.00015364955,-0.000105063395,1.2546946e-05,1.29108e-07,-1.3497938e-05,0.000134749,4.0182484e-05,-1.7343024e-06,-0.00019554963,-7.90841e-06,0.000102286955,-2.2733719e-05,-4.319734e-05
-1.48037625e-05,-3.121831e-05,4.2866926e-05,-0.00014120617,-0.00010415439,8.773666e-06,2.7275973e-06,-9.69061e-06,0.00012274917,4.194568e-05,-8.4533616e-07,-0.00019826616,1.2351228e-05,0.00010111511,-2.750662e-05,-4.270158e-05
-1.4891509e-05,-3.0605595e-05,4.3372776e-05,-0.00014356064,-0.000104363324,9.510938e-06,2.2984111e-06,-1.03502625e-05,0.00012495408,4.1612137e-05,-1.0389188e-06,-0.00019782176,7.772875e-06,0.00010135352,-2.7036796e-05,-4.282417e-05
-1.4880709e-05,-3.1985684e-05,4.2893364e-05,-0.0001407989,-0.00010416411,8.680934e-06,2.887746e-06,-9.493561e-06,0.0001222763,4.1991032e-05,-8.51508e-07,-0.00019846036,1.2097727e-05,0.0001010949,-2.826837e-05,-4.2718337e-05
-1.4907193e-05,-2.8794235e-05,4.4041783e-05,-0.00014740333,-0.00010462879,1.0676608e-05,1.4770208e-06,-1.1544085e-05,0.00012867404,4.1065006e-05,-1.312333e-06,-0.00019696662,1.7562645e-06,0.00010171025,-2.5479452e-05,-4.2965807e-05
-1.4859481e-05,-2.6349557e-05,4.467396e-05,-0.00015149282,-0.000104883664,1.1883635e-05,5.4153844e-07,-1.2874256e-05,0.00013270049,4.0497293e-05,-1.5685413e-06,-0.00019596644,-3.908395e-06,0.00010207514,-2.3282646e-05,-4.309242e-05
-1.482759e-05,-1.891119e-05,4.6995985e-05,-0.00016543597,-0.00010581032,1.6013533e-05,-2.5458369e-06,-1.7314906e-05,0.00014634723,3.8513408e-05,-2.4835026e-06,-0.00019276113,-2.4585794e-05,0.00010333782,-1.6777502e-05,-4.3576714e-05
-1.4705887e-05,-2.3190214e-05,4.5127585e-05,-0.00015529017,-0.000105076775,1.2950632e-05,-4.3281094e-07,-1.4210417e-05,0.00013655881,3.9997543e-05,-1.7436965e-06,-0.00019487747,-7.9399315e-06,0.00010239089,-2.0305624e-05,-4.317056e-05
-1.477254e-05,-2.366792e-05,4.5186993e-05,-0.00015516429,-0.00010510446,1.2930297e-05,-3.4241543e-07,-1.4110784e-05,0.00013637266,4.001234e-05,-1.7559134e-06,-0.00019497806,-8.500575e-06,0.00010239459,-2.0763546e-05,-4.319547e-05
-1.4782996e-05,-2.2269705e-05,4.5694018e-05,-0.00015808077,-0.00010530259,1.3807405e-05,-9.71628e-07,-1.5023393e-05,0.00013920506,3.9589297e-05,-1.9586996e-06,-0.00019433776,-1.3028939e-05,0.000102662205,-1.9571604e-05,-4.3301716e-05
-1.4754481e-05,-2.7912323e-05,4.373628e-05,-0.0001467165,-0.00010451767,1.0400631e-05,1.484113e-06,-1.1464929e-05,0.0001281598,4.120014e-05,-1.1816917e-06,-0.00019689857,4.508916e-06,0.00010161489,-2.447286e-05,-4.288441e-05
-1.4843035e-05,-2.8327127e-05,4.392271e-05,-0.0001471739,-0.00010459094,1.0572049e-05,1.4674146e-06,-1.1529176e-05,0.0001285174,4.112133e-05,-1.2528042e-06,-0.00019690975,2.8163088e-06,0.00010167655,-2.4938005e-05,-4.293634e-05
-1.4851308e-05,-2.7643584e-05,4.419661e-05,-0.00014873166,-0.00010469602,1.1048752e-05,1.1358827e-06,-1.2011885e-05,0.0001300216,4.089368e-05,-1.3692684e-06,-0.00019657571,3.5977695e-07,0.00010182071,-2.4374054e-05,-4.2992768e-05
-1.48475365e-05,-2.072912e-05,4.6464265e-05,-0.00016215496,-0.00010560025,1.5048432e-05,-1.8057485e-06,-1.6256321e-05,0.00014312085,3.8983082e-05,-2.2708684e-06,-0.00019352158,-1.9877703e-05,0.000103044906,-1.8357903e-05,-4.346871e-05
-1.4740002e-05,-1.6530292e-05,4.745104e-05,-0.0001687503,-0.00010599445,1.6959271e-05,-3.3584176e-06,-1.8445859e-05,0.00014967329,3.8054754e-05,-2.6587743e-06,-0.00019189759,-2.859952e-05,0.00010361966,-1.46081375e-05,-4.366079e-05
-1.4672454e-05,-1.7087534e-05,4.6994795e-05,-0.0001665496,-0.00010582445,1.6275875e-05,-2.9372545e-06,-1.7806951e-05,0.00014759062,3.8398288e-05,-2.4710205e-06,-0.00019227978,-2.455147e-05,0.00010340838,-1.49616035e-05,-4.3560278e-05
-1.467218e-05,-2.799536e-05,4.338208e-05,-0.00014521797,-0.00010438355,9.908271e-06,1.7310365e-06,-1.1069573e-05,0.00012679603,4.1432337e-05,-1.0306031e-06,-0.00019711633,7.713094e-06,0.00010145974,-2.4414489e-05,-4.2801752e-05
-1.4837024e-05,-3.3294942e-05,4.224556e-05,-0.00013728437,-0.00010391408,7.5851244e-06,3.607297e-06,-8.432818e-06,0.00011891852,4.250264e-05,-5.672292e-07,-0.00019918426,1.794055e-05,0.0001007614,-2.9298135e-05,-4.258137e-05
-1.49212765e-05,-3.4079792e-05,4.233608e-05,-0.00013719514,-0.00010393839,7.605675e-06,3.7047253e-06,-8.32919e-06,0.000118741205,4.2485586e-05,-6.137961e-07,-0.00019934496,1.71241e-05,0.00010077032,-3.0145708e-05,-4.2606793e-05
-1.4948457e-05,-2.3938703e-05,4.5798006e-05,-0.00015747832,-0.00010532715,1.3703308e-05,-6.8758317e-07,-1.4687189e-05,0.00013846073,3.9623115e-05,-2.009236e-06,-0.00019472673,-1.3952156e-05,0.00010264017,-2.1290149e-05,-4.3340064e-05
-1.47815845e-05,-2.7038002e-05,4.416968e-05,-0.000149077,-0.00010468184,1.1132403e-05,9.957182e-07,-1.2183014e-05,0.00013042428,4.0849733e-05,-1.3725387e-06,-0.00019642105,6.3288593e-07,0.000101836325,-2.3805625e-05,-4.29744e-05
-1.4832897e-05,-2.40731e-05,4.530075e-05,-0.00015539513,-0.00010514264,1.3028886e-05,-3.3614484e-07,-1.4129564e-05,0.0001365363,3.9959978e-05,-1.8101671e-06,-0.00019502244,-9.513529e-06,0.00010242755,-2.1228761e-05,-4.322464e-05
-1.47886885e-05,-2.254518e-05,4.5643126e-05,-0.00015773722,-0.00010527858,1.3712319e-05,-8.905789e-07,-1.4909376e-05,0.00013886164,3.963208e-05,-1.946711e-06,-0.0001944345,-1.2566668e-05,0.000102631515,-1.984671e-05,-4.328973e-05
-1.476138e-05,-2.5170053e-05,4.4668992e-05,-0.00015218223,-0.00010489287,1.2041614e-05,2.9930135e-07,-1.3179438e-05,0.00013347296,4.043029e-05,-1.556869e-06,-0.0001956552,-3.85978e-06,0.000102118596,-2.2084503e-05,-4.3082367e-05
-1.4798901e-05,-2.8590095e-05,4.3674878e-05,-0.00014603049,-0.000104492225,1.02114645e-05,1.6753298e-06,-1.120909e-05,0.00012744773,4.128967e-05,-1.15591e-06,-0.00019711477,5.051932e-06,0.00010156159,-2.5120145e-05,-4.2877786e-05
-1.4850426e-05,-3.091563e-05,4.3108572e-05,-0.00014229899,-0.00010425829,9.113276e-06,2.5341087e-06,-9.991148e-06,0.00012376723,4.1796557e-05,-9.29501e-07,-0.00019805436,1.0148166e-05,0.00010122802,-2.7246657e-05,-4.276313e-05
-1.48683985e-05,-4.096867e-05,3.988895e-05,-0.00012305802,-0.00010292733,3.2860703e-06,6.6998273e-06,-3.9713764e-06,0.00010510452,4.4413002e-05,3.7817276e-07,-0.00020263094,3.943115e-05,9.9434306e-05,-3.6314592e-05,-4.2072752e-05
-1.5036808e-05,-3.743058e-05,4.168739e-05,-0.00013247867,-0.000103665545,6.230425e-06,4.8277693e-06,-6.7533115e-06,0.00011406056,4.3106294e-05,-3.5083636e-07,-0.00020062059,2.3031924e-05,0.000100357094,-3.3308606e-05,-4.2481748e-05
-1.4986561e-05,-3.4109777e-05,4.2626143e-05,-0.00013842394,-0.00010404219,8.019849e-06,3.4984498e-06,-8.655963e-06,0.00011986479,4.2285672e-05,-7.5024894e-07,-0.00019918334,1.45250515e-05,0.00010089684,-3.0336338e-05,-4.2670592e-05
-1.4940429e-05,-2.8861368e-05,4.417535e-05,-0.00014794474,-0.00010467474,1.0860862e-05,1.3896573e-06,-1.16850115e-05,0.00012916606,4.0972547e-05,-1.3764969e-06,-0.00019690758,5.7166875e-07,0.00010176611,-2.5628793e-05,-4.2994754e-05
-1.4865657e-05,-2.0822194e-05,4.6531666e-05,-0.00016241714,-0.00010562064,1.5140659e-05,-1.8461697e-06,-1.6323185e-05,0.00014335688,3.8933427e-05,-2.3099235e-06,-0.00019350529,-2.0461332e-05,0.000103071594,-1.851086e-05,-4.3482003e-05
-1.4737109e-05,-2.1245323e-05,4.5897013e-05,-0.00015960689,-0.000105379855,1.4251667e-05,-1.3487088e-06,-1.554687e-05,0.00014073665,3.9372953e-05,-2.0541956e-06,-0.00019394931,-1.48037825e-05,0.00010279074,-1.8679357e-05,-4.333497e-05
-1.4744368e-05,-2.0307622e-05,4.6199e-05,-0.0001613419,-0.000105506726,1.4759837e-05,-1.7230915e-06,-1.6090129e-05,0.00014242841,3.913359e-05,-2.1602186e-06,-0.00019354676,-1.7508784e-05,0.000102951104,-1.782889e-05,-4.3403263e-05
-1.4729952e-05,-2.1370513e-05,4.5790133e-05,-0.00015903253,-0.00010534486,1.4068094e-05,-1.2301454e-06,-1.5371976e-05,0.00014018733,3.9467042e-05,-1.99572e-06,-0.00019404638,-1.3873576e-05,0.000102738144,-1.8719013e-05,-4.3315777e-05
-1.4749101e-05,-1.857122e-05,4.6778532e-05,-0.00016472598,-0.0001057362,1.5763539e-05,-2.4633814e-06,-1.7159475e-05,0.00014573189,3.864575e-05,-2.3824575e-06,-0.00019278882,-2.2664279e-05,0.000103258964,-1.6321772e-05,-4.3525604e-05
-1.4706287e-05,-1.6494001e-05,4.7309128e-05,-0.00016815997,-0.0001059461,1.6764448e-05,-3.26053e-06,-1.828861e-05,0.00014913206,3.8156664e-05,-2.5909642e-06,-0.00019196527,-2.735168e-05,0.00010356056,-1.4487787e-05,-4.363019e-05
-1.4670531e-05,-2.0555395e-05,4.5830908e-05,-0.00015970062,-0.00010536589,1.4240963e-05,-1.4334855e-06,-1.5637183e-05,0.00014090184,3.938667e-05,-2.007077e-06,-0.00019380845,-1.422213e-05,0.00010278696,-1.7923321e-05,-4.3317767e-05
-1.4734512e-05,-2.0683825e-05,4.6013927e-05,-0.00016032257,-0.00010543774,1.4447603e-05,-1.5093943e-06,-1.5776619e-05,0.00014144574,3.928741e-05,-2.0756486e-06,-0.00019374932,-1.5875254e-05,0.0001028571,-1.8102408e-05,-4.336561e-05
-1.47370865e-05,-2.1058113e-05,4.59121e-05,-0.00015970111,-0.000105393694,1.4268513e-05,-1.3704289e-06,-1.5577367e-05,0.0001408334,3.9370698e-05,-2.0397906e-06,-0.00019390177,-1.4967231e-05,0.00010280054,-1.8445426e-05,-4.3342774e-05
-1.474502e-05,-1.7818766e-05,4.7011796e-05,-0.00016613035,-0.0001058279,1.6178037e-05,-2.7765732e-06,-1.760907e-05,0.00014710898,3.8442984e-05,-2.4735007e-06,-0.0001924696,-2.473133e-05,0.00010338511,-1.5669777e-05,-4.357357e-05
-1.4690256e-05,-2.246017e-05,4.5283923e-05,-0.000156329,-0.000105144805,1.3247611e-05,-6.755387e-07,-1.4552969e-05,0.0001375904,3.986018e-05,-1.7939578e-06,-0.00019460451,-9.347798e-06,0.00010248331,-1.9610387e-05,-4.3204254e-05
-1.4765119e-05,-2.0096644e-05,4.6326517e-05,-0.00016194544,-0.00010555899,1.4942616e-05,-1.8369559e-06,-1.6263397e-05,0.0001430007,3.904594e-05,-2.2014508e-06,-0.00019342934,-1.8657749e-05,0.00010301059,-1.7644405e-05,-4.343436e-05
-1.47259625e-05,-2.3130615e-05,4.5196823e-05,-0.0001555572,-0.000105107356,1.3032843e-05,-4.7267204e-07,-1.4276882e-05,0.00013680011,3.9961258e-05,-1.7603155e-06,-0.00019483067,-8.581534e-06,0.000102420156,-2.0241205e-05,-4.3190063e-05
-1.4773277e-05,-2.3073862e-05,4.5384564e-05,-0.00015632539,-0.0001051823,1.3277768e-05,-5.960685e-07,-1.4476994e-05,0.00013750319,3.9845483e-05,-1.8327584e-06,-0.00019471628,-1.0268521e-05,0.00010250055,-2.0244452e-05,-4.3236734e-05
-1.4769287e-05,-2.6397456e-05,4.428528e-05,-0.00014985667,-0.00010473929,1.1347378e-05,8.139069e-07,-1.2439676e-05,0.00013120065,4.07579e-05,-1.3993194e-06,-0.00019619401,-4.2939894e-07,0.0001019071,-2.3153862e-05,-4.3003034e-05
-1.4815408e-05,-3.097784e-05,4.2951568e-05,-0.00014162695,-0.000104197505,8.89411e-06,2.6473112e-06,-9.81182e-06,0.0001231503,4.189885e-05,-8.6450007e-07,-0.0001981584,1.1567894e-05,0.000101158366,-2.725052e-05,-4.2725995e-05
-1.4895456e-05,-2.614368e-05,4.484864e-05,-0.00015226305,-0.00010495737,1.2120483e-05,4.0562506e-07,-1.3085915e-05,0.00013342315,4.0387597e-05,-1.625508e-06,-0.00019582284,-5.486416e-06,0.00010215418,-2.3106053e-05,-4.3136988e-05
-1.4814297e-05,-2.9189863e-05,4.356518e-05,-0.00014526478,-0.00010443945,9.997565e-06,1.8563002e-06,-1.0954618e-05,0.00012668277,4.1382205e-05,-1.123032e-06,-0.00019733375,6.0482917e-06,0.00010149296,-2.5712216e-05,-4.285241e-05
-1.486208e-05,-2.8832566e-05,4.3846572e-05,-0.00014658252,-0.000104555795,1.0407305e-05,1.6143144e-06,-1.1325872e-05,0.00012792034,4.1195293e-05,-1.2302851e-06,-0.00019708395,3.508869e-06,0.00010162563,-2.5436291e-05,-4.292059e-05
-1.4861686e-05,-2.533548e-05,4.5002816e-05,-0.00015342174,-0.000105017934,1.24570115e-05,1.2189274e-07,-1.34809925e-05,0.00013458093,4.0227435e-05,-1.6942407e-06,-0.00019552058,-6.8575414e-06,0.00010225262,-2.237928e-05,-4.3163545e-05
-1.481069e-05,-2.0301766e-05,4.6472567e-05,-0.00016247164,-0.00010560477,1.51294e-05,-1.9092233e-06,-1.638905e-05,0.0001434635,3.894564e-05,-2.2767679e-06,-0.00019340185,-1.9944262e-05,0.00010306607,-1.7947328e-05,-4.3465323e-05
-1.4727115e-05,-2.3888299e-05,4.49715e-05,-0.00015421641,-0.00010501431,1.2637395e-05,-1.776233e-07,-1.3852097e-05,0.00013548988,4.0147246e-05,-1.6800869e-06,-0.00019514824,-6.5535464e-06,0.00010229737,-2.0933601e-05,-4.3140957e-05
-1.4774732e-05,-3.1041265e-05,4.277431e-05,-0.00014087536,-0.00010412914,8.647646e-06,2.772141e-06,-9.613041e-06,0.0001224642,4.2013595e-05,-7.924098e-07,-0.000198273,1.3176768e-05,0.00010108009,-2.7252305e-05,-4.268404e-05
-1.4897828e-05,-2.5028061e-05,4.5214092e-05,-0.00015440602,-0.00010510568,1.2757528e-05,-6.114708e-08,-1.3760617e-05,0.00013551408,4.0086004e-05,-1.7664959e-06,-0.00019533036,-8.756627e-06,0.00010235094,-2.2119737e-05,-4.321558e-05
-1.4794584e-05,-3.0873765e-05,4.293654e-05,-0.00014168637,-0.00010418481,8.912335e-06,2.614659e-06,-9.849523e-06,0.00012322595,4.1883162e-05,-8.692948e-07,-0.00019813623,1.1718231e-05,0.00010115785,-2.7174789e-05,-4.271619e-05
-1.4878794e-05,-3.5029396e-05,4.1868625e-05,-0.00013473969,-0.00010375055,6.842686e-06,4.197199e-06,-7.5989997e-06,0.000116401665,4.2834265e-05,-4.2946e-07,-0.00019986207,2.1373839e-05,0.00010053265,-3.0953113e-05,-4.2501975e-05
-1.4936814e-05,-3.9580613e-05,4.0607047e-05,-0.00012681552,-0.00010322255,4.4662797e-06,5.9569984e-06,-5.076906e-06,0.00010866606,4.389491e-05,8.314188e-08,-0.00020182917,3.286024e-05,9.980391e-05,-3.513902e-05,-4.2236126e-05
-1.5017519e-05,-3.587992e-05,4.2139618e-05,-0.00013530816,-0.00010384789,7.084184e-06,4.200217e-06,-7.653813e-06,0.00011681697,4.271696e-05,-5.431455e-07,-0.00019993965,1.8928162e-05,0.00010061552,-3.192082e-05,-4.2573814e-05
-1.4966319e-05,-3.1052947e-05,4.355354e-05,-0.00014407064,-0.00010442089,9.7107695e-06,2.255664e-06,-1.0444428e-05,0.00012537144,4.1507083e-05,-1.125687e-06,-0.00019784017,6.1584906e-06,0.000101414786,-2.7595936e-05,-4.286568e-05
-1.4908368e-05,-9.920489e-06,5.029417e-05,-0.00018425466,-0.000107079315,2.1575466e-05,-6.642457e-06,-2.325247e-05,0.00016474357,3.570821e-05,-3.771744e-06,-0.00018874391,-5.3569936e-05,0.00010503744,-9.302782e-06,-4.426536e-05
-1.4570226e-05,-7.3575598e-06,4.9881368e-05,-0.00018424059,-0.0001069443,2.1451933e-05,-6.9556168e-06,-2.3544044e-05,0.00016503816,3.580898e-05,-3.6030312e-06,-0.00018826759,-4.988305e-05,0.00010497373,-6.641858e-06,-4.4139757e-05
-1.45271615e-05,-1.5119692e-05,4.7080503e-05,-0.00016808677,-0.00010587413,1.6663713e-05,-3.4177963e-06,-1.842845e-05,0.00014925645,3.8218743e-05,-2.487175e-06,-0.00019171541,-2.5257998e-05,0.00010351955,-1.3042525e-05,-4.3564207e-05
-1.4640568e-05,-2.8574856e-05,4.3037326e-05,-0.00014340656,-0.00010425289,9.338994e-06,2.092718e-06,-1.0531018e-05,0.00012507821,4.1701107e-05,-8.7435325e-07,-0.00019746837,1.0813828e-05,0.00010128682,-2.4833538e-05,-4.2728912e-05
-1.4864552e-05,-2.0031393e-05,4.6693323e-05,-0.00016338454,-0.00010570186,1.5401036e-05,-2.0636182e-06,-1.6633863e-05,0.00014432492,3.881734e-05,-2.3317123e-06,-0.00019323018,-2.1937998e-05,0.00010316158,-1.768298e-05,-4.3525884e-05
-1.4730169e-05,-1.8491366e-05,4.675763e-05,-0.00016473218,-0.00010572151,1.5767731e-05,-2.483224e-06,-1.717856e-05,0.00014575297,3.8637736e-05,-2.3795392e-06,-0.00019277827,-2.2469536e-05,0.000103254526,-1.6255746e-05,-4.351507e-05
-1.4701677e-05,-2.0429361e-05,4.5996792e-05,-0.00016045575,-0.000105428895,1.4479682e-05,-1.5690949e-06,-1.5847789e-05,0.00014160563,3.9270206e-05,-2.0766738e-06,-0.00019368615,-1.5701617e-05,0.000102861864,-1.7868731e-05,-4.3355645e-05
-1.4726399e-05,-2.6834061e-05,4.396943e-05,-0.00014830132,-0.000104617655,1.085882e-05,1.1121829e-06,-1.1989045e-05,0.00012973424,4.0990217e-05,-1.2683747e-06,-0.00019648278,2.412919e-06,0.00010175557,-2.34656e-05,-4.2932654e-05
-1.48270665e-05,-2.7792257e-05,4.4029413e-05,-0.00014792256,-0.000104636405,1.0787693e-05,1.2891842e-06,-1.1779222e-05,0.00012926318,4.1021936e-05,-1.291559e-06,-0.00019670965,1.8536425e-06,0.00010174227,-2.443313e-05,-4.295788e-05
-1.4849293e-05,-2.227041e-05,4.5951034e-05,-0.00015911383,-0.00010539843,1.4144031e-05,-1.1367075e-06,-1.529154e-05,0.00014014919,3.9421644e-05,-2.0628386e-06,-0.00019420328,-1.5323694e-05,0.00010276941,-1.967352e-05,-4.3362532e-05
-1.4761598e-05,-2.1254782e-05,4.597136e-05,-0.00015986999,-0.00010540942,1.4337372e-05,-1.3837392e-06,-1.5608362e-05,0.0001409693,3.933153e-05,-2.0767654e-06,-0.00019391763,-1.5482548e-05,0.00010281988,-1.8696657e-05,-4.3354554e-05
-1.4742864e-05,-2.309711e-05,4.5278244e-05,-0.00015591654,-0.00010513911,1.3147159e-05,-5.3470984e-07,-1.4374771e-05,0.0001371328,3.9907016e-05,-1.7971505e-06,-0.00019477513,-9.30404e-06,0.00010245652,-2.0247448e-05,-4.3209096e-05
-1.4774634e-05,-2.0788168e-05,4.6147652e-05,-0.00016082003,-0.000105484716,1.4616362e-05,-1.5804106e-06,-1.5897993e-05,0.0001418892,3.9201288e-05,-2.1370765e-06,-0.00019370437,-1.7064596e-05,0.00010290992,-1.827448e-05,-4.3396492e-05
-1.4737255e-05,-2.2222566e-05,4.554236e-05,-0.00015751611,-0.0001052442,1.36219305e-05,-8.907556e-07,-1.4885667e-05,0.00013869884,3.967944e-05,-1.89964e-06,-0.00019440394,-1.1665091e-05,0.0001026012,-1.9474497e-05,-4.32638e-05
-1.47589135e-05,-2.2891496e-05,4.539487e-05,-0.00015649016,-0.00010518645,1.3322166e-05,-6.4552404e-07,-1.4541849e-05,0.00013767746,3.9824197e-05,-1.8385241e-06,-0.00019466123,-1.0356093e-05,0.00010251249,-2.0072888e-05,-4.3236658e-05
-1.4761176e-05,-3.0268482e-05,4.2980235e-05,-0.00014219304,-0.00010421191,9.041035e-06,2.4733072e-06,-1.00385905e-05,0.000123757,4.1830783e-05,-8.755386e-07,-0.000197951,1.1317263e-05,0.00010119883,-2.6552718e-05,-4.272538e-05
-1.4874786e-05,-3.2344095e-05,4.2721218e-05,-0.00013982473,-0.00010410177,8.374972e-06,3.092974e-06,-9.193794e-06,0.000121342004,4.2137868e-05,-7.6848335e-07,-0.00019865732,1.3641893e-05,0.00010100471,-2.8529737e-05,-4.2684984e-05
-1.491732e-05,-2.6509155e-05,4.4822595e-05,-0.00015194622,-0.00010494252,1.2038878e-05,4.9479894e-07,-1.2966722e-05,0.00013309174,4.042251e-05,-1.6188513e-06,-0.00019593422,-5.251077e-06,0.000102129256,-2.347174e-05,-4.3132542e-05
-1.4824449e-05,-2.5557049e-05,4.4805514e-05,-0.00015252597,-0.00010493744,1.2179114e-05,2.8331712e-07,-1.3231266e-05,0.00013374073,4.0357794e-05,-1.6213744e-06,-0.00019568327,-5.0815734e-06,0.00010216223,-2.2545659e-05,-4.3115368e-05
-1.4799615e-05,-3.1890213e-05,4.2613734e-05,-0.00013974018,-0.00010405693,8.323066e-06,3.0420288e-06,-9.234577e-06,0.000121332094,4.2157873e-05,-7.3799805e-07,-0.00019858869,1.4636503e-05,0.00010097936,-2.8074943e-05,-4.2649877e-05
-1.49099615e-05,-2.5616866e-05,4.507724e-05,-0.00015350772,-0.00010504886,1.2496766e-05,1.4685344e-07,-1.3466029e-05,0.00013462541,4.020872e-05,-1.7174391e-06,-0.00019555801,-7.52682e-06,0.0001022712,-2.2667926e-05,-4.318733e-05
-1.4809425e-05,-2.6498321e-05,4.4435466e-05,-0.00015044808,-0.00010479004,1.1550907e-05,7.2270683e-07,-1.2589843e-05,0.00013173197,4.0654988e-05,-1.4724797e-06,-0.00019613573,-1.7683102e-06,0.000101968646,-2.334386e-05,-4.30357e-05
-1.483111e-05,-1.718339e-05,4.756611e-05,-0.00016877244,-0.00010603678,1.6996275e-05,-3.2786113e-06,-1.837277e-05,0.00014961313,3.8031663e-05,-2.701358e-06,-0.00019201377,-2.9633278e-05,0.00010364001,-1.528225e-05,-4.3697422e-05
-1.4682617e-05,-1.8788942e-05,4.6490386e-05,-0.00016349902,-0.00010561981,1.5382911e-05,-2.2561335e-06,-1.6829563e-05,0.00014459585,3.8828613e-05,-2.280097e-06,-0.00019298967,-2.00737e-05,0.00010313342,-1.6462873e-05,-4.3453576e-05
-1.4705897e-05,-2.0103194e-05,4.610977e-05,-0.00016109365,-0.000105476254,1.4667191e-05,-1.7053048e-06,-1.6046237e-05,0.00014222659,3.9181916e-05,-2.118397e-06,-0.00019354101,-1.6711878e-05,0.00010292117,-1.7580101e-05,-4.338132e-05
-1.47242345e-05,-2.4350828e-05,4.4776236e-05,-0.00015308674,-0.00010494238,1.2290442e-05,6.58682e-08,-1.3498727e-05,0.00013439605,4.0316714e-05,-1.5887716e-06,-0.00019538242,-4.824868e-06,0.000102194404,-2.1285003e-05,-4.3102984e-05
-1.4788117e-05,-2.7458824e-05,4.399355e-05,-0.00014799522,-0.00010462369,1.079354e-05,1.2370613e-06,-1.183694e-05,0.00012937197,4.1019786e-05,-1.2773213e-06,-0.0001966393,2.1808498e-06,0.00010174057,-2.4090417e-05,-4.2945285e-05
-1.4844963e-05,-2.1077743e-05,4.6318946e-05,-0.00016131793,-0.000105546635,1.4793784e-05,-1.6248138e-06,-1.5993712e-05,0.0001423088,3.9109305e-05,-2.2046395e-06,-0.00019369417,-1.859737e-05,0.00010296905,-1.8623461e-05,-4.344018e-05
-1.4743277e-05,-2.0921265e-05,4.6010817e-05,-0.0001602349,-0.00010542623,1.4438247e-05,-1.4812701e-06,-1.5740441e-05,0.00014134434,3.928355e-05,-2.0910145e-06,-0.00019380866,-1.5831289e-05,0.00010284932,-1.8379915e-05,-4.3360684e-05
-1.4737282e-05,-2.3392426e-05,4.5155717e-05,-0.00015523384,-0.00010509146,1.2940007e-05,-3.9063954e-07,-1.41642095e-05,0.00013647346,4.000667e-05,-1.7465914e-06,-0.00019491983,-8.210505e-06,0.00010239315,-2.0490272e-05,-4.3183172e-05
-1.4770562e-05,-2.8919967e-05,4.3454667e-05,-0.00014493425,-0.000104405546,9.868529e-06,1.8868872e-06,-1.0890376e-05,0.00012641179,4.144994e-05,-1.0651911e-06,-0.00019732521,7.036104e-06,0.00010145453,-2.5367039e-05,-4.282814e-05
-1.484434e-05,-3.7404352e-05,4.0948173e-05,-0.00012953169,-0.000103373684,5.2442547e-06,5.287352e-06,-6.0058574e-06,0.00011139263,4.3551798e-05,-4.951504e-08,-0.00020103912,2.9740631e-05,0.00010003833,-3.3028507e-05,-4.2300864e-05
-1.49414445e-05,-5.2145875e-05,3.650242e-05,-0.00010232341,-0.00010148854,-3.0750796e-06,1.1176421e-05,2.4909236e-06,8.506191e-05,4.7122245e-05,1.8002061e-06,-0.00020779477,7.0744965e-05,9.7475146e-05,-4.6711957e-05,-4.134236e-05
-1.5147425e-05,-6.0566184e-05,3.4559976e-05,-8.910598e-05,-0.0001006343,-7.0950587e-06,1.4137614e-05,6.714219e-06,7.218636e-05,4.8766247e-05,2.6448477e-06,-0.0002114139,8.901687e-05,9.624632e-05,-5.4910946e-05,-4.0935854e-05
-1.532163e-05,-5.0640767e-05,3.8514503e-05,-0.00011138671,-0.00010231579,-6.484974e-08,9.587713e-06,3.700094e-08,9.342674e-05,4.5853907e-05,9.719719e-07,-0.00020612597,5.221866e-05,9.843524e-05,-4.5792138e-05,-4.182441e-05
-1.52051925e-05,-3.1418047e-05,4.4418503e-05,-0.00014737555,-0.00010473899,1.082178e-05,1.7431357e-06,-1.1281068e-05,0.00012838934,4.095462e-05,-1.4786219e-06,-0.00019746278,-1.5312185e-06,0.00010176711,-2.8349725e-05,-4.3069344e-05
-1.4844916e-05,-5.1684787e-05,3.639923e-05,-0.000102425845,-0.00010142237,-3.0675435e-06,1.1061788e-05,2.3661564e-06,8.527251e-05,4.7081114e-05,1.7942936e-06,-0.00020771769,7.1788665e-05,9.745435e-05,-4.637635e-05,-4.1293843e-05
-1.5171205e-05,-5.0852665e-05,3.782322e-05,-0.000108439635,-0.00010204643,-1.0646698e-06,1.0086899e-05,8.1690473e-07,9.072857e-05,4.6295645e-05,1.2535793e-06,-0.0002065994,5.8553487e-05,9.81207e-05,-4.5767152e-05,-4.1662413e-05
-1.5139583e-05,-5.685508e-05,3.579123e-05,-9.654541e-05,-0.000101156365,-4.753441e-06,1.2570569e-05,4.4371222e-06,7.930808e-05,4.7808295e-05,2.0929265e-06,-0.00020956357,7.74542e-05,9.696428e-05,-5.1459327e-05,-4.1201212e-05
-1.5288953e-05,-4.0192084e-05,4.1817253e-05,-0.0001313086,-0.000103690756,6.004194e-06,5.2959663e-06,-6.1736873e-06,0.000112718786,4.3181728e-05,-4.0436734e-07,-0.00020129544,2.1970951e-05,0.000100302335,-3.6213518e-05,-4.25331e-05
-1.5045787e-05,-2.3195516e-05,4.651458e-05,-0.00016096813,-0.00010558376,1.4806447e-05,-1.3680084e-06,-1.5709595e-05,0.00014177992,3.906388e-05,-2.3231198e-06,-0.00019413984,-2.0268353e-05,0.0001029736,-2.0942367e-05,-4.349023e-05
-1.4774457e-05,-1.8624674e-05,4.696104e-05,-0.00016560245,-0.00010578814,1.6059337e-05,-2.631712e-06,-1.7414526e-05,0.00014655558,3.8485796e-05,-2.494562e-06,-0.0001926884,-2.4222807e-05,0.00010334052,-1.6564949e-05,-4.355597e-05
-1.4695296e-05,-2.6319634e-05,4.4060806e-05,-0.0001490633,-0.00010465108,1.10814e-05,9.1734097e-07,-1.2256793e-05,0.00013050743,4.0882212e-05,-1.3219262e-06,-0.00019628441,1.6298341e-06,0.000101818114,-2.3036793e-05,-4.294494e-05
-1.4822642e-05,-2.3126147e-05,4.554835e-05,-0.0001569338,-0.000105246916,1.3475939e-05,-6.835965e-07,-1.4625786e-05,0.00013805332,3.975008e-05,-1.897768e-06,-0.0001946427,-1.1734266e-05,0.00010256663,-2.0354244e-05,-4.327835e-05
-1.4774125e-05,-2.2856466e-05,4.547781e-05,-0.00015686662,-0.000105214174,1.3446133e-05,-7.1390053e-07,-1.4647335e-05,0.0001380271,3.9760296e-05,-1.8765444e-06,-0.00019460772,-1.1096692e-05,0.00010254923,-2.0082955e-05,-4.3253716e-05
-1.4767687e-05,-2.4114419e-05,4.5034496e-05,-0.00015429681,-0.000105039966,1.2674496e-05,-1.5702845e-07,-1.3840976e-05,0.00013552791,4.013094e-05,-1.6993297e-06,-0.00019517835,-7.134311e-06,0.00010231366,-2.1162223e-05,-4.3160748e-05
-1.4779505e-05,-3.073631e-05,4.289838e-05,-0.00014157462,-0.00010417731,8.863186e-06,2.624972e-06,-9.82791e-06,0.00012313652,4.1912605e-05,-8.4428865e-07,-0.00019812195,1.2055299e-05,0.00010114553,-2.6995396e-05,-4.270998e-05
-1.4888996e-05,-2.791859e-05,4.4233337e-05,-0.00014867265,-0.00010471268,1.1041513e-05,1.1831293e-06,-1.196014e-05,0.00012993262,4.0898845e-05,-1.3776623e-06,-0.00019663133,2.5196218e-08,0.00010182399,-2.464307e-05,-4.3007323e-05
-1.485378e-05,-1.9390285e-05,4.6934005e-05,-0.0001648783,-0.00010578311,1.5859814e-05,-2.399482e-06,-1.7115164e-05,0.00014577752,3.858509e-05,-2.4565327e-06,-0.00019292344,-2.4045334e-05,0.00010329242,-1.7219716e-05,-4.3566608e-05
-1.4718215e-05,-1.723454e-05,4.714139e-05,-0.00016708132,-0.000105873536,1.6458838e-05,-3.0108076e-06,-1.7934597e-05,0.00014806105,3.830154e-05,-2.5384752e-06,-0.00019224116,-2.58518e-05,0.00010346461,-1.5185702e-05,-4.3593252e-05
-1.46803895e-05,-2.1431575e-05,4.558822e-05,-0.00015819723,-0.000105267965,1.3798953e-05,-1.0938919e-06,-1.5152323e-05,0.00013942392,3.9598308e-05,-1.9163713e-06,-0.00019416634,-1.2054223e-05,0.00010265193,-1.8710682e-05,-4.326744e-05
-1.4744904e-05,-2.4143676e-05,4.49175e-05,-0.00015377266,-0.00010499946,1.2501872e-05,-6.44477e-08,-1.3696507e-05,0.00013504461,4.021763e-05,-1.6441128e-06,-0.00019525118,-6.093306e-06,0.00010226181,-2.1126554e-05,-4.3136126e-05
-1.4778117e-05,-3.2359403e-05,4.2349595e-05,-0.0001383333,-0.00010395468,7.882211e-06,3.32551e-06,-8.814143e-06,0.000119992765,4.236245e-05,-6.1754105e-07,-0.00019887037,1.7011149e-05,0.00010084482,-2.8419523e-05,-4.259364e-05
-1.4905237e-05,-3.421018e-05,4.222422e-05,-0.00013665213,-0.00010389656,7.430808e-06,3.8076134e-06,-8.173516e-06,0.00011823225,4.256825e-05,-5.6626646e-07,-0.00019944267,1.813835e-05,0.000100716876,-3.0230469e-05,-4.2582436e-05
-1.4941907e-05,-3.0286586e-05,4.3679927e-05,-0.00014500314,-0.00010447984,9.9717945e-06,2.0304246e-06,-1.075908e-05,0.000126306,4.1391606e-05,-1.1637828e-06,-0.00019756926,5.0040894e-06,0.0001014966,-2.6834467e-05,-4.289316e-05
-1.4894967e-05,-1.4340528e-05,4.8771373e-05,-0.00017539933,-0.00010649525,1.8978873e-05,-4.6863897e-06,-2.0429718e-05,0.00015605106,3.703125e-05,-3.1791153e-06,-0.00019065519,-4.0247112e-05,0.00010424627,-1.2991417e-05,-4.39513e-05
-1.4636352e-05,-2.0336e-05,4.5832683e-05,-0.00015994404,-0.000105357074,1.4314576e-05,-1.5199641e-06,-1.5745516e-05,0.00014117423,3.9341267e-05,-2.028149e-06,-0.00019373937,-1.4189626e-05,0.00010280021,-1.7769795e-05,-4.3307573e-05
-1.4722975e-05,-2.6627615e-05,4.4019947e-05,-0.00014862583,-0.00010464161,1.0950784e-05,1.0383117e-06,-1.2094309e-05,0.0001300573,4.0950436e-05,-1.2876613e-06,-0.00019639742,1.9657828e-06,0.00010178525,-2.3276272e-05,-4.2944448e-05
-1.48267545e-05,-2.5445528e-05,4.4797605e-05,-0.00015246744,-0.00010494548,1.2147122e-05,2.971177e-07,-1.3211632e-05,0.0001336913,4.0381798e-05,-1.5970094e-06,-0.00019566563,-5.0360504e-06,0.00010215926,-2.2372758e-05,-4.3120388e-05
-1.4809192e-05,-2.48108e-05,4.4965353e-05,-0.00015358468,-0.00010500756,1.2481747e-05,3.7206487e-08,-1.3579253e-05,0.00013479122,4.021887e-05,-1.6729513e-06,-0.00019540319,-6.525454e-06,0.00010225679,-2.1829928e-05,-4.3150234e-05
-1.4799396e-05,-2.3665749e-05,4.5307606e-05,-0.00015567902,-0.000105145664,1.3101794e-05,-4.2969037e-07,-1.4249086e-05,0.00013684324,3.9924984e-05,-1.8104205e-06,-0.00019491259,-9.577445e-06,0.00010244623,-2.0823341e-05,-4.3221284e-05
-1.4782758e-05,-2.2003398e-05,4.5792134e-05,-0.00015866119,-0.00010533999,1.3982485e-05,-1.0986785e-06,-1.5206923e-05,0.00013977014,3.950411e-05,-2.0025018e-06,-0.0001942124,-1.3895529e-05,0.00010271473,-1.935771e-05,-4.3321194e-05
-1.4734105e-05,-3.799046e-05,4.035377e-05,-0.00012681125,-0.00010312919,4.366622e-06,5.767621e-06,-5.260938e-06,0.000108883185,4.393247e-05,1.877257e-07,-0.00020154213,3.5197347e-05,9.9756675e-05,-3.3450735e-05,-4.215743e-05
-1.4826132e-05,-8.08161e-05,2.6727543e-05,-4.440489e-05,-9.707853e-05,-2.165965e-05,2.3014241e-05,1.980291e-05,3.019849e-05,5.4065433e-05,6.1144715e-06,-0.00022286897,0.0001644697,9.166261e-05,-7.477709e-05,-3.9103666e-05
-1.5568503e-05,-7.292877e-05,3.2160497e-05,-7.1220165e-05,-9.956897e-05,-1.25356855e-05,1.8187955e-05,1.2486053e-05,5.484118e-05,5.0908217e-05,3.8078113e-06,-0.00021657349,0.00011218581,9.460612e-05,-6.7200686e-05,-4.0457584e-05
-1.5409367e-05,-7.6405784e-05,3.055388e-05,-6.289489e-05,-9.8800716e-05,-1.5237176e-05,1.9774121e-05,1.4847152e-05,4.697406e-05,5.186928e-05,4.4218345e-06,-0.00021872231,0.00012740766,9.3716335e-05,-7.0851514e-05,-4.0045878e-05
-1.5491438e-05,-7.146615e-05,3.2478387e-05,-7.383199e-05,-9.96751e-05,-1.170225e-05,1.759635e-05,1.1637009e-05,5.7299276e-05,5.0561724e-05,3.576307e-06,-0.00021592135,0.00010903866,9.483348e-05,-6.600251e-05,-4.0498064e-05
-1.5387901e-05,-7.508864e-05,3.0914256e-05,-6.525679e-05,-9.896911e-05,-1.4493244e-05,1.9277322e-05,1.4124521e-05,4.9224232e-05,5.1599898e-05,4.237447e-06,-0.00021806493,0.00012393993,9.394809e-05,-6.9560934e-05,-4.0126448e-05
-1.545544e-05,-7.387374e-05,3.1554606e-05,-6.856263e-05,-9.926367e-05,-1.3402646e-05,1.8654611e-05,1.3192729e-05,5.231262e-05,5.1206436e-05,3.9729653e-06,-0.00021725667,0.000117844495,9.430014e-05,-6.83594e-05,-4.0284714e-05
-1.5469086e-05,-6.728969e-05,3.3754404e-05,-8.169565e-05,-0.0001002385,-9.221294e-06,1.594908e-05,9.240655e-06,6.481126e-05,4.959631e-05,3.0040394e-06,-0.00021385426,9.687807e-05,9.560164e-05,-6.191775e-05,-4.0780928e-05
-1.5436497e-05,-4.7961505e-05,3.9937582e-05,-0.00011895708,-0.00010288637,2.3366035e-06,8.0659e-06,-2.2108964e-06,0.00010064152,4.4790384e-05,3.6330349e-07,-0.00020451746,3.9239974e-05,9.917562e-05,-4.3629625e-05,-4.213646e-05
-1.5124326e-05,-4.5313463e-05,3.9598446e-05,-0.00011937984,-0.000102760394,2.3222851e-06,7.715229e-06,-2.6056032e-06,0.00010128843,4.4809152e-05,4.5796114e-07,-0.00020398002,4.2201977e-05,9.914119e-05,-4.084277e-05,-4.2023556e-05
-1.509385e-05,-4.0748084e-05,4.090744e-05,-0.00012741062,-0.00010332549,4.737974e-06,5.970676e-06,-5.1233474e-06,0.00010908701,4.3763066e-05,-6.521679e-08,-0.0002019579,3.0190291e-05,9.989357e-05,-3.652761e-05,-4.231223e-05
-1.5032384e-05,-3.6232665e-05,4.2133426e-05,-0.00013515688,-0.00010383501,7.057812e-06,4.246797e-06,-7.5934227e-06,0.00011664995,4.272145e-05,-5.624016e-07,-0.00020002887,1.9012612e-05,0.000100603094,-3.2346186e-05,-4.256885e-05
-1.4976026e-05,-2.7077656e-05,4.4911514e-05,-0.00015203288,-0.000104965715,1.2101483e-05,5.298816e-07,-1.2942282e-05,0.00013311727,4.038292e-05,-1.6754741e-06,-0.00019602836,-6.014752e-06,0.00010214805,-2.4135901e-05,-4.3153163e-05
-1.4834557e-05,-2.2778115e-05,4.578256e-05,-0.00015822132,-0.00010532335,1.3885996e-05,-9.53441e-07,-1.502135e-05,0.00013928492,3.9540402e-05,-2.019382e-06,-0.0001944153,-1.3790506e-05,0.00010268379,-2.0179175e-05,-4.3319986e-05
-1.4764509e-05,-2.435665e-05,4.4968503e-05,-0.00015392787,-0.000105009945,1.2568523e-05,-7.870871e-08,-1.3727058e-05,0.00013516936,4.0178697e-05,-1.6852701e-06,-0.00019527182,-6.526679e-06,0.00010227864,-2.1411284e-05,-4.3144144e-05
-1.4775228e-05,-3.511928e-05,4.144727e-05,-0.00013300337,-0.00010358249,6.2688005e-06,4.474842e-06,-7.1510412e-06,0.000114828144,4.309093e-05,-2.5930814e-07,-0.0002001261,2.5213489e-05,0.0001003472,-3.0908457e-05,-4.2398944e-05
-1.4940005e-05,-3.8626324e-05,4.0907948e-05,-0.00012857959,-0.000103353355,4.997312e-06,5.5802984e-06,-5.6232507e-06,0.0001103761,4.366427e-05,-2.9798628e-08,-0.0002013959,3.0107474e-05,9.9971345e-05,-3.4241646e-05,-4.2304644e-05
-1.50022215e-05,-3.622178e-05,4.1964817e-05,-0.00013438574,-0.00010377685,6.798291e-06,4.3854648e-06,-7.379124e-06,0.00011593574,4.2846772e-05,-4.7012443e-07,-0.00020013374,2.0505606e-05,0.00010052618,-3.2200216e-05,-4.2534597e-05
-1.4957478e-05,-3.865547e-05,4.1019965e-05,-0.0001291121,-0.000103385544,5.1838983e-06,5.482331e-06,-5.773263e-06,0.00011086317,4.3569773e-05,-9.712966e-08,-0.00020133346,2.910696e-05,0.000100022706,-3.4374985e-05,-4.232368e-05
-1.494494e-05,-5.6595723e-05,3.5098685e-05,-9.390347e-05,-0.000100872305,-5.6944596e-06,1.29514565e-05,5.068299e-06,7.6984725e-05,4.818162e-05,2.3815157e-06,-0.00020993696,8.391195e-05,9.665864e-05,-5.098085e-05,-4.1027484e-05
-1.5216776e-05,-6.103086e-05,3.4683002e-05,-8.9295536e-05,-0.000100686084,-6.998472e-06,1.4158001e-05,6.718034e-06,7.230605e-05,4.8732854e-05,2.5976026e-06,-0.0002114612,8.7898785e-05,9.6283606e-05,-5.542824e-05,-4.097228e-05
-1.5325522e-05,-5.157278e-05,3.8241233e-05,-0.00010972531,-0.0001021959,-5.696831e-07,9.943827e-06,5.525103e-07,9.181807e-05,4.6066216e-05,1.0810091e-06,-0.00020655108,5.474737e-05,9.827722e-05,-4.6691486e-05,-4.1763058e-05
-1.5198556e-05,-4.0976607e-05,4.125875e-05,-0.00012868884,-0.00010345433,5.1857514e-06,5.784262e-06,-5.432743e-06,0.00011023152,4.3548494e-05,-2.0243684e-07,-0.000201825,2.7014727e-05,0.00010003517,-3.6891983e-05,-4.2395637e-05
-1.5039117e-05,-3.4401233e-05,4.2791704e-05,-0.00013900595,-0.000104097024,8.231893e-06,3.4197496e-06,-8.792308e-06,0.00012037712,4.2179396e-05,-8.380294e-07,-0.00019915763,1.30723665e-05,0.00010096073,-3.076643e-05,-4.2706495e-05
-1.4933567e-05,-3.4402266e-05,4.2354226e-05,-0.00013720775,-0.00010393259,7.632213e-06,3.714772e-06,-8.321563e-06,0.000118732874,4.2464e-05,-6.5531566e-07,-0.00019940516,1.7006962e-05,0.000100772,-3.057866e-05,-4.260468e-05
-1.4945246e-05,-2.794392e-05,4.448721e-05,-0.0001497555,-0.00010480291,1.1401055e-05,9.993797e-07,-1.2251089e-05,0.0001309287,4.072076e-05,-1.4997302e-06,-0.00019649098,-2.2253273e-06,0.0001019339,-2.4820016e-05,-4.306284e-05
-1.4843176e-05,-2.781519e-05,4.4144173e-05,-0.00014847785,-0.0001046691,1.097785e-05,1.1842117e-06,-1.1938971e-05,0.00012977862,4.0922347e-05,-1.363411e-06,-0.00019664329,8.5123474e-07,0.00010179461,-2.4569501e-05,-4.297706e-05
-1.4847545e-05,-2.2103737e-05,4.6016692e-05,-0.00015951412,-0.00010542335,1.4264697e-05,-1.2252842e-06,-1.5419319e-05,0.00014054052,3.93633e-05,-2.0980076e-06,-0.00019411824,-1.589304e-05,0.00010280529,-1.955669e-05,-4.337501e-05
-1.475758e-05,-2.1946067e-05,4.5731627e-05,-0.0001584841,-0.000105314306,1.3923842e-05,-1.0833464e-06,-1.5173317e-05,0.00013962059,3.953085e-05,-1.9844138e-06,-0.0001942261,-1.334399e-05,0.000102692946,-1.9296358e-05,-4.33037e-05
-1.4754682e-05,-2.1941305e-05,4.5701647e-05,-0.00015833152,-0.00010530761,1.3870636e-05,-1.0527004e-06,-1.5127734e-05,0.00013947763,3.9560782e-05,-1.9646359e-06,-0.00019424295,-1.3084315e-05,0.00010267928,-1.9258374e-05,-4.3299762e-05
-1.4754563e-05,-2.2762912e-05,4.5425306e-05,-0.00015670077,-0.00010519783,1.3384482e-05,-6.9571297e-07,-1.4612327e-05,0.0001378867,3.979372e-05,-1.8525849e-06,-0.00019461005,-1.0625357e-05,0.00010253063,-1.9962228e-05,-4.324199e-05
-1.4768498e-05,-2.205729e-05,4.570814e-05,-0.00015826992,-0.000105309875,1.3856932e-05,-1.0265478e-06,-1.5096076e-05,0.00013940415,3.9566905e-05,-1.9636811e-06,-0.00019427319,-1.3151221e-05,0.000102676575,-1.9365736e-05,-4.3303233e-05
-1.47544115e-05,-2.508476e-05,4.466242e-05,-0.00015219433,-0.00010489181,1.2040616e-05,2.8977544e-07,-1.3189725e-05,0.00013349272,4.0431685e-05,-1.5500349e-06,-0.00019563807,-3.805488e-06,0.00010211843,-2.1987009e-05,-4.3080858e-05
-1.478078e-05,-3.8858645e-05,4.023338e-05,-0.00012575467,-0.000103079445,4.0634045e-06,6.0390635e-06,-4.8891416e-06,0.000107809035,4.407148e-05,2.420154e-07,-0.00020185154,3.62815e-05,9.9668694e-05,-3.4272893e-05,-4.213859e-05
-1.4986692e-05,-4.4366614e-05,3.9203078e-05,-0.000118087,-0.000102640275,1.8127524e-06,7.870931e-06,-2.3241098e-06,0.00010019037,4.5063465e-05,6.77163e-07,-0.00020397556,4.572719e-05,9.8993834e-05,-3.9515733e-05,-4.1941956e-05
-1.5062907e-05,-4.8951173e-05,3.8034716e-05,-0.00011054339,-0.00010213212,-4.585672e-07,9.545962e-06,7.3768426e-08,9.283483e-05,4.602893e-05,1.1537007e-06,-0.00020595039,5.6529112e-05,9.829282e-05,-4.3892007e-05,-4.1690924e-05
-1.5164702e-05,-3.8242804e-05,4.195427e-05,-0.00013308608,-0.00010375777,6.4837136e-06,4.8084476e-06,-6.8326976e-06,0.00011453429,4.2977324e-05,-4.6577722e-07,-0.00020068734,2.065683e-05,0.0001004406,-3.426495e-05,-4.254918e-05
-1.5015788e-05,-2.2609769e-05,4.6559497e-05,-0.00016146425,-0.00010561051,1.4932078e-05,-1.5025028e-06,-1.5891788e-05,0.00014229117,3.9011647e-05,-2.3322023e-06,-0.00019396428,-2.0686544e-05,0.00010301361,-2.0339261e-05,-4.349988e-05
-1.4760781e-05,-2.4852012e-05,4.4843415e-05,-0.00015320597,-0.00010494928,1.2365582e-05,7.5088515e-08,-1.3503011e-05,0.0001344669,4.0265284e-05,-1.6537075e-06,-0.00019546361,-5.3758636e-06,0.00010220997,-2.1916696e-05,-4.311133e-05
-1.4794101e-05,-2.630452e-05,4.4424272e-05,-0.0001504983,-0.000104794344,1.15501e-05,6.980975e-07,-1.2619103e-05,0.00013180172,4.066339e-05,-1.4640449e-06,-0.00019608637,-1.6616342e-06,0.00010197142,-2.3134346e-05,-4.303524e-05
-1.48180225e-05,-2.7619424e-05,4.4073262e-05,-0.00014824716,-0.0001046505,1.0886689e-05,1.2106252e-06,-1.1889133e-05,0.00012958473,4.097277e-05,-1.3191236e-06,-0.00019663507,1.470422e-06,0.00010176952,-2.4303165e-05,-4.296374e-05
-1.4838939e-05,-2.7956603e-05,4.4043598e-05,-0.000147918,-0.000104636296,1.07982005e-05,1.301813e-06,-1.1766762e-05,0.00012924233,4.1012685e-05,-1.3071799e-06,-0.00019674267,1.7348201e-06,0.000101743484,-2.4628385e-05,-4.2959477e-05
-1.4849808e-05,-2.3498955e-05,4.5556517e-05,-0.00015678062,-0.00010524082,1.3451689e-05,-6.242325e-07,-1.4552605e-05,0.00013786956,3.9754203e-05,-1.9110519e-06,-0.00019473623,-1.1802869e-05,0.00010255699,-2.0753603e-05,-4.327922e-05
-1.4776488e-05,-2.5540712e-05,4.461711e-05,-0.00015176386,-0.00010486787,1.19271035e-05,4.0492586e-07,-1.3033891e-05,0.00013304797,4.048114e-05,-1.5414413e-06,-0.00019578109,-3.3925978e-06,0.00010208286,-2.2448023e-05,-4.3071483e-05
-1.4806896e-05,-2.6663089e-05,4.4344895e-05,-0.00014993557,-0.0001047613,1.1386996e-05,8.324002e-07,-1.2430486e-05,0.00013123958,4.073897e-05,-1.4269003e-06,-0.00019623055,-9.636549e-07,0.00010192235,-2.3446557e-05,-4.3020136e-05
-1.4830207e-05,-2.2475017e-05,4.581274e-05,-0.00015843759,-0.0001053455,1.3934583e-05,-1.0056858e-06,-1.5094204e-05,0.00013950707,3.9524664e-05,-2.0099421e-06,-0.00019432853,-1.4087579e-05,0.00010270415,-1.9828021e-05,-4.33315e-05
-1.47586015e-05,-2.7105998e-05,4.4029606e-05,-0.00014842034,-0.000104633276,1.0917108e-05,1.1171416e-06,-1.1997056e-05,0.00012981168,4.0956715e-05,-1.3044674e-06,-0.00019651982,1.8778726e-06,0.000101772195,-2.3788247e-05,-4.294561e-05
-1.4828162e-05,-2.945832e-05,4.3499338e-05,-0.0001447773,-0.00010442001,9.846968e-06,1.975238e-06,-1.0788997e-05,0.00012619997,4.1459138e-05,-1.0855068e-06,-0.00019744466,6.6298494e-06,0.00010145243,-2.5923604e-05,-4.284436e-05
-1.4869668e-05,-2.7241747e-05,4.4394463e-05,-0.0001497673,-0.000104775645,1.1365138e-05,9.2696723e-07,-1.232178e-05,0.00013101367,4.0745144e-05,-1.446944e-06,-0.00019636092,-1.4168961e-06,0.00010191988,-2.4040542e-05,-4.3037417e-05
-1.4839602e-05,-2.2463397e-05,4.5867077e-05,-0.00015868784,-0.00010536307,1.4017517e-05,-1.0516737e-06,-1.5164889e-05,0.00013973961,3.9481474e-05,-2.0369062e-06,-0.00019429509,-1.4566365e-05,0.000102728234,-1.9852532e-05,-4.334213e-05
-1.4765733e-05,-1.9068882e-05,4.6707843e-05,-0.00016418532,-0.0001057012,1.5618623e-05,-2.3280866e-06,-1.6972524e-05,0.00014518225,3.87109e-05,-2.3676569e-06,-0.00019295205,-2.2025071e-05,0.0001032124,-1.6818785e-05,-4.3509383e-05
-1.4711235e-05,-1.9538527e-05,4.6334877e-05,-0.00016238056,-0.00010556051,1.50574615e-05,-1.9826891e-06,-1.644899e-05,0.0001434748,3.8989172e-05,-2.2147474e-06,-0.00019327109,-1.8707211e-05,0.0001030384,-1.7127415e-05,-4.3426637e-05
-1.4718224e-05,-2.0382115e-05,4.6066394e-05,-0.00016074837,-0.00010545694,1.4571214e-05,-1.6178413e-06,-1.5925782e-05,0.00014187567,3.9226587e-05,-2.1023693e-06,-0.00019363855,-1.6330925e-05,0.000102892074,-1.7840612e-05,-4.3373107e-05
-1.4733505e-05,-1.8622668e-05,4.670019e-05,-0.00016437672,-0.00010570676,1.5653284e-05,-2.401284e-06,-1.7062606e-05,0.00014540598,3.870076e-05,-2.3500793e-06,-0.0001928434,-2.1968353e-05,0.000103224294,-1.6339747e-05,-4.3507665e-05
-1.4704381e-05,-2.0703448e-05,4.5910543e-05,-0.00015992734,-0.00010539455,1.4323267e-05,-1.4509126e-06,-1.5678292e-05,0.00014108706,3.934525e-05,-2.0401583e-06,-0.00019380669,-1.4941984e-05,0.000102814374,-1.8099923e-05,-4.333815e-05
-1.47368655e-05,-2.0822763e-05,4.598523e-05,-0.00016013546,-0.00010542431,1.4395542e-05,-1.4658464e-06,-1.5715048e-05,0.00014125883,3.9310977e-05,-2.0677128e-06,-0.00019380018,-1.561712e-05,0.00010284028,-1.8237322e-05,-4.3358847e-05
-1.4735502e-05,-2.4793033e-05,4.4679196e-05,-0.00015243111,-0.000104901206,1.2101301e-05,2.1994109e-07,-1.3281603e-05,0.00013374409,4.0404586e-05,-1.5526773e-06,-0.00019555236,-3.9562005e-06,0.00010213642,-2.1694455e-05,-4.308301e-05
-1.47969195e-05,-2.587093e-05,4.455247e-05,-0.00015123634,-0.00010484768,1.1768637e-05,5.386936e-07,-1.2849646e-05,0.00013251846,4.056109e-05,-1.5021529e-06,-0.00019590973,-2.8327438e-06,0.00010204,-2.271473e-05,-4.3064232e-05
-1.4820841e-05,-1.9476589e-05,4.675999e-05,-0.00016409521,-0.0001057215,1.5608568e-05,-2.2576387e-06,-1.6895674e-05,0.00014504515,3.8714184e-05,-2.3799466e-06,-0.0001930387,-2.250818e-05,0.000103215774,-1.7215852e-05,-4.3528948e-05
-1.47220135e-05,-1.36098115e-05,4.8338232e-05,-0.0001741045,-0.00010634369,1.852765e-05,-4.559215e-06,-2.0167468e-05,0.00015493722,3.7279027e-05,-2.9995447e-06,-0.00019068045,-3.642752e-05,0.00010409791,-1.2079124e-05,-4.3843636e-05
-1.4628239e-05,-2.8608029e-06,5.152438e-05,-0.00019349226,-0.00010757962,2.4148474e-05,-8.9658515e-06,-2.6464539e-05,0.00017408695,3.442161e-05,-4.2135316e-06,-0.00018632108,-6.425649e-05,0.00010580504,-2.90177e-06,-4.448959e-05
-1.4455536e-05,2.6497362e-06,5.269399e-05,-0.00020155027,-0.00010803764,2.6415948e-05,-1.0942371e-05,-2.9218525e-05,0.00018220558,3.3249944e-05,-4.636395e-06,-0.00018435076,-7.431814e-05,0.000106483174,1.9322815e-06,-4.47088e-05
-1.4372673e-05,-4.0258246e-06,5.0141927e-05,-0.00018716474,-0.000107080086,2.220108e-05,-7.804189e-06,-2.4663768e-05,0.00016813476,3.5455447e-05,-3.6418955e-06,-0.00018729102,-5.2122705e-05,0.00010520018,-3.4044433e-06,-4.4182278e-05
-1.4477683e-05,-1.5815305e-05,4.660162e-05,-0.0001656178,-0.00010569875,1.5897625e-05,-2.9254936e-06,-1.7691988e-05,0.00014690631,3.8600803e-05,-2.2639026e-06,-0.00019216149,-2.103329e-05,0.000103287864,-1.3470846e-05,-4.346468e-05
-1.4659236e-05,-2.3116512e-05,4.487555e-05,-0.00015414447,-0.00010499814,1.2562511e-05,-2.3021607e-07,-1.3893372e-05,0.0001355067,4.019799e-05,-1.5946529e-06,-0.00019501173,-5.7296575e-06,0.00010227968,-2.0027535e-05,-4.3123015e-05
-1.4773653e-05,-2.4888555e-05,4.4756576e-05,-0.00015261267,-0.00010493535,1.2163869e-05,2.1475573e-07,-1.3305424e-05,0.0001338871,4.037771e-05,-1.5660769e-06,-0.00019554536,-4.6779264e-06,0.00010216193,-2.1774551e-05,-4.3107248e-05
-1.4801325e-05,-2.4692668e-05,4.4958273e-05,-0.00015360155,-0.0001050082,1.2479415e-05,2.5789198e-08,-1.3591798e-05,0.00013481737,4.0222516e-05,-1.662022e-06,-0.00019537877,-6.4695946e-06,0.00010225718,-2.169023e-05,-4.3149477e-05
-1.4798042e-05,-2.3839917e-05,4.5240744e-05,-0.00015529401,-0.00010511953,1.2985728e-05,-3.4687938e-07,-1.4128774e-05,0.0001364694,3.9980645e-05,-1.7816457e-06,-0.00019499607,-8.9836985e-06,0.00010241089,-2.0965776e-05,-4.3207387e-05
-1.47594e-05,-3.985086e-05,3.9840128e-05,-0.0001235735,-0.00010291301,3.3899244e-06,6.4863116e-06,-4.231821e-06,0.0001057254,4.436218e-05,3.984864e-07,-0.00020235313,3.9895393e-05,9.9457386e-05,-3.516884e-05,-4.2049203e-05
-1.50112965e-05,-4.0691422e-05,4.0497405e-05,-0.00012560104,-0.00010318131,4.1205667e-06,6.284156e-06,-4.633505e-06,0.00010743018,4.4054625e-05,1.4503362e-07,-0.00020219998,3.386639e-05,9.97087e-05,-3.618617e-05,-4.222601e-05
-1.5032133e-05,-3.7980273e-05,4.1515937e-05,-0.00013149425,-0.00010358697,5.940009e-06,5.035729e-06,-6.450359e-06,0.000113102695,4.3230288e-05,-2.9050344e-07,-0.00020086815,2.4590003e-05,0.00010026266,-3.3838747e-05,-4.2440133e-05
-1.5005993e-05,-2.7250904e-05,4.4958688e-05,-0.00015208818,-0.00010498319,1.2129085e-05,5.4403216e-07,-1.293404e-05,0.00013314615,4.0367293e-05,-1.6870769e-06,-0.00019605402,-6.441491e-06,0.00010215941,-2.4308552e-05,-4.3167216e-05
-1.4832759e-05,-2.7269727e-05,4.430346e-05,-0.00014949332,-0.00010473005,1.1282754e-05,9.5312834e-07,-1.2268008e-05,0.00013077597,4.077616e-05,-1.4335288e-06,-0.00019640737,-5.654295e-07,0.000101885,-2.4105175e-05,-4.3007283e-05
-1.483766e-05,-2.2610635e-05,4.581565e-05,-0.00015839978,-0.00010534443,1.3929397e-05,-9.897191e-07,-1.5075212e-05,0.00013946187,3.9526025e-05,-2.0206169e-06,-0.0001943569,-1.4098184e-05,0.00010270194,-1.9988927e-05,-4.3331707e-05
-1.4763725e-05,-2.3710252e-05,4.517147e-05,-0.00015513245,-0.00010509125,1.29271675e-05,-3.4336807e-07,-1.4108354e-05,0.00013634493,4.000783e-05,-1.7623128e-06,-0.00019499364,-8.34855e-06,0.0001023886,-2.0834874e-05,-4.3187065e-05
-1.477354e-05,-2.989121e-05,4.3156604e-05,-0.00014314748,-0.000104282764,9.334474e-06,2.2782087e-06,-1.032655e-05,0.00012467086,4.1695766e-05,-9.5007726e-07,-0.00019774915,9.729173e-06,0.00010128981,-2.6244792e-05,-4.276417e-05
-1.4878047e-05,-2.5792866e-05,4.4890243e-05,-0.00015263808,-0.00010497722,1.2222471e-05,3.0762783e-07,-1.3219682e-05,0.00013380697,4.0341878e-05,-1.6394544e-06,-0.00019570692,-5.8599912e-06,0.000102185215,-2.2764787e-05,-4.3144795e-05
-1.4809911e-05,-2.8481221e-05,4.377593e-05,-0.00014654452,-0.00010452599,1.0378665e-05,1.5736981e-06,-1.1360844e-05,0.00012793264,4.120574e-05,-1.2051152e-06,-0.00019702857,4.149013e-06,0.00010161018,-2.5072803e-05,-4.289718e-05
-1.4848651e-05,-3.0410847e-05,4.327549e-05,-0.00014330067,-0.0001043254,9.415302e-06,2.3153616e-06,-1.0306806e-05,0.00012474162,4.165662e-05,-1.0002667e-06,-0.00019782342,8.649621e-06,0.00010132004,-2.6809706e-05,-4.2797816e-05
-1.470763e-05,-8.1379454e-05,2.6124391e-05,-4.166731e-05,-9.678053e-05,-2.2637269e-05,2.344585e-05,2.048637e-05,2.7809481e-05,5.433866e-05,6.3692755e-06,-0.00022351359,0.00017046777,9.1336165e-05,-7.5374235e-05,-3.8940532e-05
-1.548534e-05,-8.772163e-05,2.7042215e-05,-4.091702e-05,-9.7232914e-05,-2.237486e-05,2.429084e-05,2.1446123e-05,2.6232827e-05,5.4463333e-05,6.119049e-06,-0.0002246492,0.00016179548,9.1522255e-05,-8.2093466e-05,-3.927241e-05
-1.5592606e-05,-8.704943e-05,2.781733e-05,-4.4775814e-05,-9.7543096e-05,-2.0997173e-05,2.359935e-05,2.0395535e-05,2.9706343e-05,5.3955973e-05,5.733879e-06,-0.00022387537,0.00015422638,9.193849e-05,-8.173256e-05,-3.9442417e-05
-1.5632455e-05,-7.833483e-05,3.084418e-05,-6.278923e-05,-9.892493e-05,-1.5136039e-05,1.997264e-05,1.5069996e-05,4.669997e-05,5.1849962e-05,4.3408986e-06,-0.00021906727,0.00012486581,9.377227e-05,-7.29945e-05,-4.0140007e-05
-1.5639735e-05,-4.2901633e-05,4.2437783e-05,-0.00013218613,-0.00010389286,6.455823e-06,5.375611e-06,-6.172213e-06,0.00011336427,4.2905278e-05,-6.29533e-07,-0.00020168263,1.6664737e-05,0.00010045695,-3.935109e-05,-4.2692835e-05
-1.5051947e-05,-4.0817304e-05,4.086033e-05,-0.00012741388,-0.000103275306,4.758121e-06,5.9236127e-06,-5.1685993e-06,0.00010913515,4.372087e-05,-8.061561e-08,-0.00020199518,3.0689647e-05,9.987774e-05,-3.676773e-05,-4.2279633e-05
-1.5024135e-05,-3.8325463e-05,4.143571e-05,-0.00013107699,-0.00010355026,5.817562e-06,5.1199427e-06,-6.326793e-06,0.00011270624,4.3284355e-05,-2.855983e-07,-0.00020098577,2.5377693e-05,0.00010022124,-3.425915e-05,-4.241833e-05
-1.5003913e-05,-3.037189e-05,4.3934815e-05,-0.00014604714,-0.00010457246,1.03208795e-05,1.859841e-06,-1.1032933e-05,0.0001272634,4.1221054e-05,-1.2853169e-06,-0.0001974413,2.7454896e-06,0.00010160503,-2.7074591e-05,-4.2950713e-05
-1.4879047e-05,-2.927432e-05,4.3815893e-05,-0.00014627026,-0.000104531566,1.033509e-05,1.6981464e-06,-1.1212567e-05,0.00012759348,4.121952e-05,-1.2380099e-06,-0.00019721227,3.8063029e-06,0.000101598635,-2.5927418e-05,-4.291019e-05
-1.4869207e-05,-2.3196126e-05,4.574878e-05,-0.00015777301,-0.000105313826,1.3758398e-05,-8.2324055e-07,-1.48490135e-05,0.00013881868,3.960451e-05,-1.9961906e-06,-0.00019454864,-1.3503798e-05,0.00010265099,-2.0549536e-05,-4.3320415e-05
-1.4776658e-05,-1.9573368e-05,4.6591416e-05,-0.00016341846,-0.00010565296,1.5397989e-05,-2.1490487e-06,-1.6719487e-05,0.00014442131,3.8816535e-05,-2.3263033e-06,-0.00019314443,-2.0989475e-05,0.00010314492,-1.7283039e-05,-4.348549e-05
-1.4716097e-05,-2.2926628e-05,4.5240755e-05,-0.00015588748,-0.00010512447,1.3129156e-05,-5.536825e-07,-1.4389747e-05,0.0001371316,3.991522e-05,-1.7846477e-06,-0.00019474796,-8.959076e-06,0.00010244809,-2.0073507e-05,-4.3197248e-05
-1.4767935e-05,-2.449403e-05,4.4897617e-05,-0.00015348774,-0.000104988445,1.2428748e-05,1.986433e-08,-1.3585649e-05,0.000134742,4.025038e-05,-1.6405698e-06,-0.00019535403,-5.9152803e-06,0.00010224024,-2.1476264e-05,-4.3133732e-05
-1.4795417e-05,-2.3023327e-05,4.5490884e-05,-0.00015679137,-0.00010522138,1.3428108e-05,-6.7743684e-07,-1.4604543e-05,0.00013793477,3.9770915e-05,-1.8777713e-06,-0.00019464639,-1.12202415e-05,0.00010254733,-2.0240133e-05,-4.326078e-05
-1.4769196e-05,-2.565241e-05,4.4536428e-05,-0.00015134168,-0.00010483902,1.1793538e-05,4.899631e-07,-1.29075215e-05,0.00013264593,4.0546864e-05,-1.5020447e-06,-0.00019585752,-2.6777357e-06,0.00010204316,-2.2510534e-05,-4.305536e-05
-1.4813888e-05,-2.2515122e-05,4.5730547e-05,-0.00015807226,-0.00010531577,1.38168925e-05,-9.407608e-07,-1.49930975e-05,0.00013916721,3.95837e-05,-1.9741692e-06,-0.00019438319,-1.335547e-05,0.000102667815,-1.982889e-05,-4.331328e-05
-1.4761411e-05,-2.5439085e-05,4.458311e-05,-0.00015167343,-0.000104857034,1.1891074e-05,4.1021403e-07,-1.3019133e-05,0.00013297662,4.049997e-05,-1.5231057e-06,-0.00019577419,-3.0916522e-06,0.00010207173,-2.2322522e-05,-4.3063617e-05
-1.4808007e-05,-2.4630523e-05,4.5011857e-05,-0.00015387035,-0.00010502978,1.25622055e-05,-2.6083345e-08,-1.3670368e-05,0.00013507347,4.018394e-05,-1.6895592e-06,-0.00019532895,-6.939588e-06,0.00010228326,-2.1660951e-05,-4.316157e-05
-1.479229e-05,-2.7566526e-05,4.399582e-05,-0.00014797635,-0.000104619605,1.0795967e-05,1.2455132e-06,-1.1826984e-05,0.00012934576,4.1014617e-05,-1.2877595e-06,-0.00019666369,2.169597e-06,0.00010173888,-2.4223675e-05,-4.2943615e-05
-1.4771701e-05,-5.684921e-05,3.4324814e-05,-9.0577116e-05,-0.00010054547,-6.843339e-06,1.3483433e-05,5.9177064e-06,7.401994e-05,4.8620706e-05,2.7217518e-06,-0.00021052195,9.1198264e-05,9.628903e-05,-5.1014853e-05,-4.0836483e-05
-1.5234503e-05,-5.8010206e-05,3.569204e-05,-9.519097e-05,-0.00010113545,-5.156083e-06,1.2935136e-05,4.934674e-06,7.795669e-05,4.7998496e-05,2.18958e-06,-0.00020995666,7.842502e-05,9.68638e-05,-5.248267e-05,-4.120487e-05
-1.5278194e-05,-5.121614e-05,3.8169474e-05,-0.00010966944,-0.000102166545,-6.086696e-07,9.915543e-06,5.290274e-07,9.1800226e-05,4.6082296e-05,1.1083822e-06,-0.00020649916,5.5374483e-05,9.825995e-05,-4.62995e-05,-4.174102e-05
-1.5197149e-05,-3.9369137e-05,4.1768883e-05,-0.00013173158,-0.000103667066,6.1047645e-06,5.128059e-06,-6.382532e-06,0.00011318394,4.313716e-05,-4.0683932e-07,-0.00020109388,2.2372345e-05,0.0001003194,-3.541772e-05,-4.250632e-05
-1.4948847e-05,-5.808218e-05,3.4694338e-05,-9.144949e-05,-0.00010067967,-6.446493e-06,1.3467299e-05,5.8171627e-06,7.463223e-05,4.8465903e-05,2.5298336e-06,-0.00021061397,8.775728e-05,9.641673e-05,-5.251571e-05,-4.0929634e-05
-1.523283e-05,-6.2456296e-05,3.429602e-05,-8.6847016e-05,-0.00010051546,-7.758358e-06,1.4683481e-05,7.476802e-06,6.995211e-05,4.9036047e-05,2.7595092e-06,-0.00021211442,9.157434e-05,9.604874e-05,-5.684012e-05,-4.0887306e-05
-1.5196156e-05,-8.3354236e-05,2.7417993e-05,-4.5666744e-05,-9.737576e-05,-2.097396e-05,2.3099969e-05,1.978361e-05,3.090397e-05,5.3899057e-05,5.8089604e-06,-0.00022307692,0.00015779032,9.1905655e-05,-7.7695644e-05,-3.9302202e-05
-1.555516e-05,-8.143136e-05,2.9447792e-05,-5.4979297e-05,-9.831727e-05,-1.7723054e-05,2.1509915e-05,1.7341341e-05,3.9379545e-05,5.2814346e-05,4.9749383e-06,-0.00022097914,0.00013829043,9.2970055e-05,-7.5887394e-05,-3.98235e-05
-1.5626976e-05,-6.140475e-05,3.630183e-05,-9.567646e-05,-0.000101334226,-4.7522317e-06,1.3145056e-05,5.1108914e-06,7.810348e-05,4.778758e-05,1.9451584e-06,-0.00021052404,7.306191e-05,9.700245e-05,-5.641322e-05,-4.1365052e-05
-1.5275646e-05,-6.399684e-05,3.4117653e-05,-8.5436106e-05,-0.00010039201,-8.133614e-06,1.50079695e-05,7.935936e-06,6.854229e-05,4.914421e-05,2.7945696e-06,-0.0002126699,9.332728e-05,9.59119e-05,-5.865298e-05,-4.0830364e-05
-1.5414278e-05,-3.606324e-05,4.3717577e-05,-0.00014159994,-0.00010444677,9.171306e-06,3.169784e-06,-9.295208e-06,0.00012264437,4.1702897e-05,-1.1779235e-06,-0.0001990967,4.9123623e-06,0.00010128143,-3.2785312e-05,-4.2947922e-05
-1.4977739e-05,-2.1656462e-05,4.6811405e-05,-0.00016321143,-0.00010569688,1.5456362e-05,-1.9234283e-06,-1.6480702e-05,0.00014403227,3.874712e-05,-2.456548e-06,-0.00019356572,-2.287556e-05,0.00010316187,-1.9595713e-05,-4.353916e-05
-1.474405e-05,-2.315929e-05,4.5346304e-05,-0.00015629786,-0.00010515296,1.3280121e-05,-6.166409e-07,-1.4494129e-05,0.00013750044,3.983307e-05,-1.8566237e-06,-0.00019473702,-9.853088e-06,0.00010248946,-2.0437858e-05,-4.32156e-05
-1.47444225e-05,-4.020235e-05,3.9673312e-05,-0.00012269196,-0.00010284634,3.1106335e-06,6.661257e-06,-3.972132e-06,0.00010489458,4.44861e-05,4.6288972e-07,-0.00020254195,4.144039e-05,9.937114e-05,-3.5485777e-05,-4.2012125e-05
-1.4991497e-05,-4.9995462e-05,3.7375514e-05,-0.00010715357,-0.000101867925,-1.5575733e-06,1.0200341e-05,1.0533364e-06,8.965727e-05,4.650144e-05,1.4430717e-06,-0.00020664766,6.262152e-05,9.7953765e-05,-4.4718745e-05,-4.1544426e-05
-1.5149912e-05,-5.030803e-05,3.7920625e-05,-0.000109189605,-0.000102080696,-8.3492824e-07,9.909325e-06,5.6742607e-07,9.1453585e-05,4.6191082e-05,1.2132737e-06,-0.00020639929,5.7609548e-05,9.8185345e-05,-4.5234916e-05,-4.167752e-05
-1.5191371e-05,-3.6362097e-05,4.269186e-05,-0.0001372564,-0.000104052524,7.761657e-06,3.9295533e-06,-8.114643e-06,0.00011855908,4.23881e-05,-7.6815815e-07,-0.00019975909,1.3989202e-05,0.000100832985,-3.264052e-05,-4.2707346e-05
-1.4969272e-05,-3.29935e-05,4.2978663e-05,-0.00014063607,-0.000104176885,8.692435e-06,3.0032986e-06,-9.364621e-06,0.000122025296,4.1969124e-05,-9.120324e-07,-0.00019867538,1.1368859e-05,0.00010109623,-2.9403765e-05,-4.2737942e-05
-1.4921584e-05,-2.8148897e-05,4.434683e-05,-0.00014909919,-0.00010474528,1.1198715e-05,1.1214236e-06,-1.2064822e-05,0.00013030841,4.0815656e-05,-1.4504278e-06,-0.00019661814,-9.563789e-07,0.000101868216,-2.4994953e-05,-4.302866e-05
-1.4848419e-05,-2.5779293e-05,4.483214e-05,-0.00015250841,-0.00010494654,1.2184429e-05,3.0986942e-07,-1.3204223e-05,0.0001337005,4.0354822e-05,-1.6379645e-06,-0.00019572445,-5.3140852e-06,0.000102165686,-2.2791342e-05,-4.312362e-05
-1.4811307e-05,-2.558071e-05,4.4738354e-05,-0.00015222761,-0.000104915,1.2079987e-05,3.365889e-07,-1.3148764e-05,0.0001334652,4.0408693e-05,-1.5927379e-06,-0.00019572461,-4.4797343e-06,0.000102132806,-2.2537286e-05,-4.3101434e-05
-1.4810598e-05,-2.390905e-05,4.5272925e-05,-0.00015539261,-0.0001051311,1.3021173e-05,-3.5640343e-07,-1.4148599e-05,0.00013655324,3.996315e-05,-1.7993273e-06,-0.00019499451,-9.266421e-06,0.00010242243,-2.1057298e-05,-4.321528e-05
-1.478366e-05,-2.4759116e-05,4.4890952e-05,-0.00015333167,-0.0001049797,1.239546e-05,6.9094696e-08,-1.3522006e-05,0.00013456996,4.0261413e-05,-1.6466888e-06,-0.00019542615,-5.850173e-06,0.000102228405,-2.1759837e-05,-4.3131455e-05
-1.4795469e-05,-2.6158972e-05,4.446757e-05,-0.00015074405,-0.000104810824,1.16246965e-05,6.452371e-07,-1.2695499e-05,0.00013203792,4.0626863e-05,-1.4753333e-06,-0.00019602968,-2.0637322e-06,0.00010199409,-2.2988743e-05,-4.3044452e-05
-1.4817502e-05,-2.660085e-05,4.440516e-05,-0.00015021385,-0.000104784114,1.1475622e-05,7.813988e-07,-1.2508773e-05,0.00013149952,4.06961e-05,-1.4503343e-06,-0.00019618255,-1.5082472e-06,0.00010195002,-2.3404746e-05,-4.3033833e-05
-1.48332465e-05,-1.7940582e-05,4.7320427e-05,-0.00016730867,-0.00010594002,1.6565158e-05,-2.9539783e-06,-1.7905497e-05,0.00014817764,3.82436e-05,-2.6031341e-06,-0.00019234163,-2.7467731e-05,0.00010350842,-1.5926293e-05,-4.3646603e-05
-1.4698586e-05,-6.225676e-06,5.069546e-05,-0.00018812572,-0.00010725363,2.2621602e-05,-7.6990045e-06,-2.4676283e-05,0.00016873298,3.520206e-05,-3.9087017e-06,-0.00018758875,-5.706105e-05,0.000105342995,-5.837286e-06,-4.4325738e-05
-1.451255e-05,-9.720993e-06,4.8832186e-05,-0.00017849212,-0.00010655329,1.9732171e-05,-5.733981e-06,-2.1757225e-05,0.00015945872,3.66915e-05,-3.1749407e-06,-0.00018941026,-4.069355e-05,0.00010445147,-8.465861e-06,-4.392259e-05
-1.4566262e-05,-1.2285427e-05,4.8131995e-05,-0.00017400701,-0.000106288266,1.841915e-05,-4.6882947e-06,-2.0277697e-05,0.00015501062,3.7354454e-05,-2.8870177e-06,-0.0001904422,-3.458592e-05,0.000104061306,-1.0642516e-05,-4.3790245e-05
-1.4589629e-05,-3.4832818e-05,4.079901e-05,-0.00013050345,-0.000103331324,5.4108255e-06,4.831552e-06,-6.5461004e-06,0.00011263327,4.3469307e-05,3.346097e-08,-0.00020043102,3.114948e-05,0.00010007215,-3.035834e-05,-4.2241412e-05
-1.4929485e-05,-4.174797e-05,3.9795465e-05,-0.00012204041,-0.00010290189,2.9834978e-06,6.971436e-06,-3.6017188e-06,0.00010407749,4.4561006e-05,4.534606e-07,-0.00020290964,4.026581e-05,9.935609e-05,-3.698156e-05,-4.206918e-05
-1.49430825e-05,-6.993726e-05,3.0720017e-05,-6.762216e-05,-9.892284e-05,-1.40352295e-05,1.8403232e-05,1.3012709e-05,5.1953266e-05,5.1393727e-05,4.3106825e-06,-0.00021673013,0.00012555155,9.4061346e-05,-6.387965e-05,-4.0040835e-05
-1.5215947e-05,-9.805852e-05,2.2701348e-05,-1.6760192e-05,-9.512495e-05,-3.056945e-05,2.886891e-05,2.8255467e-05,3.834954e-06,5.7045854e-05,8.072324e-06,-0.00023129607,0.0002048564,8.889325e-05,-9.3104056e-05,-3.8193888e-05
-1.5012938e-05,-0.00015161553,5.01597e-06,9.1758295e-05,-8.535051e-05,-6.977461e-05,4.8671598e-05,5.7891226e-05,-9.430374e-05,6.602749e-05,1.7552386e-05,-0.00026777285,0.00039634883,7.621266e-05,-0.00015858597,-3.353829e-05
-1.5676584e-05,-0.0001681555,2.66139e-06,0.00011363301,-8.394678e-05,-7.7442346e-05,5.286511e-05,6.419779e-05,-0.0001141409,6.7654764e-05,1.9611714e-05,-0.00027690316,0.00042615447,7.384036e-05,-0.00018013665,-3.2977576e-05
-1.6082293e-05,-0.00016413603,5.6943763e-06,9.817464e-05,-8.579655e-05,-7.0910224e-05,5.0528863e-05,6.0587005e-05,-0.00010091683,6.678652e-05,1.8045383e-05,-0.00027127762,0.00039156523,7.6034645e-05,-0.0001737601,-3.3879296e-05
-1.616511e-05,-0.00015460326,9.038698e-06,7.743224e-05,-8.775122e-05,-6.2968116e-05,4.7013964e-05,5.521105e-05,-8.268102e-05,6.534533e-05,1.6019667e-05,-0.00026366345,0.00035316727,7.861361e-05,-0.0001609121,-3.4796893e-05
-1.6349884e-05,-0.00013095417,1.720046e-05,2.7683307e-05,-9.223531e-05,-4.48544e-05,3.8132057e-05,4.180937e-05,-3.787617e-05,6.124626e-05,1.1490364e-05,-0.00024675616,0.00026428603,8.446636e-05,-0.00013104375,-3.6948855e-05
-1.6298643e-05,-9.2133945e-05,2.9349047e-05,-4.775383e-05,-9.815876e-05,-1.9534158e-05,2.3430106e-05,2.0028509e-05,3.22602e-05,5.3376756e-05,5.346345e-06,-0.0002242756,0.00014070106,9.244629e-05,-8.8083354e-05,-3.9853898e-05
-1.5706257e-05,-7.6781354e-05,3.1864533e-05,-6.829728e-05,-9.933059e-05,-1.3278442e-05,1.8873234e-05,1.3455801e-05,5.1900894e-05,5.110509e-05,3.893462e-06,-0.00021789358,0.000115255585,9.433118e-05,-7.2003495e-05,-4.035454e-05
-1.5487107e-05,-7.101018e-05,3.272721e-05,-7.5364034e-05,-9.976456e-05,-1.1193005e-05,1.7270646e-05,1.1164863e-05,5.875837e-05,5.0347393e-05,3.4408818e-06,-0.00021560297,0.000106721935,9.497901e-05,-6.581214e-05,-4.054157e-05
-1.54507e-05,-5.964313e-05,3.6203928e-05,-9.654253e-05,-0.00010130321,-4.5707015e-06,1.2830024e-05,4.7039343e-06,7.9038866e-05,4.772605e-05,1.931849e-06,-0.00021006791,7.383284e-05,9.7041295e-05,-5.4624863e-05,-4.1321386e-05
-1.5290469e-05,-5.2855343e-05,3.7772148e-05,-0.00010720204,-0.00010198305,-1.345332e-06,1.0449658e-05,1.2988033e-06,8.9402805e-05,4.6384233e-05,1.240783e-06,-0.00020718179,5.911007e-05,9.8024655e-05,-4.8014237e-05,-4.1647003e-05
-1.5183566e-05,-5.2025673e-05,3.7592716e-05,-0.00010697242,-0.00010192063,-1.4796284e-06,1.0409305e-05,1.2788036e-06,8.927495e-05,4.644851e-05,1.3115349e-06,-0.00020706205,6.0714006e-05,9.797778e-05,-4.7058507e-05,-4.159894e-05
-1.51787735e-05,-4.9903138e-05,3.8237373e-05,-0.00011085846,-0.0001022014,-2.898327e-07,9.581356e-06,7.8518234e-08,9.3024275e-05,4.5950652e-05,1.0501244e-06,-0.00020607741,5.4727814e-05,9.8349155e-05,-4.5021872e-05,-4.1743097e-05
-1.5141808e-05,-5.099666e-05,3.773105e-05,-0.000108123924,-0.00010198817,-1.152744e-06,1.0129473e-05,8.8853716e-07,9.042398e-05,4.6315592e-05,1.2613006e-06,-0.0002066952,5.939595e-05,9.807894e-05,-4.598739e-05,-4.162788e-05
-1.5186453e-05,-4.196258e-05,4.0848547e-05,-0.00012634946,-0.00010329661,4.4553367e-06,6.2781787e-06,-4.7135886e-06,0.00010798254,4.3885077e-05,-2.4971474e-08,-0.00020233319,3.0739695e-05,9.9815494e-05,-3.7706544e-05,-4.2311793e-05
-1.506186e-05,-3.1536634e-05,4.3806114e-05,-0.00014484485,-0.0001045082,9.995966e-06,2.1721787e-06,-1.0605086e-05,0.0001260367,4.1361618e-05,-1.2402176e-06,-0.00019782553,3.920809e-06,0.00010150518,-2.8227585e-05,-4.292576e-05
-1.4909406e-05,-1.8276209e-05,4.7573845e-05,-0.00016823594,-0.00010602084,1.6887792e-05,-3.0880115e-06,-1.8133329e-05,0.00014900895,3.8068076e-05,-2.7315377e-06,-0.00019228726,-2.9670957e-05,0.00010360502,-1.6443542e-05,-4.3700562e-05
-1.46999355e-05,-1.3845223e-05,4.8219143e-05,-0.00017355541,-0.0001062931,1.8366578e-05,-4.457778e-06,-2.0011517e-05,0.0001544181,3.7357277e-05,-2.969894e-06,-0.00019079144,-3.5343906e-05,0.000104043604,-1.2312226e-05,-4.3812764e-05
-1.4617381e-05,-3.0145236e-05,4.2491676e-05,-0.0001403377,-0.000104020415,8.416662e-06,2.7369986e-06,-9.590094e-06,0.00012212135,4.211285e-05,-6.799407e-07,-0.00019818469,1.579184e-05,0.00010099516,-2.6281621e-05,-4.2603486e-05
-1.4869482e-05,-3.3645607e-05,4.224307e-05,-0.00013702874,-0.00010391486,7.5177763e-06,3.6920756e-06,-8.324161e-06,0.00011864388,4.2535903e-05,-5.617398e-07,-0.0001992806,1.7963144e-05,0.00010074551,-2.9637331e-05,-4.2586675e-05
-1.4930111e-05,-3.2483767e-05,4.2897922e-05,-0.00014045885,-0.000104165454,8.596466e-06,3.005696e-06,-9.343679e-06,0.00012190147,4.203002e-05,-8.419268e-07,-0.00019859862,1.2042429e-05,0.00010107467,-2.8741519e-05,-4.2726922e-05
-1.4914051e-05,-3.0105264e-05,4.364371e-05,-0.00014499507,-0.00010446496,9.960177e-06,2.0071664e-06,-1.0780826e-05,0.00012632173,4.1396797e-05,-1.1535965e-06,-0.0001975383,5.334795e-06,0.00010148952,-2.6652784e-05,-4.2880936e-05
-1.48788e-05,-2.750764e-05,4.4368684e-05,-0.00014954565,-0.00010475971,1.1309662e-05,9.843493e-07,-1.2243428e-05,0.00013078465,4.076718e-05,-1.4476641e-06,-0.00019644135,-1.1715008e-06,0.0001019006,-2.4327805e-05,-4.303013e-05
-1.483936e-05,-2.5679064e-05,4.481628e-05,-0.00015248245,-0.00010494316,1.2169525e-05,3.0696893e-07,-1.3204141e-05,0.00013368507,4.0364037e-05,-1.6251429e-06,-0.00019570935,-5.179529e-06,0.000102161786,-2.2666904e-05,-4.3120584e-05
-1.4800633e-05,-3.2576903e-05,4.2393804e-05,-0.00013842896,-0.00010396618,7.92837e-06,3.326831e-06,-8.823201e-06,0.00012005809,4.233731e-05,-6.499139e-07,-0.00019889807,1.6626102e-05,0.000100857695,-2.869024e-05,-4.260268e-05
-1.4874214e-05,-4.873571e-05,3.736101e-05,-0.00010795752,-0.00010186105,-1.3620902e-06,9.92271e-06,6.9909925e-07,9.054924e-05,4.640593e-05,1.4332871e-06,-0.00020630489,6.275633e-05,9.80001e-05,-4.345946e-05,-4.1523486e-05
-1.4740885e-05,-0.0001138317,1.5814887e-05,2.1664173e-05,-9.156486e-05,-4.4219494e-05,3.5806846e-05,3.8690236e-05,-3.0902887e-05,6.063434e-05,1.1412384e-05,-0.00024260652,0.00027608415,8.447644e-05,-0.00011100692,-3.641218e-05
-1.5744672e-05,-0.00012148463,1.7333485e-05,2.1105052e-05,-9.242272e-05,-4.3144068e-05,3.6558857e-05,3.9521423e-05,-3.1526994e-05,6.079617e-05,1.1031005e-05,-0.00024346086,0.00026125557,8.498297e-05,-0.00011919884,-3.695489e-05
-1.5851829e-05,-0.00012232212,1.7660857e-05,1.9931173e-05,-9.251999e-05,-4.2594536e-05,3.6409256e-05,3.9270042e-05,-3.0641906e-05,6.0602906e-05,1.0851941e-05,-0.00024347508,0.00025785746,8.513141e-05,-0.00012058611,-3.7016656e-05
-1.6052018e-05,-0.0001044313,2.4230729e-05,-1.8785928e-05,-9.580213e-05,-2.9241364e-05,2.9082621e-05,2.837333e-05,5.081772e-06,5.6714427e-05,7.623828e-06,-0.00023197943,0.0001907466,8.938922e-05,-0.000100574085,-3.8644306e-05
-1.6014174e-05,-6.241648e-05,3.7685793e-05,-0.00010066465,-0.000101868194,-2.9785353e-06,1.2348074e-05,3.862881e-06,8.2762876e-05,4.696805e-05,1.4639012e-06,-0.00020994952,6.0779126e-05,9.7572214e-05,-5.8121313e-05,-4.1698902e-05
-1.5386877e-05,-3.137523e-05,4.5368248e-05,-0.00015153024,-0.00010506323,1.2194897e-05,9.703216e-07,-1.2454196e-05,0.00013233097,4.0242543e-05,-1.8737185e-06,-0.00019691692,-9.812629e-06,0.00010217843,-2.8985272e-05,-4.326692e-05
-1.4889638e-05,-2.546517e-05,4.5267283e-05,-0.00015473973,-0.000105089406,1.2907655e-05,-1.4475957e-07,-1.3875838e-05,0.00013583999,3.9985254e-05,-1.8579437e-06,-0.0001953751,-9.082941e-06,0.00010237379,-2.2869639e-05,-4.3203363e-05
-1.4804989e-05,-2.0188585e-05,4.6537738e-05,-0.0001628933,-0.00010562811,1.5257852e-05,-2.0064135e-06,-1.6527738e-05,0.00014388382,3.8883292e-05,-2.3224843e-06,-0.00019331966,-2.0476971e-05,0.0001031029,-1.7935397e-05,-4.347581e-05
-1.4726794e-05,-1.9383544e-05,4.6460565e-05,-0.00016300821,-0.00010560725,1.5252898e-05,-2.1057217e-06,-1.6634065e-05,0.00014407259,3.889239e-05,-2.2726229e-06,-0.00019315982,-1.9817197e-05,0.000103098195,-1.704563e-05,-4.3453565e-05
-1.4714978e-05,-2.0319138e-05,4.6080164e-05,-0.00016085255,-0.00010546177,1.4602103e-05,-1.6436627e-06,-1.5961625e-05,0.0001419802,3.9211154e-05,-2.1101212e-06,-0.00019361336,-1.6449725e-05,0.00010290077,-1.7789926e-05,-4.337511e-05
-1.47309165e-05,-2.03975e-05,4.6105753e-05,-0.00016088918,-0.00010547185,1.4617884e-05,-1.6369166e-06,-1.5959076e-05,0.00014200044,3.920343e-05,-2.116363e-06,-0.0001936235,-1.6687241e-05,0.00010290747,-1.7865837e-05,-4.3383043e-05
-1.4724739e-05,-2.8213086e-05,4.3513777e-05,-0.00014561674,-0.00010443174,1.0054011e-05,1.6948327e-06,-1.1146549e-05,0.00012712387,4.1363317e-05,-1.0869093e-06,-0.0001971032,6.512159e-06,0.00010150751,-2.4681687e-05,-4.2834985e-05
-1.4850743e-05,-2.6368132e-05,4.458605e-05,-0.0001510411,-0.0001048594,1.1730736e-05,6.310123e-07,-1.2740357e-05,0.0001322781,4.0577892e-05,-1.5130847e-06,-0.0001960262,-3.140516e-06,0.00010203367,-2.3212993e-05,-4.3078653e-05
-1.4825432e-05,-2.3485103e-05,4.5468336e-05,-0.00015643705,-0.00010520631,1.3340435e-05,-5.7182126e-07,-1.4465733e-05,0.0001375569,3.9807837e-05,-1.8748542e-06,-0.00019478051,-1.1017759e-05,0.000102520484,-2.070557e-05,-4.3257405e-05
-1.4782424e-05,-1.8941584e-05,4.6806264e-05,-0.00016464578,-0.00010573998,1.5759995e-05,-2.413968e-06,-1.7103941e-05,0.00014561716,3.8641632e-05,-2.4038072e-06,-0.000192869,-2.2904314e-05,0.00010325758,-1.672314e-05,-4.3532556e-05
-1.4706042e-05,-2.3747052e-05,4.4932334e-05,-0.00015413764,-0.00010500121,1.2603286e-05,-1.8061769e-07,-1.3846443e-05,0.00013543619,4.0164807e-05,-1.6611136e-06,-0.00019513245,-6.2013887e-06,0.00010228595,-2.0772004e-05,-4.3130898e-05
-1.478593e-05,-1.916802e-05,4.6715802e-05,-0.00016409068,-0.00010571081,1.5587613e-05,-2.2891936e-06,-1.6925322e-05,0.00014507775,3.873055e-05,-2.3575715e-06,-0.00019297944,-2.2113329e-05,0.000103209095,-1.6882246e-05,-4.351784e-05
-1.4708555e-05,-2.5769828e-05,4.4269975e-05,-0.0001502046,-0.0001047349,1.1427746e-05,6.801699e-07,-1.2604501e-05,0.00013160324,4.071901e-05,-1.3941902e-06,-0.00019603295,-2.7498444e-07,0.00010192587,-2.2532568e-05,-4.299152e-05
-1.4809335e-05,-2.7865537e-05,4.3939086e-05,-0.00014751844,-0.000104601655,1.06583475e-05,1.3608793e-06,-1.1667817e-05,0.00012888783,4.1083596e-05,-1.2558652e-06,-0.00019677731,2.6704436e-06,0.000101701386,-2.4475596e-05,-4.29368e-05
-1.4849957e-05,-2.2711554e-05,4.580448e-05,-0.0001582442,-0.000105341205,1.388446e-05,-9.454234e-07,-1.5015805e-05,0.00013930046,3.9547416e-05,-2.003796e-06,-0.00019439813,-1.4020082e-05,0.000102690596,-2.0051843e-05,-4.333241e-05
-1.4772123e-05,-1.6681155e-05,4.7516893e-05,-0.00016890721,-0.00010601851,1.7017275e-05,-3.3631482e-06,-1.846742e-05,0.00014979644,3.802394e-05,-2.682753e-06,-0.00019190602,-2.9192171e-05,0.00010364017,-1.4775205e-05,-4.3678665e-05
-1.4677258e-05,-1.1734279e-05,4.8784994e-05,-0.00017705445,-0.00010652244,1.937471e-05,-5.2551322e-06,-2.1148799e-05,0.00015787492,3.6860238e-05,-3.1696827e-06,-0.0001899632,-4.034456e-05,0.00010435398,-1.0417848e-05,-4.393172e-05
-1.4599193e-05,-9.060023e-06,4.9357644e-05,-0.00018097759,-0.00010675368,2.0489382e-05,-6.2014356e-06,-2.2473301e-05,0.00016180627,3.630719e-05,-3.3791403e-06,-0.00018898121,-4.5353197e-05,0.00010469032,-8.018896e-06,-4.404294e-05
-1.4555791e-05,-1.7818346e-06,5.1580962e-05,-0.00019433751,-0.00010761227,2.4359564e-05,-9.225671e-06,-2.6801983e-05,0.00017499398,3.432337e-05,-4.2176653e-06,-0.00018601974,-6.4738226e-05,0.00010586738,-1.8520303e-06,-4.449596e-05
-1.4441609e-05,-1.2111509e-06,5.134099e-05,-0.00019372237,-0.00010753005,2.4139877e-05,-9.200184e-06,-2.6707161e-05,0.00017450571,3.4448487e-05,-4.1124167e-06,-0.00018598605,-6.260508e-05,0.000105792875,-1.190647e-06,-4.443398e-05
-1.4430759e-05,9.4141535e-07,5.198435e-05,-0.00019757458,-0.00010778106,2.5243635e-05,-1.0075311e-05,-2.795908e-05,0.00017831658,3.3877182e-05,-4.3435884e-06,-0.00018513184,-6.8196365e-05,0.00010613104,6.399788e-07,-4.456726e-05
-1.440121e-05,-4.8202783e-06,4.9964587e-05,-0.00018592992,-0.000107011976,2.18478e-05,-7.5010603e-06,-2.424192e-05,0.00016688998,3.5635905e-05,-3.567179e-06,-0.00018758996,-5.0607323e-05,0.000105095976,-4.08086e-06,-4.415068e-05
-1.4491529e-05,-1.36767685e-05,4.7359463e-05,-0.00016998571,-0.00010599556,1.7196724e-05,-3.8746434e-06,-1.9066816e-05,0.00015115931,3.7964666e-05,-2.5613838e-06,-0.0001912089,-2.7756656e-05,0.000103685416,-1.1663051e-05,-4.362393e-05
-1.4625056e-05,-2.4067522e-05,4.4441287e-05,-0.00015182313,-0.0001048243,1.1856061e-05,2.4425384e-07,-1.3192347e-05,0.000133281,4.05306e-05,-1.4232214e-06,-0.00019549803,-1.826516e-06,0.00010205951,-2.082011e-05,-4.302637e-05
-1.4790296e-05,-2.3091814e-05,4.5403183e-05,-0.00015631245,-0.00010519501,1.3271634e-05,-5.7926013e-07,-1.4459019e-05,0.00013748117,3.98516e-05,-1.820247e-06,-0.00019472095,-1.0459926e-05,0.00010250392,-2.0221942e-05,-4.324656e-05
-1.4776175e-05,-2.1623417e-05,4.58778e-05,-0.00015921415,-0.00010537515,1.4142607e-05,-1.2270735e-06,-1.5388321e-05,0.00014031747,3.9427207e-05,-2.027065e-06,-0.0001940719,-1.4670638e-05,0.000102763806,-1.8993313e-05,-4.333911e-05
-1.4751819e-05,-2.0906311e-05,4.603075e-05,-0.00016029392,-0.00010543758,1.4453942e-05,-1.486181e-06,-1.5751497e-05,0.00014139536,3.9279043e-05,-2.0923085e-06,-0.00019379656,-1.601779e-05,0.00010285706,-1.835387e-05,-4.3368047e-05
-1.4736831e-05,-2.4312847e-05,4.484971e-05,-0.00015342885,-0.00010496855,1.2401434e-05,3.5029608e-09,-1.3594929e-05,0.00013471411,4.0261944e-05,-1.6241481e-06,-0.00019533037,-5.477162e-06,0.00010222793,-2.1288917e-05,-4.3118514e-05
-1.4790026e-05,-2.4999548e-05,4.4815686e-05,-0.00015284252,-0.00010495349,1.2246169e-05,1.8156737e-07,-1.3362242e-05,0.00013409022,4.033543e-05,-1.6083928e-06,-0.00019553395,-5.1868024e-06,0.00010218566,-2.1948204e-05,-4.3118776e-05
-1.4790819e-05,-3.2770044e-05,4.2274485e-05,-0.00013779447,-0.000103920785,7.728213e-06,3.4543714e-06,-8.633837e-06,0.000119454664,4.2430605e-05,-5.9248794e-07,-0.00019902196,1.7695525e-05,0.00010079708,-2.881933e-05,-4.2577747e-05
-1.4911804e-05,-3.4001398e-05,4.2322965e-05,-0.00013718888,-0.000103935905,7.596996e-06,3.6977578e-06,-8.335456e-06,0.00011874614,4.2492004e-05,-6.0893296e-07,-0.00019932898,1.7247432e-05,0.000100768084,-3.0061079e-05,-4.2603868e-05
-1.4949609e-05,-2.187248e-05,4.6479607e-05,-0.00016149362,-0.00010559748,1.4894831e-05,-1.5681692e-06,-1.5958205e-05,0.00014238502,3.9046638e-05,-2.277231e-06,-0.00019381964,-2.0014668e-05,0.00010300514,-1.949723e-05,-4.348326e-05
-1.4752852e-05,-2.3578954e-05,4.5201672e-05,-0.00015538368,-0.0001050973,1.3006198e-05,-4.0894818e-07,-1.4197638e-05,0.00013659874,3.9964307e-05,-1.7828987e-06,-0.00019493965,-8.601116e-06,0.00010240811,-2.0744435e-05,-4.3188484e-05
-1.4769096e-05,-3.087778e-05,4.282006e-05,-0.00014118683,-0.000104146326,8.741665e-06,2.6996722e-06,-9.715577e-06,0.00012277161,4.1969073e-05,-8.167898e-07,-0.00019819984,1.2774781e-05,0.00010110739,-2.7121183e-05,-4.269194e-05
-1.4887724e-05,-3.0083e-05,4.351612e-05,-0.00014443748,-0.00010442375,9.76976e-06,2.1037938e-06,-1.0629433e-05,0.00012581292,4.1493553e-05,-1.0905649e-06,-0.00019760501,6.472249e-06,0.00010143402,-2.654836e-05,-4.285551e-05
-1.4858769e-05,-3.9492887e-05,4.0343442e-05,-0.00012583054,-0.00010311512,4.1311046e-06,6.0961797e-06,-4.8413694e-06,0.00010779326,4.4039134e-05,1.8820845e-07,-0.0002019594,3.5271787e-05,9.969279e-05,-3.4973637e-05,-4.216871e-05
-1.5025982e-05,-3.0446872e-05,4.393823e-05,-0.00014590431,-0.000104582665,1.02728145e-05,1.9092754e-06,-1.0969561e-05,0.00012711564,4.124852e-05,-1.2610707e-06,-0.00019747145,2.6955827e-06,0.000101598154,-2.7073553e-05,-4.2959968e-05
-1.48980735e-05,-1.4215729e-05,4.8842783e-05,-0.00017579204,-0.00010651805,1.9101743e-05,-4.770953e-06,-2.0552558e-05,0.00015643124,3.6965495e-05,-3.2125267e-06,-0.00019058502,-4.0869556e-05,0.000104281375,-1.2916538e-05,-4.396395e-05
-1.4605631e-05,-4.1701885e-05,3.8701393e-05,-0.000117912496,-0.00010243036,1.586311e-06,7.5446005e-06,-2.6259959e-06,0.00010046349,4.5114226e-05,8.549299e-07,-0.00020353538,5.0460476e-05,9.888178e-05,-3.675878e-05,-4.1777294e-05
-1.4871496e-05,-8.257331e-05,2.6315369e-05,-4.1543175e-05,-9.6891665e-05,-2.257608e-05,2.3633425e-05,2.0692067e-05,2.745423e-05,5.4398304e-05,6.3194275e-06,-0.00022370201,0.00016854545,9.138401e-05,-7.657277e-05,-3.9016908e-05
-1.551012e-05,-8.713767e-05,2.7346314e-05,-4.2573247e-05,-9.73653e-05,-2.180709e-05,2.3979565e-05,2.097979e-05,2.7746337e-05,5.4264325e-05,5.974356e-06,-0.00022424832,0.00015879379,9.169781e-05,-8.154128e-05,-3.9342052e-05
-1.5610545e-05,-8.280358e-05,2.9267774e-05,-5.342555e-05,-9.821275e-05,-1.8173427e-05,2.1863983e-05,1.7846058e-05,3.7854366e-05,5.29601e-05,5.068421e-06,-0.0002215313,0.0001400794,9.282437e-05,-7.7404344e-05,-3.977972e-05
-1.5611618e-05,-6.9000234e-05,3.379387e-05,-8.075003e-05,-0.00010024054,-9.432958e-06,1.6252963e-05,9.64289e-06,6.3810716e-05,4.9670834e-05,3.0222645e-06,-0.00021432398,9.665472e-05,9.55458e-05,-6.376183e-05,-4.0803214e-05
-1.5472895e-05,-4.495576e-05,4.110658e-05,-0.00012561996,-0.000103359365,4.3958516e-06,6.6648136e-06,-4.2530596e-06,0.000107065214,4.3866363e-05,-1.215406e-07,-0.00020300079,2.8598355e-05,9.980801e-05,-4.1000807e-05,-4.2387746e-05
-1.5088472e-05,-3.9666003e-05,4.133414e-05,-0.00012996896,-0.00010348035,5.539815e-06,5.4114566e-06,-5.928385e-06,0.00011156551,4.3384516e-05,-2.648588e-07,-0.00020140794,2.634513e-05,0.0001001277,-3.569754e-05,-4.239169e-05
-1.4987008e-05,-4.6498175e-05,3.861576e-05,-0.00011458561,-0.00010237305,7.616911e-07,8.619186e-06,-1.2413558e-06,9.680079e-05,4.549954e-05,8.741666e-07,-0.00020489693,5.120046e-05,9.8657554e-05,-4.1667452e-05,-4.180272e-05
-1.509036e-05,-4.983327e-05,3.7872735e-05,-0.00010936721,-0.00010206188,-8.068843e-07,9.821021e-06,4.6094678e-07,9.167728e-05,4.6178255e-05,1.2111693e-06,-0.0002062852,5.805742e-05,9.818735e-05,-4.4782726e-05,-4.1658284e-05
-1.5169671e-05,-4.1642863e-05,4.086778e-05,-0.00012659297,-0.00010330867,4.5173106e-06,6.2110453e-06,-4.803944e-06,0.00010823521,4.3860287e-05,-2.5976815e-08,-0.00020223868,3.0546067e-05,9.983505e-05,-3.7359838e-05,-4.231583e-05
-1.505463e-05,-3.3066e-05,4.326717e-05,-0.00014170776,-0.00010429168,9.048613e-06,2.847233e-06,-9.6261265e-06,0.0001229912,4.180315e-05,-1.0199119e-06,-0.00019853814,8.766044e-06,0.00010121444,-2.9557617e-05,-4.2811218e-05
-1.4929463e-05,-2.3377426e-05,4.5964e-05,-0.000158594,-0.00010538587,1.403993e-05,-9.4827595e-07,-1.5056022e-05,0.00013955988,3.945725e-05,-2.0973298e-06,-0.00019447741,-1.5399994e-05,0.0001027365,-2.086311e-05,-4.3367454e-05
-1.4778791e-05,-1.850937e-05,4.6975027e-05,-0.0001656619,-0.000105800435,1.6068534e-05,-2.6404705e-06,-1.7429424e-05,0.00014661122,3.84867e-05,-2.4869116e-06,-0.00019265807,-2.4374489e-05,0.000103347855,-1.6410455e-05,-4.356355e-05
-1.4690659e-05,-2.9936416e-05,4.2846834e-05,-0.00014191301,-0.000104158564,8.9291025e-06,2.4671049e-06,-1.0015321e-05,0.00012356242,4.187867e-05,-8.312367e-07,-0.00019792886,1.2558813e-05,0.00010115692,-2.6206486e-05,-4.2686555e-05
-1.4873217e-05,-2.9158013e-05,4.375001e-05,-0.00014592966,-0.00010452347,1.0206214e-05,1.7654959e-06,-1.11115805e-05,0.00012728346,4.1294166e-05,-1.1782685e-06,-0.00019722854,4.3662726e-06,0.00010156917,-2.5690684e-05,-4.2905594e-05
-1.4864875e-05,-2.7774031e-05,4.4207456e-05,-0.0001486948,-0.000104698134,1.104507e-05,1.1560993e-06,-1.1988465e-05,0.00012997232,4.0893454e-05,-1.3737048e-06,-0.00019660586,2.599002e-07,0.00010181996,-2.4509534e-05,-4.2996053e-05
-1.4852905e-05,-1.6589745e-05,4.7852212e-05,-0.00017029735,-0.00010614447,1.7457734e-05,-3.5954906e-06,-1.8839146e-05,0.00015108539,3.7798833e-05,-2.8151253e-06,-0.00019171208,-3.216063e-05,0.00010378112,-1.4816641e-05,-4.375807e-05
-1.4675262e-05,-1.45599915e-05,4.7865382e-05,-0.00017165196,-0.00010615971,1.779172e-05,-4.0608015e-06,-1.9427345e-05,0.00015257909,3.7646303e-05,-2.8200648e-06,-0.000191165,-3.2236723e-05,0.000103868144,-1.2842008e-05,-4.373843e-05
-1.4641146e-05,-1.6451695e-05,4.7075915e-05,-0.00016725277,-0.00010586145,1.6467337e-05,-3.122432e-06,-1.8058827e-05,0.00014831308,3.8308484e-05,-2.4969238e-06,-0.0001920707,-2.5263722e-05,0.0001034662,-1.4356687e-05,-4.357507e-05
-1.4669167e-05,-2.102039e-05,4.5656085e-05,-0.00015868065,-0.0001053001,1.3931994e-05,-1.2114552e-06,-1.5315996e-05,0.0001399107,3.9538147e-05,-1.9315014e-06,-0.00019402645,-1.2672486e-05,0.00010269441,-1.8301072e-05,-4.3282977e-05
-1.4726349e-05,-3.3986667e-05,4.160576e-05,-0.00013430155,-0.0001036553,6.6336684e-06,4.1472554e-06,-7.601609e-06,0.00011614324,4.2929223e-05,-3.085357e-07,-0.00019973442,2.3764464e-05,0.00010045831,-2.9787037e-05,-4.242986e-05
-1.49276675e-05,-3.6296486e-05,4.1608673e-05,-0.0001328323,-0.00010364612,6.279674e-06,4.6523814e-06,-6.960439e-06,0.000114510505,4.309177e-05,-3.0762382e-07,-0.00020036164,2.3719e-05,0.00010036674,-3.21009e-05,-4.245533e-05
-1.4971958e-05,-3.276563e-05,4.2979755e-05,-0.00014063115,-0.000104193416,8.670527e-06,3.0066244e-06,-9.360553e-06,0.000122027246,4.1992265e-05,-8.7997984e-07,-0.00019862718,1.1313668e-05,0.00010109925,-2.9068977e-05,-4.274776e-05
-1.4932689e-05,-1.7926784e-05,4.773661e-05,-0.00016902848,-0.0001060886,1.7121176e-05,-3.2428584e-06,-1.836612e-05,0.00014977073,3.7953097e-05,-2.778001e-06,-0.00019212232,-3.11326e-05,0.00010368168,-1.6111193e-05,-4.3740805e-05
-1.4687886e-05,-2.5647572e-05,4.428238e-05,-0.00015041899,-0.00010473187,1.1495173e-05,6.136375e-07,-1.26910245e-05,0.00013183293,4.067881e-05,-1.4181177e-06,-0.00019598426,-3.4552548e-07,0.00010193951,-2.2473147e-05,-4.2986358e-05
-1.4802951e-05,-2.9729828e-05,4.3308984e-05,-0.00014383577,-0.00010434764,9.548926e-06,2.1562423e-06,-1.0516137e-05,0.00012531433,4.160067e-05,-1.0075967e-06,-0.0001976205,8.352332e-06,0.00010136063,-2.612504e-05,-4.280245e-05
-1.4882192e-05,-2.0013984e-05,4.6812285e-05,-0.00016395516,-0.00010573853,1.559012e-05,-2.1709877e-06,-1.6798002e-05,0.00014485573,3.8718037e-05,-2.4001683e-06,-0.00019315528,-2.2976228e-05,0.000103215396,-1.7763856e-05,-4.354762e-05
-1.4731831e-05,-1.0313409e-05,4.947666e-05,-0.00018072678,-0.00010678106,2.0477886e-05,-6.0194275e-06,-2.2274695e-05,0.00016142573,3.6293804e-05,-3.4443126e-06,-0.00018924853,-4.6421075e-05,0.00010469149,-9.32412e-06,-4.407823e-05
-1.4575439e-05,-1.5282534e-05,4.723449e-05,-0.00016864823,-0.000105923806,1.6859352e-05,-3.4939646e-06,-1.8562128e-05,0.00014974695,3.8114613e-05,-2.5607924e-06,-0.00019167794,-2.6632233e-05,0.00010357855,-1.32859295e-05,-4.3597924e-05
-1.4647506e-05,-2.3868606e-05,4.4628396e-05,-0.00015276742,-0.00010489337,1.2155204e-05,6.17022e-08,-1.3468287e-05,0.0001341721,4.0386454e-05,-1.519666e-06,-0.00019533315,-3.4829125e-06,0.00010215,-2.0736014e-05,-4.3065473e-05
-1.4769619e-05,-3.4915698e-05,4.1453895e-05,-0.00013308437,-0.00010359256,6.281674e-06,4.4507906e-06,-7.182097e-06,0.00011491799,4.3090862e-05,-2.4276346e-07,-0.00020007505,2.5130606e-05,0.00010035488,-3.0657193e-05,-4.240378e-05
-1.4940623e-05,-3.7478156e-05,4.127706e-05,-0.00013076658,-0.00010350649,5.6613912e-06,5.109555e-06,-6.3044126e-06,0.000112493784,4.336762e-05,-1.7433653e-07,-0.00020087365,2.6735586e-05,0.00010017631,-3.318894e-05,-4.2384614e-05
-1.4986224e-05,-3.5194793e-05,4.2240204e-05,-0.00013613969,-0.000103890336,7.322105e-06,3.992103e-06,-7.9414485e-06,0.0001176516,4.2608983e-05,-5.816373e-07,-0.00019969944,1.8005783e-05,0.00010068573,-3.12585e-05,-4.2591404e-05
-1.49636235e-05,-2.5647149e-05,4.5313594e-05,-0.00015450263,-0.00010512978,1.2828941e-05,-2.1766505e-08,-1.37329525e-05,0.00013553909,4.0038798e-05,-1.8253368e-06,-0.00019543621,-9.622057e-06,0.00010237152,-2.2830607e-05,-4.3238026e-05
-1.4809515e-05,-2.5731242e-05,4.471111e-05,-0.0001520747,-0.00010489737,1.2042362e-05,3.6818176e-07,-1.3102205e-05,0.00013331452,4.0420593e-05,-1.5918706e-06,-0.00019577626,-4.2215306e-06,0.000102117265,-2.2708753e-05,-4.3091797e-05
-1.4816147e-05,-1.9566376e-05,4.6730584e-05,-0.00016395577,-0.00010570907,1.5567788e-05,-2.2304175e-06,-1.6855063e-05,0.00014491222,3.8734343e-05,-2.3777836e-06,-0.00019307112,-2.2231048e-05,0.00010320202,-1.7317456e-05,-4.352123e-05
-1.4715331e-05,-2.4230165e-05,4.4815617e-05,-0.00015337991,-0.000104952116,1.2383079e-05,-6.1523364e-09,-1.3598968e-05,0.00013468748,4.026744e-05,-1.6183527e-06,-0.00019532307,-5.1565466e-06,0.00010221823,-2.1217576e-05,-4.310648e-05
-1.4782472e-05,-2.9302364e-05,4.337144e-05,-0.00014435519,-0.000104372484,9.698024e-06,2.0240682e-06,-1.0697691e-05,0.00012583763,4.1530217e-05,-1.0312904e-06,-0.00019747332,7.785758e-06,0.000101403886,-2.5717214e-05,-4.281254e-05
-1.4869441e-05,-2.5507641e-05,4.4951415e-05,-0.00015306257,-0.000105001694,1.2346294e-05,2.068631e-07,-1.3361276e-05,0.0001342282,4.0283052e-05,-1.6633537e-06,-0.0001955985,-6.409012e-06,0.00010222217,-2.2503107e-05,-4.3156404e-05
-1.4811687e-05,-2.3153394e-05,4.5533594e-05,-0.0001569219,-0.00010523184,1.3481137e-05,-6.905846e-07,-1.4631068e-05,0.00013804217,3.974021e-05,-1.9039562e-06,-0.00019465561,-1.1593226e-05,0.00010256163,-2.04104e-05,-4.3268647e-05
-1.4767421e-05,-2.8170194e-05,4.3711017e-05,-0.00014647235,-0.0001045051,1.03351695e-05,1.5498426e-06,-1.137623e-05,0.00012790752,4.1229414e-05,-1.1767248e-06,-0.00019697928,4.7412314e-06,0.00010159488,-2.473391e-05,-4.287965e-05
-1.4844438e-05,-2.9989864e-05,4.3387055e-05,-0.00014399279,-0.00010437333,9.618453e-06,2.160837e-06,-1.0528075e-05,0.00012542098,4.1564595e-05,-1.0409335e-06,-0.00019764967,7.639615e-06,0.0001013835,-2.6416015e-05,-4.2822372e-05
-1.4878318e-05,-2.713672e-05,4.4465123e-05,-0.00015012115,-0.00010480269,1.1475713e-05,8.5776264e-07,-1.2425578e-05,0.00013134956,4.069201e-05,-1.4763921e-06,-0.00019629422,-2.0495654e-06,0.00010195404,-2.3965044e-05,-4.3052947e-05
-1.4839074e-05,-2.116287e-05,4.629617e-05,-0.00016122387,-0.00010553269,1.4771175e-05,-1.6088494e-06,-1.5968519e-05,0.00014221719,3.9117e-05,-2.207141e-06,-0.00019372362,-1.8381612e-05,0.00010295851,-1.8730245e-05,-4.3431646e-05
-1.47396595e-05,-2.504559e-05,4.464384e-05,-0.00015218864,-0.000104880775,1.2038733e-05,2.7742848e-07,-1.3201041e-05,0.00013350011,4.0429153e-05,-1.5524255e-06,-0.00019563285,-3.6212346e-06,0.00010211403,-2.1969483e-05,-4.3072574e-05
-1.4803614e-05,-2.2278955e-05,4.5767432e-05,-0.0001583656,-0.00010533246,1.389823e-05,-1.01456e-06,-1.50950455e-05,0.00013946496,3.954644e-05,-1.9886834e-06,-0.00019429969,-1.36807175e-05,0.00010269268,-1.9608533e-05,-4.332043e-05
-1.4761447e-05,-2.1618629e-05,4.5837674e-05,-0.00015908381,-0.00010535896,1.4099907e-05,-1.2116241e-06,-1.5359874e-05,0.0001402039,3.944803e-05,-2.0192804e-06,-0.00019408671,-1.4299976e-05,0.000102748774,-1.8992758e-05,-4.3328047e-05
-1.4753228e-05,-1.7954508e-05,4.7007095e-05,-0.0001660428,-0.000105824205,1.6157375e-05,-2.7492242e-06,-1.7573719e-05,0.00014701425,3.8451723e-05,-2.4762714e-06,-0.0001925057,-2.4685283e-05,0.0001033786,-1.5812446e-05,-4.357274e-05
-1.4689491e-05,-2.5175972e-05,4.439091e-05,-0.00015105802,-0.000104786195,1.1673467e-05,4.7595213e-07,-1.2890576e-05,0.00013245507,4.0605122e-05,-1.4410699e-06,-0.00019580772,-1.3536242e-06,0.00010200046,-2.1983662e-05,-4.301547e-05
-1.48018835e-05,-2.6318638e-05,4.441522e-05,-0.00015038949,-0.00010479486,1.1513967e-05,7.279534e-07,-1.2578501e-05,0.00013169146,4.0683135e-05,-1.4443295e-06,-0.0001961041,-1.604485e-06,0.00010196383,-2.3101584e-05,-4.3037213e-05
-1.4829619e-05,-1.7814495e-05,4.733928e-05,-0.00016744631,-0.00010594864,1.6602733e-05,-2.9881658e-06,-1.7952767e-05,0.00014831698,3.8225786e-05,-2.6060218e-06,-0.00019230128,-2.764089e-05,0.00010352028,-1.5798521e-05,-4.3650773e-05
-1.4696897e-05,-7.992283e-06,5.0102615e-05,-0.00018465667,-0.0001070269,2.1609865e-05,-6.9268744e-06,-2.356443e-05,0.00016532168,3.5722423e-05,-3.6800957e-06,-0.00018833656,-5.1891322e-05,0.00010503504,-7.306959e-06,-4.4204127e-05
-1.4540224e-05,-8.9021705e-06,4.920195e-05,-0.00018047364,-0.00010669544,2.0322803e-05,-6.1466785e-06,-2.2365291e-05,0.00016137224,3.6393445e-05,-3.3186454e-06,-0.00018901391,-4.3955497e-05,0.00010463393,-7.81247e-06,-4.4002594e-05
-1.4548492e-05,-2.3664375e-05,4.432429e-05,-0.00015167518,-0.000104776744,1.1785512e-05,2.0299446e-07,-1.3215942e-05,0.00013322232,4.0558858e-05,-1.3914637e-06,-0.00019544293,-7.184414e-07,0.00010202889,-2.0422829e-05,-4.2989323e-05
-1.4779988e-05,-2.4987927e-05,4.4730776e-05,-0.00015241498,-0.0001049307,1.2099523e-05,2.632759e-07,-1.3238034e-05,0.00013369638,4.0412833e-05,-1.5507621e-06,-0.00019558509,-4.4459953e-06,0.000102146216,-2.1848999e-05,-4.31057e-05
-1.4800469e-05,-2.715527e-05,4.4141827e-05,-0.00014878018,-0.00010468009,1.10370775e-05,1.0769536e-06,-1.2073235e-05,0.00013012221,4.090256e-05,-1.3350057e-06,-0.00019648027,8.4133205e-07,0.00010181489,-2.3839817e-05,-4.2977004e-05
-1.479787e-05,-4.5964312e-05,3.7976715e-05,-0.00011219835,-0.00010212553,-8.844177e-08,8.950147e-06,-6.779405e-07,9.471533e-05,4.586107e-05,1.1761684e-06,-0.00020515977,5.705178e-05,9.8386634e-05,-4.080487e-05,-4.1648465e-05
-1.5079725e-05,-5.1663235e-05,3.7175167e-05,-0.000105280116,-0.00010177663,-2.091333e-06,1.0675987e-05,1.7084143e-06,8.776799e-05,4.672718e-05,1.5331749e-06,-0.00020723746,6.450529e-05,9.7795826e-05,-4.6372297e-05,-4.151053e-05
-1.5175303e-05,-5.0837334e-05,3.7866965e-05,-0.000108672575,-0.000102051534,-9.759343e-07,1.0041094e-05,7.487059e-07,9.092877e-05,4.624661e-05,1.2296654e-06,-0.00020657777,5.812213e-05,9.8141136e-05,-4.5790825e-05,-4.166618e-05
-1.5176257e-05,-4.539493e-05,3.9683975e-05,-0.000119498225,-0.00010281099,2.3614364e-06,7.737168e-06,-2.5948254e-06,0.0001013621,4.480698e-05,4.5752128e-07,-0.00020396488,4.1385167e-05,9.916817e-05,-4.082059e-05,-4.2058255e-05
-1.50107935e-05,-6.6657565e-05,3.2122338e-05,-7.5541546e-05,-9.953965e-05,-1.1446301e-05,1.6834105e-05,1.0694685e-05,5.9387512e-05,5.0422088e-05,3.6593647e-06,-0.0002147893,0.00011215365,9.486781e-05,-6.0833434e-05,-4.036047e-05
-1.5334386e-05,-7.1060254e-05,3.1902717e-05,-7.1639144e-05,-9.944758e-05,-1.2515632e-05,1.792314e-05,1.2165054e-05,5.536118e-05,5.0884013e-05,3.8251683e-06,-0.00021620256,0.00011439594,9.457718e-05,-6.53124e-05,-4.036044e-05
-1.5447496e-05,-6.2735955e-05,3.5105477e-05,-8.998073e-05,-0.00010083889,-6.637588e-06,1.4203851e-05,6.705536e-06,7.275853e-05,4.85744e-05,2.4299165e-06,-0.00021167009,8.4086045e-05,9.640691e-05,-5.7410933e-05,-4.108445e-05
-1.534135e-05,-5.393227e-05,3.760122e-05,-0.00010577746,-0.0001019089,-1.7627411e-06,1.07931555e-05,1.78034e-06,8.799199e-05,4.6559704e-05,1.3294733e-06,-0.00020759615,6.071053e-05,9.790121e-05,-4.903665e-05,-4.1616804e-05
-1.52601e-05,-2.9565626e-05,4.526172e-05,-0.00015194344,-0.00010507107,1.2210531e-05,7.925987e-07,-1.2675898e-05,0.0001328079,4.0287825e-05,-1.8187459e-06,-0.00019650385,-9.032925e-06,0.000102196376,-2.6839261e-05,-4.3252447e-05
-1.487302e-05,-2.160459e-05,4.6401237e-05,-0.00016157216,-0.00010554965,1.4919381e-05,-1.6554244e-06,-1.6050002e-05,0.00014252018,3.902478e-05,-2.2905851e-06,-0.00019376504,-1.924507e-05,0.000102993494,-1.9353643e-05,-4.3444878e-05
-1.4731624e-05,-3.3079392e-05,4.2005697e-05,-0.00013662869,-0.00010380672,7.358303e-06,3.6510226e-06,-8.323389e-06,0.000118388925,4.2591455e-05,-5.079848e-07,-0.00019924184,2.0191485e-05,0.00010067409,-2.9116512e-05,-4.2508535e-05
-1.4898483e-05,-4.1655647e-05,3.9760645e-05,-0.00012207031,-0.00010287951,2.9901112e-06,6.939188e-06,-3.6376384e-06,0.000104126375,4.4550605e-05,4.373207e-07,-0.00020289265,4.0608855e-05,9.934976e-05,-3.6952217e-05,-4.205233e-05
-1.5032179e-05,-4.418627e-05,3.9457955e-05,-0.00011925933,-0.000102738864,2.2013053e-06,7.661589e-06,-2.6466746e-06,0.00010127258,4.4890265e-05,5.647059e-07,-0.00020377261,4.339412e-05,9.911441e-05,-3.9437284e-05,-4.1999752e-05
-1.509318e-05,-3.552544e-05,4.2562067e-05,-0.00013723956,-0.00010401155,7.70656e-06,3.848993e-06,-8.192665e-06,0.00011862392,4.2425338e-05,-7.1477655e-07,-0.00019960589,1.512169e-05,0.00010081086,-3.17239e-05,-4.267091e-05
-1.49678945e-05,-2.585738e-05,4.5290708e-05,-0.00015433138,-0.000105114144,1.27882595e-05,1.9526295e-08,-1.3675142e-05,0.0001353641,4.0053157e-05,-1.826939e-06,-0.00019550025,-9.404312e-06,0.00010235579,-2.3066856e-05,-4.3230233e-05
-1.4817782e-05,-1.9701192e-05,4.673571e-05,-0.00016396711,-0.00010570192,1.5584568e-05,-2.2310364e-06,-1.6856802e-05,0.00014491516,3.8719136e-05,-2.3954854e-06,-0.00019309777,-2.2256472e-05,0.00010320202,-1.7500111e-05,-4.3517375e-05
-1.4722649e-05,-1.48873705e-05,4.7931524e-05,-0.00017170586,-0.00010618485,1.7822886e-05,-4.0272025e-06,-1.9401976e-05,0.00015258575,3.7630412e-05,-2.848717e-06,-0.0001912163,-3.2831187e-05,0.000103882616,-1.3190189e-05,-4.375898e-05
-1.4644928e-05,-1.9355077e-05,4.6142577e-05,-0.00016172111,-0.00010548978,1.4833068e-05,-1.9014278e-06,-1.6300195e-05,0.00014290155,3.9100963e-05,-2.1347935e-06,-0.0001933224,-1.6978747e-05,0.000102965314,-1.6870901e-05,-4.3379107e-05
-1.4715637e-05,-1.9610055e-05,4.629398e-05,-0.00016211138,-0.000105551044,1.49696325e-05,-1.9202319e-06,-1.6360398e-05,0.0001432132,3.9036888e-05,-2.1846774e-06,-0.00019331722,-1.836117e-05,0.00010301594,-1.7146154e-05,-4.342257e-05
-1.4720849e-05,-2.0044561e-05,4.6180605e-05,-0.00016140298,-0.00010550206,1.4766259e-05,-1.7596217e-06,-1.6131085e-05,0.0001425126,3.913183e-05,-2.1432434e-06,-0.00019349229,-1.73549e-05,0.00010295208,-1.7540588e-05,-4.3397584e-05
-1.4728743e-05,-1.8222992e-05,4.6813708e-05,-0.00016508013,-0.00010575163,1.5859914e-05,-2.5606757e-06,-1.7290125e-05,0.00014609816,3.86e-05,-2.3936825e-06,-0.00019267933,-2.2974491e-05,0.00010328699,-1.598794e-05,-4.3530672e-05
-1.4694349e-05,-2.4920508e-05,4.448446e-05,-0.00015157693,-0.000104825085,1.1828777e-05,3.671975e-07,-1.3049732e-05,0.00013295574,4.053332e-05,-1.4744462e-06,-0.0001956907,-2.1993765e-06,0.00010204938,-2.1753094e-05,-4.3036725e-05
-1.47978035e-05,-2.6636906e-05,4.4294822e-05,-0.0001497071,-0.00010474634,1.1308311e-05,8.729576e-07,-1.2367198e-05,0.00013103048,4.0779712e-05,-1.39574e-06,-0.0001962552,-5.2543203e-07,0.00010190027,-2.3373954e-05,-4.3011136e-05
-1.48138415e-05,-3.472171e-05,4.171848e-05,-0.0001343281,-0.00010369124,6.6891635e-06,4.224968e-06,-7.5295184e-06,0.00011606914,4.2901534e-05,-3.6557742e-07,-0.00019986731,2.2733448e-05,0.00010047945,-3.0587984e-05,-4.2461612e-05
-1.4942298e-05,-3.4517714e-05,4.2272462e-05,-0.00013666185,-0.000103912666,7.452259e-06,3.8395237e-06,-8.143519e-06,0.00011820503,4.2556556e-05,-5.885986e-07,-0.00019949766,1.7706738e-05,0.000100725716,-3.056464e-05,-4.2596384e-05
-1.4948939e-05,-2.8776765e-05,4.4213062e-05,-0.00014810542,-0.000104692386,1.0907959e-05,1.3616004e-06,-1.1728595e-05,0.00012931778,4.095169e-05,-1.3813087e-06,-0.00019687027,2.1825997e-07,0.00010178317,-2.5528541e-05,-4.3005744e-05
-1.48629915e-05,-2.3047553e-05,4.5786084e-05,-0.0001580358,-0.00010532502,1.3839217e-05,-8.868134e-07,-1.4937688e-05,0.00013907798,3.956254e-05,-2.0139505e-06,-0.00019448966,-1.3834764e-05,0.00010267298,-2.0426998e-05,-4.332545e-05
-1.4773953e-05,-1.9482644e-05,4.6612637e-05,-0.00016356361,-0.00010566171,1.5439802e-05,-2.1833025e-06,-1.6767774e-05,0.00014456555,3.87967e-05,-2.3351483e-06,-0.00019310844,-2.1174734e-05,0.00010315755,-1.7203369e-05,-4.3489603e-05
-1.4713665e-05,-2.3962259e-05,4.4890952e-05,-0.00015383879,-0.00010498466,1.2516711e-05,-1.07815524e-07,-1.3745115e-05,0.00013513716,4.020643e-05,-1.6461515e-06,-0.00019521092,-5.8313353e-06,0.0001022603,-2.0972931e-05,-4.3123302e-05
-1.4761377e-05,-3.9412236e-05,3.9973063e-05,-0.00012435045,-0.000102973594,3.6227998e-06,6.321719e-06,-4.470994e-06,0.00010647596,4.4265646e-05,3.509679e-07,-0.00020215572,3.8668182e-05,9.9532226e-05,-3.4745502e-05,-4.2080872e-05
-1.5004494e-05,-4.082054e-05,4.042536e-05,-0.00012522406,-0.00010315169,4.0023665e-06,6.35878e-06,-4.522403e-06,0.00010707132,4.4106786e-05,1.7653066e-07,-0.00020227917,3.4518645e-05,9.9671706e-05,-3.6288875e-05,-4.2209696e-05
-1.5019221e-05,-4.42758e-05,3.9401642e-05,-0.00011902224,-0.000102709295,2.1301537e-06,7.700654e-06,-2.584866e-06,0.00010105027,4.4915007e-05,5.7922864e-07,-0.00020383028,4.3914268e-05,9.908753e-05,-3.9539565e-05,-4.198248e-05
-1.5081708e-05,-4.0941544e-05,4.0745264e-05,-0.00012654053,-0.00010326589,4.457595e-06,6.1462556e-06,-4.8631923e-06,0.00010825927,4.3892644e-05,2.289724e-08,-0.00020211843,3.1632677e-05,9.981041e-05,-3.6592894e-05,-4.2280197e-05
-1.5037826e-05,-3.6198155e-05,4.2152427e-05,-0.00013522868,-0.0001038435,7.080226e-06,4.235773e-06,-7.6111637e-06,0.000116714815,4.271136e-05,-5.628703e-07,-0.00020001364,1.8830993e-05,0.000100611105,-3.22957e-05,-4.257433e-05
-1.49349935e-05,-4.7068792e-05,3.8196682e-05,-0.00011248243,-0.0001022008,8.302623e-08,9.01873e-06,-6.3928604e-07,9.482888e-05,4.5787834e-05,1.0602978e-06,-0.00020532064,5.5040236e-05,9.8444994e-05,-4.2073814e-05,-4.1706913e-05
-1.5100224e-05,-5.0118382e-05,3.779953e-05,-0.00010885359,-0.00010203374,-9.649108e-07,9.938395e-06,6.279279e-07,9.117649e-05,4.6247973e-05,1.2514909e-06,-0.00020641315,5.873142e-05,9.814139e-05,-4.5024233e-05,-4.1645413e-05
-1.518002e-05,-3.9722745e-05,4.1535957e-05,-0.00013048337,-0.00010358322,5.704284e-06,5.3826016e-06,-6.0074494e-06,0.000111996735,4.3327178e-05,-2.973782e-07,-0.00020132927,2.4462499e-05,0.000100201134,-3.5631776e-05,-4.246047e-05
-1.4916311e-05,-6.799753e-05,3.1325802e-05,-7.1478426e-05,-9.9180645e-05,-1.2799511e-05,1.75834e-05,1.18267935e-05,5.564638e-05,5.090954e-05,4.0025834e-06,-0.00021573371,0.000119779404,9.443487e-05,-6.208441e-05,-4.016632e-05
-1.53322e-05,-7.5684286e-05,3.0377147e-05,-6.244608e-05,-9.876406e-05,-1.5465972e-05,1.9808673e-05,1.4921348e-05,4.6644935e-05,5.1988205e-05,4.515581e-06,-0.00021862036,0.0001290698,9.3659335e-05,-6.9867645e-05,-4.001556e-05
-1.5516836e-05,-6.482728e-05,3.469283e-05,-8.693287e-05,-0.00010065681,-7.5586713e-06,1.4894386e-05,7.690328e-06,6.979883e-05,4.8943468e-05,2.6286675e-06,-0.00021253791,8.8035085e-05,9.6128846e-05,-5.9473896e-05,-4.1002048e-05
-1.5369767e-05,-5.5571567e-05,3.719067e-05,-0.00010309523,-0.000101728394,-2.5747438e-06,1.1382534e-05,2.6275757e-06,8.538947e-05,4.689606e-05,1.5057911e-06,-0.00020831215,6.454517e-05,9.765045e-05,-5.0629595e-05,-4.1528227e-05
-1.5235379e-05,-4.986302e-05,3.8517916e-05,-0.00011208707,-0.00010230608,1.2980432e-07,9.367216e-06,-2.528713e-07,9.415408e-05,4.5761386e-05,9.260952e-07,-0.00020589215,5.2178733e-05,9.847771e-05,-4.5130266e-05,-4.1805273e-05
-1.5171514e-05,-3.964518e-05,4.158657e-05,-0.00013084839,-0.000103595616,5.824085e-06,5.2975583e-06,-6.128267e-06,0.00011234888,4.326811e-05,-3.4192897e-07,-0.0002012662,2.4030947e-05,0.00010023173,-3.565537e-05,-4.246478e-05
-1.500764e-05,-3.91382e-05,4.1109182e-05,-0.00012926065,-0.00010340987,5.265029e-06,5.4956604e-06,-5.775488e-06,0.000110954745,4.3525313e-05,-1.5431107e-07,-0.00020140324,2.833033e-05,0.00010004629,-3.4969253e-05,-4.2343367e-05
-1.5028054e-05,-2.282921e-05,4.6504916e-05,-0.00016105827,-0.000105597115,1.4804404e-05,-1.4017771e-06,-1.5752483e-05,0.00014189222,3.907945e-05,-2.3035445e-06,-0.00019405106,-2.0202246e-05,0.00010298072,-2.050778e-05,-4.3494634e-05
-1.4766776e-05,-2.3244356e-05,4.5390392e-05,-0.000156393,-0.000105167324,1.3318965e-05,-6.168823e-07,-1.4504214e-05,0.0001375686,3.981096e-05,-1.8687249e-06,-0.0001947446,-1.0272284e-05,0.000102502476,-2.0515059e-05,-4.322731e-05
-1.4770387e-05,-2.4914567e-05,4.479391e-05,-0.00015285569,-0.0001049435,1.2245881e-05,1.6112874e-07,-1.338354e-05,0.00013412152,4.033486e-05,-1.6111487e-06,-0.00019551524,-4.9687033e-06,0.00010218237,-2.1887954e-05,-4.3110034e-05
