-2.1048805e-05,0.059320975,0.0006828677,0.002058695,0.226938,-0.00036299476,0.16099252,-0.044099424,0.0021552644,-0.004846568,0.000109864115,-0.041634806,-0.06488854,0.0010267645,0.0001954681,0.05659659
-2.2274731e-05,0.057741594,0.001027624,0.0021960835,0.24005389,-0.0006551192,0.20603743,-0.036687765,0.0036932367,-0.0054591736,0.000107063795,-0.039753117,-0.060212743,0.0010275295,0.0003261157,0.03981144
-2.2116772e-05,0.057166047,0.0012758211,0.001875137,0.2591671,-0.0006075097,0.18313166,-0.028616054,0.0034827222,-0.0060376087,9.104879e-05,-0.03745147,-0.058575578,0.0011805989,0.0004124626,0.034805078
-1.978076e-05,0.056801714,0.0011355095,0.0013117621,0.27384242,-0.0002166059,0.10633799,-0.029450497,0.0017080792,-0.0064022536,7.863003e-05,-0.03594087,-0.06616787,0.0014955766,0.00034873182,0.046450388
-1.6417087e-05,0.05100643,0.00079471886,0.0013034875,0.25112998,2.225087e-05,0.08442345,-0.04157474,0.0007364134,-0.0060387887,7.565742e-05,-0.04398103,-0.08870295,0.0016086015,0.00018462715,0.06998273
-1.7736502e-05,0.05723205,0.0007470964,0.001318363,0.25688437,-8.728852e-05,0.108522974,-0.038172483,0.0013957982,-0.005923056,9.022314e-05,-0.036123447,-0.07484535,0.001810319,0.00018268285,0.06699166
-2.0314625e-05,0.058651846,0.00070197793,0.0015719461,0.2548492,-0.0003217105,0.12860784,-0.038675737,0.0021807526,-0.0060107387,0.0001107725,-0.03391689,-0.06647233,0.0017233769,0.00022280724,0.059067138
-1.9118264e-05,0.058657825,0.0006626316,0.0017985791,0.24035373,-0.0002700102,0.16052385,-0.04359336,0.0022264798,-0.005698016,0.000103494116,-0.04090881,-0.07479736,0.001651913,0.00019473495,0.056914836
-2.1851998e-05,0.057993006,0.0010370323,0.0016825525,0.25970986,-0.000523988,0.15881693,-0.031163588,0.0031014604,-0.005807939,0.00010465495,-0.03248334,-0.056750253,0.0013639147,0.00031684779,0.045254588
-2.0239784e-05,0.05892467,0.0009773643,0.0017895906,0.24685425,-0.0002986343,0.14900826,-0.040103924,0.0021146943,-0.005890171,9.4736715e-05,-0.041657634,-0.0713272,0.0013582209,0.00028653487,0.04898352
-1.8704492e-05,0.057565916,0.0009811174,0.0017524086,0.24611397,-0.00023079633,0.1772161,-0.038924787,0.0023390849,-0.0059182844,8.376319e-05,-0.044288535,-0.076483876,0.0015898788,0.000268195,0.046567332
-2.2168866e-05,0.05618288,0.00124424,0.0015436589,0.27713344,-0.0005531165,0.144385,-0.023551764,0.0031757785,-0.006595357,9.202619e-05,-0.030822009,-0.055262472,0.0015308409,0.00041197662,0.038342994
-1.6487915e-05,0.05319834,0.0008882241,0.0015554015,0.24684644,-5.7187735e-05,0.13484004,-0.043725308,0.0013341056,-0.006336628,7.7053715e-05,-0.049174625,-0.093600824,0.0017564555,0.00023378742,0.055402637
-1.7957736e-05,0.05603486,0.00097110757,0.0014201216,0.26328045,-0.00019555738,0.16379108,-0.032692272,0.0024463364,-0.0063472744,8.004918e-05,-0.03808804,-0.07357495,0.0019498946,0.00026695163,0.047841374
-2.1006277e-05,0.05649353,0.0011449734,0.001878844,0.25845197,-0.00047879157,0.17940123,-0.033938494,0.0032289769,-0.006908679,9.336149e-05,-0.0395166,-0.069802485,0.0017773355,0.00038482112,0.038737047
-1.7401435e-05,0.055254564,0.0010439623,0.0012257705,0.27983502,-0.00019767441,0.14357227,-0.030366667,0.0023962024,-0.0070679826,7.958521e-05,-0.035350576,-0.07534737,0.002283307,0.00031390734,0.04573699
-1.8347238e-05,0.055552937,0.00094662065,0.0014148402,0.26030648,-0.00011434924,0.11335673,-0.03667672,0.0014657658,-0.006546684,8.15217e-05,-0.040072195,-0.07843086,0.0017783573,0.00026591224,0.055153362
-1.7089333e-05,0.05668694,0.0008298342,0.0010567775,0.27819708,-6.657209e-05,0.08356315,-0.033656,0.0013045758,-0.006596013,8.736677e-05,-0.03171961,-0.07439903,0.0021035704,0.00021795598,0.066046976
-1.7039103e-05,0.055542383,0.0005431109,0.001567369,0.23858249,-5.907435e-05,0.113752484,-0.046424806,0.0011497748,-0.005735558,9.379772e-05,-0.04316957,-0.08610546,0.0017439518,0.00012885906,0.072978854
-2.0159832e-05,0.05785909,0.00072938466,0.0016192843,0.25497267,-0.00041643772,0.16492131,-0.03626198,0.0030224975,-0.005867624,0.000110226545,-0.033206396,-0.063853174,0.001837264,0.00022872449,0.053409826
-2.2227856e-05,0.05765043,0.00096008467,0.0017337401,0.2572434,-0.00054330396,0.14711063,-0.03445646,0.0028958947,-0.005960332,0.000112670175,-0.033125915,-0.058505036,0.0013099714,0.00031887274,0.04749858
-1.8309094e-05,0.058239345,0.0008340184,0.001677747,0.24266928,-0.00016858293,0.147443,-0.04309179,0.0017658934,-0.005694303,9.040954e-05,-0.043703843,-0.07884411,0.0015155706,0.00021728988,0.055836614
-2.1608088e-05,0.0587405,0.0010612278,0.0018671938,0.24984026,-0.0004472601,0.16976629,-0.033484995,0.0028517782,-0.005706752,9.598267e-05,-0.037455942,-0.061046828,0.0013427148,0.00031218384,0.043924186
-2.0787003e-05,0.057932954,0.0011175845,0.0016537386,0.2612646,-0.00038721206,0.1504284,-0.033435363,0.0025819018,-0.0063348194,9.265391e-05,-0.037164733,-0.06587844,0.0015061486,0.00034845,0.043398846
-1.7959725e-05,0.05709729,0.0009573968,0.0011151541,0.27586186,-9.081751e-05,0.08662612,-0.032594528,0.0012903347,-0.0063178972,8.191383e-05,-0.03368963,-0.07119539,0.0017145633,0.00025944252,0.05919429
-1.7610879e-05,0.055862922,0.00069837767,0.0012411766,0.25354493,-5.6274553e-06,0.06312745,-0.041064993,0.0006747358,-0.00571209,8.863143e-05,-0.037171446,-0.07770851,0.0015435464,0.0001555242,0.080009304
-1.7415872e-05,0.057413418,0.0004906806,0.0013746149,0.24424058,-6.927363e-05,0.095235765,-0.04335177,0.0010784583,-0.005326864,9.9934085e-05,-0.036893934,-0.07597514,0.001664102,0.00011017545,0.080816105
-2.0749074e-05,0.0579192,0.00043728855,0.002352921,0.21971795,-0.00044504507,0.19644819,-0.04784274,0.0027472347,-0.0050230967,0.00011620141,-0.04507259,-0.070251115,0.0012025419,0.00016836115,0.05411045
-2.3390085e-05,0.053449456,0.0011760012,0.002308771,0.2518031,-0.0011156332,0.25020823,-0.029042939,0.0061347787,-0.005970518,0.000113926464,-0.03500464,-0.05423779,0.0011148574,0.0004174708,0.031014526
-2.2219092e-05,0.055495188,0.0013964734,0.001900875,0.2648006,-0.0006998156,0.19426812,-0.025307655,0.003909576,-0.006413596,8.5248066e-05,-0.03846611,-0.058859024,0.0012008935,0.00048375878,0.029597446
-1.831345e-05,0.05406156,0.001100899,0.0010517593,0.28862482,-0.000121841,0.0842199,-0.025962645,0.0013714456,-0.0067689675,6.903942e-05,-0.034521777,-0.06886286,0.001653123,0.00034792713,0.04745842
-1.5134404e-05,0.042583123,0.0006759509,0.0014301728,0.23782678,6.761143e-05,0.086697094,-0.04634801,0.00053100445,-0.006060212,7.133857e-05,-0.051309634,-0.1028994,0.0016428521,0.00013963605,0.07634275
-1.7319724e-05,0.05676579,0.0007784627,0.001255984,0.26586962,-0.00013750925,0.1336972,-0.034536768,0.0020283968,-0.0062763724,8.9649795e-05,-0.03380352,-0.073395066,0.0021773067,0.00020126076,0.06047324
-2.1506909e-05,0.057266127,0.00080035295,0.0016915845,0.2594449,-0.00049841934,0.14653647,-0.036554128,0.0029322184,-0.006488243,0.00011572273,-0.033040404,-0.06391191,0.0018015095,0.0002919356,0.05042179
-1.7960137e-05,0.058018543,0.00074571394,0.0015049414,0.25355053,-0.00018706002,0.14109465,-0.04049775,0.0019846105,-0.006102128,9.63856e-05,-0.038302485,-0.07720857,0.0019439141,0.00020609892,0.058600537
-2.1045948e-05,0.059019133,0.0009280323,0.0019743992,0.24093516,-0.00038220052,0.17125495,-0.03894683,0.0025776231,-0.005649898,9.929665e-05,-0.0405931,-0.06667234,0.001370426,0.00027012653,0.047974892
-2.1091926e-05,0.057268735,0.0011108699,0.0018472425,0.25765535,-0.00054043543,0.1906677,-0.033332337,0.0035939212,-0.006348486,9.7986886e-05,-0.037285574,-0.06486711,0.0016028463,0.00035636948,0.039162338
-1.9414325e-05,0.05650258,0.0011468922,0.0022040138,0.23971856,-0.0003785574,0.22951142,-0.039799415,0.003255791,-0.0063402425,8.046965e-05,-0.051526856,-0.08077113,0.0016068538,0.00035271395,0.035219222
-2.0837504e-05,0.05172865,0.0013589292,0.0016053054,0.28594053,-0.00072218716,0.21656755,-0.016187256,0.005079827,-0.0072891517,7.380441e-05,-0.034263544,-0.058904346,0.0019208068,0.00049199944,0.02559628
-1.757601e-05,0.05061732,0.0011822904,0.00129262,0.27873546,-0.00017069008,0.13471587,-0.028451404,0.0019218447,-0.007574166,6.327749e-05,-0.043793928,-0.08229664,0.0019720986,0.00041473497,0.037226643
-1.2279665e-05,0.04075301,0.00082300196,0.00084887154,0.28349352,9.702379e-05,0.08095374,-0.03150084,0.0007248043,-0.0072905812,5.5159384e-05,-0.042924836,-0.10312997,0.0021184725,0.00022399638,0.061003182
-1.6067672e-05,0.05277042,0.00079344225,0.0010439528,0.2750139,5.9014533e-06,0.074700736,-0.03446859,0.0009802337,-0.006907207,7.9292346e-05,-0.034817185,-0.08259089,0.0021894174,0.0002037838,0.06933993
-1.6027667e-05,0.0553094,0.0004398167,0.0013275942,0.25492212,-6.6917004e-05,0.10973585,-0.04253899,0.0014047715,-0.0064494056,9.823718e-05,-0.03717131,-0.08640076,0.0025110245,0.00012277611,0.0750116
-1.941883e-05,0.057976793,0.00054253987,0.0014989949,0.2550663,-0.0003139967,0.14059989,-0.038329553,0.0024437006,-0.0059138676,0.00011301886,-0.032535076,-0.066850804,0.0020437287,0.00017899173,0.062507525
-2.1668697e-05,0.057494532,0.00064750505,0.0017972277,0.24893498,-0.0005177612,0.15387483,-0.03899199,0.002886468,-0.0057869935,0.00012162427,-0.034087885,-0.061684515,0.00147776,0.00024392857,0.053464524
-2.0242964e-05,0.05947777,0.0008365608,0.0014238596,0.2597233,-0.00029455742,0.11680556,-0.035923313,0.001985644,-0.0056375135,0.00010570122,-0.03217418,-0.0618749,0.0014585902,0.00023642823,0.058915228
-2.0133752e-05,0.06011028,0.0007632027,0.0014971081,0.2451847,-0.00016239981,0.090090826,-0.040657636,0.0011618258,-0.0051293666,0.00010123321,-0.03616317,-0.06501272,0.0011818544,0.00018983585,0.06915307
-1.8964032e-05,0.059075944,0.0006223984,0.0016646798,0.2327482,-0.00014340106,0.117888294,-0.04517331,0.0012910144,-0.0049199387,0.00010028173,-0.04091153,-0.07202,0.001238692,0.0001451916,0.07004001
-2.1786147e-05,0.059237927,0.00083962455,0.0017741343,0.24340902,-0.0004225508,0.14279573,-0.037123393,0.0023215294,-0.0050606313,0.00011086627,-0.034872174,-0.057220444,0.0010722254,0.00024165859,0.054550868
-2.132205e-05,0.05964906,0.0009014187,0.0016971024,0.24732083,-0.00035686145,0.12945594,-0.03824616,0.0020239125,-0.005342569,0.00010583129,-0.03631138,-0.06123369,0.0010951038,0.00026090685,0.054223813
-1.9792264e-05,0.060219515,0.0008599285,0.0013839314,0.25408417,-0.00016808516,0.09522576,-0.03747017,0.0013264294,-0.005293528,9.638691e-05,-0.03461397,-0.063913986,0.001256396,0.00021647415,0.06429935
-1.9708392e-05,0.059062604,0.0006941789,0.0018400401,0.22733721,-0.00015244899,0.12011774,-0.046426997,0.0012411661,-0.004921674,9.7933786e-05,-0.043942507,-0.07256696,0.001128773,0.0001649875,0.06656734
-2.1018259e-05,0.059407547,0.00088375283,0.0015491683,0.25470293,-0.00036199827,0.13255188,-0.034632158,0.0022649383,-0.0053705405,0.00010580103,-0.032543052,-0.058160976,0.0013001336,0.0002473028,0.05523303
-2.0879223e-05,0.059715074,0.00084904546,0.0018329157,0.23871316,-0.0002901216,0.13201168,-0.042163063,0.0017763777,-0.0053315335,0.00010242897,-0.040659033,-0.0670542,0.0011110015,0.0002396861,0.05594631
-1.9570203e-05,0.0595647,0.0008924456,0.0015089582,0.25278875,-0.00023145985,0.13116646,-0.03721399,0.0018931356,-0.005509459,9.514032e-05,-0.03640788,-0.066262364,0.0014035018,0.0002350088,0.056274176
-2.1344613e-05,0.059552286,0.0009359389,0.0019849946,0.23709588,-0.0003311781,0.14852358,-0.04087118,0.002031885,-0.005445167,9.8875156e-05,-0.04209605,-0.06667865,0.0011471285,0.0002681357,0.0508109
-1.9847792e-05,0.058524664,0.0010017501,0.0018171419,0.2480072,-0.00034414703,0.17974406,-0.037913997,0.0027122821,-0.0059040813,9.208968e-05,-0.041327186,-0.07066266,0.00150853,0.00028924923,0.04487221
-2.1670989e-05,0.057278827,0.0011965083,0.0015703222,0.27034047,-0.00047411906,0.1455162,-0.027033376,0.0028718754,-0.0063227587,9.144691e-05,-0.033021025,-0.058048602,0.0014536271,0.00038032807,0.040571652
-1.757381e-05,0.055270925,0.0009330243,0.001531012,0.25022918,-9.1880785e-05,0.12773436,-0.041342963,0.0013961901,-0.0062174457,7.9460624e-05,-0.045726288,-0.08531514,0.0016266889,0.00025082857,0.054534048
-1.806387e-05,0.056570623,0.00094096427,0.0014376297,0.25942758,-0.00016182459,0.14743589,-0.03515343,0.0020408584,-0.0062191533,8.2002516e-05,-0.03898013,-0.07498403,0.0018268167,0.00025356986,0.05155103
-2.0619975e-05,0.0575444,0.0010547277,0.0015397747,0.26684776,-0.00035666826,0.1368393,-0.032462724,0.00248146,-0.006632907,9.519063e-05,-0.034470398,-0.06585633,0.0017471658,0.000331454,0.046719775
-1.7327111e-05,0.057097673,0.00085630664,0.001138754,0.27291608,-8.326398e-05,0.09051328,-0.0354517,0.001331417,-0.0064661023,8.7596076e-05,-0.033837035,-0.07567875,0.0019755624,0.0002272619,0.063547954
-1.7240453e-05,0.05545172,0.0006317101,0.001556811,0.23801468,-4.731346e-05,0.11345009,-0.045418918,0.0010995517,-0.005574516,8.953123e-05,-0.043562405,-0.08414304,0.0016047132,0.00014162387,0.07150761
-2.0316877e-05,0.05796637,0.0007587651,0.002069731,0.23891078,-0.00046223376,0.20637777,-0.04100567,0.0033930114,-0.005816433,0.000106123654,-0.040992253,-0.07031234,0.0016764518,0.0002432058,0.046721645
-2.2951514e-05,0.053811967,0.0012702703,0.0015938373,0.28200543,-0.00087856245,0.17405927,-0.021742918,0.0047458606,-0.006660512,0.00010768675,-0.026895441,-0.050395433,0.001536466,0.00044032544,0.035138708
-1.7600329e-05,0.055423662,0.0009431782,0.0016498326,0.24432804,-0.000104248014,0.1381229,-0.04371247,0.0014367895,-0.0060782665,7.95198e-05,-0.048939206,-0.08763431,0.0015320354,0.00025364722,0.05277639
-1.8395867e-05,0.05623949,0.0009940196,0.0017215019,0.24889506,-0.00023262003,0.19209224,-0.036223732,0.0026465172,-0.0060659773,7.914916e-05,-0.043899786,-0.076427795,0.0017697316,0.00027162646,0.044313025
-2.2032937e-05,0.054665156,0.0013535644,0.0022869676,0.25524104,-0.000749431,0.23638168,-0.029275022,0.0047462895,-0.0070609427,8.764408e-05,-0.04266386,-0.06696249,0.0016703589,0.0004815907,0.028294941
-1.8324463e-05,0.051847395,0.0012599669,0.0013000959,0.29174218,-0.00042009985,0.18898904,-0.021357358,0.003849929,-0.0076962467,7.025624e-05,-0.03556289,-0.06964474,0.0023937635,0.00044569708,0.030222425
-1.6446998e-05,0.048815425,0.0010416869,0.0011708444,0.27641535,-4.94078e-05,0.1082569,-0.030820452,0.0013208245,-0.007388552,6.252765e-05,-0.04335433,-0.087236,0.0019731363,0.00033161326,0.046632346
-1.4079475e-05,0.04976648,0.00079142273,0.00056260533,0.31658998,0.00010345861,-0.00047560854,-0.025753377,0.0002819001,-0.0073020477,6.814878e-05,-0.025933124,-0.07783698,0.0021485896,0.00020586161,0.08275037
-1.1459591e-05,0.03248663,0.00030235635,0.0008869315,0.2491629,0.0001370323,0.000780059,-0.044833258,-5.9062673e-05,-0.0054607787,7.605356e-05,-0.038548212,-0.1042929,0.0018007336,9.797428e-06,0.13977103
-1.6178554e-05,0.052777514,-0.0003130116,0.0015691959,0.21825726,-0.0001600161,0.1329781,-0.047652937,0.0014473977,-0.00422352,0.00011438589,-0.039320312,-0.07409769,0.001890416,-2.3782986e-05,0.09455507
-2.4898362e-05,0.046256326,-0.0004699862,0.0031514645,0.20828938,-0.0014034595,0.26748484,-0.046529166,0.006002401,-0.004611745,0.00015804742,-0.044506148,-0.054314613,-1.7180442e-05,0.00022455979,0.040048353
-2.4667479e-05,0.047647897,0.0013614253,0.0015636624,0.2909569,-0.0014978573,0.18368076,-0.014354267,0.006727507,-0.006204208,0.0001271756,-0.021134853,-0.03841934,0.0008053,0.0005079102,0.03103062
-1.8635588e-05,0.055272706,0.00091140973,0.0013670836,0.24693555,-1.8653149e-05,0.054486,-0.04213386,0.0004953639,-0.0054047094,7.913684e-05,-0.043781444,-0.0772547,0.0010791261,0.00022589146,0.06938997
-1.6701288e-05,0.052932844,0.00056505634,0.0014298621,0.23040716,2.138792e-05,0.09296912,-0.045445137,0.0007081213,-0.0047144806,8.448795e-05,-0.04230077,-0.079977594,0.001383465,9.0402216e-05,0.08635214
-2.2686916e-05,0.058539536,0.0007668463,0.0024754722,0.22027634,-0.0005043342,0.17951688,-0.043526452,0.0025298973,-0.0049049044,0.00011270142,-0.04380918,-0.061881825,0.00093093596,0.0002402073,0.05002414
-2.255724e-05,0.054645527,0.001074297,0.0018789109,0.26300934,-0.00087132765,0.20413038,-0.02984167,0.0049402784,-0.006279735,0.000115574985,-0.03150847,-0.055738907,0.001500182,0.00038229895,0.037167996
-2.0927533e-05,0.0586672,0.0011232225,0.0014181176,0.2682893,-0.00030089938,0.1093799,-0.030760529,0.0018900338,-0.006039784,8.958677e-05,-0.03402349,-0.060918134,0.0013176517,0.0003380773,0.048115704
-1.7032835e-05,0.05427763,0.00078271655,0.001294521,0.25061238,3.6940269e-06,0.078856796,-0.04178296,0.00073694973,-0.0056991423,8.081238e-05,-0.041486725,-0.082667775,0.0014773501,0.00017652192,0.07253044
-1.8543147e-05,0.05803189,0.0006863858,0.0015964619,0.23928091,-0.0001163053,0.122722246,-0.04279129,0.0013847525,-0.005347714,9.404656e-05,-0.04038462,-0.07458717,0.0015091742,0.00016106565,0.06737565
-2.1513615e-05,0.058115214,0.00084381097,0.0016216943,0.25793645,-0.00046273344,0.141834,-0.034812763,0.0027246068,-0.0058632446,0.000113158996,-0.031864583,-0.05923454,0.001502654,0.00026959568,0.052473266
-1.9862682e-05,0.059384372,0.00079182774,0.0016118361,0.24925886,-0.00026320928,0.12948817,-0.040470183,0.001900499,-0.0056849984,0.00010315638,-0.03732131,-0.06894772,0.001454895,0.00022572171,0.058034275
-1.975121e-05,0.059636157,0.00083947706,0.001593761,0.2468949,-0.00021977535,0.12950216,-0.039238885,0.0017649363,-0.005410176,9.699751e-05,-0.037721206,-0.067376636,0.0013656291,0.00021843247,0.058625747
-2.079318e-05,0.05923071,0.00088596914,0.0021521351,0.23186174,-0.00036116704,0.1790658,-0.043351535,0.00242996,-0.005477369,9.9241486e-05,-0.045160577,-0.07099023,0.001220025,0.00025717332,0.048081115
-2.1308426e-05,0.056924257,0.001185822,0.0018570366,0.25918514,-0.00059791096,0.2025876,-0.030128255,0.0039501456,-0.0061930534,9.3932045e-05,-0.036821526,-0.06157262,0.0014945491,0.0003741537,0.036022563
-2.109186e-05,0.056538925,0.0012382268,0.0014539158,0.27637744,-0.00040555003,0.13150539,-0.026298465,0.002534588,-0.006624814,8.460979e-05,-0.03397562,-0.06085687,0.0015038308,0.00040719914,0.039562523
-1.5691496e-05,0.050582297,0.0008621358,0.0011949356,0.25981918,2.4958537e-05,0.087449975,-0.03932017,0.0008058578,-0.0063047693,7.1374474e-05,-0.043738708,-0.090720326,0.0016945483,0.00021324508,0.06474785
-1.705837e-05,0.054358073,0.00074806315,0.0017365351,0.23606345,-8.6255764e-05,0.16096765,-0.044279482,0.0016691531,-0.0058668656,8.258287e-05,-0.047783468,-0.087782286,0.0017767006,0.00018052483,0.058490973
-2.1896736e-05,0.054406386,0.0011562709,0.0015131482,0.28288576,-0.00072963757,0.17453142,-0.023727762,0.00457606,-0.006973335,0.000105698855,-0.027144015,-0.054923855,0.0020425322,0.0003942277,0.038247157
-1.8557468e-05,0.05746921,0.00092898146,0.0015063898,0.25913063,-0.0001963527,0.12998514,-0.039264336,0.0018542145,-0.0065426924,9.080063e-05,-0.039737236,-0.078496456,0.0018593563,0.0002737018,0.052776918
-1.6876655e-05,0.056486234,0.0008396331,0.00096762035,0.2796833,-2.2918422e-05,0.07060241,-0.03208864,0.0010425198,-0.006187896,8.203059e-05,-0.030927436,-0.07136861,0.0018317825,0.00020596119,0.06963699
-1.8477696e-05,0.056829814,0.00055902574,0.0015857931,0.23676099,-7.524766e-05,0.08936286,-0.046382673,0.00091060187,-0.005488445,9.835436e-05,-0.04151998,-0.079175614,0.0014518626,0.00013442773,0.07683138
-1.8738903e-05,0.058437318,0.0005379274,0.0014922852,0.2495771,-0.00024711216,0.13669477,-0.040087566,0.0020926099,-0.0055445307,0.0001089919,-0.03436261,-0.06870856,0.001833058,0.00015744391,0.06569519
-2.248776e-05,0.05799824,0.00079567125,0.002129327,0.23479713,-0.00054470985,0.1682894,-0.040541455,0.0027590436,-0.005256711,0.00011612952,-0.03902507,-0.06033203,0.0009812253,0.00026544402,0.049320627
-2.1058315e-05,0.058287024,0.0009936307,0.0018105988,0.251937,-0.00049937674,0.17763352,-0.03581259,0.0031703832,-0.0057822675,0.000103763465,-0.03671767,-0.062802754,0.0013613349,0.0003057164,0.044243425
-2.1813843e-05,0.058960963,0.0011188202,0.0014912814,0.26596308,-0.00036803147,0.11277332,-0.029500397,0.0020665515,-0.0058332128,9.445772e-05,-0.03242647,-0.0563583,0.001235946,0.00033593026,0.048065312
-1.7660917e-05,0.055947408,0.0007891734,0.001368538,0.24815892,-2.5928783e-05,0.08234333,-0.04267367,0.00080871134,-0.005624878,8.459439e-05,-0.041608926,-0.080592714,0.001408328,0.00018311113,0.07081861
-1.8162882e-05,0.057845835,0.0006874486,0.0015655814,0.23910679,-0.00010160232,0.12419639,-0.042871498,0.0013626338,-0.0052717794,9.231633e-05,-0.040699642,-0.07538253,0.0014970404,0.00015613373,0.06782429
-2.1779326e-05,0.05817043,0.00086233014,0.0021583152,0.23812059,-0.00053523225,0.19088174,-0.03996917,0.003193753,-0.0056631835,0.00010942137,-0.040316783,-0.06486903,0.0012894783,0.00028104067,0.045328278
-2.1312919e-05,0.056705516,0.0011477339,0.0022764301,0.2457287,-0.0006933576,0.24336219,-0.03581208,0.004628593,-0.0062465984,9.802415e-05,-0.042587906,-0.06760143,0.0015108956,0.00037863746,0.033326153
-2.1363947e-05,0.054303482,0.0014561656,0.003034702,0.23517042,-0.0008577103,0.32166365,-0.03268485,0.0059986203,-0.0066108285,7.533651e-05,-0.05696403,-0.07455761,0.0014458688,0.00050941616,0.021123616
-2.1040418e-05,0.04385054,0.0015595756,0.0026540172,0.2726395,-0.0015331189,0.3802867,-0.004868597,0.010626754,-0.008089986,5.4024073e-05,-0.049798768,-0.0637753,0.0020250105,0.0007065987,0.010561894
-1.7647038e-05,0.03519171,0.0011120732,0.0011432033,0.3319024,-0.0008369539,0.2402289,0.004928096,0.0062836325,-0.009800305,3.4900084e-05,-0.040971927,-0.063884124,0.0025313147,0.0006859249,0.011030116
-8.790681e-06,0.02326721,0.0005828933,0.00042181267,0.3396449,0.00012855031,0.002249121,-0.015683388,0.00014911921,-0.008636806,2.6827116e-05,-0.046660326,-0.1154538,0.0018826463,0.00029142085,0.04165315
-6.052803e-07,-0.06757563,0.00044313754,0.00095563126,0.22246818,0.00013307082,0.12844878,-0.043146476,7.823592e-05,-0.006097817,2.569618e-05,-0.09681237,-0.23713216,0.001746619,6.345739e-05,0.08657224
-1.6462933e-05,0.040751126,0.0011672436,0.0013122841,0.30404422,-0.0014197604,0.41566014,-0.008028476,0.019099081,-0.0072866697,6.894394e-05,-0.027379418,-0.056210477,0.0058704256,0.0003547324,0.01868068
-2.0736723e-05,0.03906555,0.0020743434,0.0023365584,0.2865962,-0.0019380142,0.35319936,-0.009841693,0.012264234,-0.011622142,7.0032474e-05,-0.04401164,-0.074074075,0.004443897,0.0011109259,0.010436633
-9.714028e-06,0.03432685,0.0005990938,0.00045586535,0.35959706,4.3973752e-05,0.10663318,-0.006863579,0.0018376601,-0.010187764,2.9109147e-05,-0.039008074,-0.09760524,0.0029188185,0.00033802647,0.023872435
-1.1351072e-05,0.02256148,0.00077795424,0.000624627,0.30034688,0.00013806325,-0.009547006,-0.026531266,-0.000103505576,-0.00811905,4.132567e-05,-0.044904895,-0.11122445,0.001994356,0.00025838317,0.06865984
-2.8270283e-06,-0.029290661,0.00039154827,0.0004488542,0.278888,0.00014825942,-0.020578533,-0.032935563,-0.0001757793,-0.006199896,3.823048e-05,-0.043616716,-0.15779126,0.0020376344,3.884831e-05,0.15075499
-1.582402e-05,0.052042335,-0.00021974872,0.0017359272,0.22055581,-0.00027204765,0.19997647,-0.046790864,0.0027077827,-0.004697548,0.00010873452,-0.042857587,-0.078307725,0.0028912937,1.925337e-05,0.07279929
-2.580789e-05,0.043150444,-0.0006442264,0.0018295749,0.2663115,-0.0018967552,0.231892,-0.033239573,0.009604525,-0.0072419797,0.00017485874,-0.025906987,-0.05000305,0.0021962724,0.0003687461,0.03815729
-2.1541164e-05,0.057560824,0.00091456284,0.0016821092,0.26010206,-0.0005262224,0.1484064,-0.036176886,0.0029576,-0.0062276386,0.00011369531,-0.03345876,-0.06224882,0.0015295746,0.0003177316,0.047673207
-1.7533355e-05,0.056848153,0.00081169646,0.0014116556,0.24768363,-5.8795147e-05,0.11184456,-0.040936835,0.001183634,-0.0055109733,8.373189e-05,-0.041179746,-0.07803116,0.0014757978,0.0001879171,0.06490831
-2.1334961e-05,0.05916096,0.0008932113,0.0022803266,0.22836891,-0.00037407276,0.1806527,-0.043033388,0.0024238059,-0.0054365476,9.8976016e-05,-0.0457121,-0.06967088,0.0012298453,0.00025850922,0.04787524
-2.15275e-05,0.05575837,0.001193836,0.0016005283,0.27449358,-0.00065267144,0.18051143,-0.02611365,0.00413125,-0.006561144,9.932879e-05,-0.030817542,-0.057266254,0.0017074543,0.00039059564,0.037243932
-1.958719e-05,0.0579031,0.0010552325,0.001183978,0.27755404,-0.00016892028,0.07930373,-0.031193728,0.0013608149,-0.006406009,8.5723776e-05,-0.032748062,-0.06585536,0.0015455267,0.0003110155,0.054865398
-1.4673686e-05,0.047831196,0.0006338256,0.0010682056,0.25363675,8.675326e-05,0.048979405,-0.04237503,0.00034756158,-0.005666841,7.664786e-05,-0.040321723,-0.0913077,0.0015905757,0.00011482726,0.09147713
-1.8277839e-05,0.05750527,0.00047434098,0.0016916154,0.22916964,-0.000121059595,0.12665354,-0.045933213,0.0013409223,-0.0049717813,0.00010086484,-0.041205447,-0.07509899,0.0014891352,0.00010815195,0.07454914
-2.2750786e-05,0.05506515,0.00065866346,0.0020189956,0.24638402,-0.0007814246,0.19245094,-0.036748685,0.0041370927,-0.0056800744,0.0001286248,-0.033592276,-0.056932736,0.001329418,0.00027988598,0.045967534
-2.1594837e-05,0.057929795,0.0009913329,0.0022370983,0.23902239,-0.00059894705,0.21107692,-0.039805368,0.0036277173,-0.005754772,0.00010538691,-0.042445656,-0.06634984,0.001207477,0.0003239645,0.039793365
-2.15235e-05,0.056802183,0.001268195,0.0019002553,0.2587299,-0.0005905657,0.20225908,-0.028105855,0.0037896025,-0.0061308383,8.618578e-05,-0.038814176,-0.060909938,0.0013479977,0.00040482532,0.033183504
-2.0847654e-05,0.055514496,0.001262955,0.0015614725,0.27151018,-0.00038254083,0.14286718,-0.026838126,0.002510366,-0.00675489,7.7783545e-05,-0.03811091,-0.06488359,0.0015237391,0.00042640822,0.036786012
-1.6263875e-05,0.052858416,0.0009151515,0.00075612165,0.29961413,3.7407375e-05,0.025407514,-0.028025955,0.0005232315,-0.006816939,7.056092e-05,-0.029943198,-0.07375051,0.0017846887,0.00025249837,0.06942724
-1.2176212e-05,0.030006683,0.0003894889,0.0012519012,0.22871673,0.00012538607,0.05271493,-0.050054885,0.00014873466,-0.005374558,7.072855e-05,-0.050823238,-0.11398115,0.0015866979,3.1648084e-05,0.10976427
-1.887788e-05,0.056686394,0.00037443955,0.0018162474,0.23631448,-0.00038675978,0.1994183,-0.041546132,0.0032428792,-0.005310019,0.00011210189,-0.037788987,-0.069354564,0.0020110707,0.00013944066,0.05831211
-2.5273901e-05,0.048673853,0.0010096907,0.0020916625,0.26406127,-0.0014670547,0.21581994,-0.027021753,0.0067490083,-0.006509303,0.0001390987,-0.028363045,-0.04787723,0.0010329626,0.0004807876,0.033111263
-1.9374938e-05,0.058623314,0.001036003,0.0014269012,0.2651456,-0.00027235987,0.13076511,-0.03536038,0.0021087483,-0.0061733634,9.200263e-05,-0.036209866,-0.06894617,0.0015874153,0.00030391084,0.04925893
-1.9564486e-05,0.057922967,0.00085177645,0.0015964448,0.24358825,-0.00012291777,0.110682875,-0.04003008,0.0012795337,-0.0054820594,8.790977e-05,-0.040467415,-0.07141113,0.0014076334,0.00021006206,0.062363256
-1.9828296e-05,0.059066188,0.0008489582,0.0015387965,0.25179866,-0.00019889271,0.11592084,-0.038456403,0.0016247187,-0.005773457,9.6327756e-05,-0.036881234,-0.06867469,0.0014977037,0.00022904189,0.05966811
-1.8410872e-05,0.05717278,0.00067988376,0.0024836923,0.21802051,-0.00027223423,0.22457059,-0.051522907,0.0026094187,-0.0056737317,9.3874965e-05,-0.05590102,-0.08961259,0.0015754906,0.00019809567,0.047803607
-2.163887e-05,0.05322397,0.0015118516,0.008543995,0.17601562,-0.0018407793,0.54325205,-0.055125445,0.014074618,-0.006274742,7.9109814e-05,-0.10019455,-0.097944826,0.0011273172,0.00056028605,0.010965224
-2.134817e-05,0.02219385,0.0010091261,0.00337771,0.39837176,-0.013129876,0.5550811,0.03626621,0.072519556,-0.010592744,4.5367953e-05,-0.010198914,-0.02739212,0.0013252954,0.0007322688,0.0014398926
-1.2423803e-05,0.020257466,0.00067440793,0.0012779025,0.3028677,-0.00054767146,0.31833032,0.005568154,0.003550296,-0.008891711,1.0758161e-05,-0.10730945,-0.10332584,0.001866938,0.0008003529,0.004118414
-4.5169922e-06,0.022755872,0.000113865295,0.0010573264,0.35849234,0.00012534618,0.20763624,-0.0034248333,0.00096933276,-0.0090546245,1.11660975e-05,-0.07741376,-0.16870691,0.0010922345,0.00013577646,0.010048263
-8.471556e-06,0.024128582,0.0004463293,0.00092606613,0.29767045,-8.1179656e-05,0.3608684,-0.0023541653,0.003761412,-0.007962429,1.3082877e-05,-0.088493206,-0.11479224,0.0034582529,0.0003609505,0.007928148
-7.817812e-06,0.027750261,0.00040918082,0.0008134924,0.32217443,-0.00015420125,0.3820509,0.003398214,0.0056625986,-0.009452919,1.5378293e-05,-0.07019232,-0.102601804,0.0039324253,0.00032918382,0.007198581
-7.827772e-06,0.026724411,0.00039305756,0.00063703314,0.33620408,-3.5794033e-05,0.30839914,0.0005164633,0.0040029963,-0.009710762,1.5906959e-05,-0.06300531,-0.10891527,0.004224946,0.00031129314,0.009628415
-5.612849e-06,0.022900246,0.00027871467,0.00033366235,0.3607094,0.00013710187,0.095593415,-0.006854953,0.00082761684,-0.008595218,1.7252542e-05,-0.04932418,-0.12276077,0.002784344,0.00018797662,0.024299337
-1.9773952e-06,-0.03151201,0.00036179618,0.00047089663,0.28070566,0.00013521271,0.07453884,-0.027214138,8.440439e-05,-0.006428133,2.2579487e-05,-0.0660102,-0.18732862,0.0022637455,0.000101734295,0.07100691
-6.699262e-06,0.029874397,0.0005846169,0.00062512094,0.28180528,0.00012944547,0.19431898,-0.02551261,0.0017845674,-0.00619618,4.1655145e-05,-0.042868078,-0.1092406,0.0035288415,0.00012016245,0.05981715
-1.4744557e-05,0.04726634,0.0011722295,0.0011835521,0.28117302,-0.00031048642,0.18401642,-0.025080504,0.0032742396,-0.008036034,6.571339e-05,-0.04158354,-0.08048993,0.0042786472,0.00042630656,0.03313288
-1.2795439e-05,0.047253054,0.0007930318,0.00085181557,0.29895976,2.2700939e-05,0.09959143,-0.028625432,0.0016091325,-0.008956698,7.072851e-05,-0.034024443,-0.09771029,0.0035669105,0.00023798735,0.05826191
-1.3421321e-05,0.047789536,0.00066587754,0.001003087,0.2705057,6.859046e-05,0.07772417,-0.037708282,0.00080766727,-0.007031302,7.548462e-05,-0.038271844,-0.09765241,0.0025609052,0.000153493,0.076845385
-1.6042039e-05,0.05533817,0.0004455713,0.0013907496,0.25354788,-0.00010892025,0.13844353,-0.041498605,0.0018921564,-0.0064465567,9.807007e-05,-0.03741952,-0.085080765,0.0026938368,0.00012986333,0.06924178
-2.0891128e-05,0.055911947,0.0005064514,0.0024685806,0.23357923,-0.0006947679,0.2512138,-0.043887783,0.0048429514,-0.006280108,0.000117907126,-0.043058816,-0.07351798,0.0020790529,0.00025139144,0.04169543
-2.2906566e-05,0.05060144,0.0013892833,0.0022168993,0.2703682,-0.0013622753,0.2834043,-0.021741813,0.008467738,-0.0072012926,0.00010547614,-0.032292448,-0.055954795,0.0019299487,0.0005160697,0.02433999
-2.0540187e-05,0.052768823,0.0013895349,0.0015788961,0.2815873,-0.00057750277,0.18838799,-0.021155147,0.0038483446,-0.007273657,7.2844225e-05,-0.03793891,-0.06406781,0.001734411,0.00051221583,0.02745054
-1.4865481e-05,0.04497161,0.0010226131,0.0013199162,0.2628869,-2.0684132e-05,0.15123932,-0.034447867,0.0014693284,-0.0071457746,5.5708668e-05,-0.053364374,-0.1003692,0.0019264278,0.00031755725,0.042443816
-1.5815353e-05,0.046702426,0.0010951773,0.0026026801,0.22445175,-0.00023314467,0.31605864,-0.043358307,0.003848547,-0.007149551,5.9731545e-05,-0.07261058,-0.11150224,0.0022903155,0.00034244155,0.028793886
-2.0154816e-05,0.039366107,0.0015137641,0.0023018967,0.29950276,-0.0021142222,0.4240148,0.0035841982,0.017204024,-0.009548083,5.9295744e-05,-0.036018126,-0.058872454,0.0037451568,0.000687061,0.00914117
-1.668726e-05,0.035455566,0.0011363223,0.0010484715,0.33560863,-0.0008238103,0.25476357,0.003623346,0.0068397503,-0.010348863,3.703996e-05,-0.039288323,-0.06777095,0.0033309846,0.0006913636,0.01096152
-6.394887e-06,0.013287475,0.00046780767,0.0004709548,0.32322326,0.00013573705,0.04103555,-0.018554077,0.00023443249,-0.0082186125,2.2571858e-05,-0.059427638,-0.14339924,0.001823497,0.00023929866,0.038392987
-5.5631335e-06,0.00076370285,0.00052095077,0.00054657145,0.28940436,0.00016128797,0.050132632,-0.028361352,0.00013440877,-0.0073044496,3.436177e-05,-0.05134954,-0.14997637,0.002105387,0.00012877145,0.07777117
-1.064458e-05,0.04281717,0.0006373206,0.0010609084,0.26207885,5.6857665e-05,0.1650849,-0.03582568,0.0017267102,-0.006924659,6.562398e-05,-0.04368133,-0.1058977,0.0036917934,0.00014105614,0.064169936
-1.7583849e-05,0.05238085,0.0007890495,0.001227037,0.2862491,-0.00041524446,0.17675391,-0.029086594,0.004301061,-0.008217884,9.968331e-05,-0.029477289,-0.07321886,0.0040522884,0.00029010492,0.046824504
-1.7618153e-05,0.055675175,0.0007258653,0.0014764352,0.26565707,-0.00024399722,0.15318611,-0.03813481,0.0026308245,-0.007494569,9.848004e-05,-0.0365107,-0.08277087,0.0029540113,0.00024673442,0.053261288
-1.6957838e-05,0.05635375,0.0008201511,0.0011177575,0.2782146,-0.00012106778,0.113076985,-0.032871477,0.0018800768,-0.0068217353,8.928538e-05,-0.031650823,-0.074742295,0.0024370707,0.00022454854,0.060519803
-1.8825962e-05,0.058092374,0.0006864261,0.0015200473,0.25231653,-0.00017654657,0.116827056,-0.04124511,0.0016382817,-0.0061800745,0.00010079839,-0.037404876,-0.07568828,0.0018480212,0.00019734868,0.06352486
-1.8611361e-05,0.058408793,0.00067945645,0.0014474675,0.2566424,-0.00022745416,0.1339048,-0.038702186,0.0020946534,-0.006004331,0.00010320514,-0.034552116,-0.07122403,0.0019655325,0.00019422239,0.06145478
-2.1057736e-05,0.05904221,0.00081066735,0.0017575219,0.2469994,-0.0003686712,0.14299922,-0.038942356,0.002291438,-0.005647756,0.00010811691,-0.03641725,-0.06421468,0.0013785358,0.0002451708,0.054386906
-2.0248672e-05,0.059153277,0.0008716885,0.0015418237,0.25677893,-0.00032226695,0.13439895,-0.036722563,0.002233828,-0.005803461,0.00010352512,-0.03439902,-0.06454915,0.0015121507,0.0002532402,0.054475818
-1.996258e-05,0.05943995,0.00085139624,0.0017570603,0.24081318,-0.00022998708,0.1373515,-0.04168591,0.0017652203,-0.005460199,9.637261e-05,-0.041168284,-0.07053078,0.0013006496,0.00022778795,0.056314763
-1.995279e-05,0.05843306,0.00091983454,0.0025320163,0.22267595,-0.000395004,0.23496717,-0.04639134,0.0031179083,-0.0055892323,9.246718e-05,-0.053008433,-0.07926056,0.0013442232,0.00026718515,0.0410051
-2.299059e-05,0.05155213,0.001520185,0.0024755662,0.26295686,-0.0013043974,0.29900408,-0.017924927,0.007894922,-0.0068212207,8.624272e-05,-0.03842157,-0.0561007,0.0014478764,0.0005498375,0.020162087
-2.0480118e-05,0.048999168,0.0015128583,0.0020709787,0.27128822,-0.00082681235,0.2719381,-0.017915951,0.0056029945,-0.007660137,6.125563e-05,-0.04832966,-0.06935169,0.0017905334,0.0006241855,0.017967064
-1.5720992e-05,0.04268146,0.0010501822,0.00090541097,0.31602982,-0.0001916292,0.14479919,-0.012447943,0.0025767414,-0.008518162,4.404288e-05,-0.03971803,-0.076801285,0.0022354368,0.0004625285,0.025959283
-1.23396585e-05,0.03361611,0.0008183416,0.00064159045,0.30395275,0.00012216353,0.010327798,-0.026519008,0.00013628327,-0.007997269,4.7770787e-05,-0.040185712,-0.10214058,0.0019908512,0.00026112146,0.06536906
-5.809501e-06,-0.003066545,0.00047101258,0.0007305703,0.25766385,0.0001630724,0.030449161,-0.039767396,-2.0440117e-05,-0.006378163,4.7602603e-05,-0.050932195,-0.14842944,0.0020983717,5.4828346e-05,0.11657175
-1.7672492e-05,0.054985575,0.0002987556,0.0015304601,0.24981031,-0.00036499128,0.19673088,-0.038388338,0.0036380638,-0.005868121,0.00011010932,-0.034282908,-0.07115841,0.0030078993,0.00013252291,0.06013097
-2.4556117e-05,0.048561685,0.00023730678,0.0021331825,0.25875008,-0.0014483775,0.23290794,-0.035228185,0.0075199665,-0.007280156,0.00015178105,-0.030447872,-0.056909986,0.0021469798,0.00039833062,0.036629003
-1.9745705e-05,0.057363972,0.0010236623,0.0015610483,0.26650548,-0.0004121558,0.1675203,-0.033683587,0.00313964,-0.006590951,9.759241e-05,-0.034852516,-0.0680632,0.0019726083,0.00032192777,0.04418201
-2.0068372e-05,0.05824765,0.0010106616,0.0014483278,0.2619212,-0.00021090837,0.1121299,-0.03379776,0.001694894,-0.006091,8.786591e-05,-0.036045946,-0.06666591,0.0015173478,0.00028697232,0.053043753
-1.7591197e-05,0.056271408,0.0007999841,0.0014913187,0.24840416,-7.926915e-05,0.11723058,-0.042211067,0.0012968956,-0.005988897,8.615631e-05,-0.04251612,-0.08261305,0.0016613229,0.0002012478,0.062381066
-1.9013443e-05,0.05827988,0.0008580888,0.0015779635,0.25307727,-0.00023736081,0.15167136,-0.037703786,0.0022328545,-0.0059856544,9.388183e-05,-0.037855152,-0.07168553,0.0017540251,0.00023563091,0.05374198
-2.1211405e-05,0.05796905,0.0010153594,0.0015172276,0.26759154,-0.00042659845,0.13525346,-0.03186292,0.0026657113,-0.0063166753,0.00010333889,-0.031686865,-0.06066035,0.0016204005,0.00031866002,0.048304927
-1.7762437e-05,0.057185788,0.00079373596,0.0016021268,0.24491845,-0.00012199103,0.13478321,-0.04353872,0.0015456636,-0.0059140096,8.9104375e-05,-0.043705523,-0.08267276,0.0016532721,0.00020531839,0.059127197
-1.996981e-05,0.058495548,0.0009544446,0.00175945,0.24910839,-0.0003288515,0.17353909,-0.03652267,0.0026660336,-0.005839599,9.307992e-05,-0.03914406,-0.068254374,0.0015859866,0.00026842553,0.047480676
-2.1672422e-05,0.056997452,0.0011638801,0.0016819963,0.2665737,-0.00053372805,0.16092521,-0.029995589,0.0032345941,-0.006507459,9.80631e-05,-0.033937357,-0.060797658,0.0015523679,0.0003805181,0.040266607
-1.7878223e-05,0.05703726,0.00096629205,0.0011807572,0.27279782,-0.000107245876,0.096745566,-0.034115974,0.0014033848,-0.0064080553,8.2781e-05,-0.03536537,-0.073892884,0.0017655671,0.00026645334,0.057074226
-1.7420587e-05,0.05564913,0.00073624967,0.0012582715,0.2541366,-1.2625157e-05,0.07628028,-0.04028556,0.00081503286,-0.0057707843,8.591212e-05,-0.037900656,-0.07839893,0.0015937588,0.00016687474,0.07519525
-1.8294013e-05,0.05826059,0.0005898561,0.001469095,0.24574243,-0.00012106629,0.108606845,-0.042423587,0.0013430069,-0.0055374675,0.000100428006,-0.037291784,-0.07422921,0.0016525569,0.00014680425,0.07199363
-2.0710891e-05,0.058602888,0.00063628075,0.0016837629,0.24700159,-0.00037847515,0.14231327,-0.039548855,0.0023706576,-0.0055056475,0.000115222014,-0.034483895,-0.06327291,0.0014870497,0.00020440368,0.058955874
-2.1271133e-05,0.05902898,0.0008117884,0.001580762,0.25369146,-0.00038835994,0.12645173,-0.036647953,0.0022179033,-0.005481168,0.00011242439,-0.032679312,-0.05917601,0.001282543,0.00024474808,0.056816723
-1.9770323e-05,0.059863176,0.00075970165,0.0016334197,0.24040154,-0.00019436514,0.116804436,-0.04244623,0.0014567494,-0.005154784,0.00010038019,-0.03915928,-0.068507925,0.0012018856,0.00019332723,0.06361961
-2.0637755e-05,0.060154647,0.0008297747,0.0016524032,0.2435704,-0.00026794508,0.12604277,-0.039009277,0.0017734085,-0.005114811,0.00010224842,-0.03663027,-0.06252552,0.0011810515,0.00021769549,0.059339877
-2.0945308e-05,0.059766173,0.00085579575,0.0019064415,0.23665726,-0.00032041306,0.14693652,-0.041791897,0.0020051224,-0.0052531855,0.000102317754,-0.041010115,-0.0662997,0.0011165616,0.00023988048,0.05379452
-2.0749118e-05,0.059281386,0.0009915583,0.0017053076,0.25118962,-0.00036504684,0.15417337,-0.035869617,0.002456835,-0.005607944,9.7571094e-05,-0.037126157,-0.06332414,0.0013079577,0.00028305355,0.048364773
-2.1255299e-05,0.05931148,0.0010496504,0.0014195901,0.26592204,-0.00030399207,0.10285966,-0.03165794,0.0018217181,-0.0058542946,9.621994e-05,-0.032273885,-0.058756165,0.0013020467,0.0003068073,0.052605618
-1.759857e-05,0.05723806,0.0007409097,0.0011181321,0.26015547,-1.8003992e-06,0.050264586,-0.03946058,0.0005933344,-0.00555876,8.869607e-05,-0.034731917,-0.07400431,0.0014404209,0.000163655,0.08165732
-1.7869397e-05,0.058277257,0.00052758533,0.0009903249,0.25724587,1.3809533e-05,0.02380992,-0.03875506,0.0003532665,-0.004807849,0.00010020451,-0.028679516,-0.06396658,0.001355336,9.198282e-05,0.10746877
-1.8340304e-05,0.056131843,0.00020060918,0.0011592258,0.23318596,-5.0580467e-05,0.029404327,-0.043258265,0.00034927155,-0.0038837283,0.00011453109,-0.030744074,-0.05967861,0.0010558143,2.668472e-05,0.12081504
-1.840213e-05,0.052110203,-5.9523856e-05,0.0016326214,0.2011545,-0.00017348379,0.08734705,-0.048031695,0.0007389581,-0.0030364897,0.00011813463,-0.039211784,-0.058664534,0.0006524262,-6.1059577e-06,0.10532966
-2.1678836e-05,0.051554337,0.00025295094,0.0023766782,0.19228764,-0.00052803016,0.16880386,-0.046704378,0.0019050324,-0.0029649667,0.00012739233,-0.044691607,-0.050744534,-5.5477896e-05,0.00010978507,0.06470103
-2.3572366e-05,0.054251242,0.00096844474,0.0023066679,0.22248678,-0.0008048112,0.19018553,-0.03598951,0.003194062,-0.0040212297,0.00011813257,-0.03966598,-0.047384128,-6.108551e-07,0.00030767117,0.04218304
-2.245369e-05,0.05918036,0.0011906791,0.0018694383,0.24402261,-0.0004759725,0.14331059,-0.032722946,0.0022306386,-0.0049329586,9.310291e-05,-0.03960971,-0.054390986,0.00060858123,0.00035745202,0.041838348
-2.0841719e-05,0.05914873,0.001049383,0.0017189584,0.24451171,-0.0002115244,0.11322896,-0.037375994,0.0014100272,-0.0053815497,8.517678e-05,-0.042028204,-0.065833226,0.0010593147,0.00029054008,0.051878717
-2.0471418e-05,0.058835313,0.0009132982,0.0017043201,0.24204001,-0.00017447192,0.113637626,-0.03954616,0.0013798053,-0.0054356405,8.973914e-05,-0.040794823,-0.06838115,0.0012838283,0.00023690559,0.058515213
-1.8783003e-05,0.056597453,0.00080306083,0.0026209597,0.21281762,-0.00023614462,0.22253668,-0.052039463,0.0023256352,-0.0055070426,8.693687e-05,-0.060039252,-0.09012364,0.001377401,0.00021511188,0.046364814
-2.2623537e-05,0.050035156,0.0014753327,0.0020679461,0.27907613,-0.0013524012,0.28585556,-0.013209181,0.008569778,-0.0070498106,8.851068e-05,-0.03159746,-0.051974908,0.0017747185,0.0005285037,0.021040782
-2.0603771e-05,0.050892204,0.0014516859,0.0015950928,0.28482696,-0.0006193029,0.18802588,-0.019110398,0.0038918965,-0.0076815444,6.8212255e-05,-0.03973105,-0.06545843,0.0017697872,0.0005781461,0.024504624
-1.2467056e-05,0.040064067,0.000855744,0.0006990899,0.30284867,9.22141e-05,0.055145327,-0.025522957,0.000589573,-0.007592556,4.828278e-05,-0.04050855,-0.09706473,0.0019523477,0.00027581173,0.05413774
-1.3596958e-05,0.037122115,0.00065102975,0.0012317711,0.2467684,9.9462704e-05,0.07940821,-0.042954467,0.00046694156,-0.0065302746,6.626041e-05,-0.04937978,-0.10834922,0.0019228109,0.00013424494,0.07937921
-1.6371174e-05,0.055691924,0.00064147625,0.0011475289,0.2739587,-0.00013947148,0.13139942,-0.03411597,0.0022578337,-0.00683855,9.518907e-05,-0.03115748,-0.07638781,0.002931423,0.00017959533,0.0642074
-2.0623715e-05,0.057048995,0.00051902997,0.0017634968,0.25261435,-0.00046533172,0.15931228,-0.040453367,0.003027723,-0.0065211146,0.00011990444,-0.034897603,-0.069381714,0.002168385,0.00023024123,0.054116964
-1.9055886e-05,0.05766595,0.0007077784,0.0018354085,0.24688123,-0.0003715028,0.19190842,-0.041017544,0.0031419843,-0.0062159747,0.000104163024,-0.03967,-0.075138524,0.002078555,0.00022999737,0.049689602
-2.2398237e-05,0.056415547,0.0011784838,0.0016728,0.26954222,-0.0006455333,0.16544504,-0.026467312,0.0036783747,-0.00630437,0.00010195331,-0.030854933,-0.054766253,0.0014676395,0.00038356308,0.039284546
-1.8775103e-05,0.05763352,0.0009796255,0.0016025722,0.2531759,-0.00019794844,0.13956772,-0.039870776,0.0018468457,-0.0062418007,8.707802e-05,-0.04249591,-0.07814157,0.0016156454,0.00028101288,0.050382286
-1.7878696e-05,0.056358498,0.00093735324,0.0015211768,0.25327206,-0.00014662564,0.15369122,-0.03728328,0.0019558123,-0.006075187,8.037497e-05,-0.041947674,-0.07789654,0.0017325192,0.0002480207,0.051256195
-1.8127403e-05,0.051328246,0.00084984873,0.009838817,0.14801925,-0.00078899285,0.50969195,-0.08524021,0.0072354022,-0.0059150844,7.48054e-05,-0.13911824,-0.14172563,0.0011969465,0.0003359426,0.017174885
-1.994856e-05,0.021024,0.0010683013,0.0046018376,0.37245423,-0.016362522,0.6573681,0.034792665,0.111157924,-0.010567412,4.507165e-05,-0.014286849,-0.03489314,0.0029783181,0.00065422343,0.0010439754
-1.6642281e-05,0.016092516,0.0007449294,0.0021633678,0.3287027,-0.0029049846,0.44810873,0.02809077,0.01336254,-0.010698298,9.719969e-06,-0.08535763,-0.06225954,0.0020657864,0.0011982747,0.0012794429
-2.4909143e-06,0.019839022,2.169783e-05,0.00069268997,0.41106454,9.828983e-05,0.16188578,0.005107004,0.0004591353,-0.006857865,4.1363114e-06,-0.08581839,-0.15241891,0.00077426236,6.0968618e-05,0.0044945665
-8.915582e-06,0.026097646,0.00024886607,0.00035916542,0.420703,2.2999284e-05,0.05711072,0.0070259664,0.0014622858,-0.008317952,1.2203024e-05,-0.037332986,-0.06941221,0.0024178515,0.00025986604,0.01233042
-9.17544e-08,-0.06951923,0.00028173169,0.0003743668,0.26464936,0.000101892736,0.019850321,-0.029071141,-8.513898e-05,-0.0046351887,1.6779011e-05,-0.07192884,-0.19069196,0.0014555766,7.385584e-05,0.09346925
-5.5319783e-06,0.030163135,0.0005111069,0.0003530445,0.2574113,-5.113869e-05,0.29481104,-0.021356314,0.004833666,-0.0019146329,3.5638885e-05,-0.03286796,-0.06335668,0.00311974,3.547345e-05,0.07072661
-1.5607986e-05,0.03681853,0.0017395832,0.0009626595,0.27459615,-0.0008284513,0.13244246,-0.013434415,0.0025258474,-0.0060432064,5.1154944e-05,-0.05289702,-0.055571917,0.003280467,0.00093954615,0.018883059
-1.2986706e-05,0.046218783,0.0006779659,0.0011270421,0.27645287,-7.3943506e-06,0.109460436,-0.037315138,0.0015082563,-0.009355827,7.8749305e-05,-0.042303428,-0.11252177,0.003343663,0.0002261212,0.059740417
-1.5961088e-05,0.053648453,0.0007926057,0.0010788182,0.2731383,-1.9017709e-05,0.10013837,-0.0338234,0.001332863,-0.006689085,7.939149e-05,-0.03476763,-0.080726765,0.002226039,0.00019924487,0.06549201
-1.893583e-05,0.057806473,0.00062170305,0.0013770192,0.26443797,-0.00023621082,0.1136677,-0.038177345,0.0019928496,-0.0066414503,0.00010835933,-0.03238249,-0.07217286,0.0023149503,0.00020446003,0.063581854
-1.7557491e-05,0.057515744,0.00050002814,0.0015325865,0.24688226,-0.00016039438,0.13492535,-0.04327331,0.0018024502,-0.0059358547,0.00010274106,-0.038324796,-0.07933988,0.0020707666,0.00014443345,0.06722496
-2.1380283e-05,0.05808745,0.0007962786,0.0018356284,0.24762362,-0.00048764615,0.16875044,-0.037265584,0.0030119794,-0.005670252,0.00011224083,-0.035229113,-0.061739177,0.0014671267,0.00025460325,0.050326053
-2.1685408e-05,0.057778195,0.0009867157,0.0016522123,0.26118997,-0.0005204505,0.1506353,-0.033480167,0.0029954077,-0.006031985,0.000109463566,-0.03255924,-0.059219062,0.0014291161,0.00031862562,0.046778608
-1.8866007e-05,0.058592163,0.00088157126,0.001595832,0.24623363,-0.00015814722,0.128776,-0.04121089,0.0015605661,-0.0056499653,8.9504545e-05,-0.041734364,-0.07495074,0.0014101818,0.00022893425,0.057125054
-2.0482994e-05,0.05937445,0.00095503905,0.0015202975,0.2568032,-0.00026627744,0.124256186,-0.034609333,0.0019387478,-0.005697851,9.512498e-05,-0.034833048,-0.06297024,0.0014243373,0.0002627902,0.054254908
-1.9555677e-05,0.05881372,0.0008440619,0.0017159547,0.24379891,-0.00020830536,0.13350579,-0.04213104,0.0017120756,-0.005762235,9.52938e-05,-0.041605845,-0.074121214,0.0014315994,0.00023201267,0.05649715
-1.9358482e-05,0.058762126,0.0009173044,0.0014814008,0.2585201,-0.00024993916,0.1395112,-0.035611525,0.0021597522,-0.005905982,9.389455e-05,-0.03567335,-0.06767049,0.0016342414,0.00025201737,0.0533822
-2.065075e-05,0.058908757,0.0009474199,0.0018659709,0.24445637,-0.000321071,0.15315157,-0.039844144,0.0022103116,-0.005865646,9.692991e-05,-0.04120699,-0.06983022,0.0013794951,0.00027892203,0.04936543
-1.7983972e-05,0.05515655,0.0009062387,0.0039419555,0.19566342,-0.00044454823,0.35290647,-0.058823407,0.0044595418,-0.0058674905,8.116268e-05,-0.07980073,-0.10614202,0.001574398,0.00027829432,0.029971773
-2.3702556e-05,0.036710378,0.0016079796,0.0028596146,0.3117254,-0.0041941875,0.43500477,0.019984227,0.024739519,-0.008313501,6.790879e-05,-0.025483236,-0.03928581,0.0016895828,0.0007401619,0.006642242
-1.8582608e-05,0.036369275,0.0012795225,0.0012830145,0.31958622,-0.0009413935,0.23058954,0.0032730787,0.005431587,-0.009202577,3.568988e-05,-0.046837088,-0.06426803,0.0021013818,0.0008138731,0.0102887945
-6.2516224e-06,0.012355018,0.0004284787,0.0005009391,0.3285677,0.00013805102,0.02595122,-0.017624207,0.00017517441,-0.008206261,2.2330258e-05,-0.05716527,-0.14377446,0.0015055166,0.00022026265,0.04050951
-7.3586493e-06,0.0012071221,0.0006759968,0.0017488189,0.21225874,0.0001251097,0.2562086,-0.047327504,0.0012260006,-0.0066275983,3.9273647e-05,-0.091955304,-0.17222582,0.002382065,0.00014015636,0.050467346
-1.5722513e-05,0.038496543,0.0012180392,0.0016581988,0.2994773,-0.0014254291,0.45978254,-0.004471008,0.01957836,-0.009312837,5.5681667e-05,-0.036445666,-0.0686057,0.006320948,0.00045755805,0.012271194
-1.7665398e-05,0.035261337,0.0017057399,0.004084328,0.25414157,-0.0019935742,0.52999556,-0.0055673164,0.017489249,-0.011551015,4.1983843e-05,-0.07538873,-0.096478544,0.005284377,0.0009962925,0.0050929277
-1.0739199e-05,0.021732632,0.0004270064,0.0010111827,0.36578947,-0.0008966956,0.4704868,0.0165706,0.0146366125,-0.014161111,1.5737483e-05,-0.053670973,-0.08536235,0.004651211,0.0004703736,0.0029934458
-1.0462125e-05,0.021300523,0.00033886943,0.00055805536,0.38719666,-0.0002725724,0.18006763,0.012641038,0.0032783544,-0.010489029,1.038946e-05,-0.059325453,-0.079705924,0.0027106628,0.00047382913,0.0051904144
-7.4359906e-07,-0.052963924,0.000102051374,0.00037738765,0.29772857,7.71494e-05,0.08930407,-0.020091115,6.27874e-05,-0.005280616,9.495418e-06,-0.09838856,-0.2440064,0.0013339932,7.644193e-05,0.03377337
-6.7891224e-06,0.034209922,0.00037530038,0.00025447193,0.379583,0.00015137334,0.13878678,-0.006507787,0.0022826565,-0.008049377,2.9121135e-05,-0.024725927,-0.08583208,0.0036339152,0.00013351478,0.041461803
-6.255474e-06,0.021504167,0.00039042206,0.0003391347,0.32204005,0.00011874397,-0.037599627,-0.014951056,-0.00010738179,-0.005752197,1.968832e-05,-0.05491276,-0.100064,0.0020575312,0.0002561896,0.041742407
-1.524683e-06,-0.0360499,0.00031806948,0.00047904823,0.25601435,0.00014203772,0.028888091,-0.033805408,-6.187866e-05,-0.0049040886,3.6041187e-05,-0.04594639,-0.15425324,0.002031294,6.4735054e-06,0.1594745
-1.991331e-05,0.045207124,-0.0009973772,0.0030644159,0.19605967,-0.001172133,0.33471513,-0.052593164,0.0072540804,-0.0043028444,0.0001288252,-0.05635161,-0.06979359,0.0024906502,9.590748e-05,0.03965976
-2.660376e-05,0.03735763,0.0008362077,0.003109546,0.26616395,-0.003732285,0.4129854,-0.024131166,0.023580385,-0.010085502,0.00014769472,-0.03206768,-0.059126228,0.0026805855,0.00089116587,0.015089935
-2.1313741e-05,0.044044048,0.0015905894,0.0019329209,0.29623038,-0.0014621258,0.3018841,-0.0022122057,0.008788808,-0.008096378,5.9679576e-05,-0.03847911,-0.055673335,0.0018606246,0.0007316179,0.012428705
-1.4724339e-05,0.038458563,0.0009658592,0.00078088656,0.32315964,-9.054993e-05,0.0987934,-0.01205913,0.0015987677,-0.008741636,3.758341e-05,-0.04238296,-0.08266669,0.0020679235,0.0004649635,0.027306031
-8.921718e-06,0.009610943,0.0006898861,0.0008170153,0.26886386,0.00015123197,0.050223418,-0.034744006,0.000100394216,-0.007382608,4.149646e-05,-0.057085313,-0.13900565,0.0019020893,0.00017197615,0.073946476
-9.789991e-06,0.036976524,0.00061990967,0.0007738927,0.27960968,0.00013412267,0.09743456,-0.03235974,0.0008423997,-0.00709702,5.8812926e-05,-0.039296657,-0.10932819,0.0028400628,0.00012855837,0.077258
-1.8939223e-05,0.05487306,0.00054505264,0.0015199512,0.26490295,-0.00043996333,0.1690141,-0.036742494,0.0035648276,-0.0072894143,0.00011280124,-0.032846,-0.072918035,0.003359344,0.00023987773,0.052510493
-1.8427821e-05,0.056202617,0.0005631735,0.0014890755,0.2655802,-0.00034506535,0.16270179,-0.037537917,0.0031842608,-0.007222778,0.00010962374,-0.033268735,-0.076035544,0.0029583315,0.0002210425,0.054733183
-1.9648796e-05,0.058153443,0.00084518874,0.0015095129,0.26123238,-0.00029887853,0.1405916,-0.035996184,0.0024046288,-0.006341705,0.000101115715,-0.034228012,-0.06860929,0.0019233016,0.00025345362,0.053899024
-1.943616e-05,0.05848863,0.00082136854,0.0015848301,0.25542113,-0.00027913396,0.1431473,-0.038684342,0.002258211,-0.0061849034,0.00010075183,-0.036704455,-0.0714448,0.0018083669,0.00024403773,0.054378256
-1.9432828e-05,0.058670495,0.0008828049,0.0016146711,0.2524184,-0.00025986432,0.14807187,-0.038217854,0.002196957,-0.0059534954,9.5626885e-05,-0.03810635,-0.07079902,0.0016415126,0.00024789185,0.052932553
-2.0458498e-05,0.058614623,0.0009828425,0.0016818896,0.25492632,-0.00034826907,0.15286882,-0.036016203,0.0024863896,-0.0060487506,9.695361e-05,-0.03720085,-0.06675448,0.0015397619,0.00029140987,0.048172247
-1.98965e-05,0.058761448,0.0009968093,0.0011900971,0.27824804,-0.00023256258,0.09229155,-0.030446049,0.0017496087,-0.006242506,9.450114e-05,-0.029593186,-0.06146607,0.0016388182,0.00028645893,0.05619271
-1.7454762e-05,0.057345476,0.0006813197,0.0009263021,0.27082324,3.2094627e-05,0.017172607,-0.037305083,0.0003220602,-0.005599296,9.181868e-05,-0.029765967,-0.070190094,0.0014832836,0.00014260177,0.0958235
-1.4898114e-05,0.04774282,0.00025222907,0.0012653182,0.2243036,6.0694492e-05,0.048750114,-0.04870775,0.00026812183,-0.0042996844,9.046758e-05,-0.04068334,-0.084413946,0.0013295322,9.13047e-06,0.11897769
-2.1167327e-05,0.055126783,0.0001820009,0.0017887063,0.22193056,-0.00042839244,0.1359091,-0.04236635,0.0019587849,-0.003915792,0.00013096652,-0.034731593,-0.053437445,0.0008480556,9.76669e-05,0.07346643
-2.2514725e-05,0.053676702,0.00019905069,0.0036213994,0.19041893,-0.00082560745,0.268728,-0.055192985,0.0038467008,-0.0042136605,0.00012724845,-0.058444407,-0.067727126,9.106182e-05,0.00019128199,0.04179705
-2.4179963e-05,0.049433626,0.0015458269,0.002613926,0.25917616,-0.0017972684,0.31440333,-0.013544364,0.009494019,-0.005843054,9.705538e-05,-0.03463627,-0.046049483,0.00056614744,0.00054287753,0.018856037
-2.2752783e-05,0.04990243,0.0018439614,0.0056143682,0.20482215,-0.0013183552,0.41668788,-0.034354586,0.007451283,-0.006826141,5.699728e-05,-0.093776666,-0.08585848,0.00076500163,0.00080116297,0.010915794
-1.9406805e-05,0.030887501,0.0014182026,0.0060453904,0.24390824,-0.0036995818,0.62756735,0.015633503,0.030368868,-0.0090421615,2.8628734e-05,-0.08592044,-0.07417978,0.0024369785,0.000869503,0.002354252
-2.159876e-05,0.01595246,0.0016291328,0.041876297,0.15283568,-0.011978376,0.81022495,0.04757044,0.09719289,-0.014106929,9.517377e-06,-0.224044,-0.124100134,0.0030315851,0.002057615,0.00017695143
-1.34465145e-05,0.004191089,0.00021243619,0.019577745,0.34391618,-0.026556596,0.83674216,0.036722224,0.27669016,-0.04142597,7.716259e-06,-0.052632324,-0.0639739,0.010682987,0.0006308022,2.1571095e-05
-8.790236e-06,0.0053281635,7.887567e-05,0.014591063,0.3411253,-0.0083947405,0.7985377,0.034125373,0.05501104,-0.011724242,2.1730966e-06,-0.1331466,-0.04581863,0.0038802656,0.00046881897,2.0559457e-05
-3.1885802e-06,0.0072717993,3.8397875e-06,0.004221329,0.49858266,-0.00061215117,0.7442208,0.014441468,0.019909391,-0.024380213,2.3639327e-06,-0.066610605,-0.079696774,0.00419587,4.191112e-05,4.402106e-05
-5.629463e-06,0.008181993,3.5345533e-05,0.0029433474,0.44043133,-0.0018989666,0.6808478,0.021401925,0.030508002,-0.016761715,2.9697558e-06,-0.06743958,-0.062008403,0.0028300018,0.000174092,0.00017031973
-3.6678157e-06,0.0145111745,4.1025152e-05,0.0011205765,0.47607633,-0.00038016963,0.51846296,0.012404374,0.016973736,-0.008465769,3.942451e-06,-0.03662184,-0.0435606,0.0014656397,7.848711e-05,0.0014676212
-1.9626334e-06,0.019847399,0.00044025172,0.00056276936,0.3044674,-3.0866343e-07,0.49076772,-0.010469863,0.013846903,-0.0030184952,1.47210585e-05,-0.04257596,-0.081611514,0.0014101665,6.4491294e-05,0.027033435
-2.3312925e-06,-0.023568163,0.0009687413,0.00016866215,0.2581271,-0.0016295974,0.53918576,-0.0026739535,0.16421427,-4.559678e-05,8.151886e-06,-0.011741669,-0.01117635,-0.0002587611,2.3475004e-05,0.013514105
-4.5491465e-06,0.010702481,0.00048538038,0.00022269052,0.28310972,-0.0011644395,0.47996026,0.0038222098,0.020264482,-0.0006424832,7.9233905e-06,-0.039146524,-0.017608339,0.001959892,0.00016053263,0.006436274
-6.745702e-06,0.029970715,0.00040173114,0.00054350443,0.3063422,-0.00012716718,0.19377357,0.003963284,0.0016352029,-0.0051945522,1.3401663e-05,-0.07444517,-0.06988434,0.0025145041,0.0003647344,0.009929285
-5.271213e-06,0.01634646,0.0005293336,0.00068400503,0.28257972,0.00014747617,0.20280716,-0.023991384,0.0012541679,-0.0074058883,2.8824312e-05,-0.060924012,-0.14310038,0.003188969,0.00017001435,0.04094157
-1.0219561e-05,0.039266687,0.0008291641,0.0009581598,0.28929946,-3.5324232e-05,0.2533318,-0.01974391,0.003501739,-0.0083087515,4.0899675e-05,-0.04938495,-0.101847,0.0043517323,0.00029738405,0.028456574
-1.0980613e-05,0.03881577,0.0009201952,0.0011544009,0.28452495,-5.125845e-05,0.24490839,-0.02326933,0.00329793,-0.00952893,4.432919e-05,-0.054112982,-0.11494291,0.004170564,0.00035720906,0.027380614
-1.1563303e-05,0.040398356,0.0008479494,0.00077426917,0.3172164,-2.237381e-05,0.17812572,-0.016229112,0.0028802245,-0.009602747,4.4334105e-05,-0.0397902,-0.097885385,0.0038475497,0.00033542336,0.030768896
-1.034543e-05,0.036323372,0.0007855961,0.00068374065,0.30394143,0.00011145519,0.07646546,-0.02579471,0.00081374956,-0.008561087,4.7669353e-05,-0.041651666,-0.11137237,0.0030399994,0.00025341372,0.053482495
-8.337437e-06,0.028053872,0.000583839,0.0005314259,0.30093786,0.00016655732,0.009891748,-0.029790372,9.726379e-05,-0.0074248333,5.3864136e-05,-0.03471457,-0.11445024,0.002630291,0.000119851866,0.09869937
-1.2688189e-05,0.047336165,0.00028018892,0.0009713781,0.25773305,7.876905e-05,0.05524846,-0.041295737,0.00052135845,-0.006006017,8.804684e-05,-0.034752432,-0.09279343,0.002691131,4.1283492e-05,0.10775938
-1.802599e-05,0.05331775,-0.00091454404,0.002480217,0.20797555,-0.00045810206,0.23152466,-0.055026945,0.0034092714,-0.005195381,0.00012788437,-0.04977719,-0.08454166,0.0023748353,-1.7772541e-05,0.06353579
-2.539163e-05,0.043424193,0.00092880084,0.0024899112,0.26254877,-0.0022267285,0.30841166,-0.02333437,0.012126577,-0.006617643,0.00014550975,-0.027991649,-0.046851885,0.0012739799,0.00051297894,0.025415242
-2.3067852e-05,0.052548174,0.0015120502,0.0018474692,0.27701586,-0.0010291161,0.20400755,-0.020946566,0.005266726,-0.0068403245,9.582775e-05,-0.032734513,-0.053405944,0.0012234055,0.0005595448,0.026583135
-1.5705087e-05,0.048972,0.0009936565,0.001138321,0.27049935,-1.952386e-06,0.10317611,-0.03325771,0.0010451138,-0.0065989164,6.0873288e-05,-0.045010988,-0.088213824,0.0016552326,0.0002870655,0.051072303
-1.9338231e-05,0.054172065,0.0008860001,0.0016253265,0.24798049,-0.00012784464,0.120817035,-0.037914935,0.0014652307,-0.0062416065,8.183047e-05,-0.04206547,-0.07655176,0.0017743005,0.00023971929,0.057452377
-1.736626e-05,0.05621089,0.0008327308,0.0013275299,0.26585406,-0.00013525602,0.1282847,-0.036541898,0.0018843779,-0.0067654066,8.858712e-05,-0.036571007,-0.07944438,0.0022602861,0.00023306343,0.057308737
-1.7998806e-05,0.056787256,0.00076388643,0.0018360757,0.2438471,-0.00023853482,0.18598506,-0.04284296,0.0025695679,-0.0064221323,9.3331946e-05,-0.044302743,-0.08400669,0.0021203444,0.00022612538,0.050567176
-2.0335658e-05,0.055344813,0.001136069,0.0029404056,0.2316983,-0.0007787554,0.32382858,-0.04001058,0.0062631955,-0.0066877413,9.1166425e-05,-0.052739125,-0.07974665,0.0020092325,0.0003884738,0.02726501
-2.0515301e-05,0.048176497,0.002180606,0.022599764,0.13490897,-0.0031842263,0.68918526,-0.075708345,0.026231084,-0.007145922,5.610258e-05,-0.179768,-0.13760364,0.001014347,0.0009143745,0.003629223
-1.6854034e-05,0.014761945,0.00042425984,0.01025012,0.41215453,-0.04617562,0.76973933,0.02285279,0.27259952,-0.012244217,2.1018823e-05,-0.011078176,-0.036846604,0.0011433169,0.00046624127,0.00011984535
-1.2575181e-05,0.0067865527,0.00027375467,0.0044034906,0.32329756,-0.0052656955,0.631626,0.024653707,0.016505927,-0.006396809,1.8727541e-06,-0.15603462,-0.05442996,0.0011002291,0.0010462455,0.00015205046
-1.2622335e-06,0.018136466,1.5645098e-06,0.0015638557,0.5254732,9.8032484e-05,0.34817886,0.0070280656,0.00076383434,-0.009392395,1.7066269e-06,-0.06518937,-0.1412046,0.00061909866,1.2394673e-05,0.00093733304
-5.0197177e-06,0.020566458,4.8440255e-05,0.00018487393,0.46748006,6.584141e-05,0.0801822,0.012133404,0.0011822798,-0.0075742127,4.31981e-06,-0.05025874,-0.07155755,0.0022561573,0.00012734123,0.0041353377
-8.273042e-07,-0.0211678,0.0002822238,0.00019277104,0.3175398,0.00012502902,0.042699963,-0.017390646,3.0394243e-05,-0.0039392835,1.9720837e-05,-0.033954382,-0.112684034,0.0011770604,4.9112437e-05,0.11044984
-5.579587e-07,-0.0028939077,0.00030172453,5.075143e-05,0.17545478,-5.354257e-05,0.2256167,-0.006630513,0.0023249888,-5.0199586e-05,7.707685e-06,-0.016625874,-0.017369619,0.00057695404,5.0465187e-06,0.097926505
-2.1543167e-06,0.0068279267,0.00025107106,0.00020487946,0.14877853,-5.295129e-05,0.18924275,-0.012849356,0.00040766902,-0.00014938808,1.2291639e-05,-0.042903665,-0.02572388,0.0006685329,5.54053e-05,0.05492708
-1.6210872e-05,0.03671303,0.0014764862,0.0013606206,0.21516374,-0.0006836327,0.113846034,-0.042518694,0.0014166414,-0.00394556,7.859073e-05,-0.065300465,-0.05929998,0.0014421253,0.00067085825,0.038420524
-2.1276073e-05,0.055257026,0.00017003593,0.00171006,0.25475338,-0.00063097297,0.1662005,-0.039535575,0.0037402844,-0.006325356,0.00013643209,-0.031174095,-0.06337993,0.002185501,0.00019726378,0.055864025
-2.129356e-05,0.059634976,0.00081038254,0.0017265077,0.2438491,-0.00034270738,0.13075821,-0.0388847,0.0019967374,-0.0052303807,0.00010837576,-0.035929285,-0.061003655,0.0011648342,0.00023052366,0.057489105
-2.0188427e-05,0.05937002,0.00079294544,0.0020263281,0.23210046,-0.00032161255,0.1704966,-0.044474,0.0022527897,-0.005320805,0.000101563244,-0.044159994,-0.07166392,0.0012205559,0.0002250014,0.052066345
-2.2029168e-05,0.05784551,0.0011422156,0.0017180648,0.26084927,-0.00056082977,0.16721705,-0.028849348,0.0032810094,-0.005775663,9.869369e-05,-0.03326251,-0.055494986,0.0012611514,0.0003487134,0.040965028
-2.0617634e-05,0.058706224,0.0010793357,0.0015159646,0.26059175,-0.00026315427,0.1123104,-0.03466621,0.0017358039,-0.0060462714,8.9977286e-05,-0.03719981,-0.06583889,0.0013227169,0.00032104962,0.049876437
-1.6820082e-05,0.055501867,0.0008070415,0.0011205135,0.2630447,2.6128382e-06,0.07127051,-0.037772994,0.00079258904,-0.005835824,8.097358e-05,-0.036645297,-0.07792114,0.0015859898,0.0001861675,0.07270092
-1.8651765e-05,0.057160534,0.0006023976,0.0017963097,0.22805825,-0.00010438127,0.12254141,-0.047242507,0.0012030593,-0.0052045146,9.552415e-05,-0.044745877,-0.07885937,0.0013906969,0.00013923681,0.06994066
-2.1283538e-05,0.05743552,0.00084779924,0.0014647151,0.2667088,-0.00049258524,0.14109749,-0.03163197,0.0030142565,-0.0059105936,0.00011449612,-0.02852893,-0.056134652,0.0016619797,0.00026843994,0.05267662
-2.0232566e-05,0.059159078,0.0007416387,0.001966999,0.23334104,-0.0002849491,0.1488582,-0.045708083,0.001906411,-0.0054583414,0.000103534476,-0.043932848,-0.07329397,0.0012294941,0.00021763712,0.055753306
-1.9823241e-05,0.05876692,0.0009651942,0.0016510803,0.252913,-0.00034292976,0.16989334,-0.03532144,0.0027134465,-0.0056922617,9.4289455e-05,-0.03721918,-0.065644264,0.0015102514,0.0002683536,0.04768503
-2.2736784e-05,0.05784137,0.0011821798,0.0016695954,0.2640209,-0.00050092273,0.12738489,-0.029024055,0.0025023296,-0.0060820654,9.887873e-05,-0.03307873,-0.05559822,0.0011972871,0.00038181912,0.043415718
-1.705465e-05,0.05674905,0.0008385473,0.0010552842,0.27000743,-1.185503e-05,0.060126714,-0.03689683,0.00076897064,-0.005987887,8.360555e-05,-0.034645166,-0.07602744,0.0016082734,0.00020296738,0.07230655
-1.7646156e-05,0.05614012,0.0005602967,0.0012156691,0.24526821,1.3057167e-05,0.051726967,-0.04228746,0.00050183444,-0.004998064,9.3285555e-05,-0.03523283,-0.07271551,0.001397308,0.00010119039,0.09469985
-1.9237139e-05,0.058638822,0.0003613686,0.0013700254,0.24056698,-0.00014189065,0.07535219,-0.042538915,0.0009788274,-0.0047098245,0.00011494399,-0.032748714,-0.06350652,0.0013209309,9.126667e-05,0.08884555
-2.0817295e-05,0.057744693,0.00033821815,0.0012555453,0.24732977,-0.00026220252,0.06335638,-0.03833708,0.0011144785,-0.0043746415,0.00012972245,-0.027402751,-0.051306006,0.0010527218,0.00010890689,0.089162864
-1.9224482e-05,0.05630944,0.00028240582,0.0013781507,0.22063051,-0.00011828573,0.05409522,-0.04476215,0.0005435137,-0.0034910054,0.0001154234,-0.034388784,-0.056884155,0.0007146431,4.9292463e-05,0.10528588
-1.9738656e-05,0.055651393,0.00035516437,0.0013609495,0.21627748,-0.00016057723,0.060111795,-0.041780055,0.00061678805,-0.0030134316,0.0001168698,-0.032395553,-0.048866082,0.0005252299,6.1536455e-05,0.10380283
-2.0058667e-05,0.053627115,0.00036737873,0.0017636006,0.19564833,-0.00020584092,0.08655544,-0.046652894,0.000692224,-0.0027124688,0.00011318857,-0.040891457,-0.05157973,0.00020868439,6.769016e-05,0.09227822
-2.0752204e-05,0.055888467,0.00050667074,0.0020036756,0.20015755,-0.0003160449,0.13111258,-0.045861203,0.0012780112,-0.0030500877,0.000113905095,-0.042599812,-0.05291376,0.00021163723,0.000115985305,0.0720958
-2.283197e-05,0.057472378,0.00089178584,0.002500084,0.20663026,-0.0005412407,0.17613792,-0.04282536,0.002165436,-0.0036851016,0.00010929149,-0.046532992,-0.05293073,0.000106105756,0.00024831886,0.048284054
-2.317006e-05,0.05816529,0.001210525,0.0018208806,0.25032693,-0.0006050219,0.14717409,-0.02815045,0.002676528,-0.004911787,9.850433e-05,-0.035017043,-0.0486423,0.0005733483,0.0003699818,0.040335763
-2.0837882e-05,0.059205554,0.0010355943,0.001621079,0.24622865,-0.00017969488,0.09237491,-0.03793179,0.0011351213,-0.005343524,8.620423e-05,-0.041179433,-0.0655241,0.0010012826,0.0002861886,0.055508416
-1.88575e-05,0.057602387,0.0007763885,0.0015050458,0.24030347,-6.163264e-05,0.09340375,-0.042103767,0.0009417943,-0.0051515275,8.762222e-05,-0.04063689,-0.07285634,0.0012964496,0.0001722724,0.07068906
-2.0548308e-05,0.05949681,0.00075861596,0.0019291539,0.23072587,-0.0002335405,0.13761428,-0.0436849,0.001653471,-0.005135094,0.0001001347,-0.042280797,-0.06894595,0.001223929,0.00019702797,0.059984494
-2.1088032e-05,0.05835853,0.0009272349,0.0017206758,0.25444117,-0.00045918146,0.16251785,-0.035385568,0.0029346575,-0.0058454946,0.00010616379,-0.034765977,-0.062048953,0.0014739864,0.00028480924,0.047996264
-2.0454636e-05,0.058773547,0.0009853484,0.0021160247,0.23685256,-0.0003749125,0.18941085,-0.041983932,0.0026689854,-0.0057779695,9.4495e-05,-0.045910455,-0.07313636,0.0013206761,0.00029231017,0.04385527
-2.0882959e-05,0.056455903,0.0012284357,0.0017902198,0.26270398,-0.00054498063,0.20190285,-0.028243914,0.0038323575,-0.0063558454,8.607834e-05,-0.037758514,-0.06297632,0.0015741962,0.00038928387,0.03435256
-2.0797388e-05,0.055572502,0.001226883,0.0011766858,0.29332176,-0.00034185703,0.09480287,-0.022033492,0.0021187847,-0.00697386,8.166109e-05,-0.029499833,-0.05806366,0.0016341138,0.00041494437,0.041998602
-1.2780369e-05,0.037545525,0.0006781485,0.0010833266,0.25137234,0.000113530536,0.057342805,-0.043772202,0.00028099728,-0.006101948,6.53097e-05,-0.048497774,-0.10965097,0.0016729949,0.00012955494,0.0849671
-1.6658054e-05,0.054847952,0.0006090748,0.0017282843,0.23177913,-9.600188e-05,0.17313406,-0.04462242,0.0018523303,-0.005479956,8.698307e-05,-0.045831844,-0.0850639,0.0018534594,0.00013667604,0.06289832
-2.39901e-05,0.050843053,0.0011596986,0.002048628,0.26956698,-0.0012810079,0.2321757,-0.025178283,0.0069722473,-0.0069961934,0.0001231171,-0.029042175,-0.052586634,0.0017393884,0.00047016994,0.031256612
-1.9653842e-05,0.05645048,0.0011508684,0.002150894,0.24764849,-0.00049841637,0.23369122,-0.03905366,0.0039034472,-0.006750274,8.922125e-05,-0.046958577,-0.07893776,0.0019025444,0.00038085057,0.03417004
-1.9982595e-05,0.052924275,0.0012280148,0.0012577203,0.29453796,-0.00045594055,0.15946588,-0.017080273,0.0035327347,-0.0070509138,7.246835e-05,-0.030806676,-0.058043282,0.0019094823,0.00041909056,0.033059448
-1.7778151e-05,0.05316021,0.0009990331,0.0008560639,0.29686266,-1.023994e-05,0.019241707,-0.028586622,0.0005177759,-0.0072578867,7.3898904e-05,-0.031161785,-0.07304688,0.0017650633,0.00030653673,0.06446936
-5.835242e-06,-0.013272457,0.00034605537,0.0017079194,0.19790578,0.00014504624,0.15039301,-0.058653105,0.0003197866,-0.005428105,4.9056227e-05,-0.085670486,-0.17838532,0.0018001137,5.0575723e-06,0.092464454
-2.2679425e-05,0.046055697,0.0014293027,0.008658326,0.18486458,-0.0032711641,0.5933877,-0.039221365,0.026475808,-0.0059889266,8.954577e-05,-0.08000083,-0.07999588,0.0015513267,0.00054879417,0.008796207
-2.1879154e-05,0.018925777,0.0015679997,0.0058984356,0.37347403,-0.01942195,0.6473614,0.03690517,0.11645132,-0.01375883,6.527939e-05,-0.010819801,-0.033548098,0.001267532,0.0010029061,0.0009912578
-1.2589129e-05,0.017108625,0.0005152712,0.0010811503,0.3507044,-0.0013020955,0.40173236,0.019117692,0.00878992,-0.0106820585,9.083325e-06,-0.08120721,-0.07652404,0.0022972114,0.0007982448,0.0019108269
-9.180126e-06,0.025410587,0.0003619993,0.0019181204,0.35039076,-1.34156535e-05,0.23530696,0.0010070788,0.0030655316,-0.012029963,1.6267084e-05,-0.0669093,-0.127475,0.0019910515,0.00035392938,0.00862834
-4.5578604e-06,0.012945778,0.00020684913,0.0002623843,0.36441725,0.00013788519,0.04470162,-0.009088022,0.0003216753,-0.0074507813,1.5486163e-05,-0.047784686,-0.1343421,0.002169952,0.00013309371,0.033115905
-2.35689e-06,-0.017147195,0.00040525515,0.00043497153,0.27016225,0.0001380169,0.08048897,-0.027493795,0.00010226671,-0.0048855525,2.3390252e-05,-0.059453346,-0.1441896,0.0020262762,9.697436e-05,0.07593032
-6.4479436e-06,0.030556824,0.0006815536,0.00081525365,0.2282823,-1.1901695e-05,0.28744388,-0.031600084,0.00268881,-0.003154972,3.8642316e-05,-0.056044806,-0.08883932,0.0032588742,0.00010489916,0.05164673
-1.7501468e-05,0.039503973,0.0018003164,0.0017683405,0.2656868,-0.001378947,0.318502,-0.016630042,0.008485391,-0.0078455545,6.411107e-05,-0.050763234,-0.06655058,0.0046344576,0.0008159548,0.014874268
-1.747609e-05,0.04275059,0.0013303731,0.0011732305,0.3230235,-0.0007241687,0.22915904,-0.009588424,0.007056695,-0.011322277,6.609081e-05,-0.030496342,-0.07368403,0.0045072827,0.00060377055,0.02039752
-1.017416e-05,0.03101187,0.000786733,0.0006627774,0.30180094,0.00011758345,0.06400329,-0.025870452,0.00052941666,-0.008230528,4.0837116e-05,-0.047709998,-0.11703205,0.0023031658,0.00027487823,0.05024887
-8.920296e-06,0.025574282,0.0006279852,0.0006105142,0.29123402,0.00016139876,0.028802639,-0.030898368,0.00016092957,-0.007320626,5.0001374e-05,-0.040225673,-0.1182747,0.0022427484,0.00013983542,0.08707171
-1.382576e-05,0.05115908,0.00044146588,0.0010334556,0.26479915,3.3766322e-05,0.08146084,-0.039087936,0.0009641857,-0.006552528,8.86115e-05,-0.034467332,-0.08975797,0.0028890069,9.68739e-05,0.087459356
-1.7765402e-05,0.05513598,-0.0002493812,0.0021291652,0.2257416,-0.00036431322,0.20995712,-0.050306547,0.0031933137,-0.006003622,0.000119093595,-0.045031205,-0.085901186,0.0027063692,6.731914e-05,0.06119974
-2.3788478e-05,0.048847236,0.0009897333,0.0019727794,0.27174693,-0.0014496398,0.250433,-0.024320638,0.008359026,-0.0067830696,0.00013164444,-0.026600093,-0.050149508,0.0019556626,0.00043050045,0.031922333
-2.191476e-05,0.056150455,0.0012452473,0.0016991061,0.2694127,-0.00062802946,0.16520116,-0.029869948,0.0035323873,-0.0066647073,0.000100164565,-0.033976655,-0.060498413,0.0014924915,0.0004286115,0.037217956
-1.6270089e-05,0.054297015,0.00089659536,0.00086008466,0.28700608,2.5055095e-05,0.046679117,-0.030926049,0.000675168,-0.0063284277,7.302578e-05,-0.032147896,-0.07450424,0.0016766208,0.0002301355,0.0691532
-1.7233528e-05,0.05136804,0.0005048623,0.0013666243,0.23552647,3.997871e-05,0.0502335,-0.046365034,0.00036240125,-0.0052186144,8.907067e-05,-0.040980667,-0.08259415,0.0014159975,8.648812e-05,0.09651325
-1.7699134e-05,0.057533436,0.00032080885,0.0014422592,0.2402197,-0.00013562758,0.112141095,-0.043528344,0.0013975244,-0.0051112734,0.000108568645,-0.035765998,-0.07235991,0.0017553825,8.689642e-05,0.080898605
-2.260372e-05,0.055873107,0.00046273356,0.0021091022,0.23131044,-0.0006338046,0.17216615,-0.0417012,0.0030255609,-0.0049602287,0.00013034637,-0.036932845,-0.05747106,0.00094068324,0.00021100866,0.05376463
-2.1875489e-05,0.057310555,0.00081720186,0.0026062084,0.2251519,-0.0006961419,0.23880698,-0.043885127,0.004033438,-0.0053140963,0.00011278154,-0.04593428,-0.06657126,0.00096839,0.00028800484,0.039575025
-2.3472536e-05,0.054458134,0.0014241568,0.0022239864,0.25935787,-0.0010298756,0.23677441,-0.020803796,0.0054647503,-0.0060124868,9.1009155e-05,-0.03654754,-0.05182581,0.0009943824,0.00048665432,0.025951507
-2.1093743e-05,0.05406194,0.0013548875,0.001591331,0.27500707,-0.00046148774,0.15158598,-0.023379346,0.002760072,-0.006858066,7.203795e-05,-0.039630324,-0.06338203,0.0014106074,0.0004921388,0.031199884
-1.5691467e-05,0.04912126,0.00091923034,0.0007711406,0.29761282,5.351459e-05,0.030336464,-0.027616506,0.00048399452,-0.006940221,6.318138e-05,-0.033224378,-0.07867268,0.0017513047,0.0002635749,0.06537396
-1.2342105e-05,0.028299036,0.000417843,0.0014072638,0.22389954,0.00012091022,0.07531317,-0.051216453,0.00025229919,-0.0055999886,6.843472e-05,-0.055707004,-0.11899708,0.001646242,4.3958917e-05,0.09882062
-1.8961182e-05,0.055962298,0.000592227,0.00172604,0.25044778,-0.00047239053,0.21830179,-0.036698963,0.004232102,-0.0060117496,0.00010775974,-0.035269264,-0.06865319,0.0024546543,0.00020149109,0.04971164
-2.4837582e-05,0.049010504,0.0012118752,0.0015684915,0.2905809,-0.0013191152,0.1665213,-0.020319322,0.006061559,-0.0072451388,0.00013337615,-0.022121392,-0.045060165,0.0015778156,0.00051553204,0.034930624
-1.6185051e-05,0.0562636,0.0007728866,0.0008661237,0.28053132,3.4121924e-05,0.025804661,-0.03637516,0.00043482493,-0.0060859234,8.5298154e-05,-0.03110036,-0.07677931,0.0017171106,0.00017735879,0.08501545
-1.538294e-05,0.044843215,0.00027673374,0.0014785854,0.2120193,6.613561e-05,0.06844656,-0.051144123,0.0003204422,-0.0041158595,8.560617e-05,-0.045294736,-0.086279415,0.0012784372,6.8512545e-06,0.1137598
-2.175263e-05,0.055489384,0.00027047397,0.0023096462,0.2181064,-0.0005998095,0.19921535,-0.044673655,0.0031485963,-0.0044963392,0.00012824066,-0.040557332,-0.060013324,0.0009854528,0.00015148535,0.05563461
-2.4433595e-05,0.05092765,0.00092073425,0.0029043946,0.23336095,-0.00138281,0.27849817,-0.03601281,0.006845966,-0.0056631393,0.00012980116,-0.04013656,-0.0554662,0.0005704868,0.00041944033,0.030147253
-2.242647e-05,0.05414015,0.0014518776,0.002012567,0.26587108,-0.00091960834,0.23246773,-0.021039004,0.0052062757,-0.00627889,8.4329775e-05,-0.03766364,-0.05519571,0.0011099597,0.0005057494,0.02506346
-2.0781155e-05,0.052953426,0.0013205173,0.001698553,0.26856565,-0.0003992853,0.15727565,-0.02492989,0.0025922046,-0.0069559463,6.766361e-05,-0.04353245,-0.06804336,0.0015024159,0.00047993867,0.03146187
-1.6367685e-05,0.048882604,0.0009889093,0.0009891331,0.28521687,-6.746495e-06,0.07490756,-0.02871477,0.0009600722,-0.007116977,6.246716e-05,-0.038387023,-0.0816499,0.0018553096,0.0003002699,0.053597838
-1.3563665e-05,0.041061208,0.0006799767,0.0011596673,0.25239387,9.472857e-05,0.076540366,-0.042176206,0.0005035675,-0.0064601563,6.8083245e-05,-0.046867426,-0.1053657,0.0018923576,0.00014233614,0.078558914
-1.7126455e-05,0.056874726,0.00068429665,0.0011259858,0.2737752,-0.00012674497,0.11046966,-0.034019895,0.0018612957,-0.006526017,9.6102434e-05,-0.030268444,-0.07235664,0.0024795956,0.00018314522,0.0671294
-2.0059793e-05,0.057771333,0.00040527686,0.0018949265,0.2405428,-0.0003706858,0.15791026,-0.044931818,0.0024981748,-0.0060667642,0.00011739379,-0.03916184,-0.073848344,0.0018937498,0.00018166225,0.05837482
-1.9943076e-05,0.057444472,0.0007773752,0.0018438715,0.24941145,-0.00047821496,0.19978972,-0.038122516,0.0036204702,-0.006054573,0.00010717716,-0.037209917,-0.06852318,0.001916695,0.00025327457,0.046752844
-2.2993161e-05,0.056167506,0.0012286435,0.0017466985,0.26774964,-0.0006996747,0.16208032,-0.026437525,0.0036306668,-0.006265241,0.000103358296,-0.031445898,-0.05360593,0.0012774074,0.0004112167,0.0379888
-1.8131874e-05,0.05751982,0.00096283533,0.0012816149,0.26506132,-0.00011351075,0.10041093,-0.036801465,0.0013450579,-0.006188426,8.4049214e-05,-0.037838597,-0.07531033,0.0016126067,0.0002625276,0.057171106
-1.7324579e-05,0.054546416,0.00073253835,0.0016600285,0.2345609,-5.0619197e-05,0.1320002,-0.045219578,0.0012278182,-0.0055278363,8.3022125e-05,-0.046955235,-0.08545488,0.0015416689,0.00016452352,0.064818636
-2.1280883e-05,0.057596955,0.0010162364,0.0019003353,0.2526366,-0.000521205,0.19071168,-0.03399979,0.0035099837,-0.0061292425,0.00010069029,-0.036918484,-0.06373086,0.0016185977,0.0003174165,0.042095892
-2.115451e-05,0.056457605,0.0011654514,0.0015695853,0.27329746,-0.00053962384,0.16243331,-0.029042225,0.0034570456,-0.006748605,9.830399e-05,-0.032358635,-0.06148253,0.0017747951,0.00038514886,0.03985642
-1.7504297e-05,0.05622116,0.00093702896,0.0011198894,0.27305928,-5.6945304e-05,0.08174215,-0.034318026,0.0011103306,-0.006350134,7.992437e-05,-0.035571467,-0.07533766,0.0017102127,0.00025041995,0.061134458
-1.6540003e-05,0.052780557,0.0006516569,0.00152141,0.23729782,-4.544425e-06,0.107904695,-0.04595361,0.0009224235,-0.0056429724,8.360542e-05,-0.045840126,-0.089248076,0.0016046562,0.0001388285,0.072908856
-2.0248763e-05,0.05818571,0.0008349603,0.0014933123,0.262049,-0.00036972284,0.14628023,-0.033797115,0.0027150023,-0.0060068634,0.00010560737,-0.03162423,-0.062294774,0.0018116821,0.0002478807,0.0537586
-2.1040145e-05,0.058619443,0.0008354942,0.0016471914,0.25531584,-0.00038937785,0.13380733,-0.037878282,0.0023496025,-0.0060187965,0.00011003626,-0.03459676,-0.06449493,0.0015097011,0.0002687716,0.053539246
-1.8381834e-05,0.059108198,0.00079784717,0.001241105,0.26216003,-0.00011937237,0.093235254,-0.037134185,0.0013278276,-0.0057175253,9.462067e-05,-0.03349615,-0.06917212,0.001602592,0.00019941825,0.06717067
-1.9591233e-05,0.05854186,0.00063699734,0.0020093697,0.2227467,-0.00017801467,0.13940838,-0.048342396,0.0014418229,-0.0050211297,9.9367535e-05,-0.04648867,-0.07588815,0.0011944366,0.00015875124,0.063938506
-2.1426604e-05,0.057582885,0.0009631831,0.0017765412,0.25475836,-0.0005626519,0.1822307,-0.033204183,0.003540346,-0.0057432516,0.000107325715,-0.033837784,-0.058918823,0.0014426769,0.00029754904,0.04452016
-2.2194401e-05,0.05814673,0.0011359657,0.0013864292,0.27475104,-0.00044076706,0.10265912,-0.027957056,0.002219956,-0.006050462,0.000101909434,-0.029074254,-0.053529415,0.0012397362,0.00035759388,0.04827741
-1.6323811e-05,0.054975126,0.00070357317,0.00088696816,0.27012792,6.5574786e-05,0.015946794,-0.03799691,0.00023575965,-0.0055260696,8.4064246e-05,-0.031960707,-0.07545831,0.0014341434,0.0001396072,0.09646319
-1.629717e-05,0.050286714,0.000304742,0.0013288497,0.22045042,4.6097102e-05,0.048672117,-0.048205186,0.00027964532,-0.0040445537,9.274592e-05,-0.03953744,-0.076736785,0.0011930318,1.902564e-05,0.11768741
-2.0276173e-05,0.055031996,-2.419124e-05,0.0025187316,0.19842957,-0.00042461752,0.192636,-0.052200876,0.0022388378,-0.003906836,0.00012367118,-0.048310068,-0.067158416,0.00078439445,6.41754e-05,0.06502694
-2.4986924e-05,0.048194632,0.0010503734,0.0021905263,0.25337806,-0.0014689688,0.23027126,-0.025392108,0.0065950043,-0.0053219446,0.00013548197,-0.029375382,-0.04315148,0.0003877733,0.00042424697,0.032971684
-2.1907845e-05,0.05860917,0.0012269489,0.0018144017,0.2508963,-0.00047035996,0.14930499,-0.034071967,0.0024198245,-0.0055132625,9.229354e-05,-0.040279567,-0.05996124,0.0008342961,0.00038392004,0.0401205
-1.7806333e-05,0.053312223,0.00096467405,0.0027115648,0.20937707,-0.00018115956,0.24332695,-0.052078284,0.0022720715,-0.0054787737,7.262758e-05,-0.06909228,-0.09761549,0.0013100696,0.00024846892,0.040769465
-2.4968109e-05,0.047806785,0.0016453379,0.0033286037,0.26062077,-0.0020839318,0.35376492,-0.0038703557,0.011431419,-0.0070125074,7.743189e-05,-0.03950227,-0.049579103,0.0013918742,0.0006530802,0.013566986
-2.005056e-05,0.043036994,0.0014925922,0.0017391368,0.29759634,-0.0010801201,0.2783876,-0.004716745,0.0070081535,-0.00861874,5.1885654e-05,-0.043093942,-0.063520186,0.0021717479,0.0007302144,0.013068477
-1.1173502e-05,0.03203605,0.0008068277,0.0008084136,0.30653733,3.279063e-05,0.14142203,-0.01769629,0.0014323661,-0.008784957,3.1477128e-05,-0.05603781,-0.111428,0.002152087,0.00038189974,0.027194817
-9.4715115e-06,0.01773294,0.0009183648,0.0021673243,0.21926007,3.9382157e-05,0.3270125,-0.04333562,0.002362752,-0.007846573,3.6383335e-05,-0.10129872,-0.1678369,0.0025107753,0.0002988822,0.028432082
-1.5396306e-05,0.032819293,0.0010540189,0.0017079548,0.31701767,-0.0016664489,0.49331775,0.007949374,0.021767493,-0.010914044,3.923921e-05,-0.039694715,-0.06845693,0.005979235,0.00053150713,0.006871074
-1.5341358e-05,0.02848437,0.00095763255,0.0011185206,0.3462548,-0.0011595166,0.33300728,0.012999024,0.010359493,-0.012356809,2.7828595e-05,-0.04314363,-0.07116586,0.0047969054,0.00075946754,0.006178228
-4.3072896e-06,0.011961586,0.00022429819,0.00040127782,0.3398847,0.00012332533,0.08103354,-0.012024816,0.00037005774,-0.0076882844,1.3687889e-05,-0.07158802,-0.15901558,0.0018985778,0.00018167002,0.0220695
-5.720666e-06,0.014674862,0.00037051438,0.00029110693,0.35197872,0.00015587323,-0.0038519488,-0.015190902,0.00010322828,-0.007888995,2.6177373e-05,-0.037531618,-0.12605555,0.002103699,0.00014710284,0.06105844
-3.3631002e-06,-0.020354157,0.0004430208,0.00046719267,0.27426764,0.00015155981,-0.0071433713,-0.032749146,-0.00014943107,-0.0058477535,3.6213878e-05,-0.04607121,-0.14566788,0.0022984024,6.259607e-05,0.12986238
-6.9849575e-06,0.025978796,0.0001440145,0.0011176479,0.22014947,8.327802e-05,0.1817576,-0.0439927,0.001199764,-0.0044704415,6.2530264e-05,-0.05253889,-0.116693184,0.0031001384,-1.05657955e-05,0.09692738
-2.4912266e-05,0.03998401,-0.0005316867,0.0028267503,0.23979676,-0.0025227321,0.36220536,-0.037882015,0.015204252,-0.006894068,0.00015379806,-0.03852891,-0.058417,0.0026611518,0.00046644657,0.024969866
-2.4327037e-05,0.042645287,0.0017364282,0.0024291992,0.2895514,-0.0024811034,0.33698368,-0.012583263,0.014917179,-0.009387221,0.0001142389,-0.027475988,-0.053925566,0.002695171,0.0007921607,0.016109835
-1.6707267e-05,0.046682667,0.0011440475,0.0009939878,0.30493858,-0.00020361529,0.13503881,-0.017052628,0.0022732343,-0.0078703165,5.070261e-05,-0.039815355,-0.07480819,0.001999587,0.00046223306,0.029247966
-1.3695043e-05,0.03685259,0.000853187,0.0008737699,0.28195176,9.654762e-05,0.04560741,-0.031531084,0.0003652934,-0.0074734427,5.4297714e-05,-0.043648064,-0.10089841,0.0019386811,0.00024432904,0.06505506
-1.0402055e-05,0.032678902,0.0005860909,0.00075574935,0.2741152,0.00015023853,0.03432651,-0.036447085,0.00019155275,-0.0066907615,6.166931e-05,-0.03933852,-0.11045438,0.0021781176,0.00010492271,0.09829755
-1.7004799e-05,0.056623545,0.00029742543,0.0011970714,0.2597442,-0.00011803348,0.0954584,-0.0395256,0.0014820361,-0.0060500754,0.00010917401,-0.031040624,-0.07392092,0.0025732517,9.80959e-05,0.08276435
-2.047564e-05,0.05570825,-0.00022530793,0.0018712243,0.23531128,-0.0004881126,0.15950178,-0.045875654,0.0028177286,-0.0055603636,0.00013643074,-0.036228806,-0.06774856,0.0019644958,9.4276256e-05,0.06579831
-2.2145812e-05,0.05580893,0.00059348496,0.0017636683,0.25001216,-0.0006481157,0.1650632,-0.036196396,0.003443361,-0.0054317727,0.00012884308,-0.031194257,-0.055326376,0.0013585059,0.00023827852,0.052682336
-2.1863023e-05,0.059065793,0.0008745304,0.0017463514,0.246027,-0.0004253618,0.13278279,-0.038029343,0.0021915247,-0.0052459612,0.00011143419,-0.035480484,-0.058626667,0.0009969575,0.00026448234,0.05366726
-1.9698648e-05,0.060286716,0.0008417275,0.0014210715,0.25072992,-0.00016950986,0.099370286,-0.038589552,0.0013338854,-0.005181992,9.6929885e-05,-0.035565242,-0.06458938,0.0012099249,0.00020924943,0.064493895
-2.0240874e-05,0.059390783,0.0007207547,0.002046491,0.22149971,-0.00020045094,0.13851146,-0.04732169,0.0014444708,-0.004807322,9.868349e-05,-0.04621503,-0.0717102,0.001042572,0.00017647023,0.0618536
-2.1591193e-05,0.058618262,0.0010005097,0.0018451042,0.2490334,-0.0005029613,0.17472239,-0.0344032,0.0030698713,-0.005492151,0.00010323119,-0.036052834,-0.059213284,0.0012332641,0.00029592082,0.045045555
-2.1545075e-05,0.05843879,0.0011276026,0.0023054243,0.23649617,-0.00049731357,0.20268267,-0.039844666,0.0030707277,-0.005823282,9.375601e-05,-0.04680077,-0.06946405,0.0011422753,0.0003530288,0.038076248
-2.0297972e-05,0.055570025,0.0012567459,0.0016378541,0.26994815,-0.0004970459,0.19529767,-0.025758233,0.0036920405,-0.00653327,7.934053e-05,-0.03754471,-0.06361627,0.0016384344,0.00040627504,0.032940738
-2.0322788e-05,0.05475427,0.0012206607,0.0014482556,0.27473915,-0.00029690607,0.12342068,-0.0272951,0.002100439,-0.0069978307,7.5673735e-05,-0.037910797,-0.067736454,0.0016420835,0.0004129391,0.039670687
-1.4266754e-05,0.04740986,0.0008380086,0.00093489233,0.27628157,7.081587e-05,0.063090004,-0.034971632,0.0006130917,-0.006729745,6.603656e-05,-0.03974111,-0.09268261,0.0018971866,0.0002103951,0.068760306
-1.5867594e-05,0.052494302,0.0006476335,0.0011619545,0.25674865,3.2021657e-05,0.074724115,-0.04017664,0.00074644835,-0.006035714,8.309319e-05,-0.037817795,-0.08493114,0.0018643782,0.00013809284,0.0808242
-1.8630353e-05,0.057706792,0.00040391798,0.0017306622,0.24072087,-0.00025136347,0.15279339,-0.04438203,0.0021823219,-0.0058571454,0.00011002631,-0.03900112,-0.07652145,0.0020233144,0.0001439352,0.06395725
-2.1282098e-05,0.056196813,0.0006426945,0.0028844334,0.22350922,-0.0007775108,0.28185496,-0.04570763,0.0052403323,-0.005908846,0.00011418627,-0.048218198,-0.07382928,0.0016049346,0.00027659285,0.03683287
-2.3724187e-05,0.04816778,0.0015970658,0.0022490632,0.28022695,-0.0017287494,0.29575157,-0.010859572,0.009834589,-0.0071504842,9.519001e-05,-0.030346503,-0.048756845,0.0014455209,0.00060014956,0.018768424
-1.9634992e-05,0.050729886,0.0014237948,0.0018234763,0.26854077,-0.0005204236,0.22106157,-0.02414936,0.0037191666,-0.0073335385,6.1122e-05,-0.049878348,-0.07456016,0.0016636895,0.0005571823,0.02315409
-1.5144043e-05,0.043716755,0.0010524915,0.001138382,0.2872224,-0.00010093471,0.16816297,-0.022481574,0.002244027,-0.007878287,4.8041846e-05,-0.04736709,-0.0893247,0.0021412766,0.0003908083,0.031856775
-1.580941e-05,0.0446153,0.001050799,0.0011977925,0.2787737,-6.154666e-05,0.13144417,-0.02776198,0.0016389628,-0.008094915,5.557745e-05,-0.046579666,-0.09258997,0.0022755784,0.0003668472,0.0400312
-1.0885588e-05,0.03698782,0.0008383302,0.0014744322,0.24808829,4.531447e-05,0.2179941,-0.040463727,0.0018922143,-0.0076978584,5.4684013e-05,-0.062874645,-0.13094324,0.0029332933,0.00023133762,0.044487692
-1.7728335e-05,0.047352307,0.0012664695,0.0017359835,0.2834224,-0.00076111814,0.3248698,-0.016972018,0.008399697,-0.008626501,6.65519e-05,-0.039394565,-0.07409858,0.00369045,0.00046553614,0.02054716
-1.8786151e-05,0.04406842,0.0013738044,0.0011868497,0.32441336,-0.00081646844,0.21579696,-0.0063286377,0.0065496163,-0.009818112,6.392088e-05,-0.028982574,-0.06284073,0.0036077602,0.00061264174,0.019480437
-6.057173e-06,0.00072226324,0.0008315202,0.002052107,0.21048276,0.00010312838,0.31449777,-0.049816426,0.0014638787,-0.00747098,3.306087e-05,-0.11800933,-0.2043352,0.0024511043,0.00024877506,0.032274727
-1.6628379e-05,0.03130775,0.0010613797,0.0020892767,0.3112457,-0.0022778346,0.53316265,0.012515896,0.027355079,-0.010226965,3.6462498e-05,-0.04136231,-0.062134523,0.0047502522,0.00053994916,0.005353307
-1.754852e-05,0.02487135,0.0010517762,0.0013492831,0.36376414,-0.0024187323,0.36859098,0.024318583,0.016276397,-0.01300435,2.8872872e-05,-0.033984672,-0.0541522,0.004918735,0.0009421928,0.003886062
-3.5253627e-06,0.008488037,0.00014761623,0.00034917163,0.34872404,0.00011129587,0.05732627,-0.010113663,0.00022788471,-0.006868389,1.04391565e-05,-0.07731289,-0.16243194,0.0015823806,0.00015070484,0.019092362
-5.168911e-06,0.0032566993,0.00043363264,0.00059853884,0.29700816,0.00015234004,0.13358724,-0.02221927,0.00058357377,-0.0075606,2.4846688e-05,-0.061085947,-0.16094704,0.0020694593,0.0001531294,0.046369135
-8.437235e-06,0.036136933,0.00067577325,0.00061283575,0.3007713,8.957153e-05,0.1596742,-0.019367574,0.001661995,-0.007046895,3.699323e-05,-0.042931326,-0.09641733,0.0037386033,0.0002175137,0.041619472
-8.449176e-06,0.031436097,0.0007636678,0.0009312163,0.26986516,0.000107253494,0.13503921,-0.03247981,0.000988398,-0.007722576,4.624633e-05,-0.05495022,-0.124898784,0.0033411358,0.00022050046,0.051728323
-1.28184665e-05,0.048940394,0.0007752238,0.0006612758,0.31629673,2.0011545e-05,0.09323543,-0.022541221,0.0018499672,-0.00829803,6.930763e-05,-0.026680343,-0.08150457,0.0037777587,0.00021629717,0.06081501
-1.3601021e-05,0.04851254,0.00045169596,0.0012456718,0.2552594,3.0882227e-05,0.090444736,-0.044079114,0.00091023237,-0.0070736823,8.641799e-05,-0.04193015,-0.10360928,0.002914412,0.0001128237,0.07990451
-1.4779535e-05,0.054016575,0.00040716986,0.0012583457,0.2573663,-8.3242914e-05,0.14929649,-0.03937351,0.0020927587,-0.006389922,9.437755e-05,-0.03607256,-0.085894145,0.0029477028,0.000111101246,0.07110383
-2.366062e-05,0.053102475,0.0007782527,0.0016148178,0.27086776,-0.00087572023,0.15098518,-0.02987718,0.0042239064,-0.0065282066,0.00013481811,-0.02606665,-0.051186375,0.0017254031,0.00034735608,0.04663223
-1.8510544e-05,0.05773938,0.0004355422,0.002130586,0.22858556,-0.0002835368,0.183648,-0.050324306,0.0023582554,-0.0058548655,0.000106786814,-0.047662396,-0.085296705,0.0018002216,0.00016381993,0.05586493
-2.1735703e-05,0.05722356,0.0011174285,0.0021215212,0.24660285,-0.00067501946,0.2332483,-0.030777613,0.0044967234,-0.005610658,9.5842304e-05,-0.038276855,-0.05905854,0.001397685,0.0003330047,0.03574744
-2.3202463e-05,0.05347474,0.0014859629,0.0021157472,0.26629105,-0.00094188435,0.21489216,-0.023311045,0.0049526347,-0.006933415,9.101397e-05,-0.037399977,-0.057659727,0.0012791154,0.0005512227,0.026339108
-1.6153028e-05,0.050816316,0.0011268017,0.0014144232,0.2659085,-0.00013913709,0.18030661,-0.032592576,0.0022241212,-0.0069833905,6.131057e-05,-0.049401972,-0.08921278,0.0019416299,0.0003596022,0.036542527
-1.9775904e-05,0.05201254,0.001201288,0.0016017036,0.2702123,-0.0003434224,0.17341258,-0.025495153,0.0029682938,-0.007249858,6.9584545e-05,-0.040812194,-0.07113592,0.002011495,0.00040706078,0.034947902
-1.5434305e-05,0.048564095,0.0010583802,0.0017483259,0.2504169,-0.00012746481,0.21602045,-0.038918562,0.0025062873,-0.0075004864,6.414969e-05,-0.056791708,-0.10417591,0.0024085182,0.00033280533,0.03713847
-1.6493139e-05,0.04848806,0.0011824882,0.0015246461,0.27996904,-0.00041080252,0.27304667,-0.021888306,0.0053262506,-0.008192709,6.0810144e-05,-0.04366261,-0.081842735,0.0030040957,0.00042156805,0.02496814
-1.8360974e-05,0.046741918,0.0013474714,0.0015398492,0.2915642,-0.00059317093,0.24363646,-0.016089456,0.0053104144,-0.008919854,5.9960705e-05,-0.04138685,-0.07510689,0.0028906208,0.0005622211,0.020918569
-1.23719055e-05,0.041158643,0.00089444057,0.00068615976,0.31808454,2.3686858e-05,0.101138376,-0.019088471,0.0014612712,-0.008795751,4.486666e-05,-0.039536685,-0.09500347,0.0027422188,0.00034982956,0.037487492
-8.869007e-06,0.017667832,0.0007141318,0.0010520458,0.25391516,0.00013897999,0.114116415,-0.039502397,0.00050609524,-0.0073296563,4.5936107e-05,-0.062912725,-0.1441639,0.002204509,0.00017238954,0.063931614
-1.3839225e-05,0.048925374,0.0008969365,0.0015153685,0.2619715,-0.00017759144,0.27325627,-0.03229381,0.004410095,-0.0077344854,6.742318e-05,-0.046612967,-0.09749341,0.0036544895,0.00026196663,0.036986556
-2.1208554e-05,0.04582112,0.0015635219,0.0021737623,0.28623095,-0.001506387,0.33211425,-0.014456881,0.011323744,-0.009405085,8.7003085e-05,-0.033677783,-0.064573646,0.0038716625,0.000646711,0.01744625
-1.587793e-05,0.04506674,0.0011403748,0.00087118486,0.3263005,-0.00031122117,0.16185598,-0.011879368,0.0037419465,-0.00930155,5.4593347e-05,-0.032187417,-0.07338281,0.003293678,0.00048184925,0.025961634
-9.485552e-06,0.01978271,0.0007598887,0.0008730205,0.2702987,0.00013624805,0.07751161,-0.03473971,0.00033607718,-0.007559723,4.2596625e-05,-0.058480117,-0.13555665,0.002017687,0.00021420387,0.061073262
-9.81702e-06,0.033216823,0.0007301192,0.0015846931,0.23629408,6.5222026e-05,0.2561926,-0.042302523,0.0021605482,-0.007219759,5.3621985e-05,-0.0667758,-0.13681166,0.0029054652,0.00017557261,0.046589654
-2.147454e-05,0.041632935,0.0016493117,0.0025766755,0.28710094,-0.0023444246,0.42067236,-0.0061367117,0.01865559,-0.009465113,8.384247e-05,-0.032710206,-0.05961456,0.0044515436,0.0006777965,0.012260025
-1.6174332e-05,0.039921038,0.0020252557,0.0126493275,0.16558495,-0.0019848205,0.6624958,-0.05383275,0.020642286,-0.009200035,4.184408e-05,-0.1591738,-0.15377723,0.003989365,0.0009608889,0.0039699483
-1.6229566e-05,0.011374086,0.0005489164,0.008221763,0.33230972,-0.01811613,0.7797282,0.037202954,0.17076498,-0.016921332,1.410726e-05,-0.044683736,-0.048503876,0.0068524242,0.00066856656,0.00018548971
-1.464605e-05,0.0064453795,0.00040100946,0.0071776696,0.30334005,-0.009282678,0.7420493,0.034087766,0.05345275,-0.012275475,3.0906797e-06,-0.12910493,-0.06586159,0.0031832033,0.0012979562,9.975971e-05
-2.3702726e-06,0.012700983,4.443128e-06,0.0016831772,0.50027573,3.1916377e-05,0.57908446,0.013295179,0.0046102977,-0.013629965,2.0562907e-06,-0.07541453,-0.091584496,0.0024898,3.9252933e-05,0.00021249552
-4.858609e-06,0.016333323,2.1843425e-05,0.00024860038,0.5424949,3.0922016e-07,0.13717523,0.013620915,0.0027419261,-0.011768885,3.982802e-06,-0.037670717,-0.062413163,0.0026397796,0.00010019468,0.0014504049
1.302498e-07,-0.06432498,0.00012354313,0.0002013136,0.32788903,8.196989e-05,-0.01910561,-0.015945762,-7.4442556e-05,-0.0046086325,1.2279201e-05,-0.047938325,-0.17314388,0.0007362411,4.7653248e-05,0.09047513
-5.016402e-07,-0.007923325,0.00036820932,3.5303085e-05,0.17430629,-0.00012511338,0.26222253,-0.0033583515,0.0082490565,-1.3646029e-05,5.576252e-06,-0.011108549,-0.009073588,0.00013963405,3.0635838e-06,0.06313627
-1.2374195e-06,0.0034914985,0.00025611024,0.00010759533,0.1510236,-0.00010189845,0.29458305,-0.00808182,0.0016383381,-6.7241104e-05,7.739194e-06,-0.03345934,-0.017352482,0.0005124275,3.3955504e-05,0.03957409
-8.593914e-06,0.02738645,0.0008710683,0.0010278749,0.21677461,-0.00036675634,0.18353082,-0.0148575315,0.0010415665,-0.0024974234,2.416113e-05,-0.09626498,-0.059043434,0.0014749774,0.0005785462,0.014761999
-1.8819252e-05,0.04969266,0.0012210107,0.0020841756,0.27044278,-0.0008363798,0.30892482,-0.028346965,0.008010396,-0.00926682,8.811144e-05,-0.04066356,-0.08242393,0.0039467798,0.0004861632,0.02476825
-1.8253259e-05,0.04709401,0.0012799889,0.0013393387,0.30017844,-0.00055528234,0.22648506,-0.01335204,0.0051100897,-0.0084982775,5.9119877e-05,-0.03719461,-0.06913464,0.002655519,0.00051719224,0.02220613
-1.41489145e-05,0.043938834,0.0009998985,0.0008192459,0.30573195,-1.16641695e-05,0.09433469,-0.022524541,0.0013346256,-0.00841039,5.0553004e-05,-0.040491417,-0.09101167,0.002438188,0.0003736518,0.039818533
-8.891957e-06,0.023084085,0.00065531395,0.0006269238,0.28897417,0.00015792629,0.023559494,-0.031947933,9.778311e-05,-0.0073239827,4.8132395e-05,-0.04324776,-0.12271461,0.0020993352,0.0001532806,0.08446278
-1.2526121e-05,0.045271747,0.0005073277,0.0010364314,0.2587545,8.8191715e-05,0.08500109,-0.040150672,0.00074111135,-0.006414526,7.688148e-05,-0.03930629,-0.09967601,0.0025268826,9.4059185e-05,0.08798006
-2.001192e-05,0.055437762,0.00020184665,0.0014695257,0.26152396,-0.00048974203,0.15145823,-0.037534885,0.0033698166,-0.0064451196,0.00012889845,-0.029377032,-0.06468304,0.0027790612,0.00016906035,0.06152317
-2.1419755e-05,0.056712516,0.00042789103,0.0014064244,0.26507986,-0.0004824136,0.11316347,-0.036151174,0.002581674,-0.006082018,0.0001325225,-0.027249988,-0.057838004,0.0019205757,0.00020646486,0.0636675
-1.8251707e-05,0.05805108,0.00041837725,0.0016159485,0.23201323,-0.0001259865,0.10912249,-0.047068376,0.0011780771,-0.004968929,0.00010558343,-0.04040359,-0.075286895,0.0013822725,0.00010293586,0.07753798
-2.1331007e-05,0.05881352,0.00068368675,0.001906255,0.232989,-0.00041953695,0.15909366,-0.040419955,0.0023914925,-0.0047408594,0.000113940034,-0.037188776,-0.059165295,0.0010418318,0.0001976345,0.05698572
-2.307708e-05,0.057257947,0.001017431,0.0015169776,0.26371238,-0.0005724118,0.11527849,-0.029687103,0.0025255554,-0.0053802202,0.000116700074,-0.028273592,-0.048528735,0.0009250306,0.00032183484,0.05075478
-1.8013356e-05,0.057752486,0.0006852662,0.0014198881,0.23833683,-3.876565e-05,0.077341065,-0.04540695,0.00071807357,-0.004926934,9.176333e-05,-0.041161653,-0.07601497,0.0011498135,0.00014264829,0.07832905
-2.002271e-05,0.05999726,0.0006493218,0.0017101344,0.22778735,-0.0001752215,0.117863484,-0.043086573,0.001311578,-0.0044022375,0.000102278114,-0.038701378,-0.06330033,0.0010850977,0.00014152864,0.07135747
-2.2339942e-05,0.058697462,0.00080178824,0.002163148,0.2290506,-0.0004849401,0.16301137,-0.041872136,0.0024188594,-0.0049188533,0.00011329464,-0.04072287,-0.06025122,0.00083441567,0.00024808946,0.051185794
-2.180917e-05,0.05822915,0.0010416845,0.0010550823,0.29057848,-0.00040616374,0.07289176,-0.024030285,0.002015175,-0.005721156,0.0001093461,-0.02211667,-0.046132274,0.001278839,0.00030744434,0.05714939
-1.6720925e-05,0.049329363,0.00047643814,0.0014319457,0.22233368,5.072827e-05,0.04337424,-0.050914276,0.00021764133,-0.00448868,8.6987835e-05,-0.045678716,-0.085224666,0.0010471486,6.1626684e-05,0.10345389
-1.4696853e-05,0.044474885,-7.6138334e-05,0.005950785,0.14150329,-0.00025565512,0.38590533,-0.082069494,0.0030179,-0.0037324603,8.25835e-05,-0.11312339,-0.12783201,0.0008981472,-7.6850654e-08,0.042810243
-2.5243578e-05,0.026864056,0.0018827168,0.005861964,0.3097287,-0.0113725,0.5791802,0.029804759,0.06568379,-0.00867114,8.7102635e-05,-0.020582035,-0.034747317,-0.0010759106,0.00086515053,0.0028569521
-2.0183248e-05,0.026242418,0.0012285577,0.0017746558,0.34369457,-0.0036655695,0.38061142,0.02968582,0.016073098,-0.008648166,2.8677587e-05,-0.03974378,-0.039222084,0.0012617162,0.0010411859,0.003016709
-7.0985584e-06,0.020158295,0.00034315494,0.001101827,0.32953766,8.689015e-05,0.1509121,-0.00780825,0.001023629,-0.00894683,1.442049e-05,-0.07844112,-0.1409729,0.0014252517,0.00029485146,0.014224348
-1.42878325e-05,0.033068206,0.00093434606,0.000625685,0.34106797,-0.00012804297,0.12420301,-0.00826751,0.0031413739,-0.0071881358,3.913931e-05,-0.026618842,-0.061047215,0.0034820726,0.00030705266,0.0404305
-1.7984731e-06,-0.046172224,0.0003934885,0.00040447354,0.27588952,0.00013102939,-0.022647748,-0.031483177,-0.00017419754,-0.005697743,2.8237995e-05,-0.051684707,-0.16616054,0.002006985,6.372068e-05,0.13231051
-4.3708906e-06,0.008956916,0.00023846957,0.000949727,0.21763785,0.00011592687,0.20705621,-0.04123122,0.0011530065,-0.0040520956,4.863038e-05,-0.05669195,-0.12942593,0.0029673995,-7.1534423e-06,0.09880036
-2.5147898e-05,0.035785057,0.00026601594,0.0023269,0.25603977,-0.0030314613,0.35749456,-0.029538605,0.01757874,-0.007269622,0.00014512363,-0.0343274,-0.05205195,0.0030856787,0.0006904197,0.020872124
-2.2875945e-05,0.044617426,0.0016645925,0.0019078514,0.2980869,-0.0017073555,0.27515104,-0.015907945,0.010645854,-0.010225004,0.00010456313,-0.028161062,-0.061020043,0.0032848527,0.00077278283,0.019403588
-1.3270938e-05,0.04043853,0.00096650136,0.0010451736,0.27988002,2.138566e-05,0.13753293,-0.028475508,0.001325712,-0.0075813904,4.6814108e-05,-0.05198904,-0.10345767,0.00200459,0.00033005336,0.03959905
-1.6595704e-05,0.047520544,0.0010184678,0.0012415467,0.2747369,-8.076103e-05,0.13438827,-0.028812064,0.0017819331,-0.007590231,6.196802e-05,-0.042800777,-0.08575422,0.002246358,0.0003237869,0.044461343
-1.401552e-05,0.048487302,0.0008754673,0.0012723383,0.2670822,-2.5735528e-05,0.1566938,-0.036200084,0.0018704487,-0.007694104,6.919445e-05,-0.045156226,-0.10154898,0.0028945617,0.0002506006,0.05042485
-1.5418826e-05,0.05136151,0.0009421213,0.0018414528,0.24983731,-0.00021895712,0.25795072,-0.03833357,0.003774835,-0.0075007966,7.380828e-05,-0.050938815,-0.09862085,0.0030493564,0.00028599097,0.037543964
-2.0458665e-05,0.047706857,0.0014469615,0.0018534223,0.29027566,-0.0011474452,0.30009168,-0.01379738,0.009106088,-0.008627125,7.974418e-05,-0.032970622,-0.06268078,0.00321713,0.0005571583,0.019808318
