3.9549537e-08,-2.0637546e-07,6.707752e-06,0.0006842185,4.969508e-05,-0.00096824125,-0.000118514276,-3.276198e-08,0.00029447683,-6.657195e-09,4.1578132e-06,0.0054395096,4.0823893e-06,-0.037873782,1.6413034e-08,-0.068478264
3.8819945e-08,-2.853726e-07,8.518649e-06,0.00072244107,5.5854394e-05,-0.0011306265,-0.00013536208,-3.8507714e-08,0.00039230657,-1.162635e-08,5.0058848e-06,0.0051400675,4.4298777e-06,-0.043493107,1.8633349e-08,-0.06636563
3.4599893e-08,-3.1935858e-07,8.96188e-06,0.00077819696,5.830581e-05,-0.0011729801,-0.00013633196,-4.0172367e-08,0.00051379116,-1.5028546e-08,5.1383536e-06,0.004207687,3.868415e-06,-0.051822636,1.9123027e-08,-0.06857954
3.0774036e-08,-2.5026605e-07,7.221432e-06,0.00079962105,5.3095297e-05,-0.0010148981,-0.00011789144,-3.5189178e-08,0.0004983305,-1.0689685e-08,4.319896e-06,0.0035328697,3.035957e-06,-0.054181658,1.7081131e-08,-0.074090905
2.9594691e-08,-1.7676996e-07,5.8728197e-06,0.0007225731,4.6375066e-05,-0.0010050697,-0.00010100735,-2.8077999e-08,0.00032849846,-5.2537215e-09,3.605207e-06,0.004251522,2.5719933e-06,-0.046228353,1.4226509e-08,-0.07166265
3.2941113e-08,-1.7299016e-07,5.7595807e-06,0.00071879616,4.4985496e-05,-0.00088482356,-0.00010189523,-2.9338336e-08,0.00029415896,-5.229639e-09,3.6656077e-06,0.004336687,3.1287157e-06,-0.041607223,1.4863798e-08,-0.07340428
3.09953e-08,-1.6127409e-07,5.4192255e-06,0.00071496953,4.2576663e-05,-0.0009034219,-9.79858e-05,-2.740763e-08,0.00026812352,-4.5871134e-09,3.4337816e-06,0.0042927274,2.7104147e-06,-0.042939365,1.402015e-08,-0.07349261
3.529427e-08,-1.9171512e-07,6.4537644e-06,0.0006846076,4.6728368e-05,-0.0010305214,-0.0001105309,-3.0239033e-08,0.00027153236,-5.679075e-09,3.9508504e-06,0.005240833,3.3770489e-06,-0.039892975,1.526455e-08,-0.067943186
3.6519808e-08,-2.441645e-07,7.258444e-06,0.0007545443,5.1849438e-05,-0.0009441354,-0.00012223927,-3.6322472e-08,0.00039676653,-9.821676e-09,4.474574e-06,0.0042497637,3.98277e-06,-0.044801768,1.7746848e-08,-0.07234624
3.167778e-08,-2.1727739e-07,6.877282e-06,0.0007252597,4.9303824e-05,-0.00112062,-0.00011336104,-3.1242607e-08,0.0003503874,-7.24801e-09,4.072526e-06,0.004545511,2.9006633e-06,-0.047500838,1.5535834e-08,-0.068728894
3.5898285e-08,-2.6845984e-07,8.329667e-06,0.0007205947,5.4776487e-05,-0.0011793071,-0.0001277987,-3.6429185e-08,0.00038949124,-1.0193714e-08,4.847905e-06,0.0050205165,3.94028e-06,-0.04454388,1.7714655e-08,-0.065859795
3.0800997e-08,-2.5540655e-07,7.3727715e-06,0.0008069263,5.2184503e-05,-0.0010012572,-0.00011783516,-3.5976704e-08,0.00048718622,-1.1157094e-08,4.417324e-06,0.0034608727,3.16923e-06,-0.053754725,1.7400605e-08,-0.07441453
2.7712382e-08,-1.9395644e-07,6.5736776e-06,0.0007059825,4.664819e-05,-0.0012490959,-0.00010417061,-2.7744743e-08,0.0003101256,-5.560653e-09,3.7983152e-06,0.0046805716,2.3232708e-06,-0.04871781,1.3995474e-08,-0.066481896
3.4612448e-08,-2.5518412e-07,7.880718e-06,0.0007462,5.289648e-05,-0.001063615,-0.00012158519,-3.6326902e-08,0.00039953899,-9.961448e-09,4.7015556e-06,0.004422571,3.889357e-06,-0.045299582,1.7663801e-08,-0.069242395
2.6530193e-08,-2.1767394e-07,7.0347323e-06,0.0007482633,4.7501417e-05,-0.0012410281,-0.0001067467,-2.990637e-08,0.000358747,-7.1618533e-09,4.0150453e-06,0.0040730475,2.3502798e-06,-0.053280726,1.482069e-08,-0.06835679
3.0248778e-08,-2.3471708e-07,7.221444e-06,0.00076794554,4.929317e-05,-0.0010747851,-0.000113128015,-3.3396578e-08,0.00039257488,-8.81981e-09,4.2790407e-06,0.0039062416,3.005358e-06,-0.050508715,1.6356836e-08,-0.07123698
2.7510504e-08,-1.8789594e-07,6.1518617e-06,0.00074617047,4.6074758e-05,-0.0010524569,-0.00010085771,-2.864416e-08,0.00034673457,-5.8973786e-09,3.7032662e-06,0.003918018,2.4144533e-06,-0.049930878,1.4381509e-08,-0.07192118
2.9715405e-08,-1.6430404e-07,5.3584845e-06,0.0007505243,4.291903e-05,-0.0008435577,-9.647932e-05,-2.822577e-08,0.00030716154,-5.0821733e-09,3.4404472e-06,0.0037134218,2.6664989e-06,-0.045668256,1.4325977e-08,-0.07691066
2.9947408e-08,-1.4109709e-07,5.1542106e-06,0.0006703464,4.103023e-05,-0.0009817948,-9.247058e-05,-2.4529847e-08,0.00022201256,-3.339413e-09,3.228154e-06,0.004955484,2.4545227e-06,-0.04003904,1.279841e-08,-0.06988473
3.741047e-08,-2.0302225e-07,6.550547e-06,0.00071213336,4.7461814e-05,-0.00090718427,-0.00011353308,-3.2964373e-08,0.0002959016,-6.7950343e-09,4.1270014e-06,0.0047741244,3.968726e-06,-0.039350823,1.6451654e-08,-0.07129376
3.232693e-08,-2.0253088e-07,6.2922163e-06,0.00074393384,4.709367e-05,-0.00096103194,-0.00010974406,-3.123743e-08,0.00034186343,-6.9502315e-09,3.880203e-06,0.004128049,3.0000867e-06,-0.046681006,1.5587784e-08,-0.07292919
3.5431054e-08,-2.1841568e-07,7.0428005e-06,0.0007004909,5.0101793e-05,-0.0010864513,-0.000117369156,-3.231698e-08,0.0003233227,-7.1584627e-09,4.22639e-06,0.0051060063,3.4794527e-06,-0.042445213,1.6087894e-08,-0.067403495
3.605264e-08,-2.6355445e-07,7.883376e-06,0.00074789376,5.439535e-05,-0.0010462118,-0.00012614533,-3.713011e-08,0.00042105603,-1.0714028e-08,4.7222243e-06,0.004463468,3.9993693e-06,-0.045645293,1.8024403e-08,-0.069651976
3.047282e-08,-2.3271546e-07,7.112588e-06,0.0007588832,5.0126495e-05,-0.0011006506,-0.000114423805,-3.2748172e-08,0.00039911855,-8.581388e-09,4.1971957e-06,0.004042857,2.8812942e-06,-0.050991956,1.6097413e-08,-0.07061997
3.1868392e-08,-2.0361142e-07,6.2017252e-06,0.00077070063,4.8194357e-05,-0.00089037244,-0.00010842116,-3.214227e-08,0.00039202924,-7.479654e-09,3.890368e-06,0.003701087,3.0633423e-06,-0.04806145,1.595025e-08,-0.07586629
3.0093357e-08,-1.43512e-07,4.8655124e-06,0.000717613,4.217913e-05,-0.0008289274,-9.259621e-05,-2.5870754e-08,0.00027947058,-3.9106576e-09,3.1592251e-06,0.004060597,2.5160487e-06,-0.042873953,1.33798785e-08,-0.07616589
3.5292942e-08,-1.4149374e-07,4.9799573e-06,0.00067672116,4.1753414e-05,-0.00080316985,-9.636111e-05,-2.6650087e-08,0.00022633823,-3.6401784e-09,3.2695677e-06,0.004898452,3.1905818e-06,-0.036071938,1.3849921e-08,-0.07360127
3.805696e-08,-1.9097692e-07,6.655673e-06,0.00065392203,4.723421e-05,-0.0010670793,-0.00011365044,-3.0377286e-08,0.00024217294,-5.3722182e-09,4.053858e-06,0.006050673,3.7573548e-06,-0.03632391,1.5391285e-08,-0.06525323
3.8751402e-08,-3.3356181e-07,9.585797e-06,0.00074346876,5.8239206e-05,-0.0011857001,-0.00014394525,-4.216074e-08,0.00043667777,-1.5402348e-08,5.5164273e-06,0.004968297,4.828791e-06,-0.04547956,2.0051012e-08,-0.06576846
3.1490643e-08,-3.4145384e-07,9.460141e-06,0.00079682923,5.9211918e-05,-0.0013054368,-0.00013676574,-4.013224e-08,0.00056385394,-1.6649858e-08,5.2158657e-06,0.003969816,3.380555e-06,-0.057571653,1.8959048e-08,-0.06762601
2.9796318e-08,-2.545454e-07,7.200261e-06,0.00082736486,5.361396e-05,-0.0009762665,-0.00011700055,-3.59569e-08,0.0005514203,-1.1632679e-08,4.328233e-06,0.0031909372,2.9834548e-06,-0.0568338,1.7355552e-08,-0.0763143
2.6957833e-08,-1.5726074e-07,5.5965925e-06,0.0006938441,4.4371216e-05,-0.0011058177,-9.419514e-05,-2.5063121e-08,0.00028626542,-3.995448e-09,3.3738474e-06,0.004572624,2.1645953e-06,-0.04581998,1.2909084e-08,-0.06897293
3.3944314e-08,-1.8943334e-07,6.2354893e-06,0.00072632317,4.5953486e-05,-0.0008991147,-0.00010592499,-3.1321907e-08,0.00030098108,-6.113446e-09,3.9404536e-06,0.004345232,3.47718e-06,-0.041331965,1.569258e-08,-0.07277074
2.7793691e-08,-1.6420647e-07,5.5033383e-06,0.0007294147,4.1972562e-05,-0.0009790208,-9.589331e-05,-2.665831e-08,0.00027744766,-4.6893844e-09,3.4021186e-06,0.004031447,2.318156e-06,-0.047151264,1.3605793e-08,-0.0730618
3.441086e-08,-1.9281035e-07,6.3647217e-06,0.0007028497,4.6463792e-05,-0.000992136,-0.00010935721,-3.0539415e-08,0.00028702847,-5.944646e-09,3.9251036e-06,0.0048410674,3.302603e-06,-0.041401424,1.536761e-08,-0.06973849
3.470616e-08,-2.2759527e-07,7.2441285e-06,0.0007177326,5.0746075e-05,-0.0010755714,-0.00011763345,-3.33403e-08,0.0003472226,-7.862861e-09,4.3446494e-06,0.004798011,3.5353785e-06,-0.04372991,1.647792e-08,-0.06827991
3.27022e-08,-2.5726524e-07,7.858301e-06,0.00074508786,5.1899133e-05,-0.0011621887,-0.00012175118,-3.4894217e-08,0.0003912921,-9.791151e-09,4.569682e-06,0.0044462117,3.3344666e-06,-0.048623662,1.700812e-08,-0.06802132
3.1577294e-08,-3.0188443e-07,9.498449e-06,0.0007176785,5.6243578e-05,-0.001528755,-0.00013029802,-3.5844984e-08,0.0004077838,-1.1246135e-08,5.1040256e-06,0.0052109933,3.2708142e-06,-0.05010977,1.7278431e-08,-0.061117917
2.984999e-08,-3.655829e-07,1.0126474e-05,0.00082707155,5.9622696e-05,-0.0013014369,-0.0001353539,-4.2375685e-08,0.0006202024,-1.935718e-08,5.509813e-06,0.0035895423,3.5522223e-06,-0.059336543,1.977917e-08,-0.06845829
2.2641414e-08,-2.390324e-07,7.434878e-06,0.0008000855,4.980044e-05,-0.0013371983,-0.0001063384,-3.0605992e-08,0.00046703583,-8.895197e-09,4.0666623e-06,0.0033843708,1.969025e-06,-0.063627824,1.4935225e-08,-0.06977702
2.6560254e-08,-1.9983841e-07,6.495774e-06,0.0007655262,4.6941812e-05,-0.0010732135,-0.00010136701,-2.9755903e-08,0.000374116,-6.6462844e-09,3.8602675e-06,0.0036837528,2.444058e-06,-0.051896326,1.4791927e-08,-0.07217311
2.4255304e-08,-1.3916325e-07,4.8578663e-06,0.0007478198,3.9603394e-05,-0.00089693017,-8.4759595e-05,-2.4376442e-08,0.00027658875,-3.7196033e-09,3.0783308e-06,0.0034862128,1.9761437e-06,-0.048591077,1.2581335e-08,-0.07679787
2.7106449e-08,-1.2318537e-07,4.6244345e-06,0.00067963183,3.7099435e-05,-0.00092080375,-8.4050946e-05,-2.2612523e-08,0.00018973733,-2.7235494e-09,2.953556e-06,0.0045141787,2.138139e-06,-0.040700927,1.19366454e-08,-0.07241952
3.4265696e-08,-1.605049e-07,5.4871753e-06,0.0007000171,4.2494547e-05,-0.00084900344,-9.987401e-05,-2.8455501e-08,0.00024376599,-4.537736e-09,3.5433088e-06,0.004609631,3.2489213e-06,-0.03860542,1.455314e-08,-0.07326035
3.3251183e-08,-1.7622753e-07,5.8013484e-06,0.0007096261,4.423572e-05,-0.0009283148,-0.000104330175,-2.9027447e-08,0.00027432755,-5.2673776e-09,3.6416573e-06,0.0045559434,3.0193369e-06,-0.04206541,1.4737271e-08,-0.072072335
3.6991985e-08,-1.9936465e-07,6.13403e-06,0.00073465426,4.7869766e-05,-0.0008390913,-0.00011301475,-3.2810345e-08,0.00033399882,-7.0357054e-09,3.9249294e-06,0.0043148203,3.7240454e-06,-0.041751917,1.6389636e-08,-0.07463832
3.5488203e-08,-1.7416117e-07,5.541354e-06,0.00072001,4.634438e-05,-0.0008235215,-0.000106005304,-2.9938118e-08,0.0003139316,-5.516654e-09,3.5760534e-06,0.004358132,3.288188e-06,-0.041255053,1.5190947e-08,-0.075102
3.8543025e-08,-1.790449e-07,5.9460494e-06,0.0006814246,4.7166664e-05,-0.00088888407,-0.00011046234,-3.0434858e-08,0.00027577727,-5.3469775e-09,3.776542e-06,0.005233533,3.7592647e-06,-0.037118886,1.5463401e-08,-0.07070593
3.9721957e-08,-2.1805441e-07,6.669991e-06,0.00072302285,5.0606774e-05,-0.0008703029,-0.00012035,-3.488273e-08,0.00034366673,-8.016263e-09,4.223849e-06,0.004695111,4.2859065e-06,-0.039988115,1.7292455e-08,-0.07251065
3.606964e-08,-2.1152779e-07,6.4696437e-06,0.0007304193,4.9495018e-05,-0.000929319,-0.00011615086,-3.2856022e-08,0.00035076484,-7.498809e-09,4.025089e-06,0.004467687,3.5150383e-06,-0.043669786,1.6354091e-08,-0.07235822
3.782766e-08,-2.054506e-07,6.2112813e-06,0.0007389947,4.9846858e-05,-0.00082796655,-0.00011555983,-3.3628417e-08,0.00036470895,-7.531737e-09,3.9803635e-06,0.0042835427,3.856819e-06,-0.04200367,1.6742815e-08,-0.07504107
3.6191047e-08,-1.8420609e-07,6.090917e-06,0.00068776176,4.7979152e-05,-0.00095753325,-0.00011006237,-2.9994226e-08,0.0002960056,-5.5129834e-09,3.7953716e-06,0.0051017487,3.3883848e-06,-0.039714936,1.52031e-08,-0.06983627
3.939258e-08,-2.2179738e-07,6.682803e-06,0.00073749176,5.0714352e-05,-0.00084426673,-0.00012026677,-3.5569165e-08,0.0003611686,-8.498704e-09,4.2591914e-06,0.004442725,4.3323266e-06,-0.040811896,1.7564892e-08,-0.07383243
3.406384e-08,-1.9758859e-07,6.3069065e-06,0.00071217504,4.816172e-05,-0.0009974309,-0.000111363974,-3.0599665e-08,0.000322697,-6.3271424e-09,3.8695794e-06,0.0046838843,3.1244995e-06,-0.043700777,1.5376173e-08,-0.07045232
3.8759644e-08,-2.3159767e-07,7.0298547e-06,0.00073009706,5.1928844e-05,-0.00091916666,-0.00012244139,-3.565131e-08,0.0003685183,-8.799303e-09,4.3833734e-06,0.0046371073,4.227233e-06,-0.041544035,1.7556102e-08,-0.0716098
3.4160184e-08,-2.1952822e-07,6.9177026e-06,0.000719699,5.0575673e-05,-0.0010593402,-0.000116149844,-3.2381173e-08,0.00035441306,-7.486012e-09,4.165458e-06,0.0046957466,3.2962405e-06,-0.044810034,1.607884e-08,-0.069126934
3.5763453e-08,-2.6066357e-07,8.034678e-06,0.0007240374,5.3533582e-05,-0.0011439434,-0.00012620969,-3.5883378e-08,0.00037972088,-9.839186e-09,4.7157205e-06,0.004906085,3.830471e-06,-0.044819687,1.7501462e-08,-0.06682035
3.231526e-08,-2.6017236e-07,7.5276444e-06,0.00079082896,5.307483e-05,-0.0010176544,-0.00012098514,-3.6397307e-08,0.00047357826,-1.12169305e-08,4.504607e-06,0.0037182127,3.3668546e-06,-0.05175635,1.7613171e-08,-0.073041186
2.9181916e-08,-2.0402575e-07,6.6705634e-06,0.0007223514,4.809646e-05,-0.0011661304,-0.00010756472,-2.9433533e-08,0.00034139756,-6.36653e-09,3.9135084e-06,0.004464711,2.5618149e-06,-0.048729323,1.47291495e-08,-0.06827578
3.383365e-08,-2.345662e-07,7.353129e-06,0.00073924894,5.1209903e-05,-0.0010450807,-0.00011702055,-3.431547e-08,0.00037775433,-8.586595e-09,4.42421e-06,0.004416826,3.5710023e-06,-0.045235313,1.6845721e-08,-0.06978662
2.8317134e-08,-1.9909784e-07,6.3144685e-06,0.0007604451,4.6318044e-05,-0.0010257268,-0.00010408268,-3.0007918e-08,0.0003587819,-6.7060544e-09,3.812869e-06,0.0037900035,2.552183e-06,-0.050679855,1.4957545e-08,-0.072889246
3.023365e-08,-1.7367637e-07,5.609775e-06,0.0007443051,4.4163226e-05,-0.00089360285,-0.00010001072,-2.8745937e-08,0.00031590296,-5.4521703e-09,3.543305e-06,0.0038868312,2.6975088e-06,-0.046110254,1.4539646e-08,-0.07518392
3.2178587e-08,-1.5988948e-07,5.618365e-06,0.00068141916,4.402746e-05,-0.0009773499,-9.929185e-05,-2.695086e-08,0.0002560188,-4.2092516e-09,3.5069754e-06,0.004947235,2.8311354e-06,-0.04013008,1.38527785e-08,-0.069841065
3.6052082e-08,-2.232273e-07,7.408139e-06,0.0006900397,4.946954e-05,-0.0011220378,-0.00011812788,-3.2940587e-08,0.00029426586,-7.196737e-09,4.4169933e-06,0.005393162,3.7582536e-06,-0.04047967,1.6353875e-08,-0.065765806
3.2768884e-08,-2.656126e-07,7.5479866e-06,0.0008018964,5.193432e-05,-0.0009835487,-0.00012219735,-3.7277193e-08,0.0004639728,-1.1927762e-08,4.5485535e-06,0.0036025327,3.4856303e-06,-0.051921837,1.7983405e-08,-0.07412493
2.933485e-08,-2.1185532e-07,6.9307007e-06,0.0007125798,4.8970564e-05,-0.0012473543,-0.00011028755,-2.9518024e-08,0.00034041516,-6.560694e-09,3.9933766e-06,0.0047124927,2.5385255e-06,-0.049030863,1.475334e-08,-0.066439666
3.5854796e-08,-2.8747303e-07,8.871422e-06,0.000729196,5.6515048e-05,-0.0012023207,-0.00013054264,-3.814539e-08,0.00041651865,-1.1510268e-08,5.115449e-06,0.0049459245,4.193365e-06,-0.044881493,1.83871e-08,-0.06546998
2.7553718e-08,-2.9123453e-07,9.00137e-06,0.0007592134,5.3684464e-05,-0.0014786053,-0.0001219646,-3.4710677e-08,0.00043948044,-1.1251687e-08,4.817802e-06,0.004296246,2.730735e-06,-0.056221187,1.6704087e-08,-0.06425522
2.7341446e-08,-3.0740935e-07,8.9165005e-06,0.0008150712,5.424821e-05,-0.0012962561,-0.00012301361,-3.737478e-08,0.0005264698,-1.4051219e-08,4.886502e-06,0.0035284595,2.8691998e-06,-0.060112998,1.7756946e-08,-0.06912034
2.3857623e-08,-2.151986e-07,6.8372697e-06,0.0007876877,4.841929e-05,-0.0011966921,-0.00010247222,-2.9758704e-08,0.00043198778,-7.55862e-09,3.898134e-06,0.0034352283,2.0957923e-06,-0.058764763,1.4672734e-08,-0.071453035
2.505092e-08,-1.3557089e-07,4.3386067e-06,0.0008195863,3.954959e-05,-0.00067173917,-8.3775776e-05,-2.6116298e-08,0.0003464033,-4.398251e-09,2.9452685e-06,0.0026282815,2.1204157e-06,-0.051438898,1.3362084e-08,-0.08754346
2.3213975e-08,-6.547406e-08,2.8016054e-06,0.00063514896,2.97404e-05,-0.0006972069,-6.2397165e-05,-1.57191e-08,0.0001274933,-9.967257e-10,1.9437202e-06,0.004397747,1.4907465e-06,-0.035387713,8.92198e-09,-0.07886161
4.3412815e-08,-1.0841997e-07,4.4211797e-06,0.00059505866,3.7938345e-05,-0.00070284284,-9.183137e-05,-2.4705656e-08,0.00012789422,-2.1853326e-09,2.9948724e-06,0.0067397747,4.265144e-06,-0.025015762,1.3249749e-08,-0.07094012
4.2262403e-08,-2.2630124e-07,7.501388e-06,0.0006574916,4.956426e-05,-0.0010809965,-0.00012693151,-3.4231252e-08,0.0002457002,-7.2562822e-09,4.522751e-06,0.006394062,4.62517e-06,-0.03547393,1.7057726e-08,-0.06420651
4.0424887e-08,-3.558411e-07,8.747425e-06,0.00084210705,5.960414e-05,-0.00086313894,-0.0001492785,-4.7564647e-08,0.0006024309,-2.2525057e-08,5.3965696e-06,0.0034971023,5.3009594e-06,-0.051006887,2.2285416e-08,-0.07696907
3.2109078e-08,-2.003698e-07,6.007391e-06,0.0007491704,5.1033956e-05,-0.0009540401,-0.000111405665,-3.0612714e-08,0.00041601583,-7.0626593e-09,3.6972253e-06,0.0040115523,2.735028e-06,-0.049638256,1.5319989e-08,-0.07412774
4.1632816e-08,-1.9219114e-07,6.2607905e-06,0.0006869587,5.123975e-05,-0.00084167696,-0.000115989424,-3.297377e-08,0.00031991315,-6.249823e-09,4.0237796e-06,0.0052506425,4.4895214e-06,-0.03567474,1.6586597e-08,-0.07138593
3.605183e-08,-2.0282751e-07,6.7269593e-06,0.0006884755,4.8924503e-05,-0.0010416462,-0.000113987626,-3.138742e-08,0.0002968491,-6.28396e-09,4.0993846e-06,0.0052536516,3.552249e-06,-0.0401652,1.574562e-08,-0.06767073
3.6249887e-08,-2.714618e-07,7.966572e-06,0.0007525263,5.2792388e-05,-0.0010542775,-0.00012839526,-3.757453e-08,0.0003982103,-1.130406e-08,4.751626e-06,0.0044455044,3.9856504e-06,-0.046371154,1.8202032e-08,-0.06968861
3.2418043e-08,-2.3760533e-07,6.8807526e-06,0.00078660104,5.1853192e-05,-0.0009568795,-0.000117392374,-3.4695365e-08,0.00045805346,-9.8096145e-09,4.2022048e-06,0.0036716901,3.1795864e-06,-0.05130707,1.6957156e-08,-0.074722335
3.221151e-08,-1.7790941e-07,5.7903817e-06,0.0007204087,4.6825015e-05,-0.0009320872,-0.00010397906,-2.9035968e-08,0.00032723224,-5.4603126e-09,3.6257547e-06,0.0043360773,2.8796214e-06,-0.044067204,1.4705467e-08,-0.07280157
3.543317e-08,-1.7989939e-07,6.038031e-06,0.0006955675,4.6754998e-05,-0.0009251399,-0.00010684008,-3.001226e-08,0.00028807085,-5.368785e-09,3.804009e-06,0.0048819105,3.4353297e-06,-0.039343104,1.5198372e-08,-0.07083143
3.4151057e-08,-1.921946e-07,6.0766615e-06,0.00073421665,4.623549e-05,-0.00088858,-0.000108283886,-3.1277704e-08,0.0003175502,-6.422395e-09,3.839766e-06,0.004238947,3.3042704e-06,-0.043215472,1.5679271e-08,-0.07379941
3.391022e-08,-1.8866606e-07,6.087269e-06,0.00071329216,4.6500296e-05,-0.00095501996,-0.00010842413,-3.013043e-08,0.00030428194,-5.919191e-09,3.7833809e-06,0.0045918887,3.1273732e-06,-0.042865466,1.5193836e-08,-0.07145232
3.7345046e-08,-2.1246206e-07,6.6510684e-06,0.0007196355,5.006369e-05,-0.0009258159,-0.00011676586,-3.3476617e-08,0.0003413823,-7.4317166e-09,4.1546286e-06,0.0046873824,3.8596227e-06,-0.04125228,1.6644892e-08,-0.0714093
3.495646e-08,-2.2952476e-07,7.410311e-06,0.0006990266,5.1156378e-05,-0.0011584859,-0.00011954282,-3.275661e-08,0.00033132327,-7.598227e-09,4.3672303e-06,0.0052143815,3.4562327e-06,-0.04325348,1.6235093e-08,-0.06595695
3.5551366e-08,-3.0458156e-07,8.882621e-06,0.0007569859,5.646347e-05,-0.0011643065,-0.0001339072,-3.9477307e-08,0.00045183976,-1.3401046e-08,5.13241e-06,0.0045145988,4.0963514e-06,-0.0481085,1.8898682e-08,-0.067498915
2.9512194e-08,-2.5565413e-07,7.38977e-06,0.00080536347,5.242324e-05,-0.0010622424,-0.0001174155,-3.5064843e-08,0.0004952266,-1.0966352e-08,4.3513905e-06,0.0034727377,2.8861323e-06,-0.056034707,1.6978511e-08,-0.07347916
2.910925e-08,-1.8863726e-07,6.1538053e-06,0.0007333974,4.702011e-05,-0.0010446563,-0.00010334267,-2.8883457e-08,0.00034512795,-5.8777174e-09,3.7233165e-06,0.0041521937,2.5514476e-06,-0.04817773,1.4527749e-08,-0.07129493
3.2602742e-08,-2.0101646e-07,6.9398725e-06,0.0006867551,4.8351543e-05,-0.0011571578,-0.00010945069,-3.0147323e-08,0.00029435282,-5.8904703e-09,4.116502e-06,0.0052135848,3.1478885e-06,-0.041930012,1.5126387e-08,-0.06576653
3.0863617e-08,-2.3213353e-07,6.9867588e-06,0.0007870258,4.8389873e-05,-0.0009744362,-0.00011242081,-3.4206597e-08,0.00039989493,-9.191211e-09,4.243891e-06,0.003623063,3.1586928e-06,-0.050352134,1.6721454e-08,-0.07411734
2.7051192e-08,-1.8206651e-07,6.0299544e-06,0.00072935154,4.453557e-05,-0.0011110229,-0.00010026511,-2.7343285e-08,0.00031023697,-5.377495e-09,3.5882367e-06,0.004158761,2.2305976e-06,-0.049984317,1.3834196e-08,-0.07035846
3.4465028e-08,-1.8820509e-07,5.802918e-06,0.00076317234,4.6969155e-05,-0.0007752727,-0.00010625177,-3.2255922e-08,0.00036139833,-6.7673676e-09,3.7917591e-06,0.003735777,3.4906793e-06,-0.043571305,1.6111018e-08,-0.07821601
2.869271e-08,-1.2838768e-07,4.652061e-06,0.0006799345,3.9790906e-05,-0.0009058966,-8.798832e-05,-2.3295334e-08,0.00022574874,-2.9803775e-09,2.9735093e-06,0.0045833397,2.2301547e-06,-0.041026887,1.2265931e-08,-0.072772205
3.9688974e-08,-1.7816011e-07,5.9393965e-06,0.0006878138,4.5647717e-05,-0.00082881044,-0.00010976071,-3.1343355e-08,0.00025552325,-5.4454863e-09,3.8441726e-06,0.0051049213,4.1435037e-06,-0.035563998,1.5881476e-08,-0.07206315
3.567983e-08,-2.046586e-07,6.5674994e-06,0.0007052195,4.8296224e-05,-0.0009999701,-0.00011419056,-3.164467e-08,0.00030739914,-6.632632e-09,4.029954e-06,0.0049067438,3.4487919e-06,-0.041841008,1.5845226e-08,-0.06953197
3.777963e-08,-2.620507e-07,7.836047e-06,0.0007317887,5.346639e-05,-0.0010508739,-0.000128833,-3.6973436e-08,0.00038295978,-1.0398557e-08,4.6988944e-06,0.004794517,4.1369567e-06,-0.043951824,1.8014388e-08,-0.068715155
3.4341184e-08,-2.4366295e-07,6.957197e-06,0.00078880216,5.284242e-05,-0.0009074975,-0.00012028808,-3.6123865e-08,0.00046833034,-1.0482113e-08,4.3095047e-06,0.0036878148,3.5439632e-06,-0.049547784,1.7598465e-08,-0.07552859
3.1685286e-08,-1.7355082e-07,5.6777308e-06,0.0007164136,4.6102152e-05,-0.00094313326,-0.00010279847,-2.8327115e-08,0.00031660436,-5.190252e-09,3.546195e-06,0.004369599,2.749731e-06,-0.04433292,1.4401091e-08,-0.07259198
3.7302847e-08,-1.8939564e-07,6.282393e-06,0.00069334556,4.8125392e-05,-0.0009217328,-0.00011101578,-3.1324255e-08,0.00029540525,-5.8743956e-09,3.956296e-06,0.005039859,3.7731609e-06,-0.03839388,1.578208e-08,-0.07035905
3.4649062e-08,-2.2095176e-07,7.149873e-06,0.0007053914,4.94087e-05,-0.0011017501,-0.00011657042,-3.2427472e-08,0.00031688553,-7.277826e-09,4.2714e-06,0.005011962,3.4399652e-06,-0.04297589,1.610802e-08,-0.06732113
3.4661348e-08,-3.0803918e-07,9.38626e-06,0.0007240638,5.612634e-05,-0.0013670354,-0.00013490034,-3.789464e-08,0.0004019108,-1.2289164e-08,5.2110263e-06,0.0051712873,3.821808e-06,-0.04758816,1.8209708e-08,-0.062993005
3.122165e-08,-4.539059e-07,1.3479735e-05,0.00073219603,6.6226356e-05,-0.0020331435,-0.0001553226,-4.323144e-08,0.0005347393,-2.1005148e-08,6.516712e-06,0.0055856872,3.7930001e-06,-0.055462703,2.003476e-08,-0.05547578
2.4969575e-08,-6.6118275e-07,1.7769216e-05,0.00082712196,7.425629e-05,-0.0024518976,-0.00016728784,-5.122907e-08,0.0008590666,-4.269897e-08,7.6176602e-06,0.004237889,3.5400005e-06,-0.07246191,2.2716238e-08,-0.055407513
1.7749613e-08,-4.890352e-07,1.3102607e-05,0.0009655814,6.531084e-05,-0.0018967548,-0.00013209578,-4.4667352e-08,0.0010884522,-3.4988716e-08,5.817681e-06,0.0023300736,2.1168116e-06,-0.09339057,1.9960725e-08,-0.06756808
1.4879347e-08,-1.9936712e-07,6.364711e-06,0.0009135122,4.6694353e-05,-0.0012156853,-8.768384e-05,-2.7612083e-08,0.00059465965,-8.284996e-09,3.432919e-06,0.0020694614,1.2469405e-06,-0.082196094,1.3451272e-08,-0.0790786
1.7585611e-08,-1.3167319e-07,6.280703e-06,0.0005947677,3.9273742e-05,-0.002100068,-7.855903e-05,-1.8189542e-08,0.00015127384,-2.034494e-09,3.201094e-06,0.006484779,1.2365739e-06,-0.046169188,9.71261e-09,-0.05363229
2.4130825e-08,-3.2563617e-07,1.0687433e-05,0.0007943653,4.890401e-05,-0.0015545588,-0.000114905946,-3.784307e-08,0.0003588962,-1.3441866e-08,5.3923573e-06,0.0038046446,3.1285608e-06,-0.055555902,1.7825244e-08,-0.0634243
1.32361535e-08,-3.0573148e-07,1.0266188e-05,0.00081216375,4.607425e-05,-0.002561506,-0.00010293268,-2.8402425e-08,0.00037888423,-1.0728513e-08,4.32154e-06,0.0033660578,1.1359601e-06,-0.0854371,1.3573112e-08,-0.05880144
2.1307908e-08,-3.7570408e-07,1.0223467e-05,0.0009483541,5.6931498e-05,-0.0013269188,-0.000121457946,-4.2275417e-08,0.00080595975,-2.4017124e-08,5.2392843e-06,0.0023009924,2.5314857e-06,-0.07789298,1.937312e-08,-0.07412057
1.3047732e-08,-1.1199569e-07,4.162493e-06,0.00082253484,3.6895348e-05,-0.0010320098,-6.682832e-05,-1.919227e-08,0.00033604083,-2.8821696e-09,2.4678975e-06,0.0023248098,9.0488004e-07,-0.06936776,1.002884e-08,-0.081149526
2.0570933e-08,-7.689593e-08,3.3587326e-06,0.0006580665,2.9849096e-05,-0.0008311975,-6.301344e-05,-1.6718761e-08,0.00011461101,-1.2295244e-09,2.2416668e-06,0.0041413317,1.4409908e-06,-0.0388823,9.266195e-09,-0.07560712
2.6138935e-08,-9.5193386e-08,4.250402e-06,0.00061300135,3.2362695e-05,-0.0009816716,-7.407889e-05,-1.9202297e-08,0.00010551624,-1.5535196e-09,2.7222986e-06,0.005621034,2.0372363e-06,-0.03361845,1.0461344e-08,-0.067634545
3.1569122e-08,-1.8978021e-07,6.1124465e-06,0.00074533344,4.118784e-05,-0.0009157842,-0.000103799,-3.0593526e-08,0.00024937157,-6.197518e-09,3.825702e-06,0.004029513,3.0619926e-06,-0.044430196,1.532681e-08,-0.07378628
3.0614302e-08,-1.9749835e-07,6.183771e-06,0.0007407354,4.601532e-05,-0.0010123958,-0.00010764691,-2.9911366e-08,0.00032960207,-6.520216e-09,3.7605466e-06,0.0041326224,2.674779e-06,-0.04845604,1.4991976e-08,-0.07217753
3.7346968e-08,-2.1595348e-07,6.7918277e-06,0.0007157923,5.1158462e-05,-0.0009523379,-0.00011774832,-3.3613308e-08,0.00035177424,-7.538305e-09,4.2129595e-06,0.0047833407,3.87518e-06,-0.041273877,1.6692107e-08,-0.07056694
3.4318433e-08,-2.265791e-07,7.3777687e-06,0.00070117577,5.1161867e-05,-0.0011565835,-0.00011776461,-3.2524444e-08,0.0003357856,-7.440379e-09,4.351046e-06,0.0051291306,3.4058926e-06,-0.04342151,1.6124764e-08,-0.06613459
3.3799903e-08,-2.728715e-07,7.919001e-06,0.0007791965,5.2947595e-05,-0.0010439544,-0.0001249422,-3.7562536e-08,0.00044342634,-1.1834113e-08,4.710221e-06,0.003973152,3.6890017e-06,-0.04968752,1.8118495e-08,-0.07142232
2.8785763e-08,-1.9546646e-07,5.9058993e-06,0.0007895831,4.7146186e-05,-0.00090571144,-0.00010419416,-3.0587124e-08,0.00041139903,-7.165379e-09,3.6754332e-06,0.00336879,2.5532488e-06,-0.052653383,1.5222678e-08,-0.07735978
3.1587568e-08,-1.424028e-07,4.909828e-06,0.0006995887,4.256854e-05,-0.0008356606,-9.3792216e-05,-2.5897402e-08,0.0002661729,-3.7560097e-09,3.187534e-06,0.004387775,2.67837e-06,-0.040572576,1.3431299e-08,-0.07474869
3.636241e-08,-1.5338227e-07,5.474161e-06,0.0006635756,4.3721644e-05,-0.0008815421,-0.00010081039,-2.766194e-08,0.00022995527,-3.975967e-09,3.5154212e-06,0.0053482493,3.4238526e-06,-0.03533895,1.4276657e-08,-0.07039356
3.6784805e-08,-2.0838883e-07,6.655674e-06,0.0007105111,4.7530284e-05,-0.0009579672,-0.00011519221,-3.2705948e-08,0.00029578042,-6.9699406e-09,4.1280014e-06,0.004848104,3.7520872e-06,-0.040702336,1.6315463e-08,-0.07027565
3.5722298e-08,-2.673347e-07,8.2611905e-06,0.0007118393,5.3569227e-05,-0.0012326827,-0.00012883119,-3.551652e-08,0.00036293257,-9.859932e-09,4.755024e-06,0.005214636,3.7014836e-06,-0.045207493,1.733473e-08,-0.064872384
3.5439374e-08,-3.4688117e-07,9.735927e-06,0.000774105,6.051253e-05,-0.0012273145,-0.00014180675,-4.2242167e-08,0.0005306272,-1.6955978e-08,5.5022647e-06,0.0043975064,4.261005e-06,-0.05084856,1.9949285e-08,-0.066889174
2.8624834e-08,-2.755596e-07,7.972482e-06,0.0008045393,5.4458193e-05,-0.0011744787,-0.0001203964,-3.5705018e-08,0.0005262362,-1.2025384e-08,4.5453207e-06,0.0035563763,2.8191137e-06,-0.05810036,1.7171532e-08,-0.071200244
2.769954e-08,-1.7286685e-07,5.235997e-06,0.000816422,4.5090717e-05,-0.00077084784,-9.668457e-05,-2.9606275e-08,0.00042127105,-6.3780266e-09,3.4039858e-06,0.0029074033,2.4578815e-06,-0.05289019,1.4828811e-08,-0.08291309
2.7282804e-08,-1.03277586e-07,4.171538e-06,0.0006321651,3.7251673e-05,-0.0009400733,-7.957678e-05,-2.0030933e-08,0.00017711027,-1.9109674e-09,2.6740145e-06,0.0052587246,1.9819036e-06,-0.037031442,1.0853226e-08,-0.070039675
4.10963e-08,-1.8864111e-07,6.628176e-06,0.0006605429,4.6623278e-05,-0.000927499,-0.00011345545,-3.226093e-08,0.00022835539,-5.562477e-09,4.189337e-06,0.0058987793,4.6407754e-06,-0.033026833,1.6269915e-08,-0.06755913
3.2412675e-08,-2.4178453e-07,7.177116e-06,0.00076749484,4.8885973e-05,-0.0010334452,-0.000118072596,-3.435904e-08,0.00037605694,-9.466949e-09,4.300939e-06,0.003995825,3.2015612e-06,-0.049752176,1.6813548e-08,-0.07190004
3.333672e-08,-2.3590586e-07,7.0421784e-06,0.0007537835,5.079046e-05,-0.0010312832,-0.00011877125,-3.387268e-08,0.0003962554,-8.985252e-09,4.236006e-06,0.0041845683,3.226154e-06,-0.04863573,1.664692e-08,-0.07139526
3.489328e-08,-2.1461585e-07,6.6671514e-06,0.0007350355,5.1556082e-05,-0.00095476594,-0.00011481238,-3.3076024e-08,0.00038807665,-7.643929e-09,4.123384e-06,0.004370603,3.492541e-06,-0.04433692,1.6400971e-08,-0.071929276
3.2525186e-08,-1.8519832e-07,5.9812223e-06,0.00072830386,4.647803e-05,-0.0009266522,-0.00010533546,-3.0000358e-08,0.00032338285,-5.8932113e-09,3.745517e-06,0.00426189,3.0256847e-06,-0.044044357,1.51071e-08,-0.072992794
3.403632e-08,-2.2302898e-07,7.901139e-06,0.0006487107,5.0048217e-05,-0.0014204386,-0.000118269316,-3.0579034e-08,0.00026560144,-6.255633e-09,4.4512262e-06,0.0064324765,3.255702e-06,-0.04065568,1.5300193e-08,-0.059709102
3.302508e-08,-7.629162e-07,2.6500174e-05,0.00059832394,8.265906e-05,-0.0045016995,-0.00021130624,-5.1295014e-08,0.0004198986,-3.31266e-08,1.0173408e-05,0.012001419,5.619683e-06,-0.0464707,2.2976035e-08,-0.037108984
1.3398364e-08,-1.7713825e-06,3.5341134e-05,0.0011263627,0.00010238893,-0.002854816,-0.00021273928,-9.145307e-08,0.0028917268,-3.5945658e-07,1.225505e-05,0.0019274517,5.1738934e-06,-0.11105026,3.685561e-08,-0.05916086
8.72928e-09,-7.287749e-07,2.0913478e-05,0.0009643568,7.938734e-05,-0.004735654,-0.00014057658,-4.2451866e-08,0.0014301001,-5.2446076e-08,6.295946e-06,0.0025338978,1.0365115e-06,-0.13718623,1.8221469e-08,-0.052825347
1.4574965e-08,-7.368418e-07,2.0222602e-05,0.0009538261,8.2078484e-05,-0.0029221966,-0.00014492335,-5.140895e-08,0.0014042149,-5.8085295e-08,7.3408823e-06,0.0026028964,2.3370728e-06,-0.099656306,2.2196998e-08,-0.05739056
5.8862937e-09,-2.6006967e-07,1.08005825e-05,0.0008237448,4.532962e-05,-0.0035518757,-7.7085744e-05,-2.2712463e-08,0.000338016,-7.2030315e-09,3.6853007e-06,0.0027924094,6.5099175e-07,-0.098794,1.0961706e-08,-0.054598104
7.513787e-09,-3.3285534e-07,1.2353089e-05,0.0008775939,4.1470896e-05,-0.0031253844,-8.706722e-05,-2.8296293e-08,0.00020902554,-1.193282e-08,4.3133964e-06,0.002563953,9.3349456e-07,-0.09615941,1.3249652e-08,-0.05706659
6.5966685e-09,-2.788986e-07,1.0416995e-05,0.00091379683,4.2793254e-05,-0.0027503753,-8.041453e-05,-2.6113838e-08,0.00035884883,-1.02572955e-08,3.8059727e-06,0.0021392219,7.616992e-07,-0.103942804,1.2346009e-08,-0.06189793
7.776269e-09,-1.8200451e-07,6.781249e-06,0.0009456817,3.6754096e-05,-0.0016435334,-6.990877e-05,-2.3224654e-08,0.00030460057,-6.476707e-09,3.0784877e-06,0.0017279024,7.5348163e-07,-0.09569587,1.1353028e-08,-0.07479231
8.430114e-09,-9.823722e-08,4.5904785e-06,0.0007287072,2.9734354e-05,-0.0017028502,-5.5884873e-05,-1.4684044e-08,0.000107206404,-1.6312677e-09,2.315577e-06,0.0030832975,5.935029e-07,-0.06726429,7.919872e-09,-0.06650819
1.3894645e-08,-1.17801456e-07,5.093501e-06,0.0007313485,3.0551375e-05,-0.0013225031,-6.561598e-05,-1.8994582e-08,0.00010409688,-2.2922968e-09,2.8095515e-06,0.0033678282,1.136336e-06,-0.05430335,9.970632e-09,-0.069013
1.3074595e-08,-1.18966696e-07,4.855474e-06,0.00075188506,3.017229e-05,-0.0013314332,-6.671806e-05,-1.8555284e-08,0.00013474702,-2.4685487e-09,2.6774244e-06,0.0031203763,9.657122e-07,-0.060638573,9.756094e-09,-0.07081094
1.9938616e-08,-1.464466e-07,5.185018e-06,0.00077450875,3.602232e-05,-0.0010356581,-8.1356455e-05,-2.3751294e-08,0.00022715605,-3.953581e-09,3.1095794e-06,0.0031592255,1.6110218e-06,-0.055050302,1.2165902e-08,-0.075369164
2.2415618e-08,-1.2116551e-07,4.538364e-06,0.0007141292,3.651053e-05,-0.00095902744,-7.8638375e-05,-2.1631454e-08,0.00021393209,-2.73598e-09,2.8492987e-06,0.0038024846,1.7045762e-06,-0.046834283,1.1385376e-08,-0.07426523
2.8721066e-08,-1.3620941e-07,5.090237e-06,0.0006781308,3.8582606e-05,-0.00095701497,-8.8598325e-05,-2.425533e-08,0.00019410368,-3.1623368e-09,3.2135583e-06,0.0047222334,2.4307947e-06,-0.039736148,1.2656036e-08,-0.07074977
3.198906e-08,-2.0370034e-07,7.2197577e-06,0.0006700924,4.591012e-05,-0.0012789199,-0.00010992101,-2.9495732e-08,0.00024274446,-5.6541185e-09,4.175531e-06,0.0056481427,3.029678e-06,-0.041540403,1.4830454e-08,-0.06300891
3.268163e-08,-3.504169e-07,1.0131936e-05,0.00077185646,5.6973153e-05,-0.0013630574,-0.0001379744,-4.102893e-08,0.00047195482,-1.6318534e-08,5.5331584e-06,0.00442526,3.8569183e-06,-0.05256705,1.936101e-08,-0.06486515
2.6652325e-08,-3.2330527e-07,9.1829315e-06,0.00082187814,5.6478148e-05,-0.0013753559,-0.00012624958,-3.7640074e-08,0.00058041065,-1.5303575e-08,4.9309824e-06,0.003493535,2.694912e-06,-0.06374526,1.7805759e-08,-0.06848729
2.636963e-08,-2.6838237e-07,8.452263e-06,0.0007591018,5.375522e-05,-0.0014430867,-0.00011638874,-3.3006245e-08,0.00045520297,-9.891787e-09,4.5647603e-06,0.004155135,2.508592e-06,-0.056831498,1.6000218e-08,-0.06518806
2.6516586e-08,-3.3525066e-07,1.1699409e-05,0.0006832349,5.774394e-05,-0.0022561168,-0.00012900063,-3.430018e-08,0.00037790247,-1.096459e-08,5.546879e-06,0.006083923,2.7634437e-06,-0.05279411,1.6428544e-08,-0.052881714
2.2191024e-08,-5.867833e-07,1.6445287e-05,0.00084726117,6.579138e-05,-0.002334027,-0.00014962463,-4.797974e-08,0.00075090636,-3.5583213e-08,7.031139e-06,0.0037395684,3.1151817e-06,-0.073815286,2.1423345e-08,-0.057324138
1.4850234e-08,-4.184073e-07,1.1916633e-05,0.00095830765,5.839485e-05,-0.0020140836,-0.000118895536,-3.9064965e-08,0.0009001853,-2.5886306e-08,5.1614516e-06,0.0022567527,1.6004983e-06,-0.09777426,1.7706178e-08,-0.06734887
1.5628464e-08,-2.3589058e-07,7.651976e-06,0.0008637015,4.9269533e-05,-0.0015266926,-9.468651e-05,-2.8767106e-08,0.00054815423,-9.167802e-09,3.854537e-06,0.0025845545,1.3678832e-06,-0.07868671,1.3906162e-08,-0.0709333
1.6194145e-08,-1.3227178e-07,5.16754e-06,0.00075036375,3.799304e-05,-0.0012269702,-7.373728e-05,-2.096014e-08,0.000251938,-3.0460083e-09,2.9440498e-06,0.0032629399,1.2635068e-06,-0.057300214,1.086745e-08,-0.07145501
1.7008313e-08,-1.12321935e-07,4.747526e-06,0.00069432304,3.2062653e-05,-0.0012313344,-6.97384e-05,-1.8875896e-08,0.00013413125,-2.105659e-09,2.763444e-06,0.0039437134,1.2732625e-06,-0.04919747,1.0037585e-08,-0.068654895
2.1444098e-08,-1.4778612e-07,5.309421e-06,0.0007551693,3.5936548e-05,-0.0010363455,-8.292639e-05,-2.4162693e-08,0.00020964016,-3.876323e-09,3.2007204e-06,0.0034374157,1.7884481e-06,-0.051367868,1.23862085e-08,-0.07388801
2.3334907e-08,-1.4931673e-07,5.3777558e-06,0.0007172656,3.8715818e-05,-0.0011124493,-8.7414555e-05,-2.3795105e-08,0.00022942325,-3.7163406e-09,3.2171824e-06,0.00404682,1.8314977e-06,-0.049177226,1.2284437e-08,-0.07056444
3.0462328e-08,-1.7511124e-07,5.7511043e-06,0.00074390345,4.3456104e-05,-0.0008880937,-9.9381316e-05,-2.9243898e-08,0.00029781982,-5.484242e-09,3.6407569e-06,0.003905151,2.862012e-06,-0.044749234,1.4752184e-08,-0.074892126
2.8134304e-08,-1.4755986e-07,5.1664424e-06,0.000704923,4.0943956e-05,-0.0009560416,-9.20474e-05,-2.5145361e-08,0.00024934261,-3.8078487e-09,3.237742e-06,0.004307467,2.3012456e-06,-0.043977547,1.3004075e-08,-0.07249108
3.4990933e-08,-1.784873e-07,5.9247195e-06,0.00070612313,4.488497e-05,-0.0008947422,-0.00010563509,-3.0037793e-08,0.00027295953,-5.4134914e-09,3.7599284e-06,0.0046606646,3.3908411e-06,-0.039881367,1.5204481e-08,-0.072132595
3.3807872e-08,-1.8990416e-07,6.1475494e-06,0.00071656617,4.6503676e-05,-0.0009495108,-0.00010808105,-3.0412856e-08,0.0003056108,-6.0061893e-09,3.8275352e-06,0.004535877,3.1841075e-06,-0.042740718,1.5306984e-08,-0.071613155
3.53935e-08,-2.0623233e-07,6.427587e-06,0.0007304727,4.8213165e-05,-0.0009234916,-0.0001133544,-3.2494402e-08,0.00033459012,-7.1474555e-09,4.0137706e-06,0.0044209477,3.5003734e-06,-0.04314666,1.6194024e-08,-0.072449565
3.5021557e-08,-2.0845111e-07,6.6584266e-06,0.00071178214,4.944221e-05,-0.0010117836,-0.00011427411,-3.1880653e-08,0.0003320997,-6.881842e-09,4.0694426e-06,0.0047841757,3.3953165e-06,-0.042880032,1.5916397e-08,-0.06964916
3.6279182e-08,-2.7814588e-07,9.097664e-06,0.0006779618,5.5525925e-05,-0.0014178433,-0.00013203996,-3.558404e-08,0.00034062003,-9.583008e-09,5.0681115e-06,0.0061060605,3.914735e-06,-0.04260606,1.7350779e-08,-0.060232766
3.288408e-08,-4.5091835e-07,1.2443793e-05,0.0007856477,6.5064865e-05,-0.0015681448,-0.00015469351,-4.6605912e-08,0.00060300156,-2.4688724e-08,6.440124e-06,0.0045425035,4.3571004e-06,-0.055754915,2.1465087e-08,-0.061925694
2.4521809e-08,-4.3418737e-07,1.226073e-05,0.00081640616,6.315005e-05,-0.0019384915,-0.00014041246,-4.1096595e-08,0.00067319017,-2.2201231e-08,5.820304e-06,0.0038788328,2.650579e-06,-0.070386134,1.8947308e-08,-0.060997088
2.3333726e-08,-3.503218e-07,9.707274e-06,0.00089234096,5.8855585e-05,-0.0013520571,-0.00012333739,-4.0001925e-08,0.00076296163,-1.9633111e-08,5.0836916e-06,0.0027401294,2.5493464e-06,-0.07240742,1.8582435e-08,-0.07175808
1.7964974e-08,-1.4704574e-07,4.9531577e-06,0.000827167,4.1323856e-05,-0.0009844797,-8.07136e-05,-2.3923231e-08,0.00039655343,-4.5628967e-09,2.9803648e-06,0.002559854,1.3799992e-06,-0.06437554,1.2158279e-08,-0.08021159
2.2411115e-08,-9.748476e-08,4.1167236e-06,0.0006484829,3.4317312e-05,-0.0010041873,-7.227194e-05,-1.8662092e-08,0.00015302771,-1.705359e-09,2.601698e-06,0.0047043744,1.6116073e-06,-0.040196873,1.0131877e-08,-0.07017098
3.014067e-08,-1.4106278e-07,5.350738e-06,0.0006760214,3.851872e-05,-0.00094279204,-8.994889e-05,-2.5413698e-08,0.00018081968,-3.3347975e-09,3.3918752e-06,0.00484502,2.7709168e-06,-0.037641086,1.3175245e-08,-0.07026141
2.7740196e-08,-1.8590792e-07,6.202167e-06,0.0007293799,4.176134e-05,-0.0010975046,-0.00010068132,-2.805772e-08,0.00025762786,-5.5175775e-09,3.7004654e-06,0.004214303,2.4106043e-06,-0.048125234,1.415134e-08,-0.070096955
3.283411e-08,-2.3720813e-07,7.28381e-06,0.000745745,4.9789785e-05,-0.0010761298,-0.00011755918,-3.3795143e-08,0.0003673875,-8.7535446e-09,4.3373225e-06,0.004323001,3.2746093e-06,-0.04759023,1.6597014e-08,-0.06987139
3.1759146e-08,-2.1573175e-07,6.5837585e-06,0.0007647556,4.9820977e-05,-0.00096046354,-0.000111335736,-3.2673984e-08,0.00040575425,-7.981245e-09,4.043229e-06,0.0038579623,3.076062e-06,-0.04866594,1.6141154e-08,-0.07374673
3.0671888e-08,-1.7968455e-07,6.0398775e-06,0.00070799893,4.569069e-05,-0.0010362262,-0.00010289896,-2.8289746e-08,0.0002981222,-5.2232703e-09,3.6849497e-06,0.004567729,2.7054386e-06,-0.044439755,1.4340708e-08,-0.069995515
3.4469593e-08,-2.1066236e-07,6.7970113e-06,0.00071938353,4.8620674e-05,-0.0010033505,-0.00011285495,-3.2390073e-08,0.00032530204,-7.044062e-09,4.161802e-06,0.0046425713,3.494343e-06,-0.04269652,1.6109457e-08,-0.06994426
3.120531e-08,-2.02797e-07,6.2811678e-06,0.0007596571,4.693909e-05,-0.00094320305,-0.00010783035,-3.1425465e-08,0.0003592235,-7.1409456e-09,3.8847047e-06,0.0038611453,2.9381983e-06,-0.048020016,1.5632768e-08,-0.07415369
3.1993256e-08,-1.9045105e-07,6.3744633e-06,0.00069837784,4.672373e-05,-0.0010843847,-0.00010727751,-2.9144925e-08,0.0002949178,-5.6148397e-09,3.8417443e-06,0.004874466,2.8756697e-06,-0.043637376,1.4715894e-08,-0.06823979
3.5981834e-08,-2.4602144e-07,7.677267e-06,0.00072638755,5.2422496e-05,-0.0010653811,-0.000122333,-3.5476866e-08,0.00036959007,-9.138125e-09,4.6016544e-06,0.0047643646,3.925678e-06,-0.04345738,1.7368881e-08,-0.06834682
3.040327e-08,-2.3570834e-07,7.1371073e-06,0.0007695779,4.9869268e-05,-0.0010736658,-0.00011441303,-3.3306414e-08,0.00040612236,-8.963938e-09,4.230579e-06,0.0038924883,2.93305e-06,-0.051443756,1.6322357e-08,-0.07154116
3.0601527e-08,-2.0054445e-07,6.2172235e-06,0.0007610453,4.7421265e-05,-0.0009505569,-0.000106964035,-3.1025213e-08,0.00037298352,-7.0194646e-09,3.836656e-06,0.0038150905,2.8270726e-06,-0.04884383,1.5450205e-08,-0.074259385
3.1401417e-08,-1.6007927e-07,5.3311323e-06,0.0007211959,4.4263983e-05,-0.00086416356,-9.793457e-05,-2.7699834e-08,0.00029997382,-4.65969e-09,3.4160223e-06,0.004163091,2.7752435e-06,-0.042956278,1.4156745e-08,-0.07478489
3.358404e-08,-1.523727e-07,5.2715086e-06,0.00068999355,4.2710384e-05,-0.0008626144,-9.797372e-05,-2.7181722e-08,0.00024712732,-4.0957153e-09,3.394893e-06,0.0047147046,3.016344e-06,-0.038758144,1.4009458e-08,-0.07284004
3.6126227e-08,-1.7806997e-07,5.856288e-06,0.000702603,4.523134e-05,-0.0008751732,-0.00010704502,-3.0197402e-08,0.00027381172,-5.4324496e-09,3.7344755e-06,0.004743413,3.4890154e-06,-0.039251354,1.5305236e-08,-0.0723883
3.6412033e-08,-1.9430125e-07,6.0369734e-06,0.0007292586,4.723631e-05,-0.0008526934,-0.00011154488,-3.2001605e-08,0.00032259963,-6.641983e-09,3.850526e-06,0.00436913,3.5681257e-06,-0.041835416,1.6044048e-08,-0.074226655
3.6917758e-08,-1.9252862e-07,6.145386e-06,0.0007055642,4.81959e-05,-0.0009102514,-0.00011244152,-3.1314148e-08,0.00031198788,-6.206232e-09,3.8643457e-06,0.0048109666,3.5580601e-06,-0.040506795,1.5766842e-08,-0.07160534
3.891099e-08,-2.1283591e-07,6.564187e-06,0.000721133,5.052188e-05,-0.00087990914,-0.00011848714,-3.411824e-08,0.00034585907,-7.637066e-09,4.1491394e-06,0.004680485,4.094613e-06,-0.040376484,1.6959008e-08,-0.072405934
3.6194383e-08,-2.1487006e-07,6.7862975e-06,0.0007096551,5.016021e-05,-0.0010110413,-0.00011727825,-3.2603598e-08,0.00033406063,-7.2528508e-09,4.1441626e-06,0.0048950044,3.560504e-06,-0.042393234,1.6239893e-08,-0.069359966
3.7411958e-08,-2.5079584e-07,7.515217e-06,0.0007376729,5.3238244e-05,-0.0010003751,-0.00012557271,-3.643127e-08,0.0003927863,-9.886859e-09,4.568858e-06,0.0046007885,4.06751e-06,-0.043955788,1.7801318e-08,-0.07018139
3.3307902e-08,-2.1608506e-07,6.374131e-06,0.0007765745,4.985029e-05,-0.0008803963,-0.0001132729,-3.3540005e-08,0.00041747754,-8.441301e-09,3.999409e-06,0.0037070818,3.2510482e-06,-0.04840268,1.6551676e-08,-0.076167606
3.2471895e-08,-1.525042e-07,4.9378746e-06,0.0007301525,4.3614236e-05,-0.0007745069,-9.729787e-05,-2.7576892e-08,0.00030405156,-4.5457695e-09,3.245375e-06,0.003962599,2.8114132e-06,-0.042644374,1.4156915e-08,-0.077943884
3.6415052e-08,-1.1790753e-07,3.938797e-06,0.0007128858,3.978265e-05,-0.0005689013,-8.926736e-05,-2.5917423e-08,0.00024620755,-3.1784508e-09,2.7890198e-06,0.0039404435,3.2360888e-06,-0.03546417,1.36372424e-08,-0.08428719
3.7581817e-08,-8.6826134e-08,3.1850468e-06,0.00065375544,3.5045345e-05,-0.0005175133,-8.013755e-05,-2.1838668e-08,0.0001658158,-1.8126884e-09,2.2710788e-06,0.004627908,3.0507442e-06,-0.029684737,1.1956839e-08,-0.08388714
5.024357e-08,-1.0841346e-07,4.052629e-06,0.0006020561,3.9995444e-05,-0.0005744982,-9.769428e-05,-2.6069484e-08,0.00015227206,-2.4234663e-09,2.7473607e-06,0.00658754,4.9894707e-06,-0.02389183,1.4017192e-08,-0.07556139
5.660281e-08,-2.1272643e-07,6.7537203e-06,0.000639157,5.352853e-05,-0.00075558736,-0.00013797644,-3.803802e-08,0.00025114554,-7.548691e-09,4.327552e-06,0.00703565,7.5237826e-06,-0.027479531,1.907219e-08,-0.06911262
5.0169216e-08,-3.633128e-07,9.5101495e-06,0.00073124905,6.521571e-05,-0.000950334,-0.00016773223,-4.845526e-08,0.00046534048,-1.9875909e-08,5.7579705e-06,0.0055474397,7.3499177e-06,-0.039062593,2.2954014e-08,-0.0684043
4.2745768e-08,-3.741376e-07,9.511798e-06,0.0007805046,6.656536e-05,-0.0010319402,-0.00015937423,-4.6830642e-08,0.0005967507,-2.1444723e-08,5.6245626e-06,0.004495842,5.4614525e-06,-0.04813869,2.2011559e-08,-0.07012926
3.7951214e-08,-2.9014242e-07,8.063704e-06,0.0007659655,6.031095e-05,-0.0010192033,-0.0001359163,-3.9492754e-08,0.00052616396,-1.3369764e-08,4.8335187e-06,0.0043033827,4.1645435e-06,-0.048284497,1.9001638e-08,-0.07106649
3.5205215e-08,-2.2798326e-07,6.913505e-06,0.0007424134,5.3146337e-05,-0.0009739114,-0.000118573196,-3.413001e-08,0.00041528005,-8.5420435e-09,4.240122e-06,0.004331885,3.5489784e-06,-0.045577314,1.6822725e-08,-0.07175983
3.4088185e-08,-2.4611188e-07,8.510518e-06,0.0006575821,5.321538e-05,-0.0014895509,-0.00012347715,-3.2169513e-08,0.00030571767,-7.389513e-09,4.7102685e-06,0.006369796,3.3642261e-06,-0.042241335,1.5923435e-08,-0.059035994
3.373433e-08,-4.3249273e-07,1.17455975e-05,0.00080570887,6.3376276e-05,-0.0013655103,-0.00015138392,-4.7488477e-08,0.0006095638,-2.482271e-08,6.3186385e-06,0.004160414,4.6731648e-06,-0.054507826,2.1888571e-08,-0.06523679
2.3054211e-08,-3.1362939e-07,9.0480635e-06,0.0008357506,5.5198336e-05,-0.0014997913,-0.00012039142,-3.5413382e-08,0.0005946671,-1.4431797e-08,4.692556e-06,0.0032524266,2.1588785e-06,-0.070357576,1.6779714e-08,-0.06822733
2.6006086e-08,-2.304541e-07,6.9130524e-06,0.0008226014,5.0495793e-05,-0.0010413477,-0.00010707812,-3.2808906e-08,0.000503183,-9.41875e-09,4.0763844e-06,0.0031011226,2.476391e-06,-0.05866497,1.5977772e-08,-0.07539338
2.2915831e-08,-1.3428591e-07,5.040449e-06,0.0007000057,4.041539e-05,-0.001090759,-8.3352716e-05,-2.2388186e-08,0.00025304826,-3.0726512e-09,3.0546576e-06,0.004164697,1.7543819e-06,-0.047444396,1.1693853e-08,-0.07049173
2.9155412e-08,-1.5162463e-07,5.3138565e-06,0.00072135613,3.994203e-05,-0.00088028924,-9.178643e-05,-2.6721867e-08,0.00023494211,-4.12911e-09,3.397258e-06,0.0040704124,2.6575117e-06,-0.042216506,1.3694423e-08,-0.07433075
2.6998451e-08,-1.4599364e-07,5.199915e-06,0.0007008592,3.9435083e-05,-0.0010021576,-9.05043e-05,-2.4530141e-08,0.00022563584,-3.641809e-09,3.2204243e-06,0.0043594735,2.1749934e-06,-0.04443657,1.2712713e-08,-0.071423426
3.4995956e-08,-2.1089691e-07,7.0492697e-06,0.0006910714,4.7688012e-05,-0.0011010438,-0.00011425706,-3.1700264e-08,0.00027934724,-6.562982e-09,4.22873e-06,0.0052576694,3.506715e-06,-0.040876616,1.5830759e-08,-0.06653798
3.329158e-08,-2.5320477e-07,7.422227e-06,0.00077997457,5.1776286e-05,-0.0009936646,-0.00012033619,-3.6197957e-08,0.00043450456,-1.0595408e-08,4.4850244e-06,0.0038564198,3.5238322e-06,-0.049417466,1.7578069e-08,-0.07286296
2.943537e-08,-2.0873959e-07,6.713212e-06,0.00072868966,4.802347e-05,-0.0011548602,-0.000108997425,-2.990882e-08,0.0003446634,-6.7090475e-09,3.9414595e-06,0.0043920167,2.5902582e-06,-0.04932366,1.4928105e-08,-0.06873564
3.4724014e-08,-2.4608045e-07,7.704385e-06,0.00072986895,5.2736515e-05,-0.0010960875,-0.000121005425,-3.5033917e-08,0.00038271345,-9.081791e-09,4.577851e-06,0.004674754,3.7160764e-06,-0.044756334,1.7145954e-08,-0.068126656
3.0300892e-08,-4.7746437e-07,2.0132378e-05,0.0005340308,6.9101276e-05,-0.005120826,-0.00016886978,-3.5870563e-08,0.00026375204,-1.2548979e-08,7.718573e-06,0.013986719,3.3294457e-06,-0.044179887,1.6993008e-08,-0.03488919
7.2567783e-09,-2.6665707e-06,5.3206324e-05,0.0009974783,0.00011683626,-0.004007726,-0.00025710507,-1.05907084e-07,0.0025063283,-5.217146e-07,1.6633461e-05,0.003228073,8.395749e-06,-0.09281273,4.227561e-08,-0.047669683
5.8856733e-09,-1.1997981e-06,3.191295e-05,0.001097147,9.4085444e-05,-0.005876661,-0.00015933308,-5.691069e-08,0.0024636595,-1.4773467e-07,8.023769e-06,0.0018804765,1.1913424e-06,-0.16267972,2.2982249e-08,-0.051667012
9.5346335e-09,-9.25682e-07,2.4621815e-05,0.0010598829,9.0122696e-05,-0.0037325681,-0.00014736662,-5.5301904e-08,0.0020671864,-9.790134e-08,7.620014e-06,0.0019350953,1.7398113e-06,-0.13006301,2.310344e-08,-0.057028353
5.0138187e-09,-1.5188324e-07,6.0530356e-06,0.0011042586,4.262311e-05,-0.0013585585,-6.111158e-05,-2.3275932e-08,0.0007129116,-7.600584e-09,2.7297194e-06,0.0009850812,5.800471e-07,-0.118871294,1.1187783e-08,-0.08723477
4.1360657e-09,-3.9215355e-08,2.4640499e-06,0.0006513261,1.8327948e-05,-0.0015997128,-3.2752534e-05,-7.490729e-09,-1.8237364e-05,-3.5865813e-10,1.3168193e-06,0.0030400038,2.4666915e-07,-0.06172359,4.538632e-09,-0.06820957
1.3368229e-08,-7.3154034e-08,3.8320277e-06,0.0006584212,2.4017874e-05,-0.0011441478,-5.224289e-05,-1.4733373e-08,1.2075265e-05,-9.663659e-10,2.283807e-06,0.0039292425,1.0525421e-06,-0.041879967,8.151336e-09,-0.06908038
1.0676595e-08,-8.5672475e-08,3.7477294e-06,0.0007513966,2.3802579e-05,-0.0011596697,-5.503447e-05,-1.5194185e-08,6.378895e-05,-1.5094597e-09,2.1667813e-06,0.0027820675,7.353832e-07,-0.05984532,8.262805e-09,-0.07538472
2.0999655e-08,-1.4074108e-07,5.201176e-06,0.00072106306,3.4729997e-05,-0.0011481208,-8.244456e-05,-2.2400785e-08,0.00016916072,-3.3128684e-09,3.0766594e-06,0.00389151,1.6005044e-06,-0.050687555,1.1637888e-08,-0.07054024
2.8425932e-08,-1.6520856e-07,5.582736e-06,0.00074230705,4.2958367e-05,-0.00090888183,-9.479413e-05,-2.7834213e-08,0.0002977946,-4.900995e-09,3.5172009e-06,0.0038225888,2.595072e-06,-0.04560086,1.4115941e-08,-0.074746765
2.6067305e-08,-1.3298487e-07,4.716724e-06,0.0007165929,3.8092734e-05,-0.00089681713,-8.5693675e-05,-2.3702642e-08,0.00022907424,-3.3036744e-09,3.0088838e-06,0.0039402973,2.0640048e-06,-0.04492543,1.2361791e-08,-0.075097345
3.3373837e-08,-1.5602879e-07,5.5211103e-06,0.0006766721,4.227695e-05,-0.00093509105,-9.8944554e-05,-2.7053542e-08,0.00022623832,-4.0588284e-09,3.4895254e-06,0.0050418144,3.0046099e-06,-0.038288426,1.3937396e-08,-0.07027864
3.593912e-08,-2.0564016e-07,6.6068083e-06,0.0007142681,4.7894155e-05,-0.00095659995,-0.00011337795,-3.2416903e-08,0.00030833486,-6.841926e-09,4.1011826e-06,0.0047316262,3.655529e-06,-0.041205708,1.6174942e-08,-0.07060423
3.3648792e-08,-2.1781854e-07,6.6376642e-06,0.0007484349,4.8624297e-05,-0.00096488395,-0.000114388975,-3.292519e-08,0.0003602866,-7.921829e-09,4.0793334e-06,0.0041681486,3.2706084e-06,-0.04645738,1.6300747e-08,-0.07259183
3.4531347e-08,-2.1419082e-07,6.7784754e-06,0.00071770744,4.997089e-05,-0.0010309004,-0.000115166826,-3.218324e-08,0.0003457529,-7.223844e-09,4.1154617e-06,0.0047019906,3.3410804e-06,-0.044002846,1.6017493e-08,-0.06957826
3.538405e-08,-2.2091479e-07,6.713587e-06,0.0007498842,5.0584928e-05,-0.00091295264,-0.000116047275,-3.419931e-08,0.00038600402,-8.307252e-09,4.189739e-06,0.004169337,3.6616275e-06,-0.04460545,1.6875964e-08,-0.07338186
3.1822307e-08,-1.9100199e-07,6.2736653e-06,0.0007105141,4.6933423e-05,-0.0010454911,-0.000107128886,-2.9409799e-08,0.0003109723,-5.820756e-09,3.8095718e-06,0.0046313517,2.855254e-06,-0.044630982,1.4823679e-08,-0.06967994
3.6029302e-08,-2.2410431e-07,6.932301e-06,0.000735153,5.0270482e-05,-0.00095282274,-0.00011746178,-3.42903e-08,0.00035912127,-8.19997e-09,4.285592e-06,0.004459599,3.7917341e-06,-0.04318467,1.692437e-08,-0.07148958
3.191119e-08,-2.1133532e-07,6.7844394e-06,0.0007218135,4.879176e-05,-0.001094237,-0.00011171683,-3.1059606e-08,0.00033963736,-6.9147146e-09,4.0512386e-06,0.0045686187,2.9715686e-06,-0.046217795,1.547743e-08,-0.06895198
3.48818e-08,-3.573769e-07,1.2780371e-05,0.00061741465,6.1269995e-05,-0.0023480705,-0.00014888127,-3.6797417e-08,0.0003102352,-1.13527365e-08,6.1882406e-06,0.008668032,3.9177908e-06,-0.042549934,1.766689e-08,-0.048551608
2.695584e-08,-8.9396246e-07,2.099241e-05,0.00090262166,8.241753e-05,-0.002037994,-0.00019300192,-6.686816e-08,0.0011737903,-8.762602e-08,9.315697e-06,0.003582669,5.6258605e-06,-0.07184562,2.8761209e-08,-0.059348047
1.5309842e-08,-4.6076883e-07,1.2644e-05,0.00095869007,6.404892e-05,-0.002189578,-0.0001283958,-4.045023e-08,0.0010445236,-3.0621653e-08,5.3644358e-06,0.0023468572,1.5611854e-06,-0.103483826,1.8179108e-08,-0.06601068
1.937578e-08,-2.8350078e-07,8.52582e-06,0.00087722775,5.570512e-05,-0.0014167782,-0.00010771648,-3.3863017e-08,0.00068667653,-1.3172256e-08,4.4056032e-06,0.002649367,1.8724122e-06,-0.07534476,1.6051153e-08,-0.0716534
1.6280735e-08,-1.7524702e-07,7.82213e-06,0.00063430786,4.3914224e-05,-0.0024444368,-8.585625e-05,-2.0876096e-08,0.00021534524,-3.25987e-09,3.6728597e-06,0.0058203395,1.255809e-06,-0.054002862,1.0758923e-08,-0.05245884
1.9634262e-08,-4.1586944e-07,1.3541247e-05,0.0008058878,5.149374e-05,-0.0022284174,-0.0001212249,-3.9006427e-08,0.00039676303,-1.811035e-08,5.890333e-06,0.0038548575,2.5566114e-06,-0.06625786,1.7993989e-08,-0.057370227
1.1922625e-08,-5.937711e-07,2.0007426e-05,0.00077080115,6.0243914e-05,-0.005207866,-0.00013242706,-3.5677097e-08,0.00049405167,-2.34291e-08,6.292011e-06,0.0046925787,1.332493e-06,-0.093465835,1.6134823e-08,-0.044287138
1.1911096e-08,-1.1384324e-06,2.872819e-05,0.0010097317,8.259524e-05,-0.0037117184,-0.0001631823,-6.284641e-08,0.0016551823,-1.1980755e-07,9.045886e-06,0.002419058,2.6932903e-06,-0.11023245,2.6143955e-08,-0.053650685
6.3340906e-09,-3.7592062e-07,1.2321334e-05,0.001106788,5.837254e-05,-0.0024606872,-9.537211e-05,-3.5355235e-08,0.0012481993,-2.8159436e-08,4.422953e-06,0.0013146327,8.417216e-07,-0.13514931,1.5717863e-08,-0.07056623
8.875442e-09,-2.2563839e-07,8.972181e-06,0.00078476523,4.4875032e-05,-0.0028433413,-8.132727e-05,-2.2181258e-08,0.0002823875,-5.8931535e-09,3.579263e-06,0.0032230567,7.625569e-07,-0.08687177,1.093727e-08,-0.057134926
9.886391e-09,-1.3424453e-07,5.154634e-06,0.00093719125,3.358986e-05,-0.0010409908,-6.180986e-05,-2.2308903e-08,0.00026884323,-4.284306e-09,2.78594e-06,0.0016071501,9.878754e-07,-0.07681268,1.1176475e-08,-0.08445603
5.295762e-09,-3.787589e-08,2.0501163e-06,0.0007191053,1.7573277e-05,-0.0010330467,-3.4119654e-05,-8.42383e-09,1.5331932e-05,-4.380897e-10,1.255993e-06,0.0023050886,2.97441e-07,-0.0631395,5.0407993e-09,-0.08173274
2.1352202e-08,-6.7431316e-08,3.30556e-06,0.0006074765,2.6404872e-05,-0.0008749994,-5.9808757e-05,-1.5500554e-08,5.104049e-05,-8.911422e-10,2.204574e-06,0.0050737453,1.5312912e-06,-0.032739107,8.74528e-09,-0.07113947
2.4856206e-08,-1.2594103e-07,5.708323e-06,0.00060097536,3.470963e-05,-0.001420233,-8.276115e-05,-2.0806588e-08,0.00010310901,-2.1465316e-09,3.2880407e-06,0.0065054703,2.0094967e-06,-0.036638267,1.10616085e-08,-0.059283927
2.9371918e-08,-4.3056488e-07,1.2659417e-05,0.00076629565,5.5330525e-05,-0.0018332081,-0.00014548005,-4.275632e-08,0.0004048718,-2.0382888e-08,6.2267295e-06,0.004804284,3.6239003e-06,-0.05674379,1.9830226e-08,-0.058678675
2.3446287e-08,-5.3597415e-07,1.3999782e-05,0.00087940635,6.757666e-05,-0.0019843758,-0.00015091976,-4.6781288e-08,0.0008800497,-3.5024318e-08,6.409168e-06,0.0032981257,2.7939786e-06,-0.07933456,2.101138e-08,-0.06249643
2.0862185e-08,-3.2657965e-07,9.090358e-06,0.0009200699,5.845463e-05,-0.0013382789,-0.00011721727,-3.8035164e-08,0.00083141733,-1.8543075e-08,4.738783e-06,0.002422388,2.1213948e-06,-0.07903656,1.7712535e-08,-0.0741265
1.8269546e-08,-1.5171958e-07,5.5614546e-06,0.00074657064,4.2580086e-05,-0.0012827162,-8.257193e-05,-2.261538e-08,0.00032506403,-3.8413313e-09,3.1460115e-06,0.0035026046,1.3788244e-06,-0.058640804,1.1606911e-08,-0.07009306
2.343264e-08,-1.3764671e-07,5.177274e-06,0.0007208574,3.805061e-05,-0.0010004325,-8.227908e-05,-2.3759705e-08,0.00021743166,-3.3156922e-09,3.1914994e-06,0.0038617165,2.0053994e-06,-0.045762993,1.2288722e-08,-0.072577484
2.1253726e-08,-1.240502e-07,4.7115045e-06,0.000713579,3.4663048e-05,-0.0010328562,-7.803033e-05,-2.1403467e-08,0.00018345045,-2.7519476e-09,2.8908185e-06,0.0038373997,1.6163189e-06,-0.04790323,1.1247293e-08,-0.072649166
2.8489621e-08,-1.6194e-07,5.6478452e-06,0.0007110099,4.0437084e-05,-0.0010015914,-9.51028e-05,-2.659672e-08,0.0002312577,-4.375333e-09,3.4842847e-06,0.004345908,2.482669e-06,-0.044006977,1.3601051e-08,-0.071172096
3.0940413e-08,-1.831377e-07,6.016904e-06,0.0007296302,4.4765075e-05,-0.0009612829,-0.000102815124,-2.9379416e-08,0.00030132325,-5.675495e-09,3.7317723e-06,0.0042092,2.856161e-06,-0.044813797,1.4804425e-08,-0.07240233
3.159637e-08,-1.8715333e-07,6.155627e-06,0.0007181207,4.546001e-05,-0.001002615,-0.00010517762,-2.943353e-08,0.00029786557,-5.7336282e-09,3.7786906e-06,0.004457508,2.8844754e-06,-0.044373978,1.4836706e-08,-0.070876546
3.400451e-08,-2.1076524e-07,6.744197e-06,0.00072154595,4.861514e-05,-0.0010145829,-0.000112918526,-3.2093837e-08,0.00033041375,-7.0572925e-09,4.1138946e-06,0.0045980546,3.354445e-06,-0.043680973,1.597278e-08,-0.070021875
3.292009e-08,-2.2104348e-07,6.919884e-06,0.00073699554,4.9395218e-05,-0.0010390516,-0.00011415928,-3.2653915e-08,0.00035834807,-7.762101e-09,4.176375e-06,0.0043698596,3.2264002e-06,-0.046210688,1.6155585e-08,-0.07037846
3.213793e-08,-1.9716978e-07,5.937224e-06,0.0007789882,4.7098085e-05,-0.0008345465,-0.00010711379,-3.20206e-08,0.00038620565,-7.3322264e-09,3.787676e-06,0.0035521109,3.0717495e-06,-0.047943797,1.5924403e-08,-0.07785349
3.050307e-08,-1.2309219e-07,4.0544546e-06,0.0007409701,3.9638686e-05,-0.0006514945,-8.68658e-05,-2.4919778e-08,0.00027739667,-3.4038397e-09,2.7899189e-06,0.0035082311,2.477712e-06,-0.0422339,1.3040613e-08,-0.083692335
3.6780715e-08,-9.8739825e-08,3.8409607e-06,0.0006222993,3.7430393e-05,-0.00068639085,-8.470868e-05,-2.2185878e-08,0.00016316307,-1.9559976e-09,2.6118296e-06,0.0055920673,3.0304584e-06,-0.029722994,1.2041289e-08,-0.07484804
4.714952e-08,-1.5474599e-07,5.2612545e-06,0.0006569449,4.467279e-05,-0.00067329593,-0.0001097472,-3.1156517e-08,0.00021523448,-4.483112e-09,3.5466555e-06,0.00569082,5.2081673e-06,-0.029187886,1.6044252e-08,-0.07439302
4.3385153e-08,-2.5548886e-07,8.613676e-06,0.00062507635,5.438098e-05,-0.0013450586,-0.0001382869,-3.48964e-08,0.0002583315,-8.024151e-09,4.9096616e-06,0.007740693,4.677424e-06,-0.035448726,1.7298511e-08,-0.058354378
4.101607e-08,-6.467763e-07,1.5605809e-05,0.000794074,7.9014775e-05,-0.0014030613,-0.00020130434,-6.259581e-08,0.0007490026,-5.117959e-08,8.336716e-06,0.005114387,8.208314e-06,-0.0494015,2.79829e-08,-0.06184882
2.6815423e-08,-7.604029e-07,2.1654278e-05,0.0007179851,8.406883e-05,-0.0037979847,-0.00019267222,-4.8985527e-08,0.00073466985,-4.0182705e-08,8.397756e-06,0.006832912,3.3485512e-06,-0.069317915,2.1784476e-08,-0.044992737
1.4988458e-08,-2.16089e-06,5.4381624e-05,0.00078625826,0.000120166034,-0.0068412614,-0.00026497015,-8.087921e-08,0.0015048482,-2.1864837e-07,1.5254202e-05,0.006747008,5.716602e-06,-0.083463326,3.281861e-08,-0.03637637
-5.301597e-09,-6.948894e-06,0.00021193284,0.00066443975,0.0001704379,-0.044593863,-0.0003041397,-8.368935e-08,0.0018503702,-5.663752e-07,2.2915825e-05,0.011915441,2.7722626e-06,-0.12618609,3.1572828e-08,-0.016743537
-2.4292435e-08,-1.4965611e-05,0.00025731872,0.001050584,0.0001709994,-0.031593274,-0.00013397666,-1.04780284e-07,0.0059981523,-2.7453088e-06,2.2630617e-05,0.001460914,2.334364e-06,-0.16829704,3.949707e-08,-0.022646887
-1.2003614e-08,-9.109425e-06,0.00013804673,0.001331771,0.00017598797,-0.022927683,-0.000112559006,-7.6872404e-08,-0.0033827545,-1.5344555e-06,1.3697867e-05,0.00044936407,6.5364827e-07,-0.20790793,2.7208635e-08,-0.026642153
-1.0167977e-08,-5.6504327e-06,0.00012040332,0.0013518727,0.00017040469,-0.020500917,-0.00011517517,-8.024637e-08,-0.0036377923,-1.2031145e-06,1.2249395e-05,0.0005082138,7.082594e-07,-0.21051568,2.8490483e-08,-0.031431265
-4.555545e-09,-8.6925996e-07,2.8088118e-05,0.001516173,7.6220305e-05,-0.0071778293,-5.5752305e-05,-3.4227526e-08,-0.010355457,-5.9919806e-08,3.914021e-06,0.00031410455,2.3406653e-07,-0.18178923,1.3285288e-08,-0.04731553
-1.7694285e-09,-1.1744908e-07,6.1661285e-06,0.0014647995,2.7090995e-05,-0.0029073393,-2.7801269e-05,-1.2409342e-08,-0.0046013957,-2.3033842e-09,1.3484267e-06,0.0003418333,7.2446916e-08,-0.1639959,5.559064e-09,-0.07047671
-5.4859556e-10,-2.0605569e-08,1.9270174e-06,0.0008317065,9.8924675e-06,-0.002615031,-1.2793248e-05,-3.2793899e-09,-0.00064694515,-7.458394e-11,5.91523e-07,0.0011342806,3.2604667e-08,-0.09494709,2.0132958e-09,-0.065381974
-1.8314955e-10,-1.3486931e-08,1.565516e-06,0.0006677602,6.5878794e-06,-0.002149121,-1.1293392e-05,-2.8933556e-09,-0.00029477756,-5.447961e-11,5.8961785e-07,0.001751048,5.1936208e-08,-0.065779686,1.9460282e-09,-0.065739244
5.516849e-10,-3.4412874e-08,2.5360318e-06,0.0007818886,9.171896e-06,-0.0019638645,-2.1636373e-05,-6.0661467e-09,-0.000299118,-3.0497285e-10,1.0240085e-06,0.0016005991,1.16765875e-07,-0.08390943,3.6213252e-09,-0.071358815
4.3481396e-09,-8.812116e-08,4.4385474e-06,0.00078646065,1.9984747e-05,-0.001958128,-4.5301025e-05,-1.2523185e-08,-8.2659695e-05,-1.4024493e-09,1.9829554e-06,0.0023147042,3.6191827e-07,-0.08088616,6.789854e-09,-0.067659855
1.0606461e-08,-1.475324e-07,6.315301e-06,0.0007532639,3.2963308e-05,-0.0018746508,-6.842173e-05,-1.9322297e-08,0.00012331147,-3.0907077e-09,3.0086142e-06,0.0032426498,8.7728336e-07,-0.06723009,9.93817e-09,-0.063507594
1.2163691e-08,-1.7195414e-07,6.827813e-06,0.0007791107,3.522035e-05,-0.0017765102,-7.534932e-05,-2.1971836e-08,0.00018147072,-4.2319117e-09,3.2944847e-06,0.00311971,1.0478119e-06,-0.06838276,1.1082276e-08,-0.06495938
1.3973242e-08,-2.0958547e-07,7.807351e-06,0.0007770273,3.93589e-05,-0.0019248406,-8.6155684e-05,-2.4545173e-08,0.0002407515,-5.785245e-09,3.695752e-06,0.0033963025,1.2021894e-06,-0.06969217,1.2170695e-08,-0.062706955
1.6686968e-08,-2.2982614e-07,7.643185e-06,0.00084520446,4.3574066e-05,-0.0014541174,-9.279419e-05,-2.8931234e-08,0.0003919965,-8.353081e-09,3.919104e-06,0.002753573,1.5625734e-06,-0.07083089,1.4047118e-08,-0.07036964
1.5311707e-08,-1.4516667e-07,5.2639252e-06,0.00080139627,3.7326972e-05,-0.0012024741,-7.6290366e-05,-2.2108399e-08,0.00028443805,-3.921518e-09,2.9685527e-06,0.0027755243,1.1749928e-06,-0.06519326,1.1302561e-08,-0.074669965
1.9596005e-08,-1.04337126e-07,3.936325e-06,0.00075110304,3.3380926e-05,-0.0008273163,-7.014593e-05,-2.0243988e-08,0.00020127566,-2.3468305e-09,2.562212e-06,0.0030773664,1.4735685e-06,-0.04937699,1.0737507e-08,-0.08044746
2.1994113e-08,-7.590591e-08,3.2151122e-06,0.00066028215,2.9679091e-05,-0.0007644823,-6.418459e-05,-1.697514e-08,0.0001234096,-1.2505043e-09,2.1880792e-06,0.004110291,1.5229595e-06,-0.03805136,9.4272075e-09,-0.07761378
3.326642e-08,-1.2483144e-07,5.316704e-06,0.0005893149,3.748119e-05,-0.0011102668,-9.1049624e-05,-2.2823926e-08,0.00012154852,-2.3185927e-09,3.2788387e-06,0.0070802313,2.830647e-06,-0.031226298,1.2155355e-08,-0.06240419
3.8573386e-08,-3.339514e-07,9.643369e-06,0.0007523747,5.5723798e-05,-0.0011426359,-0.00014200473,-4.2914614e-08,0.00040469551,-1.5714317e-08,5.5944706e-06,0.0048008664,5.0685117e-06,-0.044697654,2.0362336e-08,-0.06661505
2.8736121e-08,-3.2430808e-07,8.934256e-06,0.0008170385,5.6245182e-05,-0.0013083683,-0.00013075028,-3.8173866e-08,0.0005577702,-1.5688546e-08,4.8970187e-06,0.003601654,2.8397883e-06,-0.062364507,1.8092965e-08,-0.069289826
3.117092e-08,-2.7094256e-07,7.957206e-06,0.00077882706,5.580256e-05,-0.0011443156,-0.00012268004,-3.599558e-08,0.0005057745,-1.13852385e-08,4.607795e-06,0.003922524,3.1668035e-06,-0.053352762,1.7382977e-08,-0.070143975
2.836103e-08,-1.9760823e-07,6.4324317e-06,0.0007475435,4.8599377e-05,-0.0010589622,-0.00010361194,-2.9793286e-08,0.00038111518,-6.433416e-09,3.8609865e-06,0.0039595896,2.5947777e-06,-0.04950285,1.4866699e-08,-0.071477786
2.7938432e-08,-1.7154063e-07,5.822341e-06,0.0007284908,4.3073764e-05,-0.0010114431,-9.698282e-05,-2.7445537e-08,0.00028589432,-4.955376e-09,3.565358e-06,0.0040981364,2.4498268e-06,-0.04658149,1.3923824e-08,-0.0718884
3.0115906e-08,-1.9370648e-07,6.7599663e-06,0.00068856194,4.5672146e-05,-0.0012133629,-0.00010549759,-2.8597265e-08,0.00026812957,-5.4224945e-09,3.9558913e-06,0.0050843507,2.7341337e-06,-0.043932583,1.4421731e-08,-0.06544845
3.2365705e-08,-3.362212e-07,1.1061832e-05,0.00068766007,5.7154473e-05,-0.0018058424,-0.00013737948,-3.7320095e-08,0.00035958312,-1.217835e-08,5.671029e-06,0.006147204,3.6408223e-06,-0.047362693,1.7850647e-08,-0.056108244
2.2087354e-08,-1.4948067e-06,5.9558875e-05,0.0005221637,0.00010546678,-0.014131804,-0.00027155055,-5.5875844e-08,0.0004391869,-6.114092e-08,1.4865471e-05,0.020032635,4.569507e-06,-0.056593593,2.3860915e-08,-0.023159388
-1.6240675e-08,-6.934332e-06,0.00012235339,0.0011373808,0.00015404425,-0.009346887,-0.0002283874,-1.3122751e-07,0.00601322,-2.1667317e-06,2.2816776e-05,0.0017905451,6.418426e-06,-0.13786487,5.0216705e-08,-0.037742548
-2.9744496e-09,-2.8823408e-06,7.753839e-05,0.0012222971,0.00013736718,-0.014691053,-0.0001643896,-7.674369e-08,0.004707256,-6.0943535e-07,1.108381e-05,0.0013267274,9.0969166e-07,-0.21183291,2.8013961e-08,-0.03907711
-5.9401545e-10,-1.7570561e-06,4.8585793e-05,0.0013344863,0.0001263997,-0.006487316,-0.00014093053,-7.610344e-08,0.0051661637,-4.55308e-07,9.754501e-06,0.0008132426,1.3733256e-06,-0.18773156,2.9244202e-08,-0.053407896
1.3039177e-10,-1.2012873e-07,6.65186e-06,0.0012925591,4.1270363e-05,-0.0019344515,-4.5502777e-05,-1.9943618e-08,-3.7462e-05,-7.592456e-09,2.185824e-06,0.0005362931,2.5469035e-07,-0.16142361,9.298525e-09,-0.086352915
5.906975e-10,-1.3708985e-08,1.1251404e-06,0.0007687269,9.964166e-06,-0.0010460028,-1.4777193e-05,-3.810422e-09,-0.00018195719,-9.674998e-11,6.212405e-07,0.00123431,7.257263e-08,-0.07718033,2.4991402e-09,-0.08995367
2.0118112e-09,-7.041545e-09,7.8751276e-07,0.00052159815,7.353086e-06,-0.0008880735,-1.2735428e-05,-2.7710025e-09,-4.707638e-05,-2.6138904e-11,5.454978e-07,0.0031647747,1.1638746e-07,-0.034501404,2.0323239e-09,-0.077618524
6.2362218e-09,-2.0454285e-08,1.4739925e-06,0.0005925941,1.0424426e-05,-0.000816984,-2.5666182e-05,-6.3044117e-09,-4.3528646e-05,-1.3638472e-10,1.0200537e-06,0.00338191,3.6028146e-07,-0.036404137,4.055406e-09,-0.07881519
1.8015879e-08,-7.983698e-08,3.4005875e-06,0.00067366177,2.3979383e-05,-0.0009214572,-6.222235e-05,-1.606495e-08,4.995738e-05,-1.2933763e-09,2.1924302e-06,0.0039333026,1.1787516e-06,-0.043244112,8.91003e-09,-0.074838296
3.506402e-08,-1.6712464e-07,5.620245e-06,0.00069656334,4.2156622e-05,-0.0008742085,-0.0001030986,-2.8866586e-08,0.00023151332,-4.80495e-09,3.5933585e-06,0.004766974,3.2860555e-06,-0.0388005,1.4737574e-08,-0.072358444
3.675873e-08,-1.9716568e-07,6.2082577e-06,0.0007189296,4.8169917e-05,-0.00088667223,-0.000112722766,-3.2084365e-08,0.0003223074,-6.6265184e-09,3.925677e-06,0.0045826174,3.638549e-06,-0.041139413,1.6079076e-08,-0.07270534
3.6935607e-08,-2.2275812e-07,7.197603e-06,0.0006900792,5.0698236e-05,-0.0010984519,-0.000120327175,-3.2823394e-08,0.00031385754,-7.2941813e-09,4.3102245e-06,0.005400565,3.69355e-06,-0.041065473,1.633251e-08,-0.0664247
3.763667e-08,-2.8674327e-07,8.15287e-06,0.0007695182,5.605412e-05,-0.0009916055,-0.00013246736,-3.9902954e-08,0.00046365548,-1.3092003e-08,4.927771e-06,0.004234086,4.410239e-06,-0.046472657,1.9177218e-08,-0.07136837
3.059019e-08,-2.1740539e-07,6.5706104e-06,0.00076559884,4.9692735e-05,-0.0010125993,-0.000111705245,-3.19395e-08,0.0004088731,-7.993105e-09,3.97129e-06,0.0038502726,2.7930807e-06,-0.051106624,1.579553e-08,-0.073107086
3.3875228e-08,-1.8368478e-07,5.8036926e-06,0.0007378544,4.7204565e-05,-0.0008500694,-0.00010607062,-3.0700257e-08,0.00034372642,-6.0958794e-09,3.7122188e-06,0.0040978836,3.2167409e-06,-0.043441974,1.5445208e-08,-0.07523705
3.323406e-08,-1.6169487e-07,5.675978e-06,0.0006753099,4.4735556e-05,-0.0009776338,-0.000101007856,-2.725496e-08,0.00025715592,-4.2668407e-09,3.5430396e-06,0.00511544,2.9502664e-06,-0.039287757,1.4005958e-08,-0.06936543
3.7029952e-08,-2.0366353e-07,6.25425e-06,0.000744491,4.7437097e-05,-0.000819687,-0.000112950474,-3.3696875e-08,0.00033288577,-7.417862e-09,4.0255704e-06,0.004175765,3.9053566e-06,-0.041569423,1.6755237e-08,-0.075347506
3.2458306e-08,-1.8556148e-07,6.2134463e-06,0.0006892718,4.6350153e-05,-0.001083828,-0.000107402404,-2.8546792e-08,0.00028307698,-5.330137e-09,3.7491939e-06,0.0050373995,2.8247541e-06,-0.043107145,1.4488031e-08,-0.06797739
3.9903043e-08,-2.707303e-07,8.101484e-06,0.00073034386,5.511892e-05,-0.0010072428,-0.0001319964,-3.885086e-08,0.0003935633,-1.1177459e-08,4.9154437e-06,0.0048949365,4.7760764e-06,-0.041649703,1.8839271e-08,-0.06887758
3.153322e-08,-2.3175339e-07,6.794645e-06,0.00078499794,5.079519e-05,-0.0009693369,-0.00011506886,-3.3921427e-08,0.00044131652,-9.305047e-09,4.1378053e-06,0.003656347,3.043398e-06,-0.05160833,1.6621195e-08,-0.07454332
3.185482e-08,-1.7188461e-07,5.4185257e-06,0.0007467947,4.523123e-05,-0.0008327156,-0.00010166808,-2.9158347e-08,0.00033582677,-5.558877e-09,3.4826194e-06,0.0038499655,2.8317943e-06,-0.04540002,1.4766203e-08,-0.07688159
3.454497e-08,-1.3450837e-07,4.574559e-06,0.0007015677,4.214673e-05,-0.000712674,-9.3496594e-05,-2.642278e-08,0.00026095926,-3.6178238e-09,3.0845467e-06,0.004301452,3.0527265e-06,-0.037626624,1.3756587e-08,-0.07811266
3.679892e-08,-1.2178822e-07,4.2676515e-06,0.0006767044,3.9517796e-05,-0.0006671197,-9.154673e-05,-2.5453835e-08,0.00020935688,-3.0200342e-09,2.918115e-06,0.004676994,3.246035e-06,-0.033896916,1.342609e-08,-0.07812773
4.125071e-08,-1.2574975e-07,4.120056e-06,0.0006979511,4.0254592e-05,-0.00055638794,-9.5824274e-05,-2.757814e-08,0.00022673515,-3.5226624e-09,2.897422e-06,0.004355131,3.8789217e-06,-0.032791276,1.4456731e-08,-0.08306259
4.4037552e-08,-1.1533898e-07,3.955408e-06,0.00065412914,4.0378975e-05,-0.0005681935,-9.578472e-05,-2.6115856e-08,0.00019904792,-2.8787375e-09,2.7247195e-06,0.0051664743,4.0079863e-06,-0.029452883,1.3906573e-08,-0.0800109
5.387408e-08,-1.393316e-07,4.4649073e-06,0.0006642181,4.5143825e-05,-0.0005047145,-0.00011033305,-3.1654242e-08,0.00022893606,-4.2676387e-09,3.0909607e-06,0.0053682635,6.067616e-06,-0.026749639,1.6476209e-08,-0.08141425
5.301858e-08,-1.5457672e-07,4.980852e-06,0.0006461313,4.7517922e-05,-0.00061436614,-0.00011681141,-3.1810004e-08,0.00023285387,-4.676044e-09,3.3043746e-06,0.0060365526,5.7265547e-06,-0.027905187,1.6474399e-08,-0.075800866
5.774713e-08,-2.3650689e-07,7.020121e-06,0.00066291663,5.7318794e-05,-0.00072418427,-0.00014589685,-4.0979778e-08,0.00030656636,-9.582439e-09,4.50813e-06,0.006541277,8.061429e-06,-0.028936224,2.0305439e-08,-0.07100817
5.0899974e-08,-3.4111932e-07,9.298985e-06,0.0007054517,6.577505e-05,-0.000980806,-0.00016483848,-4.6359542e-08,0.0004391355,-1.7052516e-08,5.6023255e-06,0.0060489257,7.2134935e-06,-0.037238713,2.2142753e-08,-0.06669311
4.4107136e-08,-3.816126e-07,9.513889e-06,0.00079369923,6.678009e-05,-0.00095192646,-0.00016146175,-4.8900397e-08,0.0006140056,-2.3321958e-08,5.738839e-06,0.004315189,6.0545217e-06,-0.04705138,2.2899908e-08,-0.07199971
3.6258033e-08,-2.5860226e-07,7.276646e-06,0.00076741603,5.708053e-05,-0.00097555004,-0.00012789601,-3.669052e-08,0.0004954634,-1.1148227e-08,4.4202047e-06,0.0041047786,3.6500246e-06,-0.049171202,1.785482e-08,-0.07286828
3.7496527e-08,-2.0883675e-07,6.456929e-06,0.00072460365,5.1876432e-05,-0.00089314446,-0.00011645089,-3.3353245e-08,0.0003767663,-7.4068986e-09,4.067359e-06,0.0045532607,3.8115154e-06,-0.041772082,1.6604206e-08,-0.072627135
3.5404792e-08,-1.938352e-07,6.365517e-06,0.0006992786,4.8517486e-05,-0.0009796618,-0.00011096877,-3.084803e-08,0.00031052384,-6.0340435e-09,3.9393035e-06,0.004925356,3.4163018e-06,-0.040883496,1.5521485e-08,-0.06976378
3.592643e-08,-2.2635372e-07,6.993374e-06,0.0007315111,4.9936163e-05,-0.0009799326,-0.000118337266,-3.4128103e-08,0.0003492947,-8.221002e-09,4.2904953e-06,0.004546929,3.7207515e-06,-0.043481838,1.6849471e-08,-0.07077897
3.3756507e-08,-2.4864485e-07,7.90016e-06,0.00070849125,5.242862e-05,-0.001248206,-0.00012254671,-3.3575862e-08,0.0003557956,-8.5921785e-09,4.542245e-06,0.005125364,3.3404342e-06,-0.04580897,1.6504941e-08,-0.06492083
3.447468e-08,-3.2220038e-07,9.282042e-06,0.0007697207,5.7939706e-05,-0.0012076314,-0.00013554134,-4.0420467e-08,0.000492196,-1.4825857e-08,5.281433e-06,0.0043539,4.031678e-06,-0.050256506,1.9218259e-08,-0.067283094
2.7519265e-08,-2.3129849e-07,6.632526e-06,0.00083923154,5.0104423e-05,-0.0009447296,-0.00010975728,-3.3768902e-08,0.00051813095,-1.0144553e-08,4.020398e-06,0.0029486725,2.5960844e-06,-0.058967452,1.6425139e-08,-0.078393094
2.7255842e-08,-1.4527502e-07,5.1748516e-06,0.0006924101,4.2380434e-05,-0.001022686,-9.1479254e-05,-2.426949e-08,0.00026406447,-3.5873913e-09,3.1921197e-06,0.0044944985,2.1367832e-06,-0.044646464,1.2606385e-08,-0.07076668
3.6379326e-08,-1.9504479e-07,6.8943846e-06,0.0006670999,4.81067e-05,-0.0010736953,-0.000111251255,-3.0963715e-08,0.00026219565,-5.6095555e-09,4.1937624e-06,0.0056962757,3.7878744e-06,-0.037066318,1.5581202e-08,-0.06561118
3.072114e-08,-2.4886498e-07,7.59193e-06,0.0007663598,4.9071874e-05,-0.0011187422,-0.00011658349,-3.4332206e-08,0.00037786903,-9.5714885e-09,4.4409326e-06,0.0040227044,3.1150619e-06,-0.050533473,1.673427e-08,-0.070046574
2.9275306e-08,-2.7650898e-07,8.7898525e-06,0.0007209946,5.259038e-05,-0.0015293228,-0.00012316341,-3.3288508e-08,0.0003735032,-9.679762e-09,4.7246895e-06,0.0049703484,2.7735575e-06,-0.052266724,1.6200095e-08,-0.061988484
3.1680695e-08,-3.2877205e-07,8.961184e-06,0.0008423622,5.8357662e-05,-0.001062967,-0.00013090811,-4.2201535e-08,0.00062771473,-1.7800197e-08,5.196828e-06,0.0032935971,3.808797e-06,-0.056672428,1.9840554e-08,-0.07343741
2.175675e-08,-1.4446421e-07,4.6123773e-06,0.00082093145,4.116217e-05,-0.0008287985,-8.499949e-05,-2.5017359e-08,0.00038611656,-4.6833057e-09,2.9412217e-06,0.0026518314,1.659187e-06,-0.0591214,1.27633575e-08,-0.08355559
3.0522166e-08,-1.3440852e-07,6.1897827e-06,0.00054635445,4.2125048e-05,-0.0016081237,-9.441048e-05,-2.1417636e-08,0.00014192305,-2.2136686e-09,3.495615e-06,0.00889481,2.3751893e-06,-0.032626603,1.14465175e-08,-0.053953215
3.348992e-08,-8.2704213e-07,2.9228824e-05,0.0005981277,8.4417836e-05,-0.0041353824,-0.00022140838,-5.7815257e-08,0.00039420443,-4.048632e-08,1.1439429e-05,0.012502866,7.967579e-06,-0.040836908,2.5584814e-08,-0.037193704
1.018545e-08,-2.1420553e-06,4.5058267e-05,0.0010580068,0.00010273417,-0.0047652903,-0.00021932046,-8.6150145e-08,0.0025423884,-3.6233214e-07,1.2776178e-05,0.0024920239,3.825794e-06,-0.122202106,3.427909e-08,-0.049365994
7.3218103e-09,-1.16046e-06,2.998846e-05,0.0011054456,9.492936e-05,-0.004953361,-0.0001613758,-5.9092446e-08,0.0025827046,-1.5007902e-07,8.151665e-06,0.0018267106,1.4180672e-06,-0.15439627,2.3988543e-08,-0.05423437
8.955708e-09,-5.79414e-07,1.70697e-05,0.0010572957,7.877313e-05,-0.0029211666,-0.00012024187,-4.4240355e-08,0.0017619164,-4.9049824e-08,5.863119e-06,0.0017069934,1.3065248e-06,-0.12716363,1.9142982e-08,-0.0632196
5.4688347e-09,-1.2491245e-07,5.2575515e-06,0.00094636844,3.5831603e-05,-0.0015056607,-5.59055e-05,-1.8441012e-08,0.0003157745,-3.7216221e-09,2.4408e-06,0.00148381,5.2197447e-07,-0.09893767,9.308094e-09,-0.07896203
5.5208895e-09,-4.934151e-08,2.842105e-06,0.00068252324,1.9757475e-05,-0.0014338082,-3.7520007e-05,-9.386858e-09,-9.240824e-06,-5.3538246e-10,1.5489611e-06,0.0029129635,3.5714407e-07,-0.059811093,5.4818248e-09,-0.070390396
1.19909505e-08,-8.333866e-08,4.4291114e-06,0.00063556945,2.4903622e-05,-0.0015648995,-5.522799e-05,-1.4329464e-08,1.8980445e-05,-1.0673431e-09,2.402271e-06,0.004512517,8.815017e-07,-0.045983944,7.913474e-09,-0.062069595
1.4957322e-08,-1.9047638e-07,7.378247e-06,0.00075205066,3.4593104e-05,-0.0018014745,-8.311226e-05,-2.3743862e-08,0.00014837505,-4.772924e-09,3.6105805e-06,0.0036652775,1.3047627e-06,-0.062368777,1.1909776e-08,-0.062606886
1.7588604e-08,-2.7265085e-07,8.441869e-06,0.00086977426,4.5228266e-05,-0.0015213778,-0.000102462676,-3.1842994e-08,0.00044371738,-1.1545816e-08,4.241097e-06,0.0026999826,1.6588955e-06,-0.075591914,1.5197507e-08,-0.07012136
1.8653331e-08,-1.909003e-07,6.352855e-06,0.0008111497,4.44384e-05,-0.0012605728,-9.075603e-05,-2.6563086e-08,0.000404016,-6.258119e-09,3.5217295e-06,0.0029657392,1.5363776e-06,-0.06564212,1.3206002e-08,-0.07271618
2.1223945e-08,-1.2798179e-07,4.678366e-06,0.00074992114,3.794765e-05,-0.0009338235,-7.8323006e-05,-2.2621753e-08,0.00025692143,-3.174426e-09,2.928901e-06,0.0033187957,1.6886731e-06,-0.05034026,1.1758568e-08,-0.0766336
2.1956124e-08,-9.466721e-08,3.7942905e-06,0.0006884416,3.221502e-05,-0.0008492092,-7.014137e-05,-1.9058367e-08,0.00015437827,-1.807695e-09,2.4904234e-06,0.0039063003,1.6026611e-06,-0.042107776,1.03081925e-08,-0.07620005
2.9869348e-08,-1.328792e-07,5.3695585e-06,0.000624879,3.7797494e-05,-0.0011217433,-8.995315e-05,-2.3106395e-08,0.00014690512,-2.6767182e-09,3.2821902e-06,0.006007034,2.4748988e-06,-0.03593914,1.2187815e-08,-0.06452667
3.5732462e-08,-2.6877416e-07,8.03729e-06,0.0007580461,5.090396e-05,-0.0010296305,-0.00012534227,-3.791181e-08,0.0003719971,-1.1177927e-08,4.8210236e-06,0.0043276576,4.14593e-06,-0.04535539,1.8334942e-08,-0.07014869
2.8302578e-08,-2.393996e-07,7.16176e-06,0.0007779709,4.9648756e-05,-0.0011531534,-0.00011406933,-3.2423937e-08,0.0004187286,-9.1395025e-09,4.1452176e-06,0.0037718827,2.5469815e-06,-0.05573155,1.5881211e-08,-0.071047746
3.2954794e-08,-1.999872e-07,5.9240615e-06,0.0007892653,4.8731858e-05,-0.00079378614,-0.000108303255,-3.2936658e-08,0.00042384118,-7.789271e-09,3.824734e-06,0.003429239,3.2362184e-06,-0.04789602,1.632517e-08,-0.07934043
2.9058377e-08,-1.1770412e-07,4.2620836e-06,0.0006853275,3.9619314e-05,-0.00080534525,-8.4802195e-05,-2.280779e-08,0.00023490051,-2.7057452e-09,2.8086797e-06,0.0043424703,2.2556858e-06,-0.039961983,1.2089242e-08,-0.075855345
3.8703035e-08,-1.3951704e-07,4.9946507e-06,0.00065999286,4.1549287e-05,-0.0007637579,-9.828479e-05,-2.7325537e-08,0.00020344566,-3.540913e-09,3.3184547e-06,0.005308111,3.7131658e-06,-0.032645963,1.422594e-08,-0.07315809
3.8343153e-08,-1.8374394e-07,6.0613093e-06,0.0006856446,4.6035315e-05,-0.0009003179,-0.00011129796,-3.0796524e-08,0.00026063854,-5.575425e-09,3.834776e-06,0.0051935166,3.7695606e-06,-0.037509173,1.5603874e-08,-0.070559636
4.005524e-08,-2.841058e-07,8.881482e-06,0.00068330567,5.5738295e-05,-0.0012636225,-0.0001381427,-3.7486206e-08,0.00033831404,-1.0541603e-08,5.097642e-06,0.006091814,4.5081124e-06,-0.040788583,1.824227e-08,-0.06224542
3.698934e-08,-4.290927e-07,1.1312827e-05,0.0007940938,6.6276865e-05,-0.0012839163,-0.00015816384,-4.8098986e-08,0.0006280358,-2.5049477e-08,6.252695e-06,0.0043873177,5.0202275e-06,-0.05255903,2.224707e-08,-0.065951675
2.8012595e-08,-3.1877215e-07,8.854214e-06,0.0008258972,5.8102683e-05,-0.0012815737,-0.00012807178,-3.8117836e-08,0.00061597774,-1.5564389e-08,4.8715424e-06,0.0034414006,2.8112104e-06,-0.06305521,1.8051445e-08,-0.07014547
2.7731025e-08,-1.9570139e-07,5.8108276e-06,0.00082521484,4.8280013e-05,-0.0008390101,-0.00010205104,-3.1412466e-08,0.00048021978,-7.775888e-09,3.672359e-06,0.0029284966,2.544318e-06,-0.055201374,1.5530718e-08,-0.08091324
2.6109262e-08,-1.15540836e-07,4.6516093e-06,0.00063675863,3.9026727e-05,-0.0010723264,-8.240882e-05,-2.0710846e-08,0.00019374026,-2.2141395e-09,2.879547e-06,0.005314581,1.9210333e-06,-0.039416004,1.1091673e-08,-0.06743599
3.7851986e-08,-2.0996227e-07,7.1454447e-06,0.0006886283,4.744499e-05,-0.0009994904,-0.00011484697,-3.3405644e-08,0.0002598494,-6.7029653e-09,4.4055682e-06,0.0053471914,4.2921693e-06,-0.036974236,1.6624954e-08,-0.067525774
2.8287166e-08,-2.1053704e-07,6.192854e-06,0.000814297,4.5488643e-05,-0.0009104981,-0.00010626523,-3.2025184e-08,0.00040087567,-8.353975e-09,3.8216776e-06,0.0031548918,2.5944337e-06,-0.054946583,1.5779e-08,-0.07816407
3.00465e-08,-1.4189393e-07,4.541785e-06,0.00075027294,4.1354768e-05,-0.00073540065,-9.242826e-05,-2.6285019e-08,0.00030193044,-4.2242854e-09,3.0201109e-06,0.0035469905,2.449892e-06,-0.045337178,1.3567742e-08,-0.08105593
3.74977e-08,-1.18728316e-07,4.5007664e-06,0.00063031126,4.1598218e-05,-0.0007728314,-9.209024e-05,-2.4380803e-08,0.00019964339,-2.5965121e-09,2.987179e-06,0.005723703,3.2791154e-06,-0.03127064,1.29652555e-08,-0.0720599
4.2896193e-08,-1.8743825e-07,6.463186e-06,0.00065320364,4.73316e-05,-0.0009102931,-0.00011619105,-3.2155103e-08,0.0002322318,-5.5344183e-09,4.090447e-06,0.0061160233,4.6945165e-06,-0.032605477,1.627741e-08,-0.0676542
3.869396e-08,-3.2177542e-07,9.549377e-06,0.0007131774,5.7055262e-05,-0.0013034475,-0.00014365185,-3.9885844e-08,0.0003816589,-1.34235965e-08,5.3861213e-06,0.005573013,4.4749336e-06,-0.044599894,1.9130038e-08,-0.06288684
3.534497e-08,-4.4442098e-07,1.1581181e-05,0.0008035672,6.661488e-05,-0.0013648019,-0.0001588837,-4.786797e-08,0.0006577676,-2.6361993e-08,6.261415e-06,0.004264754,4.601307e-06,-0.055948205,2.2062961e-08,-0.06543557
2.8382587e-08,-3.380898e-07,9.3961835e-06,0.0008206565,6.066352e-05,-0.0013446318,-0.0001316857,-3.9230766e-08,0.0006480618,-1.6800895e-08,5.0919534e-06,0.003570928,2.9470277e-06,-0.06276043,1.8482952e-08,-0.068598196
2.6691323e-08,-2.2069925e-07,6.6654893e-06,0.0008102507,5.031703e-05,-0.0010160494,-0.00010635256,-3.211924e-08,0.00048757627,-8.689189e-09,3.9797933e-06,0.0032077325,2.4913738e-06,-0.056914516,1.57354e-08,-0.07548062
2.511312e-08,-1.4156836e-07,5.16594e-06,0.00070077623,4.1184085e-05,-0.0010456041,-8.748934e-05,-2.3661658e-08,0.00025700545,-3.4151144e-09,3.1658753e-06,0.004264722,1.984616e-06,-0.045941744,1.2290822e-08,-0.07091383
3.0813826e-08,-1.5329363e-07,5.22601e-06,0.0007280885,4.1060888e-05,-0.0008197035,-9.386835e-05,-2.75621e-08,0.00025656327,-4.3792174e-09,3.4010607e-06,0.003989495,2.8541567e-06,-0.04164912,1.4097493e-08,-0.07608645
2.8417617e-08,-1.4309356e-07,5.20853e-06,0.0006766139,3.982553e-05,-0.0010257153,-9.170145e-05,-2.4207095e-08,0.00021197041,-3.3891978e-09,3.2201956e-06,0.0048301914,2.2741058e-06,-0.04187114,1.2617377e-08,-0.06953958
3.7877047e-08,-2.340401e-07,7.5227877e-06,0.00070173136,5.0259765e-05,-0.0010546098,-0.000122027515,-3.477234e-08,0.00030820505,-8.1362845e-09,4.545888e-06,0.005240764,4.1616045e-06,-0.040055856,1.7152802e-08,-0.067170925
3.2480134e-08,-2.5420968e-07,7.3884667e-06,0.00078432163,5.1910756e-05,-0.0010156522,-0.00012030472,-3.579976e-08,0.0004455848,-1.0680922e-08,4.4317685e-06,0.0037916598,3.3214976e-06,-0.051165577,1.7384625e-08,-0.07288367
3.0677636e-08,-2.0150783e-07,6.274605e-06,0.0007497664,4.779787e-05,-0.0009934854,-0.000108079024,-3.0625653e-08,0.0003666968,-6.883058e-09,3.830823e-06,0.0039997413,2.7618785e-06,-0.048814908,1.5282316e-08,-0.07286179
3.4316834e-08,-1.9905234e-07,6.6861644e-06,0.0006913674,4.9246028e-05,-0.0010686459,-0.00011114585,-3.065676e-08,0.00031155397,-6.0410237e-09,4.049685e-06,0.0051186313,3.3154852e-06,-0.04132103,1.539504e-08,-0.06755192
3.368074e-08,-2.4012087e-07,7.5377566e-06,0.00073408993,5.073758e-05,-0.0010944628,-0.0001184454,-3.4301515e-08,0.0003619436,-8.721722e-09,4.4778785e-06,0.00455264,3.52136e-06,-0.045516115,1.682508e-08,-0.068577886
2.9917974e-08,-2.3529647e-07,7.103707e-06,0.0007744806,4.929258e-05,-0.0010736057,-0.00011374794,-3.318244e-08,0.00040417648,-8.9928e-09,4.2055135e-06,0.0038139287,2.8646089e-06,-0.052217435,1.6257008e-08,-0.07186756
3.0347167e-08,-1.9295038e-07,6.0020966e-06,0.000763346,4.7050857e-05,-0.0009187292,-0.000104857274,-3.0525243e-08,0.00037436944,-6.67553e-09,3.7411394e-06,0.003726912,2.7761014e-06,-0.04872965,1.5249231e-08,-0.07529368
3.1378082e-08,-1.6223045e-07,5.707004e-06,0.000682713,4.4561242e-05,-0.0010126838,-9.929597e-05,-2.6839578e-08,0.00026502443,-4.270547e-09,3.5281216e-06,0.0049272887,2.7314097e-06,-0.041103784,1.3777958e-08,-0.06927681
3.5224083e-08,-1.9870751e-07,6.318846e-06,0.000733092,4.692233e-05,-0.00088261283,-0.00010999618,-3.2406266e-08,0.00031822463,-6.784683e-09,4.001321e-06,0.0043144044,3.6212575e-06,-0.041845825,1.616833e-08,-0.0733799
3.077338e-08,-1.7831103e-07,5.7830543e-06,0.000727523,4.4513254e-05,-0.0009574868,-0.000102683065,-2.859464e-08,0.00030156533,-5.458538e-09,3.589791e-06,0.004212159,2.6831178e-06,-0.04569612,1.4481417e-08,-0.07281848
3.622195e-08,-1.8642457e-07,5.855168e-06,0.0007305326,4.6875342e-05,-0.0008201508,-0.00010886892,-3.1592897e-08,0.000323042,-6.271002e-09,3.778687e-06,0.0042781085,3.5724534e-06,-0.04122842,1.5883092e-08,-0.07520053
3.4882188e-08,-1.7780707e-07,6.1119085e-06,0.00067218236,4.674644e-05,-0.001026437,-0.00010735258,-2.8713064e-08,0.00026930994,-4.936418e-09,3.7565953e-06,0.0053815413,3.180666e-06,-0.03928463,1.4635236e-08,-0.06779634
3.9070137e-08,-2.5669522e-07,7.713813e-06,0.000733991,5.298527e-05,-0.0009762831,-0.00012787522,-3.7674667e-08,0.00037429345,-1.0318608e-08,4.722324e-06,0.004732254,4.5229e-06,-0.04195168,1.8356891e-08,-0.07000055
3.194348e-08,-2.1460814e-07,6.2143445e-06,0.000795943,4.896735e-05,-0.0008632663,-0.0001117153,-3.329103e-08,0.00043175215,-8.653633e-09,3.90667e-06,0.0034261115,3.0259846e-06,-0.05107425,1.6410564e-08,-0.077954404
3.2630787e-08,-1.3765364e-07,4.421916e-06,0.0007389857,4.210803e-05,-0.0006790381,-9.3186325e-05,-2.669568e-08,0.0003001745,-4.0598525e-09,3.000445e-06,0.0036925487,2.7619835e-06,-0.041968126,1.3824429e-08,-0.08191
3.7732843e-08,-1.0711726e-07,3.9958027e-06,0.0006407457,3.9369857e-05,-0.00066575647,-8.800234e-05,-2.3638508e-08,0.00019030465,-2.328046e-09,2.7316505e-06,0.005272023,3.2333312e-06,-0.030744588,1.2684225e-08,-0.07630595
4.5370985e-08,-1.6512318e-07,6.0987204e-06,0.0006090509,4.6081645e-05,-0.00092489464,-0.00011370545,-2.9886294e-08,0.00018911032,-4.213524e-09,3.848085e-06,0.007266973,4.782238e-06,-0.028832318,1.5408522e-08,-0.06509732
4.4205073e-08,-3.3649948e-07,9.058431e-06,0.0007610783,5.913923e-05,-0.0009480074,-0.00015107536,-4.568841e-08,0.00045391018,-1.7646688e-08,5.5203427e-06,0.0047192206,6.0769257e-06,-0.042411294,2.1680362e-08,-0.07049007
3.4888117e-08,-3.001461e-07,8.307695e-06,0.0007714036,5.774761e-05,-0.0011481822,-0.00013538175,-3.8307434e-08,0.00050057453,-1.362067e-08,4.802886e-06,0.0042471224,3.5390515e-06,-0.052642293,1.8397746e-08,-0.0693935
3.7689354e-08,-3.6278715e-07,1.1474356e-05,0.0006717498,6.5446846e-05,-0.0017316504,-0.00015211034,-4.0244903e-08,0.00043209855,-1.419184e-08,6.0071648e-06,0.0068492857,4.4692824e-06,-0.04432672,1.9160286e-08,-0.055636242
3.0898434e-08,-5.9396643e-07,1.5659532e-05,0.0008153309,7.399742e-05,-0.0018349813,-0.00017022798,-5.3301502e-08,0.0007982759,-3.9378303e-08,7.5468674e-06,0.004382974,4.7767185e-06,-0.061210558,2.3878616e-08,-0.05937541
2.001685e-08,-4.6036456e-07,1.2702335e-05,0.0008813662,6.299827e-05,-0.0020527514,-0.00013542076,-4.145257e-08,0.00081691577,-2.6636458e-08,5.7175844e-06,0.003079371,2.1473509e-06,-0.08382953,1.8851324e-08,-0.06305207
2.0404716e-08,-3.4566335e-07,1.0184344e-05,0.000859614,5.8425278e-05,-0.0016737807,-0.000118958786,-3.676723e-08,0.0006979313,-1.6824016e-08,4.980793e-06,0.0030186523,2.0895156e-06,-0.07520846,1.7172686e-08,-0.066649534
1.8339488e-08,-3.0495968e-07,1.1861164e-05,0.00066936255,5.460956e-05,-0.0031084763,-0.00011220297,-2.8259608e-08,0.0003397851,-8.011929e-09,4.9858004e-06,0.0059907553,1.6627762e-06,-0.061582606,1.37287115e-08,-0.04864405
1.7740287e-08,-6.486047e-07,1.9004456e-05,0.00086375896,6.4198306e-05,-0.0028226648,-0.0001425225,-4.8210808e-08,0.00073183863,-3.932023e-08,7.27986e-06,0.0035164244,2.7989395e-06,-0.0794149,2.1278606e-08,-0.054424636
9.711544e-09,-4.436127e-07,1.3510833e-05,0.0009908959,5.578295e-05,-0.0026729882,-0.00010966316,-3.687826e-08,0.0008772827,-2.7220159e-08,5.0154763e-06,0.0020051547,1.1375308e-06,-0.114455365,1.6536443e-08,-0.06371618
1.2446365e-08,-3.1223252e-07,1.0073008e-05,0.0009025669,5.2718657e-05,-0.00208481,-9.999862e-05,-3.139207e-08,0.00062808674,-1.395695e-08,4.359008e-06,0.0024240592,1.2230932e-06,-0.09275851,1.4707355e-08,-0.065752134
1.1486516e-08,-1.2748208e-07,4.7413987e-06,0.0008925323,3.6736827e-05,-0.0010337208,-6.572475e-05,-2.1340288e-08,0.00035428818,-3.8528216e-09,2.6893908e-06,0.0018688138,9.576808e-07,-0.07513699,1.0846449e-08,-0.083426595
9.6400345e-09,-4.783727e-08,2.4511862e-06,0.0006705578,2.185113e-05,-0.00096889335,-4.2753247e-05,-1.0672714e-08,5.4036424e-05,-5.695856e-10,1.5688785e-06,0.0031607382,5.585823e-07,-0.04949411,6.247819e-09,-0.07734754
2.2610056e-08,-8.334158e-08,4.1672874e-06,0.00058351806,2.8879804e-05,-0.0011378488,-6.710686e-05,-1.6825354e-08,5.8251e-05,-1.1264416e-09,2.5912425e-06,0.0061561437,1.6872336e-06,-0.03268922,9.330113e-09,-0.06362275
2.7401056e-08,-2.2743995e-07,8.05445e-06,0.0007038196,4.2754302e-05,-0.0014402325,-0.00010750672,-3.0324095e-08,0.00021677912,-6.6900103e-09,4.4179483e-06,0.004997972,2.7212698e-06,-0.046677146,1.500342e-08,-0.062258545
2.5345296e-08,-3.832073e-07,1.0897001e-05,0.00081719056,5.5160443e-05,-0.0016865567,-0.00013339365,-3.9462137e-08,0.00052092,-1.8640653e-08,5.4372927e-06,0.0037546062,2.682982e-06,-0.06649442,1.8408643e-08,-0.06375372
2.4802437e-08,-3.320645e-07,9.204454e-06,0.0008690824,5.792763e-05,-0.0013116755,-0.0001240172,-3.8857536e-08,0.0006993087,-1.7560096e-08,4.934053e-06,0.0029464369,2.5802879e-06,-0.06925244,1.8208004e-08,-0.07161384
2.1644906e-08,-1.7164086e-07,5.6637023e-06,0.0007933533,4.5118708e-05,-0.001053593,-9.0571324e-05,-2.6371632e-08,0.00040752493,-5.4525073e-09,3.366691e-06,0.0030908633,1.7653499e-06,-0.058888264,1.3268472e-08,-0.07565283
2.419782e-08,-1.1488178e-07,4.317951e-06,0.00070860685,3.684171e-05,-0.00086168863,-7.813366e-05,-2.1813538e-08,0.00021513582,-2.5702664e-09,2.8010647e-06,0.0038398483,1.8926903e-06,-0.04362462,1.15277485e-08,-0.07605908
2.7143622e-08,-1.0380489e-07,3.961909e-06,0.0006857887,3.42998e-05,-0.00076043827,-7.7286924e-05,-2.1425683e-08,0.00016896665,-2.184304e-09,2.6676973e-06,0.0041507324,2.145096e-06,-0.03834096,1.1467218e-08,-0.07732014
3.245539e-08,-1.2666214e-07,4.7392746e-06,0.000653744,3.7823236e-05,-0.00087121315,-9.0083886e-05,-2.3973897e-08,0.00017154572,-2.8233311e-09,3.0684275e-06,0.0052115005,2.7149188e-06,-0.03566057,1.265566e-08,-0.07125706
3.988935e-08,-1.9990482e-07,6.296648e-06,0.00071140274,4.7355225e-05,-0.000836363,-0.00011569709,-3.3450757e-08,0.00029168333,-6.852991e-09,4.0411483e-06,0.004801516,4.2509478e-06,-0.038034886,1.6735786e-08,-0.07288792
3.647643e-08,-2.0820707e-07,6.359742e-06,0.0007287883,4.903333e-05,-0.00091089366,-0.00011588536,-3.270251e-08,0.00034243288,-7.3391524e-09,3.9771526e-06,0.004481554,3.538569e-06,-0.043198485,1.6309327e-08,-0.0727316
3.896919e-08,-2.0977603e-07,6.338027e-06,0.0007315272,5.0467803e-05,-0.0008373741,-0.00011799207,-3.410646e-08,0.0003603989,-7.713992e-09,4.0481023e-06,0.004461798,4.033247e-06,-0.04111477,1.6965126e-08,-0.07419587
3.7427302e-08,-2.0191246e-07,6.60768e-06,0.00068444153,5.018701e-05,-0.0010140317,-0.000115934716,-3.152615e-08,0.00030998458,-6.311408e-09,4.0506234e-06,0.0053537865,3.6480685e-06,-0.039625462,1.5843371e-08,-0.068034776
3.922156e-08,-2.656177e-07,7.890023e-06,0.00073557347,5.452026e-05,-0.000996972,-0.00013042353,-3.822559e-08,0.00039620188,-1.092601e-08,4.7970425e-06,0.0047539934,4.5405327e-06,-0.042624045,1.8570942e-08,-0.06960903
3.312562e-08,-2.7731107e-07,8.538109e-06,0.00072246115,5.4885626e-05,-0.0013338466,-0.00012801777,-3.5172725e-08,0.00039982458,-1.0341832e-08,4.788432e-06,0.00500152,3.3207918e-06,-0.0488041,1.7094424e-08,-0.064159825
3.394913e-08,-3.440528e-07,9.65734e-06,0.0007873991,5.962504e-05,-0.0012224892,-0.00013859692,-4.1924054e-08,0.00054395956,-1.6979863e-08,5.4427237e-06,0.004144683,4.053379e-06,-0.052551515,1.9775737e-08,-0.06771523
2.6605639e-08,-2.4571088e-07,7.299682e-06,0.000807142,5.1711304e-05,-0.0011382205,-0.000112135756,-3.3181063e-08,0.0004986803,-1.0010472e-08,4.2049205e-06,0.0033700461,2.4756384e-06,-0.059080746,1.6121746e-08,-0.07269498
2.753833e-08,-1.7549831e-07,5.726022e-06,0.0007541132,4.5006404e-05,-0.00096108904,-9.775316e-05,-2.8101555e-08,0.0003446721,-5.4865934e-09,3.5375153e-06,0.0037102327,2.3939078e-06,-0.049445927,1.41807925e-08,-0.07449424
2.9006047e-08,-1.387664e-07,4.898212e-06,0.0007082044,4.0910425e-05,-0.00086040195,-8.9594796e-05,-2.5152842e-08,0.00025373657,-3.5633259e-09,3.1626987e-06,0.004162395,2.4548315e-06,-0.041981917,1.304877e-08,-0.07481068
3.168856e-08,-1.4767026e-07,5.3772787e-06,0.0006692631,4.0950537e-05,-0.00096730056,-9.523742e-05,-2.570992e-08,0.00021027743,-3.6042083e-09,3.3793178e-06,0.005091008,2.7522499e-06,-0.038490467,1.3335031e-08,-0.0695506
3.625269e-08,-2.575188e-07,8.787571e-06,0.0006610478,5.1946266e-05,-0.0014193937,-0.00012743463,-3.4028755e-08,0.0002792965,-8.153073e-09,4.9206533e-06,0.0064337747,3.863906e-06,-0.040378064,1.6740763e-08,-0.05948514
3.292333e-08,-4.5318322e-07,1.2019942e-05,0.00081608887,6.40806e-05,-0.001426191,-0.00015438342,-4.7872845e-08,0.0006410226,-2.6941345e-08,6.3597918e-06,0.004061556,4.410684e-06,-0.057640392,2.197413e-08,-0.06501567
2.463667e-08,-3.7311642e-07,1.0708357e-05,0.00080789276,6.0268492e-05,-0.0017658772,-0.0001326802,-3.8062854e-08,0.0006207978,-1.7560163e-08,5.2942933e-06,0.003822469,2.4487942e-06,-0.06867248,1.781882e-08,-0.06304212
2.6145502e-08,-3.4421427e-07,9.9650915e-06,0.00082350994,5.9513943e-05,-0.0014452452,-0.00012703614,-3.9085748e-08,0.00063429726,-1.6666656e-08,5.2307705e-06,0.0035092672,2.8743048e-06,-0.063317254,1.8341373e-08,-0.06700128
2.0305551e-08,-2.1416379e-07,7.062823e-06,0.00079639745,4.734668e-05,-0.0013466511,-9.723384e-05,-2.8395084e-08,0.00042958005,-7.234399e-09,3.8439853e-06,0.003266765,1.762191e-06,-0.06339389,1.398504e-08,-0.06985879
2.2480707e-08,-2.1561846e-07,8.030347e-06,0.0006891313,4.577349e-05,-0.0017776821,-0.0001012752,-2.6790332e-08,0.00026514646,-5.598354e-09,4.1386124e-06,0.005087171,1.9476004e-06,-0.052387863,1.3391739e-08,-0.058948375
2.4232737e-08,-3.502136e-07,1.09997745e-05,0.0007865147,5.4170996e-05,-0.0017459135,-0.0001232676,-3.7582513e-08,0.0004615131,-1.4777078e-08,5.4209877e-06,0.004028666,2.776676e-06,-0.060515076,1.7671148e-08,-0.061483033
1.771836e-08,-2.8215266e-07,8.488205e-06,0.0008927954,4.882511e-05,-0.0014703121,-0.00010482421,-3.3018644e-08,0.0005695659,-1.3059235e-08,4.292323e-06,0.0025177547,1.6776295e-06,-0.07888549,1.5651562e-08,-0.07187395
1.9990045e-08,-3.053965e-07,1.2187207e-05,0.0006286956,5.415983e-05,-0.0034390357,-0.00011764786,-2.7537098e-08,0.00028267538,-7.3779325e-09,5.091493e-06,0.0072831605,1.7038285e-06,-0.057721272,1.3491783e-08,-0.045566075
2.0326054e-08,-9.2263735e-07,2.5154815e-05,0.00085651263,7.871906e-05,-0.003042088,-0.00017383807,-6.058022e-08,0.0009835771,-7.145095e-08,9.395739e-06,0.004051745,4.3743908e-06,-0.0745697,2.6004761e-08,-0.051156286
8.683883e-09,-5.17857e-07,1.5258971e-05,0.0010551562,5.9760445e-05,-0.0028346027,-0.00011514203,-4.0742925e-08,0.0011540076,-3.983792e-08,5.359908e-06,0.0017187203,1.1293116e-06,-0.12711778,1.784479e-08,-0.06455565
1.1986792e-08,-3.4511265e-07,1.0851366e-05,0.00092359947,5.588046e-05,-0.002231435,-0.00010438377,-3.2862538e-08,0.0007244253,-1.695827e-08,4.5372008e-06,0.0023314515,1.1935305e-06,-0.099212065,1.52115e-08,-0.06522271
1.1807962e-08,-1.7696003e-07,6.939384e-06,0.00079755316,4.288058e-05,-0.0017623379,-7.62029e-05,-2.2565937e-08,0.00033800537,-4.6844595e-09,3.331636e-06,0.002887727,1.0305217e-06,-0.07263804,1.1295343e-08,-0.0660847
9.804034e-09,-1.06760545e-07,4.617233e-06,0.00078398973,2.8408378e-05,-0.0013497659,-5.8252e-05,-1.7032303e-08,0.00010967662,-2.1370177e-09,2.4601948e-06,0.0025893308,7.6609507e-07,-0.06617615,8.986872e-09,-0.07285203
1.2761559e-08,-1.10837334e-07,4.7842796e-06,0.0007149005,2.9648561e-05,-0.0014468227,-6.475029e-05,-1.7227332e-08,0.00010628772,-2.0223136e-09,2.6045366e-06,0.003529518,9.084044e-07,-0.05770946,9.183861e-09,-0.06754155
1.9737511e-08,-1.3650249e-07,4.794204e-06,0.0008072252,3.5040484e-05,-0.0008748945,-7.728593e-05,-2.4021645e-08,0.00024057303,-3.870668e-09,3.0002366e-06,0.0027151818,1.6774903e-06,-0.05478702,1.2294462e-08,-0.08082393
1.8080149e-08,-9.006667e-08,3.771255e-06,0.00067167956,3.1013184e-05,-0.0010410928,-6.652177e-05,-1.68318e-08,0.00013995821,-1.5446605e-09,2.3483663e-06,0.0040728212,1.1743072e-06,-0.046290345,9.2265315e-09,-0.07211901
3.4085268e-08,-1.5424132e-07,5.6321014e-06,0.0006742764,4.0974435e-05,-0.0009055771,-9.738149e-05,-2.7620608e-08,0.00019727512,-3.9664223e-09,3.5995658e-06,0.0050906506,3.3225433e-06,-0.036000896,1.4195812e-08,-0.0702716
2.9143258e-08,-1.6438752e-07,5.309922e-06,0.00075668277,4.1421445e-05,-0.0008451708,-9.612489e-05,-2.8036453e-08,0.00029039933,-5.122195e-09,3.4020948e-06,0.0036293555,2.566167e-06,-0.0467033,1.4232745e-08,-0.07735913
3.247351e-08,-1.7797004e-07,6.3576967e-06,0.0006529557,4.463463e-05,-0.0012041263,-0.00010603784,-2.715911e-08,0.0002289216,-4.533733e-09,3.7592356e-06,0.005844032,2.7833646e-06,-0.040309973,1.3909984e-08,-0.064011306
4.0160785e-08,-3.3843546e-07,9.882085e-06,0.00073757936,6.056376e-05,-0.0011534409,-0.00014551035,-4.3634838e-08,0.00045426993,-1.5893441e-08,5.738386e-06,0.0051153176,5.4674506e-06,-0.042975403,2.0693845e-08,-0.06551348
2.8078079e-08,-3.1271352e-07,9.01619e-06,0.0007949296,5.5579494e-05,-0.0013820847,-0.00012713851,-3.6828315e-08,0.0005166163,-1.3866404e-08,4.8833617e-06,0.0038465827,2.7868068e-06,-0.06015768,1.7546862e-08,-0.067172594
2.9428497e-08,-3.1501972e-07,9.439768e-06,0.00076402194,5.6965273e-05,-0.0014518767,-0.0001288461,-3.6987316e-08,0.0004894008,-1.3148169e-08,5.0750236e-06,0.004347099,3.0597073e-06,-0.05568142,1.7654452e-08,-0.06435267
2.6901386e-08,-2.826257e-07,8.490821e-06,0.0008013066,5.4795848e-05,-0.0012762606,-0.000117881194,-3.563565e-08,0.0005273927,-1.19889485e-08,4.6992263e-06,0.0035919796,2.7706628e-06,-0.058407206,1.7073475e-08,-0.06909329
2.324878e-08,-2.4049757e-07,8.307011e-06,0.0007191534,4.8917926e-05,-0.0017068328,-0.00010763093,-2.8938084e-08,0.00034067183,-7.2084743e-09,4.2984075e-06,0.004662637,2.0362943e-06,-0.056142777,1.4269378e-08,-0.060909107
2.6474439e-08,-3.528307e-07,1.0813175e-05,0.0007819544,5.631762e-05,-0.0016411523,-0.00012792785,-3.8635594e-08,0.0004899841,-1.537268e-08,5.4859465e-06,0.0041482816,3.0429776e-06,-0.058494236,1.8170445e-08,-0.062267467
1.9682211e-08,-3.0756283e-07,9.50551e-06,0.0008289733,5.21021e-05,-0.0017170213,-0.00011220812,-3.352095e-08,0.00052748405,-1.2864682e-08,4.6607784e-06,0.0032523107,1.895514e-06,-0.072008416,1.5904758e-08,-0.06535341
2.0297406e-08,-2.3795776e-07,7.3444444e-06,0.0008547435,4.779311e-05,-0.0012387772,-0.00010076742,-3.1307728e-08,0.00049965695,-9.738835e-09,4.0216128e-06,0.0027391156,1.8780505e-06,-0.068429425,1.5139827e-08,-0.0738445
1.9448674e-08,-1.5849467e-07,6.1166725e-06,0.0006977109,4.1643714e-05,-0.0014963527,-8.570285e-05,-2.247647e-08,0.00025391864,-3.6068823e-09,3.3435526e-06,0.004374316,1.4869822e-06,-0.05355245,1.1576223e-08,-0.064090654
2.5730387e-08,-2.4456492e-07,8.677138e-06,0.0007146787,4.7227335e-05,-0.0015610993,-0.00010836836,-3.1058427e-08,0.0002854043,-7.479085e-09,4.6003593e-06,0.004818781,2.6281043e-06,-0.0496234,1.5220747e-08,-0.06120437
2.0400865e-08,-3.0684132e-07,9.78386e-06,0.00079934264,4.947335e-05,-0.0018026298,-0.00011255922,-3.3148673e-08,0.0004239161,-1.1878924e-08,4.758026e-06,0.00364222,2.003983e-06,-0.067281745,1.579362e-08,-0.062835984
2.0416257e-08,-2.8417472e-07,8.331331e-06,0.0008865289,5.015846e-05,-0.001316359,-0.00010879924,-3.4633977e-08,0.00058035814,-1.3589434e-08,4.4094913e-06,0.002603181,1.9999145e-06,-0.07335019,1.6415688e-08,-0.07334224
1.914562e-08,-1.7076013e-07,6.137932e-06,0.0007430441,4.3547825e-05,-0.0013875735,-8.806392e-05,-2.3966164e-08,0.00032454578,-4.5225192e-09,3.3840531e-06,0.0037154653,1.4816203e-06,-0.058907367,1.2174626e-08,-0.06780321
2.555695e-08,-2.2711781e-07,8.795148e-06,0.00065834465,4.7651865e-05,-0.0018403807,-0.000106786676,-2.8359077e-08,0.00024341044,-5.7808607e-09,4.523933e-06,0.0059822057,2.4369217e-06,-0.04627128,1.4114746e-08,-0.05604143
2.2020174e-08,-4.112859e-07,1.2740014e-05,0.00079978624,5.5070475e-05,-0.0020894557,-0.00012836015,-3.922226e-08,0.00048424388,-1.8486011e-08,5.8130627e-06,0.0039980435,2.6033883e-06,-0.066344626,1.8163963e-08,-0.058590032
1.625821e-08,-1.0890318e-06,4.214613e-05,0.00058698194,8.371461e-05,-0.01240773,-0.0002004495,-4.3259984e-08,0.00041795883,-3.75444e-08,1.0388082e-05,0.012472202,2.2052454e-06,-0.07449747,1.8981988e-08,-0.027219882
-1.1751468e-08,-6.4681144e-06,0.00013671035,0.0009508494,0.00015128299,-0.0139264325,-0.00024609896,-1.1453912e-07,0.003728261,-1.2469294e-06,2.2513072e-05,0.0037412678,5.6205195e-06,-0.12412565,4.367054e-08,-0.030077774
-6.381092e-09,-4.2319352e-06,0.00010531296,0.0011650654,0.00013358661,-0.018871926,-0.00014976578,-8.016758e-08,0.0042488957,-7.621059e-07,1.25969145e-05,0.0014236814,1.0729002e-06,-0.19775262,2.9428309e-08,-0.033513576
-5.277377e-09,-2.6373555e-06,7.2352974e-05,0.0013529249,0.00013139354,-0.010719435,-0.00012768026,-8.017237e-08,0.00501324,-7.155117e-07,1.0738233e-05,0.00067628414,1.0996756e-06,-0.201485,2.987244e-08,-0.04472136
-1.1059594e-09,-1.6654273e-07,1.2421566e-05,0.0016191457,6.153382e-05,-0.0023689005,-6.0816907e-05,-3.5698733e-08,0.00042055675,-4.6843372e-08,3.344675e-06,0.00026566905,3.6845265e-07,-0.19745648,1.4838255e-08,-0.086631484
